1141 128
665 0.009639575 -0.0417958 0.07513938 -0.031497188 0.013564127 -0.016940542 0.06897005 0.039780073 0.030280616 0.066106595 0.06623148 -0.014804073 -0.01618123 -0.011571806 0.009393701 0.065359324 -0.05479436 -0.025025763 -0.009456997 -0.026696745 0.029760383 0.003025463 -0.01544179 0.06027618 0.027874233 -0.023048298 0.05410096 0.026211662 -0.0012010343 0.053131655 -0.019048795 0.048135076 0.046879534 0.020139446 0.010708579 0.08604186 0.032564253 0.014618698 0.018080153 0.041742746 -0.014209109 -0.047239497 -0.078853026 -0.013326506 0.032606963 0.012356904 -0.0063472223 -0.045384247 -0.02650106 0.016793191 -0.021427343 -0.014582056 -0.019733688 0.019400608 0.040428534 0.016070053 0.025626216 -0.05224211 0.03601563 -0.005369819 0.02421182 -0.043717932 -0.011860135 0.06351008 0.030690951 0.0070396876 -0.09296415 -0.07258385 -0.06412767 0.05943903 -0.08784533 0.018615415 -0.029956449 0.008794135 -0.020823967 -0.07193456 -0.024749894 0.044170655 -0.0011999704 0.011657652 0.009131143 -0.002771197 -0.08081305 0.019307997 -0.03081283 -0.06851802 0.020679578 0.042378057 0.051818173 -0.063139156 -0.0366601 -0.009375607 0.019578563 -0.040706586 0.0032883256 -0.07979351 0.018397028 0.053496074 -0.0029791575 -0.0765564 0.04473399 -0.032964744 -0.0611025 -0.035446487 -0.021553904 -0.00277733 -0.07228739 0.0037180255 0.020731099 -0.07493875 -0.03606512 0.008311348 0.042448577 0.019096684 0.047724057 -0.0037058985 -0.036463536 0.045810018 -0.029117864 0.047530416 -6.691011e-05 0.049452253 -0.011555941 0.07699476 -0.027567785 -0.06133825 -0.04230572 -0.04356096
1548 0.042106207 -0.034391932 0.061623 -0.07531504 -0.09516689 0.007269163 0.010430361 0.02271363 0.066656195 -0.0014603521 0.07652018 -0.043094125 -0.05090617 0.034271237 0.061942168 0.0906457 -0.063466676 0.021743657 0.04862099 -0.059993256 0.09014335 -0.009906051 0.037963845 -0.07441531 0.016458385 -0.097044416 -0.0014600211 0.058537286 -0.09938618 0.021392062 0.07308557 0.014878329 0.04731862 0.08472162 -0.04180177 0.05053653 -0.095826454 0.03203988 0.024889674 -0.053413197 0.016867043 0.018062375 0.061481997 0.061677404 0.032159455 -0.047623012 -0.035527322 -0.024315309 -0.08430844 0.069399275 0.07175269 0.062612504 -0.079133265 -0.09720716 0.015217957 0.009129371 0.050370876 -0.081287496 0.060794737 0.0070510865 0.033895988 0.0016716874 -0.026760103 0.033679705 -0.023202144 0.0357234 -0.029976157 0.0072109057 -0.024113977 0.028116755 -0.07981912 -0.0059192465 -0.0069607156 -0.009000241 -0.015025596 -0.030400738 0.03816779 0.061665617 -0.03435744 0.024517328 -0.012135776 -0.07018078 -0.052431546 -0.0495608 0.012166062 -0.059938844 -0.008661399 0.025098037 -0.020570757 -0.027557654 -0.018923534 0.07235029 0.089026846 -0.05862373 -0.027092192 -0.0015310942 0.020382028 -0.0014634421 0.005430858 -0.08002274 0.037379775 -0.007224741 0.07551688 0.045366544 0.0057623363 -0.038430948 0.049052034 0.04277837 -0.002752238 0.002185122 0.030697156 0.032203037 -0.05344446 0.051897768 -0.06904767 0.045153465 0.007971335 -0.04226777 -0.06455758 -0.050460428 -0.06205464 0.05514266 -0.058991726 -0.009091002 -0.030669505 -0.02813938 -0.06071127 -0.016233748
415 -0.0095900195 0.06221581 0.008219081 -0.02604929 -0.011185402 -0.016619708 -0.009714912 -0.029528227 0.022424903 0.07977228 -0.058656488 0.010011789 -0.06762343 -0.023076648 0.06899251 0.0131517155 -0.008261066 -0.017058315 0.07104121 0.09977105 -0.030475467 0.025468562 -0.0033821173 0.007836839 -0.06010725 0.021699099 -0.060667764 -0.019488666 -0.06168599 -0.09196015 -0.02868012 -0.015996648 -0.014589482 -0.08891532 0.018825585 0.024453413 0.028255023 -0.045084503 -0.07635568 -0.025669552 0.046681203 0.036207836 0.088197514 -0.035325624 -0.009929828 -0.024442699 -0.006824744 0.04276032 0.019694606 0.007144958 0.019480566 0.015183394 -0.049574256 -0.03387973 0.022796355 -0.060088586 0.04622504 -0.039307687 0.0077655544 0.027919935 -0.060991604 -0.02519755 0.025449822 0.061321292 -0.018629525 0.0013710383 0.046769116 -0.06603164 0.010919046 0.0088347625 -0.010788748 -0.012988756 -0.012137935 0.03622288 0.04337696 -0.022557821 0.049610406 -0.011037226 -0.059498563 0.040893923 0.06079164 -0.078158446 0.0028560285 -0.00624925 0.025762029 0.008699541 0.06331946 -0.04262802 -0.09209408 0.059564568 -0.087154604 -0.049163733 0.005385408 0.08927035 -0.07712756 0.031895563 0.051493946 0.042243242 0.029311731 -0.0071926815 0.01974567 0.0429709 -0.040399674 -0.008076396 0.054862294 0.03217852 -0.014607076 -0.0020906103 -0.009301972 0.03601108 0.05476224 -0.011110976 -0.1056612 -0.0058026095 -0.08267087 0.034216035 0.056032766 -0.038499445 0.027150502 0.05561396 -0.052423585 0.06991795 0.019539105 0.051317804 0.068640634 -0.050556365 0.0027445785 -0.02068324
487 0.03282592 0.026810696 -0.01655788 0.012826523 -0.03509117 0.021781208 0.027365694 -0.037949886 -0.017234512 -0.040181782 0.024060896 0.026149161 0.023401482 -0.0152991805 -0.071217395 0.07073775 -0.009965705 0.012435229 0.0339834 0.0014068523 -0.028174365 0.04265897 0.036793426 -0.056944676 -0.06463915 -0.0051973877 0.012474946 0.00082175335 -0.00057618204 -0.06486165 -0.07861722 -0.029466763 0.005598301 -0.014357625 -0.07680021 -0.00023725735 0.060285624 -0.08108024 -0.008024862 0.008573859 0.042211607 0.0029088869 0.036550093 0.013629369 -0.059693664 -0.038137425 -0.024786247 0.025181975 0.033676215 0.032692883 0.05573024 0.053653233 -0.049568955 0.02272709 -0.03305064 -0.0280138 0.026961394 -0.09559587 0.001528011 0.005504723 -0.046337888 -0.0055528106 -0.018069357 0.01220604 0.04059037 -0.017765135 0.052798387 -0.08993392 -0.030800126 -0.017423738 0.01850121 -0.017193768 -0.03459835 0.036633004 0.036889598 -0.008799218 0.057001337 -0.0058531524 -0.07087856 -0.0044971025 0.0273933 -0.023407713 0.034205776 -0.007380573 -0.025929866 0.05265127 0.0043807384 -0.07405315 -0.0138883395 -0.033533398 -0.008167422 -0.019926928 0.07817315 -0.0013689876 0.006983788 -0.035903428 0.015399948 -0.065762 0.04169425 -0.047280055 -0.0040476816 -0.057341155 0.021430356 0.0076722493 0.020732628 -0.025906034 0.032098163 0.046894394 -0.06606511 -0.046555854 -0.034242053 -0.022664603 -0.029394105 -0.019123988 -0.07772632 0.047314048 -0.023163414 -0.0069745285 0.004910417 0.03836334 0.050711006 0.033329327 0.05592178 0.086357154 0.041392993 0.022129107 0.04559506 0.0019991142
772 0.06409008 -0.030519027 0.00027059155 -0.058105145 -0.006826888 0.00051655836 0.08007636 0.010769199 0.008709857 -0.015699785 0.004858773 -0.026171809 -0.011427549 -0.02749338 0.060833126 -0.0052683675 0.08047102 -0.035781633 -0.006714584 -0.024618506 -0.07299294 0.046374865 -0.0074164113 -0.03269503 0.065841384 -0.010190103 0.0012571058 -0.019253477 -0.04364891 0.017115392 0.028761154 0.010188541 -0.028759176 0.015813584 -9.486926e-05 0.026443051 0.03110246 -0.021557763 -0.025855945 0.05755775 -0.0251471 -0.042097818 -0.01461121 0.014644914 -0.04872938 -0.023149474 0.010396281 -0.05752399 0.021152781 0.03194621 0.024716293 -0.07818585 0.011059292 0.011336506 -0.024684886 -0.06616792 0.022594182 -0.022955446 -0.039450422 -0.067005865 -0.032991093 0.0010529968 0.009878086 -0.0067527387 0.015817177 -0.043520965 0.0073533985 -0.0041318405 -0.029147506 0.01845801 0.026477598 -0.0744368 0.03562341 0.026039267 -0.012291191 -0.089396544 -0.05441941 -0.00084103533 0.08281519 0.009391173 0.0043104696 -0.037415095 -0.055154633 -0.085375905 0.05240454 0.010703546 0.023752186 -0.0113792885 0.008582067 -0.0048946636 -0.06423278 0.0124705285 -0.0018133093 0.029296627 -0.064469635 -0.029643646 -0.015416694 -0.030552078 -0.022519343 -0.012075907 -0.10631009 0.016966462 -0.0033259124 0.03562449 -0.10392995 0.018772021 -0.0435389 -0.0037914482 0.023813631 0.0103762755 0.002645494 0.0809667 0.039481875 0.104765676 0.018181799 0.011583902 0.09993343 0.042016383 -0.028711192 -0.02110107 0.04927416 0.041351583 0.05510479 0.025950901 -0.0299001 -0.014120742 0.040440246 -0.071583815
134 0.022927595 -0.048412807 -0.061872818 -0.027176073 0.0364289 0.07802922 -0.052838027 -0.06359433 -0.03429214 -0.049995072 -0.064471506 -0.005438216 -0.038748804 0.061512858 0.0994037 -0.0035869367 0.029630769 -0.0045483066 0.018083539 -0.020937407 0.046723206 0.088434644 0.0391434 -0.0029687604 0.028960638 0.028415294 0.018602846 0.03856654 0.036650628 -0.023876749 -0.08726201 -0.007977984 -0.07243897 -0.034112327 -0.024290252 -0.02402728 -0.015372816 -0.10271292 0.060831558 0.052015785 0.027275631 -0.042914405 0.019561553 0.052277222 -0.026887983 0.027301798 -0.014297478 0.023281705 -0.039666656 -0.07995374 0.07304349 -0.07656757 -0.043197807 -0.059561603 -0.059333414 -0.048244312 0.031961422 0.094980694 -0.004395244 -0.015574209 -0.048703995 0.066055566 -0.014228962 0.10769698 -0.057874598 -0.027877169 0.0045928215 0.018525554 -0.042529743 0.056286838 -0.038680036 0.0071750423 -0.054355755 0.028680956 -0.06482326 -0.083419986 0.03513353 0.011353278 0.026303425 0.07389033 -0.016162202 -0.04553969 0.07238136 -0.025772795 0.03035526 0.011649935 -0.0017387366 0.010466348 -0.017197287 -0.035222027 -0.05125678 -0.03227777 0.0023705815 0.02404178 0.028923161 -0.009155689 -0.010650319 -0.08231347 0.0077262577 -0.009515485 -0.0679336 -0.069891445 -0.003184163 -0.009376338 -0.05702285 0.035455868 -0.05144804 -0.04513563 -0.026279025 -0.0058894292 -0.011913322 0.0417891 0.076510936 0.04699677 0.037675608 0.029566279 -0.02254875 0.0158167 -0.03708795 -0.01629061 0.029161667 0.06681032 0.01220581 -0.045317497 0.02139505 -0.0027246072 -0.04092272 -0.066950016
0 0.00032916648 -0.04711499 -0.027738994 -0.049008187 0.06915523 -0.00039259926 -0.08993846 0.084582485 0.09001502 0.07304671 -0.09479682 -0.036772262 -0.050021414 0.0551023 0.0797885 0.012541223 -0.024697235 -0.052737832 -0.044114806 -0.021422895 0.026103204 0.010161078 0.034359302 0.0019396379 0.060468473 0.07273252 -0.0083168065 -0.03776109 -0.024430128 -0.046943482 0.06809964 0.0010642892 -0.014014984 -0.0266151 -0.005561876 0.07068194 -0.0041887076 -0.0051079583 -0.053272348 -0.004029253 -0.0713941 0.030784402 -0.01616249 0.016154123 0.0042457078 0.06032583 -0.020729005 -0.033197857 0.008694339 0.093862645 0.035649925 -0.004856578 -0.047894046 0.0040842374 -0.005354574 0.077320985 0.007986689 -0.014613359 -0.028707575 0.050492946 -0.0028790429 0.041815657 0.038013503 0.025072644 0.027307922 0.007992521 0.0064711375 0.00072401314 -0.052974775 0.012681707 0.08059592 -0.06992204 0.039028004 0.00046584173 0.02681477 0.009556697 0.0018923494 0.04709195 -0.017571472 -0.048947785 -0.016154343 0.040776215 -0.04575783 0.034446787 0.045472912 0.05926961 0.024177454 -0.061080616 -0.06691108 0.034524836 0.062441327 -0.018123006 0.018881105 0.0006896553 -0.052687544 0.075999334 -0.045780733 0.03470516 0.027302627 -0.023565138 -0.0552102 -0.011733449 -0.05845202 0.032580197 -0.016213626 -0.06432743 -0.0034083447 -0.060968507 -0.0061927834 0.04603964 -0.07810881 -0.021792218 -0.024283575 0.004229879 -0.06824458 -0.03560048 0.03144711 0.004725009 -0.047249954 -0.04011826 -0.022786422 0.023781246 0.0059864293 -0.040057845 -0.0071391556 0.009549082 -0.003736378 -0.022682223
13 0.038499944 -0.07089444 0.008201257 -0.026295772 -0.003293934 0.038998768 -0.007124652 0.0309989 0.033827737 0.03210632 -0.005524905 0.029310333 0.07501257 0.015960237 -5.7828132e-05 -0.017510915 0.011076016 0.01585098 -0.054041006 -0.02940544 -0.010212882 -0.047807958 0.04462627 -0.069944516 -0.059249748 -0.0075563816 -0.011816388 0.01775936 -0.00758826 0.08649372 -0.01671491 -0.036797363 0.02042276 -0.0055623157 -0.0013850422 0.02489953 0.021009019 -0.022570489 0.0036612025 -0.00085009204 0.043397147 0.027016243 -0.00926315 0.045208156 0.09032639 -0.010016756 -0.05844095 0.0036158925 -0.059245516 0.050161008 -0.02978736 -0.07142057 0.025285421 0.025770636 -0.017814608 0.063230306 0.040638573 0.02593337 0.039243605 -0.052897625 0.05415606 -0.047886375 0.061997183 -0.007885838 -0.023262205 -0.005997829 -0.01600736 0.010161983 0.040243562 0.070309676 0.038901977 -0.0019761277 0.067224115 0.03154201 0.016115813 -0.049079582 0.034569424 0.03593324 0.01805483 0.001642931 -0.0006193347 -0.00953871 -0.05878642 -0.023314737 0.026917461 0.05368491 0.02967135 -0.05756111 0.038591802 -0.07375493 0.017263182 0.008121044 0.023054706 0.058596287 -0.031691622 0.012381768 -0.007876747 -0.008156248 -0.056483854 -0.06520556 -0.017012477 0.036320128 0.031260964 0.04521532 0.045511242 0.024038805 0.022043854 0.019872127 0.009868082 -0.063746765 -0.014480173 0.02432914 -0.045410767 0.047741383 0.055077896 -0.06287685 -0.022901475 0.017230775 0.06255462 -0.055182137 0.014764904 0.028409565 0.040116724 -0.016230423 0.006481183 0.00287161 -0.047696076 -0.02957486
479 -0.002523833 -0.017292308 -0.0012793303 0.09507592 -0.0043108026 -0.07693704 -0.03001531 -0.018636873 -0.008747018 -0.032655835 0.039653167 0.0053396607 0.013166289 -0.019672291 0.046784777 0.02795847 -0.02445642 -0.0548022 -0.0065134545 -0.039710514 0.08504054 -0.0030631928 0.08459104 -0.07973985 0.08847835 -0.048879683 -0.015186887 -0.0042568347 0.047068838 -0.035456434 -0.068637945 0.0924131 -0.029077776 0.04374692 -0.04468087 0.06620783 -0.030499501 0.06096183 -0.080235735 -0.030949965 0.01118243 0.08570669 -0.029348955 0.053474355 0.07034227 -0.032724295 -0.010462017 0.046727825 -0.062672265 0.008092541 0.022806857 0.022878597 0.053917646 -0.03885481 -0.0638584 0.030620761 -0.04538177 -0.0013020793 0.037705664 0.0051475572 0.0057017184 -0.016316345 0.01871629 0.024268663 -0.038507767 -0.022328276 -0.017786507 -0.06310918 0.041824546 -0.008754159 0.0067008473 -0.018990409 0.06163177 -0.07678664 -0.01891105 -0.0012947081 0.018007332 0.076905645 0.030791989 -0.011001536 0.003325041 0.07273479 0.022252508 0.05006546 0.017479803 0.00785693 -0.018189617 -0.027997525 -0.012749233 -0.09033983 -0.003997691 -0.05152903 0.011355517 -0.030566033 0.027910821 0.006225209 0.032053985 0.050150726 0.032943167 0.019776052 0.01881015 0.022363875 -0.046026047 -0.06560507 0.05674287 -0.08719794 0.0012444695 -0.027663603 0.053597685 0.05682954 -0.051675193 0.045499362 -0.01228005 -0.08054801 0.060198307 -0.056881808 -0.013346336 -0.0044245506 -0.09775021 0.04498819 -0.02813923 -0.0032005208 0.02981222 0.0367835 -0.047675125 0.020621698 -0.05334904 0.007580948
715 0.059329458 -0.041320637 -0.03502973 -0.054811332 0.02561929 -0.02949311 -0.010653758 -0.047588546 0.029235927 -0.007953173 0.035144873 -0.0034044252 -0.03236628 0.009782412 0.024163587 -0.031482823 -0.003553378 -0.0702559 0.041738585 -0.044940703 0.01746554 -0.07819485 0.04503464 -0.011901605 -0.028271055 -0.072692096 -0.02286177 -0.05072627 0.0068180207 0.04179848 0.014617456 0.070702955 0.008496652 0.07781757 -0.008932867 0.011912702 -0.062968135 0.027096042 -0.019664405 -0.004825689 0.03830546 -0.0035486652 -0.02558769 -0.007777508 -0.023450611 -0.035822958 0.07520624 -0.06143914 0.003149707 0.035123825 -0.040052995 0.024011627 -0.07472284 -0.0401999 -0.051395636 -0.051382788 -0.037862316 0.03747569 0.018645432 -0.041505214 0.008855598 -0.07730637 -0.029073624 0.015297743 -0.031119859 -0.03340237 0.07167917 0.071515 0.07757522 -0.094010696 -0.049098525 0.016326005 0.053786498 0.07655948 -0.037856776 -0.10590679 0.00028206228 0.033939693 -0.016669318 -0.0074232854 0.04253243 -0.035674017 0.05613883 0.030441737 0.042499363 0.038110856 0.073992334 0.005674426 -0.030337378 -0.025947833 0.009045316 -0.09090278 -0.0036874926 0.07478691 0.08718488 0.020948565 0.078160085 0.016966179 0.0132108675 0.0067770705 0.02757307 0.0039473344 -0.049243923 -0.06329621 0.04944247 0.011539998 -0.07769685 -0.093405984 -0.06476491 0.025256155 0.05207321 0.026845627 -0.044686906 0.039267574 0.016662627 -0.00084448815 -0.03579783 0.09085014 -0.039401993 0.0030531625 0.032709308 -0.02296857 0.012854895 0.010961354 0.035952568 0.055256397 -0.008369702 0.088042066
861 -0.052916534 0.03694127 -0.09078588 0.038274527 -0.019463718 -0.01043085 -0.0013778196 -0.030343028 0.028886128 0.03470552 -0.013407357 -0.048406452 -0.0010665398 0.083036095 0.06797196 -0.012513487 0.013728365 -0.06943935 0.016346283 -0.013114939 0.013231865 0.08208455 0.07850427 0.020242302 -0.0028999539 -0.006309879 0.038087945 0.010529317 0.028363517 -0.031163013 0.0044710683 0.07413739 0.030427905 -0.041459017 -0.061797723 -0.09127283 0.058405608 -0.0074690357 -0.02773748 0.08844065 -0.08205696 0.0059003085 -0.028918695 0.042971313 0.004274291 -0.044315968 -0.062919684 -0.0067453864 0.014944548 0.010162606 -0.030793812 0.017315742 -0.020849265 0.05916583 -0.009736693 -0.08381941 0.03397268 0.032981474 0.015802002 0.0015145923 0.013677673 -0.015693083 0.042788386 0.053867564 0.050339933 0.08645221 0.04905417 -0.022088302 0.048337203 -0.057015102 -0.055836257 0.04248858 0.030827975 -0.020890083 -0.009619958 -0.0071056173 0.08712286 -0.012483689 0.08422034 -0.068534926 -0.023118567 -0.031787984 0.03458729 0.047440603 0.06515239 -0.020281242 0.031194728 0.03386822 0.0373996 -0.044275448 0.005812532 -0.08584021 -0.040633157 -0.009876076 0.013320266 0.017129013 0.013906465 -0.043442197 -0.030915253 -0.009806522 -0.048841268 0.0021670912 -0.028809074 -0.09846477 0.05051272 0.03498032 -0.0069713523 0.04274884 0.043524474 0.012250991 0.055307377 0.03815346 0.028813316 0.05972584 0.027082697 0.050784606 0.016402245 0.019782493 -0.06828557 -0.054883093 -0.030116564 0.0011662884 0.019944856 0.024790168 0.0780463 0.019801162 0.051142737 0.06653442
1128 0.026454015 -0.017252173 -0.03484057 0.08047113 0.009168799 -0.04736163 -0.0125355115 -0.07735611 -0.014686439 0.041163635 0.0023971437 -0.039882407 -0.033675514 -0.013994632 0.031377535 0.012895596 0.02271374 -0.03798483 -0.02375775 -0.007081109 0.0017959903 -0.0113816885 -0.02485309 0.0023433 0.02490133 -0.081612006 -0.033057094 -0.027967686 -0.0010873072 -0.0025705595 -0.006856477 0.05004161 0.01018416 0.016705219 -0.030418266 -0.036444638 -0.052201048 -0.0085964585 -0.04165263 -0.0196735 0.0049004946 0.026741093 0.012685219 -0.0005907604 -0.014869756 -0.057720568 -0.07521833 -0.0066228663 -0.029788584 -0.0044374717 0.039793238 -0.023210745 -0.060111057 -0.026012035 -0.021798905 -0.006365373 -0.043711226 -0.023274748 0.027453324 0.051717676 -0.030864188 0.0073275436 0.019839855 -0.014389477 0.027192205 0.038511965 -0.0613741 0.032369398 0.05214073 0.0335233 -0.046794794 -0.0883368 0.020755384 0.09865463 0.049619365 0.019339466 -0.041150406 0.01803141 0.043877244 0.08024179 -0.030872263 0.07577067 -0.05109018 0.015894175 -0.024834586 0.011892234 0.013729302 -0.054592 -0.0490491 -0.019382073 -7.499842e-05 0.045221567 -0.08630516 -0.028346542 0.013180902 -0.0117274085 0.039889645 0.041697357 0.043054443 0.032751944 -0.020487236 0.015479173 0.044174805 -0.05824204 -0.021480722 0.009583674 0.0848945 0.055566926 0.043468606 -0.0075840945 -0.0343742 -0.00038348825 0.018340833 0.03668893 0.023102792 0.0651679 0.079166226 0.026139447 -0.066405244 -0.04122443 0.004627632 0.025541617 -0.0143136885 -0.001869695 -0.10049007 0.06506742 -0.01643338 -0.06676661
2081 0.02873485 0.07023338 0.050585054 -0.03623226 0.0045996723 0.02216732 -0.013568032 0.0071817506 0.0218975 0.052439697 -0.02856246 -0.04547001 -0.089582525 -0.023362635 -0.051136106 -0.025033208 0.03215331 -0.07864653 -0.00046522875 -0.03280171 0.036688782 0.022901503 -0.06775065 0.0465427 -0.05112369 0.005888205 0.015557011 -0.0638834 -0.0001839528 -0.01805366 -0.08121868 0.07823838 -0.032192443 0.05212487 -0.048102893 -0.021141455 -0.036975056 0.01882472 -0.022374233 -0.0050118337 0.011749345 0.0248045 -0.034113243 0.010813642 -0.002580104 0.06912929 0.0150275165 0.050688323 0.003647587 0.045398694 0.073551655 -0.06673589 0.043183252 0.058850735 0.026964232 0.023391392 0.08521582 -0.059612203 -0.011076588 0.050264236 0.019261077 0.026568845 -0.019741403 0.045502074 0.03449544 0.052286707 -0.006108083 -0.041407354 0.054310746 0.024905158 0.04477774 0.022115164 0.04449676 -0.024705837 -0.018048994 -0.0017344023 0.05147019 -0.027611304 0.05478974 0.0028837784 0.0247799 0.035631236 0.02973149 0.036474172 0.0060125105 -0.061813213 0.04165158 0.014865771 0.014907591 0.02085175 0.035323095 -0.072409466 -0.065692656 -0.03634305 -0.050231602 -0.022023918 -0.037147537 -0.059908357 0.023607638 0.05168456 0.012211133 -0.03931152 -0.01338167 -0.067375734 -0.01790743 0.012148773 0.004181255 0.04004753 0.047170024 0.057695534 0.029558731 -0.06142603 0.060261976 0.032799527 0.038578026 0.023076614 0.035448886 -0.0148967765 -0.0015130965 -0.032479063 -0.0046511246 0.009856216 0.0022049316 0.07928265 -0.01658727 0.07357374 0.023734333 0.0047635566
1130 0.0045922026 -0.0001878643 0.002603366 -0.010671087 0.019458827 -0.046104357 0.06127152 -0.0025172743 0.054206952 -0.013921069 -0.009119084 -0.011097827 -0.048875567 0.061032467 0.009620294 -0.04988945 0.01360437 0.05101157 0.040596213 0.07638939 -0.06085797 0.038086 -0.029062832 0.0048671407 0.025556723 0.022086216 0.026076889 -0.056944605 0.028191632 0.046333823 -0.040392395 0.015225015 0.023983415 0.034030806 -0.0007029944 -0.017048974 -0.0030648517 0.038138587 0.025286365 0.02096659 0.015105326 0.02496342 -0.04667149 0.04716163 -0.037162866 -0.015533711 -0.032318883 -0.0999483 -0.08276811 0.084891126 0.013511196 0.03587015 -0.034755617 -0.012671218 0.03161866 0.052618206 -0.020047728 0.015809845 0.085222274 0.008139247 0.012719491 -0.0025001774 -0.027073983 -0.024653655 0.06706273 0.030534325 0.0177758 0.047321234 0.083478376 0.01941919 0.0363445 0.0018281613 0.050725684 -0.01031025 0.03672575 0.016896274 0.04050581 0.05892895 0.028122861 -0.017190212 -0.019732917 0.005620074 0.0024257773 -0.00035831105 -0.004752039 0.031181589 -0.0038639694 -0.03223224 -0.08363319 -0.004948415 0.030922167 0.027854627 -0.058573343 0.0325971 0.058123615 -0.060771625 0.036821738 0.06948865 0.025407786 0.020498354 -0.04453049 -0.040715627 0.09964271 0.08091249 -0.014150572 0.038404994 0.019631037 0.06828149 0.015170678 -0.000814378 0.0012628037 -0.0792075 0.019074861 -0.038143884 -0.0067909984 0.06947678 -0.015637664 0.051880296 -0.045180928 -0.058515653 -0.007251567 0.022070136 0.019335266 -0.0451455 0.036868215 0.06349663 0.04222705 -0.035961982
1553 0.0018242822 -0.0100936545 0.0059733093 0.03455353 -0.005427821 -0.033666957 0.10396026 0.010554573 -0.006306748 -0.03421927 -0.031234676 0.077801235 0.0015640657 0.019712783 -0.017481318 -0.09009417 0.08819072 -0.050651565 -0.016392542 0.08231203 -0.038195767 -0.026131168 0.032540556 -0.0061181686 -0.0054616723 -0.04208188 -0.017220074 -0.02342948 0.048973788 -0.009452693 -0.03168451 -0.043291744 -0.06616239 -0.09136883 -0.09580267 0.0144965295 0.0024917177 -0.030112462 0.06977335 0.08073368 -0.047264755 -0.019706085 0.025987206 0.010220106 0.026830409 -0.024137342 0.035553966 0.0005669978 0.0042892992 -0.0138829 0.022586672 -0.010737825 -0.062441133 -0.040306 -0.01553145 -0.018279182 -0.016646033 0.015517934 -0.06626819 -0.021535326 0.08083917 -0.022869226 0.051831312 -0.02431375 0.037406366 -0.015075291 0.019724132 0.020408098 0.02813813 -0.054347612 0.03661275 0.05033641 -0.060545176 -0.021123972 0.011895597 0.023620425 0.0031133369 -0.095367506 -0.039613258 -0.028141892 -0.0440885 0.0048612664 -0.024382327 0.057407055 0.07663771 -0.026725486 -0.06851775 -0.012349416 -0.006805542 0.07552034 -0.0039836722 0.0042048213 -0.061682485 0.086897746 0.05493726 0.07071835 -0.040656965 0.09103716 0.07046506 0.0069225607 -0.09264702 0.0029148345 -0.012475244 0.0041984203 -0.014684694 -0.029091353 -0.0044571757 0.028464016 -0.03882619 -0.052411128 0.023273474 -0.0651014 -0.026033554 -0.018097628 -0.091922455 0.04950754 -0.043959383 0.033769816 0.026122333 0.023259211 -0.056127872 -0.01136036 0.072026685 -0.06551547 0.024783293 -0.01238766 0.005559436 -0.060432673
797 0.014464372 0.016502136 -0.012431319 -0.01746435 -0.044333234 -0.014729927 -0.007837818 0.026083559 0.027849032 -0.05447814 0.0407927 0.0018639002 0.037681498 0.013838649 0.05816638 -0.010726027 0.05592495 0.016781747 -0.021656152 0.10141473 -0.007674934 0.058868323 0.075898685 -0.0053895996 -0.037434377 -0.0077353744 0.03677718 0.025912466 -0.027912125 0.043601368 0.06267048 0.031806547 -0.02643015 -0.05709136 -0.07540917 -0.07915799 0.062146142 -0.001766542 -0.009977177 -0.061279874 0.02630585 0.012445661 0.07072542 0.014130452 -0.09222621 -0.03032868 -0.025595272 0.0011161439 0.0037511578 0.041591313 -0.055487234 0.0043174783 -0.08539863 0.08237682 -0.0026361116 0.0822075 -0.053792935 0.060818966 -0.038924556 0.03176768 0.010348155 -0.019928522 0.039275654 -0.068126835 0.021735603 -0.0030438306 -1.358665e-06 -0.062161133 0.0016944094 -0.024952158 -0.0015461734 0.031967424 0.034648925 -0.020147987 0.01151154 0.04514103 -0.03255781 -0.040660795 0.022694848 0.024590617 -0.026604397 -0.022573348 -0.007816559 0.035889827 0.007735066 0.0014335035 0.0014642795 -0.073849306 -0.06755486 -0.03243625 0.012831985 0.030439736 -0.01599136 0.087305844 -0.012795859 0.074042805 0.019731546 -0.044613678 0.026368711 0.016089037 -0.0046593007 -0.050273664 0.028982421 0.0051611736 -0.0455846 -0.051819257 0.040269703 -0.034470428 -0.021979634 0.07875456 -0.0040238956 -0.09398326 0.04407237 -0.0010237893 -0.042234946 0.02462614 -0.013420522 0.053040806 -0.0025399143 -0.0053410074 0.019239958 0.0524778 -0.036063485 -0.04574594 0.053308457 0.07180724 0.0006714066 0.040820576
281 0.04733312 0.012221021 -0.008151842 0.042466026 0.019961437 -0.016255278 0.0056499513 -0.030970538 0.024025872 0.02681075 0.038875453 -0.06742964 -0.029069312 0.045845155 -0.04668921 -0.013114014 0.036219966 -0.030079322 0.019645026 0.06185813 -0.06964798 -0.100009985 -0.062638626 -0.048002567 -0.029554153 0.06407895 -0.017220795 0.011638149 0.00055201584 -0.02642876 -0.014006733 0.007164078 -0.021604087 -0.036043487 -0.020923357 0.03201424 -0.004999412 -0.0204537 0.06384052 -0.039668493 -0.04753253 0.06849281 -0.07272408 -0.0419539 0.049445067 0.05646924 0.012669572 0.016947012 0.059572224 -0.03205672 0.01205573 -0.007281477 0.013482789 0.07696354 -0.015690278 0.02695646 0.03998587 -0.008152162 0.0053234585 -0.027007937 -0.029639281 -0.023299009 -0.007579591 -0.015372404 -0.03047671 0.023217903 0.027951097 -0.021584805 0.027191866 0.034713507 0.03468204 -0.073205166 -0.04794163 -0.015655719 0.015912646 -0.048561607 0.0033828397 -0.00034256233 -0.06798262 -0.01181798 -0.015876599 0.04869169 0.075793155 -0.002617069 -0.05155551 -0.026443988 -0.07524942 0.047462024 0.039985534 -0.05208201 -0.02814637 0.02864194 -0.06705803 -0.0054458003 0.0059019434 0.013912269 -0.045794677 -0.003617748 0.08212505 -0.00403561 -0.03192102 0.014127562 -0.046833087 -0.032023616 0.06593772 -0.028255286 0.018403303 -0.026408099 0.015700078 0.061694186 0.027934551 0.007528733 0.02338726 -0.07431805 0.008379811 0.0014687694 -0.015362467 -0.002728718 0.02188958 -0.03206566 -0.019778881 -0.031864394 0.008572366 -0.05573341 -0.037084784 -0.025896985 -0.022665197 0.030153606
634 0.044630118 0.07084625 0.010621513 0.007521723 -0.0014245681 0.024164807 0.029591667 -0.0028484012 -0.020542152 0.015338007 -0.037003756 -0.007662909 -0.06505669 -0.060483087 -0.030540781 -0.013545786 0.05439955 0.019825976 0.0866065 0.07085359 -0.03568671 -0.012076472 0.09754549 0.07492231 -0.02489877 0.053681903 -0.009523733 -0.023014462 -0.012359353 -0.053261533 -0.08250876 0.030126167 0.048541185 0.06497225 0.025105558 -0.062017117 -0.024740024 0.07427907 0.056346107 -0.05172657 0.06673077 0.09103747 0.012752457 -0.0072463546 -0.04266187 -0.009660526 0.06380539 0.0070336093 0.03724147 0.00945732 -0.05117819 -0.04828259 0.0066626407 0.0048348918 -0.0529584 0.04663686 0.053812094 -0.047931455 -0.020976977 -0.022378087 0.073075585 0.031050261 0.013749068 -0.061230127 0.03730394 0.04624834 0.016965881 -0.059737295 0.033764094 -0.055252742 0.039163 0.02469843 -0.0066326195 -0.07146136 -0.068620175 0.04860865 0.012015095 -0.0048468127 -0.08058132 -0.073402874 0.029557336 0.023776282 0.02975336 -0.038841944 0.05080118 -0.018079922 0.016125247 -0.008930732 0.053131375 -0.055094358 -0.027412793 0.014917596 0.0126493005 -0.0760193 -0.041411612 -0.0053378497 0.028991904 -0.035327703 -0.001476203 0.016583774 0.052061282 -0.029812645 -0.0015265628 -0.06067712 -0.022840327 -0.08817627 -0.051413205 0.04708583 0.045334704 -0.018813029 -0.044330668 0.019167142 -0.01440742 -0.0205291 0.06327403 -0.0072872424 -0.04980435 -0.00577352 -0.009004506 -0.022353636 0.0440745 -0.0059412234 0.027869476 -0.009700861 -0.008566316 -0.07997577 -0.06764265 -0.021699416
758 0.0037034634 0.04412746 0.046653997 0.023348464 -0.019447245 -0.058478117 -0.009087567 -0.00046990914 -0.07979543 0.036360554 -0.034241382 0.0069162985 0.05213102 0.026466489 0.035639983 0.026781796 0.04389686 -0.00015218514 0.006172249 0.06889296 0.06623894 0.011444499 -0.011925141 -0.018674754 0.012416595 -0.07779879 0.041681755 0.0162573 0.013230533 -0.031308766 -0.012636315 0.07714827 0.029044077 -0.020554395 -0.0050951177 0.005410173 0.07124317 -0.06884085 -0.04874571 0.029515315 -0.015327245 0.018774709 -0.040174685 -0.014949773 -0.0052196733 0.013113495 -0.008327829 -0.051340297 -0.012242344 -0.045518883 -0.0351652 0.0089788 0.043185808 -0.04128652 0.018715607 -0.008838493 -0.023957904 -0.027490646 -0.016561076 0.041437823 0.031412438 0.015818961 -0.0025287704 0.022551551 0.070527285 0.017895538 -0.078120306 0.003540941 -0.025012376 0.077166826 0.06371028 0.044152535 -0.007117636 -0.054237377 -0.060621366 0.030796532 0.023080949 0.033693235 -0.035917915 0.07734061 0.022658562 -0.026335139 -0.0012170492 -0.01897324 0.015393806 -0.0689656 -0.03998384 -0.014136629 -0.0057226834 0.03947101 -0.059599627 -0.03547267 -0.07569886 -0.040182326 0.09644388 0.046188835 0.03288746 -0.064153686 0.006082664 -0.035437625 0.018027686 0.04191178 0.0078079593 0.058668964 -0.01807452 0.025072133 -0.08487998 0.036312692 0.0025231435 0.06397897 0.04432929 0.006428035 0.058151297 -0.05274332 0.028781755 0.030948594 -0.013142866 0.07757512 0.047279056 -0.0011498726 -0.020464266 -0.051302355 0.07575538 0.050228316 0.012613723 -0.060449857 0.049988247 0.007761348
513 0.045321975 -0.06630895 -0.0324806 0.03443886 0.009074362 -0.027962444 0.031294994 0.0011266677 0.0035689499 0.00820883 0.015645165 0.028226767 0.08343721 -0.043431662 -0.0063716318 -0.0017817861 -0.015048327 0.012474046 -0.018084636 -0.0012371339 0.0062449644 -0.03500068 -0.067338064 -0.09106667 0.016885798 -0.0057708854 0.009489858 0.0060442374 0.07220193 0.01423565 0.027343594 0.024227124 0.007142085 -0.076226704 -0.032744825 -0.012725191 0.08500811 -0.04839513 0.0044398024 0.0006406944 0.006347734 0.04054261 -0.056235168 0.022051109 0.015079681 -0.0070971553 0.009095611 -0.06343849 0.07835792 -0.014953085 -0.03823581 0.055264484 0.073477924 -0.1000084 -0.027933342 -0.0037338263 -0.08078653 -0.026240235 -0.014431456 -0.005914285 0.047090515 0.020839363 0.050054636 0.07631833 -0.015772881 0.014543223 0.03486932 -0.06358795 -0.039611988 0.03389364 0.014432238 -0.029257635 0.08566468 -0.028168188 0.010519557 0.02361006 -0.029786803 0.010824284 -0.012883788 0.08238802 0.009031703 -0.010628955 0.049784392 -0.02702147 -0.07360924 0.03797175 -0.05493529 0.065166496 0.04356286 0.001171238 0.027573697 0.037462637 0.030183956 0.010637511 0.030417442 0.04307339 0.045054268 0.01214139 0.0053505218 0.026579322 -0.004384408 0.076858684 0.009859621 0.005277504 0.030593803 -0.006058594 0.031628717 -0.02865871 -0.02383246 -0.030818928 -0.045895785 0.05553429 -0.023924801 0.04321689 0.019718856 0.010647323 -0.014882254 0.011054236 0.024020243 -0.04126821 -0.01925906 0.0010123947 0.027307183 -0.075019345 -0.02150748 -0.04647387 0.033641294 -0.027095191
1954 -0.011886837 -0.013420759 -0.009418088 0.023436962 0.055841632 -0.07632651 -0.030478325 -0.0156159885 -0.011733531 -0.053373564 0.009822085 0.07155495 0.09499267 -0.028367182 0.014511864 0.09103042 0.041476063 -0.026856154 -0.047994487 0.06312634 -0.007571582 0.030590642 -0.088779934 -0.02855402 0.027366707 -0.014256395 -0.06857213 -0.04067755 -0.040250264 0.05319786 0.012669781 -0.008793324 0.023237709 -0.029896634 0.077113196 0.07865381 0.046507254 -0.06766864 -0.071696386 -0.01751689 0.02275865 -0.022067348 -0.071237385 -0.005211866 -0.0034024317 -0.070899904 -0.0135611035 0.024500148 -0.07636915 -0.10324587 0.015241987 0.051857222 0.021515505 0.014266482 0.013377698 0.030152824 0.007742051 0.06181609 0.05735477 0.013824819 -0.0041356077 0.041337576 0.058523256 -0.029135117 0.016158113 0.027527388 0.020681648 0.1126112 -0.0007101111 0.07066624 0.057495113 0.062225964 0.0037963835 -0.007771176 0.03106302 0.07806113 0.037976228 0.0014833808 0.012298719 -0.035302788 0.017388532 0.015074891 0.017595574 -0.061020546 0.04707185 0.06602201 -0.057561923 0.04367533 -0.024357075 0.031794973 0.067603864 -0.032398537 0.046309423 -0.037204426 -0.013397194 0.045904852 0.035833903 -0.0005362739 0.00037652245 -0.027985081 0.0063067423 0.05584308 0.0155974915 0.041123226 -0.016485995 -0.049517725 0.026159558 0.040890068 -0.0049239523 0.016631726 0.036450602 0.029231641 0.07721499 -0.0049877 0.054636925 0.028450117 0.013958649 0.016936393 0.0131349405 0.07573543 -0.032944616 -0.035034034 -0.006190976 -0.03839111 -0.021093776 0.0005350641 -0.02466756 -0.022880234
137 -0.019840034 -0.006254475 -0.0033525815 0.0042936457 0.09287479 -0.07688895 -0.0728576 -0.022643983 -0.018515998 -0.062356435 0.027774947 0.06696535 0.03601956 -0.090159245 0.07780836 -0.015181557 0.014088908 0.016707376 -0.072565764 -0.00058684306 0.021055818 0.029423917 -0.056780457 0.009653001 0.011154374 -0.0043194075 -0.042445943 -0.06198242 -0.009223516 0.051627897 0.048861098 -0.07321936 0.03982626 -0.051119097 0.02032996 0.017136281 0.05026525 0.015062974 0.011625527 -0.023520984 0.032887846 -0.04124833 -0.020096514 0.0012532779 -0.034653265 0.013865067 0.008309216 0.101077445 0.0074810535 -0.050672945 -0.021877164 -0.014916473 -0.009880198 -0.005194479 0.03171052 0.061948508 0.09110721 -0.014728367 0.015959427 0.002852906 0.028218426 0.027211884 0.021641912 0.0012408843 0.03829405 -0.016907703 0.031448193 0.06519167 -0.015710285 -0.03747402 0.06916844 0.009702265 0.024012068 -0.019547515 0.016400672 0.012250865 0.038813014 0.074748114 -0.01076839 -0.05361794 0.0078492435 0.082324885 0.029622843 -0.045435466 0.03056741 -0.01937235 0.04372868 -0.00055270974 -0.009672606 -0.057065498 0.0343718 0.038903773 -0.016713168 -0.016689375 -0.03623946 0.08810995 0.030002631 -0.015053809 0.008945498 -0.05007547 0.016261026 -0.043679073 0.04853907 0.059886154 -0.042375147 0.057522625 -0.063587666 0.05994915 0.030179165 0.0178309 0.049232926 0.009045785 0.033344045 0.06406332 -0.028849453 -0.03263389 -0.062487815 0.0060288883 0.00799305 -0.05493468 -0.014449613 -0.02051423 -0.029110102 0.010355832 0.021060932 -0.011915832 -0.008465746 -0.020596767
1430 0.028521169 0.06823159 0.013242734 0.006868139 0.056736503 -0.04165352 0.038664248 0.02457946 0.012283927 -0.021611668 -0.035152964 0.006755204 -0.028548539 -0.061646253 -0.017337272 -0.033442516 0.037420146 -0.066835135 0.00960471 -0.021795291 -0.019926801 -0.05402148 -0.07012571 -0.023264796 -0.048011623 -0.026630811 0.061143946 0.014872608 -0.016032388 -0.06138037 0.038187392 0.011622917 -0.0648469 -0.055877414 -0.03383063 -0.012595623 -0.029637622 -0.047704574 -0.05246634 -0.075538106 0.051054187 0.04487145 -0.024001015 -0.021370774 -0.019966394 0.011730636 0.04648319 0.03979933 0.10018749 0.03972209 0.03519223 -0.06902464 0.003679626 -0.009980787 0.038307518 0.06448316 -0.018248824 -0.047648247 0.07143478 -0.031927958 -0.02251912 -0.0038632413 -0.034389157 -0.02212157 -0.020875134 0.015179667 -0.02270434 1.251759e-05 -0.07224479 -0.045460384 -0.021097263 -0.0133749945 -0.066346586 0.032566242 -0.02590013 0.045304514 0.016470933 -0.020670697 -0.013247273 0.01599622 0.019505769 -0.0045667514 -0.09043583 -0.046392005 -0.010317427 0.0628519 -0.0055261 0.0011192377 0.01408363 -0.032779053 -0.056810323 0.0068248534 -0.045044426 0.014322126 0.045117486 -0.010956302 -0.040683534 -0.07236472 0.033567626 0.072792985 -0.026608445 -0.0039014549 -0.008639806 -0.009908803 0.0046541644 -0.002742641 -0.047985118 0.06173754 -0.10479133 -0.015659435 -0.05779431 0.060043443 -0.01844352 -0.06346776 0.00061329006 -0.005234107 -0.08423479 -0.069206424 0.009402612 0.09030998 0.03351191 0.053808603 0.08846306 0.009682299 0.0067271185 -0.0153313605 -0.04063578 0.032460384
1405 -0.006459984 -0.024777792 0.023569405 4.3705695e-05 -0.024762424 -0.024716554 -0.01180821 0.0041593323 -0.014776579 -0.018548947 -0.090034544 0.07114902 0.009703328 -0.0058530397 -0.012969671 0.033784654 0.048286527 0.036564935 0.011658428 -0.005397744 -0.0081649935 0.03845678 -0.05465704 0.00916886 -0.045952745 -0.024235398 -0.011159976 -0.020297026 0.010814683 -0.036962297 0.07216521 -0.027030976 0.08071433 0.077931285 -0.025062934 -0.038046543 0.030599996 -0.057623148 0.05605338 0.0095411595 0.0034693342 0.0044513624 -0.0042292867 0.060208835 -0.016701756 0.053727906 0.045768753 0.049547635 0.007111491 0.02134178 -0.07166456 -0.03807035 -0.07176619 0.03810035 -0.0049666134 -0.030320983 0.059968635 -0.0068599763 -0.003403412 0.0015596844 0.027431466 0.016887782 0.012992128 -0.030488672 0.05181416 0.0636004 0.010459038 0.009816509 0.01100553 -0.045066696 0.0073097236 -0.029660562 -0.005365824 0.04191939 0.030362396 -0.019087888 0.02456724 0.013908157 -0.017708737 -0.030518483 0.013454551 0.016659532 -0.011264468 -0.05642983 -0.0268097 -0.01705598 -0.0132127805 0.003915779 0.043421797 -0.003962599 -0.06480524 0.0058046007 -0.062260486 -0.02735966 0.019894188 -0.06195729 -0.03079205 -0.029579889 0.053089403 -0.061137408 0.059542563 -0.02568198 -0.013581883 0.043125212 0.0288209 0.0028765162 -0.016615741 0.023112027 -0.06335349 -0.034357905 -0.044010665 0.04753964 0.013105724 0.040063635 0.02162751 -0.06311388 -0.048383277 0.07110464 -0.09149023 0.00845596 -0.0044751354 -0.023039455 -0.01635016 0.005030037 0.058380775 0.015140045 0.06669373 0.059637327
908 -0.0025105162 0.026041217 -0.014522451 0.008357534 -0.051889464 0.0043811183 -0.030391557 -0.016902775 0.03884952 0.067419514 -0.040736973 -0.03396863 -0.007494434 -0.013137355 -0.016516026 0.0024158373 0.051259354 0.025224624 0.03158278 0.07360191 0.03487759 0.016665932 0.00447364 0.060621824 0.012348818 0.043316327 -0.009787095 -0.000227019 0.023773052 0.018583823 -0.01813443 0.0629752 0.037518453 0.039415278 0.0046962295 0.04147427 -0.018743351 -0.06725399 0.06932209 0.025343446 0.031515837 0.008337378 0.007867086 0.016973676 -0.038346175 0.028843151 0.040118355 0.05671707 0.015770363 0.045816474 0.025523268 0.002845481 -0.025400003 -0.023779633 -0.0469913 -0.037776154 -0.00074308494 0.03367961 -0.082505904 0.034353193 0.022673706 -0.061334755 -0.00850691 0.018750116 0.03792721 -0.06692535 -0.0062745344 -0.056881763 0.0081483405 0.036398005 -0.03751307 -0.022502895 0.036448 0.09417912 0.01628414 -0.011686377 0.019138861 0.03327349 -0.022427345 0.0075712814 0.042867232 0.00737815 0.025746224 -0.009857699 0.031256497 -0.06306105 0.07362871 -0.028385699 0.042080276 0.052008245 -0.015443415 -0.019642372 -0.003246626 -0.00092677947 -0.018827992 -0.056997478 -0.052170593 -0.08330835 -0.017698465 0.06829627 0.009771969 -0.0093672555 0.058990605 -0.016721465 -0.04238269 -0.018885368 -0.017313244 -0.026805254 -0.024167916 0.021803 0.06343467 -0.00093143043 -0.041945424 0.024319796 -0.043154288 0.005124124 -0.058338642 -0.007637268 -0.06413217 -0.026044957 0.019707967 -0.06585984 0.044557605 -0.001436849 -0.06258368 -0.009774855 -0.036505774 0.021625353
1650 -1.6874452e-05 0.021278776 0.017960029 -0.06622973 -0.04401528 -0.0005215773 -0.019027699 0.02569893 -0.035066262 0.07052969 -0.04042435 0.046433955 0.01792196 0.083425455 -0.066155165 0.016178021 -0.006799024 0.0146076875 -0.018288083 -0.012299962 0.005999676 -0.0998383 0.013735324 0.0033882773 -0.0054075816 -0.012697928 -0.05627923 0.0412757 0.004322806 0.044912558 0.03725715 -0.023731329 -0.050652474 0.008656501 0.0040925546 -0.028715346 -0.029389754 0.010345677 -0.020533783 -0.04375346 0.013552479 0.010819585 -0.051186524 -0.053169876 0.002503347 -0.06321058 -0.019097008 -0.0076522515 0.0014595495 -0.04800774 0.055045974 -0.06884439 0.022415226 0.028074183 -0.013327957 0.048695423 -0.009397066 -0.07380024 -0.013929881 -0.033736926 -0.019623348 -0.021816375 -0.017976047 0.039338738 -0.014670161 -0.02065612 0.012584734 0.017435124 0.0010365006 0.05155203 -0.033949416 -0.009804553 0.07251481 -0.026636023 -0.010613807 0.06682704 -0.051034406 -0.05702755 -0.078934155 -0.007814255 0.0058227573 -0.0038655456 -0.03353278 0.09254455 -0.006154652 -0.029185275 -0.046529017 -0.0025243505 -0.041172378 -0.018054636 0.06077279 -0.086507834 0.001807993 -0.03048144 -0.069459826 0.05820544 -0.041655187 0.023997448 -0.034533694 -0.0614472 -0.004805695 -0.04130114 0.031673957 -0.01843969 0.06271212 -0.030835608 -0.013092271 -0.0385388 0.053734165 -0.012107006 -0.037287686 -0.0195814 -0.018219853 -0.10242529 -0.033659104 -0.026196204 -0.013006748 0.09574508 0.09013289 -0.002082932 0.04933118 0.047846146 0.031483974 0.02646726 0.0002259325 -0.017198933 -0.020318924 0.062200386
2171 -0.058574185 -0.029306078 -0.029997012 0.012762089 -0.04841076 0.046552345 0.012366114 0.10190727 -0.08868872 0.031991266 0.013926756 -0.028003793 0.03238279 0.037111524 -0.014530954 -0.05651568 -0.006449959 -0.073761456 -0.02087982 -0.06441638 0.060225043 0.08017809 0.026989283 0.021363478 0.041250926 -0.06416281 -0.022428699 0.052263316 0.032209046 -0.036838938 -0.01520184 0.08858856 -0.080175936 -0.0077526383 0.023992358 -0.06393926 0.09374562 0.049404304 -0.006890817 -0.035770345 -0.043702718 0.017758999 0.04980499 0.016941957 0.009308399 -0.044732016 0.0042255768 0.058210228 -0.05229782 -0.047222577 -0.058729045 0.007572897 0.087287255 -0.013721953 0.08338207 0.046786398 0.0692911 -0.026718292 -0.017473849 -0.034280226 0.00040698767 -0.042495836 -0.03819225 0.007514567 0.012438619 -0.06386359 0.03081901 -0.013177196 -0.09205069 0.0126366075 -0.01610896 0.010910082 0.0476333 -0.01605652 0.067882724 0.0093248 0.03190399 -0.014726737 -0.05152761 -0.07726967 -0.031854585 -0.055633906 -0.077704705 0.064441115 0.004426142 -0.067621924 0.04436557 0.059238125 -0.072051495 -0.025600009 0.04104632 -0.048217632 -0.098543406 0.07821149 -0.031658895 -0.06221414 0.016905429 -0.031781234 -0.025236195 -0.0097932415 0.0003809909 0.0022073998 0.083449945 0.008678039 -0.04897113 0.012298451 0.030748224 -0.03638275 0.011347921 -0.043996584 -0.021551821 -0.06099839 0.028717408 -0.08097387 0.04170551 -0.0051848507 0.084173374 0.053996805 0.04223239 0.017521737 0.009776376 0.019067524 -0.044652183 -0.099023856 0.08489386 0.07896024 0.004981598 0.03119793
188 0.008710313 -0.022716919 -0.07363394 0.025935657 0.062564105 0.056663357 -0.036176506 -0.05536445 0.018751634 -0.012446356 0.06846066 -0.04503071 0.041376397 -0.029104672 0.008543566 -0.01448674 0.024537174 -0.062281873 -0.0133294 -0.048438653 -0.048969176 -0.0023079785 -0.036123157 -0.015684681 0.062258817 -0.024811046 0.033657473 0.033110324 -0.0065125693 0.017959312 -0.023128387 0.056120325 -0.040186662 -0.055234242 0.05782103 0.05163342 -0.032333177 -0.05719855 -0.015346261 -0.04415805 0.06637684 -0.020367835 -0.02115608 0.013326473 -0.053985488 0.02559365 -0.026252579 0.017620226 -0.024865342 0.0033917017 -0.083252445 -0.020899715 -0.01581528 0.059770316 -0.037541572 -0.03364235 -0.030332856 -0.0097228065 -0.03631292 0.0037739526 -0.032893397 0.044435523 -0.041103348 -0.01609721 -0.01489118 -0.03331873 -0.06552752 -0.018411294 0.027085865 0.020516053 -0.013059743 0.028434368 -0.02516634 -0.005395271 -0.017204154 -0.05457676 0.0024802673 -0.04465129 -0.05124891 -0.056389455 0.053342953 -0.051557507 -0.05783113 0.06510551 0.070756 0.0024785174 0.074056454 0.034978893 -0.02135781 0.039065532 -0.0987753 0.029232938 -0.027570622 -0.047427256 -0.07160488 0.005817161 -0.054142006 0.01790978 0.02156226 -0.0124287885 0.03648608 0.010744695 0.0120649235 -0.0810023 0.020142693 -0.06534441 -0.045992564 -0.011878351 0.006362999 -0.049606655 -0.042576727 0.04993893 0.0469098 0.06506505 -0.100885585 0.09244625 0.0340051 -0.060904797 -0.033355985 -0.048640214 -0.011594297 0.015955878 -0.056504045 0.004826452 0.002255502 0.021422269 0.022167604 0.07439991
1370 -0.0047503468 0.009866213 -0.044180803 0.056591034 0.03606918 -0.026472367 0.065259784 -0.043236136 0.010855651 0.03925165 0.029904552 -0.022076707 0.03324542 -0.06793032 -0.02856511 0.03212043 0.012916756 -0.05901038 0.053364325 0.023036674 0.009641554 -0.05484073 0.028666362 -0.048567317 0.058507327 0.022575585 -0.040094912 -0.074589394 0.014170694 0.030175265 0.10995084 0.07657825 0.021871373 -0.03974628 0.038664635 0.04408895 0.031044222 5.5298275e-05 -0.06051316 0.06762572 0.022891914 0.05803708 -0.019660734 -0.007777759 0.025290264 -0.010927949 0.05721028 0.06691813 0.040226974 -0.015656024 -0.063915916 0.01923948 -0.014611166 0.009320146 -0.07562757 -0.025958624 -0.073128626 0.044538055 -0.0031761471 -0.03200416 0.02916406 0.0100076655 -0.046640776 -0.03999918 -0.011846257 -0.033233427 -0.057512004 0.031918477 -0.0026490476 0.0034237695 -0.073570535 -0.034503374 0.08569849 0.016105814 -0.019720158 -0.038460676 -0.012639989 -0.08556378 -0.002337198 -0.056534193 -0.044288296 0.0015603803 0.030623883 0.027071195 0.021224562 -0.011386846 0.0025592665 -0.0067163953 -0.0281754 0.028367791 -0.0037350815 0.043796826 0.0013644578 -0.0129868295 0.05131747 0.062028456 0.070550755 -0.0027316294 0.0007911363 0.054062326 -0.060433883 0.035118476 -0.079419106 -0.033049602 -0.011750064 0.045306038 0.060593814 -0.04162998 -0.027904483 -0.008429814 -0.032879733 -0.010538472 0.035224132 0.028726952 -0.007293245 -0.022570856 -0.027393032 0.019435246 0.05409362 -0.016639022 0.041610476 -0.016949425 -0.034352276 0.08919413 0.026344545 0.085867114 -0.04202232 0.0014326691
1100 0.056356736 -0.029116856 -0.059630223 -0.05797156 -0.071812145 -0.004202928 0.0034191303 0.0064135296 0.037966397 -0.012486099 -0.029153772 0.06465463 0.027128566 -0.03285336 0.05645474 -0.036852572 0.021457732 -0.05984517 0.07259001 -0.051768675 0.06817956 -0.0022516863 -0.03589677 -0.037495386 -0.069055185 -0.041745037 -0.019420441 -0.040402632 -0.040427644 0.03355554 0.03622158 0.030154418 0.06336087 -0.0061003105 -0.0013916506 -0.007215905 0.070274435 0.022525659 0.013743758 -0.04466199 -0.04421471 -0.022439001 -0.059123415 0.040915404 7.45116e-05 0.030172769 -0.042542815 -0.068162456 0.025052106 0.033756595 0.022124078 0.012113202 0.031612888 0.0044417037 -0.05400754 0.04973963 -0.008300529 -0.019455848 0.024980068 0.05281797 0.0053036185 -0.012991941 0.035708904 0.005518413 0.009365926 -0.04305978 -0.0280466 -0.08270358 -0.015783818 0.009322588 0.07070239 0.01212871 -0.033602253 0.0010486114 0.04316642 -0.011302865 -0.06970765 -0.0027863379 0.023827324 0.054305673 -0.012417936 0.05242502 -0.016026594 -0.062425576 0.053246874 0.026236365 0.086099975 -0.011777581 -0.061269425 0.058975257 -0.06382511 -0.019334437 -0.03412228 0.0495704 -0.017313767 -0.028950172 -0.03168182 0.055292405 -0.014864691 0.035082385 0.010361568 -0.024126813 -0.009064052 -0.024677161 -0.04189633 0.051844575 0.025673002 0.085837625 0.011204119 -0.036650643 -0.057952978 0.070684694 0.027805192 -0.0067300033 0.07322641 0.05217051 0.031423304 0.04045874 -0.058696616 0.0716049 -0.035301004 -0.012560613 -0.022210773 0.034986146 0.0045928685 0.011970224 -0.076923124 -0.020712685
1364 0.024193214 -0.07560465 -0.00063628104 -0.025448682 0.007704268 -0.061112933 0.01152887 -0.0039418642 -0.01028268 0.005071288 0.05661043 -0.007619604 -0.073241524 -0.036563523 0.023814315 0.04597164 -0.008329749 -0.011337588 0.006113533 -0.0045883465 0.048095852 -0.02034339 0.052546974 0.027635854 -0.0059820525 -0.026401596 -0.056174282 -0.0066022566 -0.05292134 0.05436308 -0.04036593 0.0081725195 -0.036630798 0.006849864 0.0007955211 -0.019409973 0.07138348 -0.023692496 0.013527684 0.012153993 0.018439798 -0.030142598 -0.012698158 -0.011835611 0.009990138 0.06971115 -0.02133828 0.008417351 -0.057873532 -0.06430448 0.035089772 0.066214204 0.025366833 0.02353743 -0.013491441 -0.010726061 0.0211831 0.027660387 -0.06966071 0.011577718 0.029659264 -0.07747615 0.018644111 0.054892812 0.09206754 -0.016524974 -0.033419013 -0.024497634 -0.039558206 -0.07362916 0.007706882 -0.051534742 0.0072520757 -0.034569204 -0.0043696184 -0.007083242 -0.029015234 -0.06331969 0.04470902 -0.014021276 0.008780143 -0.033982895 -0.020270338 -0.057070836 0.0560893 -0.010495828 0.05890237 -0.023753341 0.091959156 0.012950175 -0.022722602 0.03621818 0.041093025 0.08371429 0.06650346 0.046103027 -0.056850478 0.054776203 0.02239427 0.031500794 0.04672651 -0.0027437992 -0.023407593 -0.045052234 0.0005160389 -0.009349553 -0.030227039 0.076777875 0.034708604 -0.03849628 -0.018571934 0.014529992 -0.0065488047 -0.06236752 -0.002316014 -0.06320432 0.064539485 -0.05302155 -0.023525672 -0.04497811 -0.08536914 0.024694765 0.014900915 0.031724483 0.054379217 -0.01967005 0.033474877 -0.030985966
1118 -0.06678917 -0.100930445 0.013533869 0.07919938 0.07711816 -0.056547906 0.030888364 -0.04372565 0.027063856 0.018413955 -0.002005266 -0.018125426 -0.0074313325 -0.009952768 -0.034973867 0.034387823 -0.04797374 -0.0018586862 -0.011806876 0.009460743 -0.030089596 -0.071495235 -0.04275929 -0.07202803 0.016452601 -0.003252666 -0.05132182 -0.03780707 -0.06116542 -0.031767868 -0.06998468 0.08308522 -0.019302398 -0.010577913 -0.044829246 -0.016853226 -0.04246158 0.052677955 -0.052230343 -0.041490287 0.036494564 -0.05954469 -0.027979672 -0.03792224 0.022190735 0.028644523 -0.018407334 -0.07551298 0.054818064 0.022996448 -0.0042158095 -0.083156556 0.0023614697 0.015945224 -0.046392012 -0.0133802155 0.050007924 0.026946457 0.0022721426 -0.040097486 -0.00022238496 0.00017987113 0.028559169 0.057183933 0.044233087 -0.013059668 -0.07284223 -0.021259306 -0.056984633 -0.021829214 0.039378714 0.10155556 0.05698984 -0.07688238 0.029039644 0.049151964 0.094860256 0.01285346 0.01304122 0.039171778 0.015405121 0.019590015 -0.011024463 0.0654824 0.02567893 -0.032503232 0.036917925 -0.0035014083 -0.0035609505 -0.069330424 0.015925441 0.033969298 0.042588588 0.070461854 -0.057918176 -0.037187323 0.009404034 -0.042852797 -0.024273625 0.0071962452 0.039436202 -0.013527183 0.046220172 0.008119005 -0.035375528 0.10011105 -0.003969512 0.060018215 -0.102083676 0.07520515 0.043722924 0.0020808638 -0.011312722 0.041236985 -0.040981747 -0.025827823 -0.059180718 -0.009517417 -0.04862076 0.062060077 0.01573749 -0.06895254 -0.0039952327 -0.023309948 -0.043961745 -0.010214102 0.0140101705 0.055533774
497 -0.030586107 -0.017810555 0.013799968 0.053296175 -0.028440336 -0.04779523 -0.09162433 0.07404335 0.069725715 0.07497577 0.023688428 0.012911372 0.043597575 0.010945779 0.034827575 0.03994343 -0.02996895 0.06624529 -0.054736342 -0.068564534 -0.072041385 -0.003907657 -0.034428306 -0.031674903 0.06421394 -0.057565894 -0.045796163 0.0067103086 -0.0047616395 -0.031749196 0.021931564 0.012924651 -0.03761728 0.073582985 0.027152995 0.03960648 -0.017270789 0.037174053 0.07299925 0.054323874 0.061363682 0.022785824 -0.0023662248 -0.08694831 -0.057737693 0.07110712 0.04815742 -0.05032667 0.021585507 -0.018971108 -0.10119058 0.0031002895 0.037491944 0.016113752 0.058805026 0.0010786923 -0.05895613 0.054967217 0.023468882 -0.00073868403 0.015399855 0.012454714 -0.0052397945 0.011131905 0.06071244 -0.004574675 -0.009480237 -0.0071378616 -0.07821911 -0.012871397 0.091658264 -0.022362195 -0.01201429 -0.0067801774 -0.051154908 0.032634873 -0.04835948 -0.05155686 -0.007567728 -0.023363579 0.017001625 -0.008014663 -0.013662678 -0.03484055 0.0026009995 0.06525027 -0.05379623 -0.025617668 -0.011839801 0.03775679 -0.00930376 0.028984427 0.03671035 0.011711439 -0.023862412 0.06351424 0.00041486954 -0.025447456 -0.010191179 -0.055826534 -0.08143152 0.0045295134 0.03179362 0.026967043 0.00084813096 0.0047378633 -0.009046832 0.031132538 -0.006845371 0.04626393 -0.030805605 0.025281707 0.012451872 0.044922497 0.052164696 -0.025086472 -0.034301687 -0.00830432 0.0043042125 0.033959076 0.0047807274 0.00563529 -0.0066002053 0.030531412 0.071720116 0.04246552 -0.027398484 -0.053659875
235 0.022712909 -0.051537868 0.022300368 0.0031363892 -0.02158655 0.0072812075 0.07008603 0.011453972 0.014544442 -0.07969986 -0.056785244 -0.0049663074 -0.051839925 -0.058005765 0.0035703606 0.005817734 -0.041221224 0.009117984 0.05277035 0.0026405463 0.051124908 0.049652725 0.010170299 0.026192516 0.0031142235 0.015282248 0.055934496 -0.028125621 -0.019464243 -0.020370748 -0.019960158 -0.044289295 0.012201027 -0.020227838 -0.03843695 -0.0533602 0.0634346 0.017950665 0.057950538 0.025880309 0.036967892 0.00058603386 -0.010138811 -0.0010619935 0.04618753 -0.0056299265 0.073865555 -0.046375137 -0.03913204 -0.056800246 0.0053211055 -0.025386777 -0.0789681 0.010813589 -0.03627946 0.071240276 0.00727633 0.047237005 0.024379829 -0.005504302 -0.06393545 0.003878762 0.054854862 0.01848447 0.013706831 -0.08484205 0.045722857 -0.041715648 0.00031586623 -0.07431448 0.0426428 0.028544977 -0.07035887 -0.033373207 0.016254818 0.035220187 -0.048578445 0.028861906 0.05530163 0.027838346 0.029301347 0.08103244 0.004556686 0.008501428 0.056571133 0.06310922 -0.02051705 -0.067966156 -0.07708828 -0.06539677 -0.030916328 -0.043744955 -0.04458359 0.06355747 -0.035475712 0.07928357 -0.011087345 -0.051762935 -0.06563069 0.08157048 0.027925499 0.010409276 -0.012231124 0.0031627875 -0.025669057 0.021689551 -0.007076567 0.022031888 0.055827454 0.043597244 0.016008506 -0.016805673 0.0038886147 0.06496284 -0.017072128 -0.040844563 -0.014119835 -0.029358802 -0.042128842 0.030762935 -0.014855104 0.08135217 -0.055687334 -0.029337937 -0.030765627 -0.00089303503 0.029949041 0.049789898
1797 0.05753726 0.03690817 0.075055145 0.05413751 0.01865141 -0.006312564 0.085694686 0.043508716 0.0753948 0.010857804 0.035498008 0.022407938 0.05102788 0.007792519 0.0050855973 -0.023951007 -0.034928847 0.007746253 0.0021601464 0.059421726 -0.037595782 0.060869366 0.048450746 0.04400817 -0.00582788 -0.036669284 -0.009665752 -0.04749816 -0.05587078 -0.022354197 -0.0870576 -0.066371724 -0.027505185 -0.025777413 -0.026422126 -0.07908661 -0.022857103 -0.06550083 -0.02896073 0.036665756 -0.020408152 0.031594496 -0.001995377 -0.012317906 0.052101154 -0.062076017 -0.052454405 -0.016093874 0.07003215 -0.032310568 -0.03136669 0.030286375 0.02641084 -0.053481907 -0.08378142 -0.024784701 0.025896924 0.0070140385 0.08215257 -0.012940301 0.0018909647 -0.0014027184 0.035577774 -0.032509893 -0.0034154782 -0.07821355 0.022915483 -3.9777864e-05 -0.03111627 -0.0015466722 -0.016951956 -0.071448855 0.005305987 -0.07356178 0.0054428903 0.037688084 -0.0046133744 0.027728518 0.0015362224 -0.03052347 0.041071124 0.021930417 0.0013361706 0.016092727 0.09336824 -0.019758655 0.034562394 -0.04361318 -0.03450086 0.039912306 0.015845625 0.03476188 -0.09405265 0.0017406709 0.055029344 -0.004077301 0.025084896 -0.082915545 0.049494866 0.03663511 0.0036161158 -0.023067106 0.009722273 0.020898769 -0.0102424305 0.0663171 -0.051728476 -0.028238747 0.008893536 0.03143047 -0.037766784 -0.038211234 -0.040121727 0.05412558 -0.035317484 -0.029960798 -0.040848047 -0.05605052 0.07689443 -0.0035286956 -0.021759229 0.047463026 -0.030709846 -0.09074042 0.006377479 0.041249212 0.053425238 -0.057544596
1840 0.063304424 -0.005878735 0.06588175 -0.07299528 -0.043065555 -0.062916934 0.081554815 -0.015340235 0.028537743 -0.04135936 5.1147283e-05 -0.044754315 -0.07690663 -0.026211342 -0.043304082 -0.053249907 -0.0044095395 -0.013549303 -0.031093773 -0.06209129 0.031593785 0.018494476 0.0137780635 -0.00037253374 -0.08174888 -0.076209605 -0.085076734 0.036066864 0.03460366 -0.034241036 -0.02850946 0.032545857 -0.06667396 0.05049923 0.010939052 0.06007483 0.015538281 -0.036735654 0.053538345 -0.019025255 -0.017567685 -0.0507484 0.00779901 0.03814752 -0.025722796 0.021772807 0.03896763 0.026924642 0.050637122 0.027649892 -0.086887844 0.053419884 0.028797405 0.0352642 -0.01097905 -0.032220475 0.0593121 -0.051130384 0.07326833 -0.012580644 0.01706033 -0.024773378 0.020302765 0.06663114 -0.0070021697 0.05503052 -0.029853871 0.033199795 -0.02699172 0.023906644 0.012855936 0.05254962 0.03018807 0.018299384 0.056267858 -0.013198469 0.015009335 0.07209566 -0.0426396 -0.01695442 0.0395601 -0.0032847081 0.03971324 -0.056334972 0.02914366 0.09166823 0.023361914 -0.06264624 0.08286899 0.07279764 0.0057568643 0.019843446 0.056327812 -0.041383334 0.09133223 -0.04123025 0.007508725 -0.018148603 0.015006237 -0.00903453 0.042940266 -0.03928188 0.0037164453 0.008054233 -0.07651852 -0.0219028 -0.063898444 -0.027702 0.06010712 0.04270705 0.026238166 -0.01879291 0.03335597 0.0028894118 0.06467676 -0.04497251 -0.019272756 0.008603717 0.086778544 -0.026472364 -0.040993113 -0.001356542 -0.009416015 -0.09004175 -0.067467764 0.03493648 0.06976302 -0.019681528
1776 -0.010350358 0.05083927 -0.038233098 -0.06704273 0.053584047 -0.019196486 0.031533036 0.0065565603 -0.06002626 -0.015705746 0.040416483 0.07911491 -0.043765925 -0.044367876 0.077774726 0.03128298 0.05210196 -0.030556133 -0.012833938 -0.031801905 0.010839392 0.009610552 0.013477265 0.012987906 0.0032450461 0.03244227 -0.049060937 -0.024909273 0.0038449746 -0.06798536 0.07384442 -0.0089818565 0.04985266 -0.017880842 -0.017485544 -0.038473014 -0.04000372 -0.049466617 -0.013582363 0.009566152 0.05705459 0.019285584 0.054282255 0.005119991 0.02655876 0.012269964 0.09281601 0.0425745 -0.03360398 -0.0014784593 -0.018961363 -0.024738695 0.034252938 -0.017259065 -0.04246201 -0.021365546 -0.029221183 -0.033180077 -0.047384996 0.03482049 0.030786302 0.0026600393 0.038791534 0.03802948 0.05601192 -0.021757254 0.018865667 0.0183973 0.031172607 -0.042461388 -0.028324023 -0.0033802914 -0.00025351217 0.0836337 -0.009489181 0.06697647 0.064415134 -0.010416071 -0.06361086 -0.024002425 0.0889807 0.07491267 0.016454972 -0.051888783 0.026265675 0.06966651 0.015750915 0.035878524 0.041243736 -0.00062212104 0.02821393 -0.06273067 0.009051895 -0.006628681 0.024064519 0.0032159516 0.057794016 -0.010215987 0.057717897 -0.032996617 -0.004091101 -0.044236254 0.07991113 -0.052382473 -0.022321537 0.015928408 -0.00532903 0.040678307 -0.028650219 0.047518462 -0.024082176 0.0022299653 -0.06324489 -0.0125080515 -0.023596566 -0.06976913 0.05453962 -0.09716712 0.060151145 0.025329467 0.057752367 -0.01183886 0.04226345 -0.0006260767 -0.047950856 -0.02528408 -0.024989827 -0.008223495
176 -0.0016194682 -0.010628373 0.04738042 0.009292915 -0.062115863 0.044742245 0.008712795 0.035579853 0.024910972 -0.09540373 0.01224995 0.014810143 -0.006862464 0.055659726 -0.024966288 0.047477953 0.035456978 0.065855116 0.0069037457 0.015924681 0.008660825 0.071788765 -0.032299824 0.061636895 0.07795085 -0.031710476 0.09642764 -0.010370742 0.017642623 -0.057622552 0.0018678518 0.082988955 0.015518971 -0.029482316 -0.038046815 -0.0004950791 0.04313944 0.07957127 0.00669212 -0.0033839638 0.057329345 0.03688099 0.014168719 -0.014949157 0.041151345 0.016153984 0.03988469 -0.032998674 0.062830195 -0.0375343 0.08133836 -0.04022651 -0.005652658 -0.039417006 -0.011620583 0.008676461 -0.00590901 0.059474662 0.041112524 -0.04565207 -0.06494524 0.015492852 0.03876323 0.045426983 0.053408533 0.067798406 -0.05031148 -0.009748353 0.015506972 -0.038950305 0.016839106 0.041202735 -0.049857736 -0.013445886 0.03966628 -0.03156361 -0.0067212824 -0.0022470688 -0.003863788 0.07003264 0.08834171 0.012707271 0.0026618927 0.039958898 0.04347343 0.031866293 -0.019132454 -0.036379073 -0.007878283 -0.011071904 -0.06735267 -7.076071e-05 -0.012098209 0.0035569665 -0.036086973 -0.022294814 0.03008025 -0.01204296 0.039021805 -0.013310209 -0.06361962 0.033411574 0.011871617 -0.041569255 -0.02177868 0.04003879 -0.012552679 -0.0493529 0.015478296 -0.015679825 -0.02717503 -0.04945543 0.014678612 0.09555145 -0.06484675 0.038399912 0.049128227 0.06701033 -0.06783944 -0.019599237 -0.0008221546 -0.066157654 -0.017355425 0.06331999 0.028873617 -0.058537673 -0.05137661 -0.03680949
626 0.00061779196 0.030923553 -0.01992144 0.031379335 0.040710386 -0.005081612 0.059157062 -0.02424276 -0.06005645 -0.050437957 0.015311221 0.057192396 -0.01720709 -0.023937024 -0.07334074 0.014177101 0.08617851 0.04207877 -0.043123126 -0.04018409 0.04385624 0.039876692 0.034268927 -0.047343414 -0.0022631036 0.008874394 0.03960302 -0.005663875 0.021225614 -0.024447653 -0.036809154 0.027316041 -0.00298966 0.059175927 0.045163598 0.026377438 -0.05002682 0.022868069 -0.024881927 0.05355946 0.052818865 0.0031686448 0.015902262 0.05322271 -0.06341272 -0.046998575 0.10078671 0.037302505 -0.009805217 0.024815446 0.043608494 -0.07506164 -0.0010119217 -0.003998699 0.06559605 -0.0438204 -0.036738094 -0.012908438 0.0059924545 -0.0006830675 -0.065910995 -0.01922151 -0.010912807 0.070986934 -0.02950441 -0.018260382 -0.021748496 0.025295231 0.01735631 0.057482783 0.052153964 -0.080450326 -0.017772222 -0.015174439 0.026098588 0.008498539 0.01124565 -0.018491358 -0.07031985 0.007948942 -0.023147393 -0.012534758 -0.031889293 0.019304618 0.011161021 0.024081333 -0.057773493 -0.081521094 0.058747597 -0.042395957 -0.0061913677 0.032469217 -0.029748933 -0.028054971 -0.06072403 -0.0017479567 0.0028590066 -0.039845366 0.06779067 0.04323795 -0.05035106 0.018443061 -0.027976967 0.061680622 0.036179967 0.018964378 -0.045932513 -0.018305149 -0.03436078 0.03228866 -0.009617548 -0.029299535 0.024869662 0.07156064 -0.05797909 -0.030050144 0.036942344 0.017178569 0.010642318 0.052977435 0.009341239 0.009999849 -0.037940923 0.021112103 -0.06929744 -0.04728114 0.08072407 -0.043437675
277 0.03028821 -0.08568775 0.029198999 -0.035913885 0.040149115 0.026074715 0.019560901 -0.020379867 0.011137412 -0.084098816 0.058879197 0.0075795557 0.053730685 -0.0692431 -0.060417797 0.024615392 0.0034417107 -0.019055257 0.004953129 -0.016708342 0.0053681904 0.00016957785 -0.08761807 -0.021478247 -0.00820822 -0.032183297 -0.0150868315 -0.02846629 -0.012136013 -0.02263913 0.01667458 0.030547278 0.06338092 -0.050808676 0.06340871 -0.0701142 -0.018731588 -0.041997887 0.08198838 0.032884005 0.081664234 -0.072095565 -0.0007745834 0.018058134 0.028958373 0.032586493 -0.056741223 0.02998652 -0.0052377977 -0.07815394 0.05828973 -0.07431747 -0.0016028085 -0.036592923 -0.038898412 0.033685658 0.0062642223 -0.013817083 0.017161585 0.0334012 0.000997183 -0.00022843198 0.0069763903 0.017552566 0.03413601 -0.048401516 0.037415307 -0.07420828 0.07423118 0.052542556 0.021832285 -0.007398462 -0.05165412 0.015842248 0.005013356 -0.025302306 0.01575804 0.04844373 -0.018620532 0.017655147 0.015065614 -0.0035819914 0.09081572 0.011841535 -0.019493265 -0.029515421 -0.027148135 0.035326336 0.027503366 -0.0042899875 -0.028663578 -0.02330803 0.040886894 0.0072975187 -0.0076670907 -0.018663183 0.062345874 0.0064201974 0.03157169 0.053656638 0.08116765 0.019907324 0.024891738 -0.012856748 0.038043376 0.043231927 0.0034890748 0.008250198 0.012086176 -0.01762737 0.0074642217 -0.018030515 -0.06720842 0.023414152 0.008393108 -0.0042587547 0.008274341 0.024181314 -0.029314287 0.042711873 -0.012656484 -0.004252708 -0.0030049442 0.037109524 0.005814285 0.077815786 -0.011837943 -0.059503097
284 -0.017586665 -0.062235467 -0.015874121 -0.0020051755 -0.024590872 0.027957113 -0.03693555 -0.008500598 0.07926701 -0.03477804 -0.010319009 0.03708914 0.10344695 -0.015891971 0.02967781 0.077833 0.05569527 0.058738988 0.016694866 -0.021596754 0.025242712 -0.01756174 0.07006445 0.021354415 0.018798364 -0.030168952 -0.006906125 -0.046284042 0.012632746 -0.084102824 -0.052657284 0.003445862 -0.031709757 -0.05786961 0.07549713 -0.03339158 0.025047956 -0.03329101 0.108837076 0.078921594 0.04768673 0.040732726 0.025787462 0.040835105 0.0020028115 0.0051624384 0.022657238 0.033859342 -0.03888696 -0.025322894 0.0764747 -0.021785839 -0.02261309 -0.052750334 0.028681025 -0.022853076 -0.013062655 0.055654384 -0.02201786 -0.008503118 -0.08440596 -0.050778277 0.039279103 0.029525133 0.04633912 0.016574726 0.027724925 -0.060577396 0.0040167626 -0.0071950606 0.03745771 -0.0731647 -0.02325966 0.0877479 -0.074843325 0.02365387 0.036037374 0.014005005 0.026051639 0.09235774 -0.07671164 0.034696598 0.012892476 0.031525176 0.04803007 -0.071208835 0.009629716 0.004100833 0.06275922 -0.010594563 -0.005564371 -0.000996416 0.013150295 -0.015820194 0.016452232 -0.0124585675 -0.0032149695 0.022611136 0.01654249 0.012003839 0.036592625 0.009325237 0.0082826335 -0.049377844 -0.03190235 -0.031642087 -0.02789277 -0.030376969 -0.035926625 0.02245379 -0.06217321 -0.02322776 0.0152083635 -0.009360857 -0.03802725 -0.0055319034 -0.029421499 -0.023423173 -0.010121248 -0.059915546 -0.02771697 0.092270084 0.030599857 0.06217022 0.040568415 0.06650216 0.022212619 0.015971927
1345 -0.009132675 0.020242421 0.065888256 0.04879556 0.049132105 0.028447276 -0.0398129 -0.005345509 -0.09377732 0.038443938 0.06861215 0.05489398 0.010812764 0.020847023 -0.057162188 0.06832799 0.016817825 0.009855831 0.062411357 -0.0669951 0.027695825 0.011227522 0.100235105 0.009800557 0.057672437 -0.008302095 0.09149738 -0.075581476 -0.009246943 -0.0063227136 0.040582784 -0.016527712 -0.014778053 -0.042777218 0.0493764 -0.021568337 -0.044192433 -0.06452542 -0.040135108 -0.015033508 -0.045046616 -0.082534924 -0.06312763 0.016121479 -0.022526758 0.041813403 0.03434305 0.028297998 -0.07766134 0.060323317 -0.05129025 0.054049242 0.035984043 0.033679105 -0.030706014 -0.065440536 0.048133098 -0.0065516382 -0.094945125 0.020666424 0.03921709 0.025164101 -0.038916904 0.053287487 0.05120939 0.053057868 0.0374869 -0.00518419 -0.03366808 -0.047163658 -0.03222535 0.01910548 0.04712558 0.06090992 -0.0055905306 -0.04445975 0.030374382 0.01868862 -0.0053194175 0.050586574 -0.025866047 0.020810595 0.085397914 -0.004669705 0.02090355 0.0662265 -0.036552787 -0.014515325 -0.053599946 0.03761013 -0.055259954 -0.005171209 0.060904097 -0.013244781 0.04129523 -0.0362545 -0.05432998 -0.031709597 0.06685041 0.053810902 0.0007249472 0.0020057426 0.051980197 -0.06814639 -0.021669876 -0.036610883 -0.026588632 0.06584285 -0.035673067 -0.004017167 0.06462417 0.036751397 0.08620099 -0.046203688 0.019872839 -0.045626644 0.0020972027 0.070358746 0.026123272 -0.012487871 -0.04321898 0.011816845 -0.025143825 -0.039722994 -0.052193183 -0.0052957563 0.012293326 0.06707828
1200 0.016914058 0.05401039 0.09090097 0.005270254 0.043572817 0.0876333 0.04157555 0.034303196 -0.07581111 -0.024706874 0.05124763 -0.001703284 0.05034835 0.048310276 -0.029388275 0.046559706 0.0025676803 -0.0075986753 0.036138054 0.03223471 0.022461494 -0.017244237 0.037656903 -0.047818944 -0.020464603 -0.08418989 -0.00040614547 -0.09943719 0.02225403 0.015836902 0.023507755 0.029284481 -0.041849878 -0.007265467 0.008492575 0.008230934 -0.038837332 -0.0068744887 -0.03437383 0.0426124 0.026561908 -0.070458315 0.01835693 -0.043862503 -0.030017009 0.003802527 0.06704825 -0.055361576 0.08363739 0.026083896 -0.054974616 0.03046341 0.04199381 -0.0629557 -0.054096077 -0.017633002 -0.0014169401 -0.011940761 -0.039295774 -0.024713827 0.027102739 -0.0038006399 0.0037592473 0.07734571 0.085970685 0.08943081 0.010926175 0.066983014 0.020429062 -0.028716844 0.034503054 0.01408193 0.0030377922 -0.010055006 -0.04734857 -0.06866406 0.0072487355 -0.036234606 -0.03468476 -0.0019107119 0.089113 0.074387416 0.035978653 -0.057147868 -0.047104865 0.06399117 0.05314521 -0.072483376 0.06643619 0.028668365 -0.04351091 -0.00806357 -0.012816575 -0.005094595 0.02457909 -0.011986794 0.025955366 0.07055146 0.053721644 -0.0029384475 0.041448846 0.022716543 -0.044642154 -0.029810186 -0.052280445 -0.04262215 0.01851416 0.045805335 -0.07824437 0.037533954 -0.0405703 0.020556971 0.041925214 0.01787626 -0.0100517 0.013668012 0.005193767 -0.05271879 0.078182645 -0.0043231137 -0.07771135 -0.05086334 0.023052951 0.041316424 0.05360998 0.039324783 0.009164761 -0.08966559
1930 -0.012112978 0.0059636687 -0.06607699 -0.09062048 0.055897146 0.005711459 0.017448692 0.048420325 -0.055545896 0.04927728 -0.008616393 0.018888377 -0.02341559 -0.07537322 -0.04010155 0.025627607 -0.019574573 0.024952644 -0.0064346013 0.009527767 0.0022910966 -0.030234536 -0.027020514 -0.03217737 -0.038656306 -0.014587321 -0.012191941 -0.0024762657 -0.085595675 0.044175714 -0.036906525 0.062063377 -0.033855874 0.09172422 -0.015808756 -0.054766804 -0.028499201 -0.002022802 0.0017568484 0.0660299 0.042561337 0.016257877 -0.056497913 0.06186501 0.0028876993 -0.051214844 -0.009276716 0.0038091931 0.07969023 0.05001104 0.0194195 -0.046013385 0.021721892 -0.045484144 0.017498985 0.009509274 0.003050566 0.042938355 -0.028212855 -0.061811876 0.06042237 -0.06995645 -0.079885684 0.08527604 -0.044907134 0.07893467 0.06553554 -0.048401076 0.027263863 -0.02142424 -0.07939254 -0.010162073 -0.075691365 0.04912846 -0.079054505 -0.0065159965 -0.0072036902 0.032854464 -0.034997627 0.06429802 -0.017262213 -0.013573577 0.07634125 0.023062607 -0.044888437 -0.06450922 -0.04257299 -0.033542942 0.06873244 0.024352519 0.021976892 0.035941947 0.008999753 0.005308716 0.042306915 -0.054074742 -0.059855934 0.0489778 0.016603205 -0.077518865 0.026763428 0.064465955 -0.044123586 -0.035581734 0.042143527 0.03804515 0.03564608 -0.01909207 -0.0113786645 0.05855948 -0.02664749 -0.019057872 -0.006730917 0.014569655 -0.055887483 0.067667246 -0.05174795 0.02617404 -0.019538848 -0.07672798 0.04915949 -0.040209454 0.03785008 -0.06147681 0.0011631513 -0.04202609 0.016881015 0.025059665
123 -0.017762668 -0.020382293 0.012373858 -0.04029337 0.061161708 -0.03144294 0.027427569 0.024629012 -0.054963488 -0.0046555777 0.045571305 0.0037412322 -0.06865996 -0.07564397 0.047953755 0.003189478 0.010598256 0.036899097 0.08262398 0.019206813 0.032946307 0.004772599 -0.029240834 0.05413636 -0.063888244 0.04666267 -0.0060140057 0.024611816 -0.06813955 0.011940089 0.009067278 0.064087056 -0.0891346 0.0488018 -0.028513346 0.02204132 -0.008873792 -0.0042620436 0.0058222986 -0.022565192 -0.00846445 -0.018692939 -0.057798482 -0.023290932 -0.031558644 -0.0076072905 0.041132618 -0.028633043 0.007486884 0.05856141 0.052185293 -0.002989755 0.06345907 -0.04190431 0.0781716 0.0051056207 0.037450206 0.01590039 0.031633295 -0.043426644 0.026241446 0.017652346 -0.021357905 -0.01512523 -0.043550137 0.054999057 0.058674462 0.052541852 0.01947964 -0.049523447 0.03599118 -0.007033035 -0.0736537 0.0006251664 -0.019146731 0.08131562 -0.03409384 -0.025356716 -0.037358437 0.004840072 -0.04059755 -0.0034402148 0.018332426 -0.023959514 -0.03456183 -0.020822862 0.0060946327 -0.03582069 -0.046900593 0.016872227 0.006763275 -0.018892407 -0.011492082 0.0041938494 0.025704797 0.0084803635 -0.035770275 0.03182038 0.068139605 -0.0017159898 -0.043831967 -0.061270855 -0.030231917 0.03583384 -0.020544654 0.038614627 0.0005338129 0.032853477 0.035599384 0.022805905 0.014560299 0.0115370015 -0.052252058 0.008841179 -0.0455781 -0.077469334 -0.06184365 0.01611337 -0.08404501 -0.08501296 0.032396983 0.03660421 0.013584833 0.030725751 -0.08599495 -0.054558843 0.089320414 -0.015452877
1873 -0.018833024 -0.015807915 0.019429857 0.0007536656 -0.0065784235 -0.04540452 -0.04638697 -0.004254741 0.028129162 -0.013798374 0.06242515 0.012587615 0.054679953 -0.060078483 0.041091483 0.059437957 0.07046985 0.02800266 0.02994614 0.04621385 0.0089341225 -0.044191055 0.024131529 0.0050309882 0.008490473 -0.0037834323 -0.042400636 0.002043787 -0.02818242 0.009599333 0.00014578813 0.053755846 -0.01753275 -0.036148425 0.0015913012 0.0076566385 0.07227724 0.009465858 0.038768694 -0.06976848 -0.08566884 0.033810344 0.03347984 0.025194107 -0.021842875 0.038398556 -0.02176284 0.041872133 -0.08860115 0.03784692 -0.063359395 0.019066527 0.024977455 -0.012105072 -0.047592737 -0.07441327 -0.028748017 0.041747507 0.034579914 0.008621819 -0.08592775 -0.04582977 -0.03337916 -0.10031416 0.0042785527 0.001481772 -0.050007544 0.049463578 -0.016978065 0.053755533 -0.03567669 -0.020475693 -0.015963 -0.024249298 0.011659031 -0.055710033 -0.0041478197 -0.04867543 -0.011749562 0.028767584 0.04218338 -0.039253257 0.061645437 0.078186475 0.0071305735 -0.08127688 -0.028780507 -0.013481629 -0.00690621 0.03163156 -0.022450365 0.029200992 0.0056749596 -0.03469612 0.07680806 -0.047557354 0.035059787 0.024205348 0.032337107 -0.112275936 0.009142343 0.029476134 -0.0017512436 0.08079663 0.044013254 -0.007637382 -0.03275087 -0.01901078 -0.002022071 -0.0037283127 0.078367725 0.055179656 0.06386394 -0.011715245 -0.072886094 -0.10324858 -0.04760384 0.03871152 -0.033326723 -0.019434484 0.0008468974 -0.03382763 -0.024714291 -0.010311656 0.0015730707 -0.11187554 0.0069047324 -0.042673957
1393 -0.05152133 -0.03688347 -0.011763513 -0.04041354 -0.0688122 -0.027259607 -0.04965717 -0.057742156 -0.025006939 0.08460185 -0.040897608 -0.061581668 0.021952193 -0.03243368 -0.036836546 -0.028608553 -0.03543174 0.006410942 0.00014402662 -0.040777154 -0.059405256 0.02888783 0.027228815 -0.09395659 -0.0064597023 0.0059636137 0.069921486 -0.037162244 0.01647965 -0.026791098 -0.026902216 -0.022519648 -0.087979734 0.059729695 0.040573325 -0.0034103568 0.029447947 0.0065123816 0.026099544 0.02462782 0.06244384 -0.06182418 0.003906755 -0.0024119986 -0.01763405 0.0023072115 0.06428698 -0.07246595 0.033707175 0.010034861 -0.06171967 -0.013407025 -0.03475564 -0.009553826 -0.07387537 -0.08523291 -0.006802711 0.061311945 -0.060811944 0.0033074154 -0.0101531325 0.04105172 -0.005515954 0.046342395 -0.07710907 0.023605531 0.021415174 0.04700128 0.02028158 -0.015547493 0.014754347 -0.026048746 0.067678005 0.017107345 0.040443335 0.07041218 -0.093179144 -0.017949812 0.034578193 0.030196657 0.09351587 0.04455146 0.005329835 -0.042967074 0.06310382 -0.017696293 -0.028293941 -0.083472475 0.049626954 -0.006929913 0.06702196 -0.031512175 -0.062068265 0.023811731 -0.036859978 -0.08891964 -0.0115520125 -0.011500536 0.05873979 -0.065999575 -0.07629788 0.0812181 -0.046263248 -0.05065973 0.03016199 -0.07623143 -0.020446297 0.016602218 -0.0142438235 0.020468263 -0.038388535 0.017241519 0.047847457 -0.016069166 -0.005451395 -0.06521023 0.04641491 0.027976139 -0.0026040063 0.019140229 -0.021574812 -0.02606071 0.013810765 -0.032059096 0.052978408 0.0806153 0.058607753 0.04708191
370 0.028939541 0.019735504 -0.0061237407 -0.024253821 -0.050742436 -0.007695131 0.034387626 -0.056665435 0.028480887 -0.019857327 -0.017895093 0.021775141 0.07242978 -0.059071224 -0.034730546 -0.013370147 0.024379114 -0.02857711 0.009869761 -0.012901176 0.03119994 -0.08126074 0.024823425 -0.020702057 -0.08829173 0.072970755 -0.08275393 -0.0012347951 0.02020898 -0.051592276 -0.036961276 -0.026721718 0.012633815 0.079413034 -0.063373506 -0.0614995 -0.01645442 -0.041783333 0.047395356 0.013493916 0.05629717 -0.017897554 0.041067634 -0.02134498 -0.099684194 0.018593745 -0.07687475 -0.057187445 -0.043285888 -0.03466914 0.05651108 0.012815397 -0.0829796 0.036641024 0.00012095705 -0.022381358 0.055359423 0.025169225 0.07009178 0.051144693 0.013385097 0.07352235 0.020589404 -0.048721448 0.025068497 -0.01962889 -0.043757316 -0.030473096 0.008627794 -0.020892113 0.015963271 0.036812697 -0.055049043 -0.029027833 0.00045129732 -0.027182471 0.036351893 0.022868106 0.024970846 0.06560583 0.017807705 0.02558528 0.036154233 -0.0136174215 0.03831239 0.014066915 -0.033009533 -0.021768933 0.092524424 -0.006227107 0.07177672 -0.019478166 -0.027843362 0.022400508 -0.02903715 -0.013348773 -0.0131558785 -0.046958547 0.057249155 0.0060283025 0.06091488 0.020661106 -0.031441987 0.0511628 0.058812108 -0.016211413 -0.07394202 -0.019226111 -0.03486501 -0.08661091 0.006893733 -0.026747243 0.06386196 -0.046033062 0.03419698 -0.08463244 0.05934867 0.035366986 -0.015699614 0.050821073 -0.052234836 -0.01985969 0.034788676 0.022567708 -0.004355237 0.057094943 -0.053441033 0.06071972
365 0.044164013 0.008868122 0.04861362 0.039068736 -0.08574606 0.04156638 -0.04229034 0.010707171 0.048348207 -0.00200463 0.039205156 -0.037659615 0.065793104 0.00077971903 0.016437918 0.040761203 -0.024458809 -0.0074406206 0.012766053 0.014263629 0.03498452 -0.052524786 -0.0038746726 0.07125982 -0.007600652 0.007426826 -0.08855298 0.03027005 -0.010003846 -0.056468733 -0.013652203 -0.000935116 -0.014384331 0.0061290045 0.04063733 -0.07164092 0.020378035 0.032946665 -0.07019872 0.018659063 -0.039682306 0.039351225 0.024694929 0.043948952 0.029059697 0.038032297 0.05278739 -0.013254402 -0.03497186 -0.021813098 -0.01721283 -0.048598453 0.012619368 0.0085411025 -0.029018737 -0.0028160287 0.054263648 0.015992722 -0.0072290194 0.010035692 0.04140174 0.01164721 0.012745844 -0.0011219468 0.038013123 0.044247095 -0.074210666 -0.02329266 0.048972256 -0.04766624 -0.02428234 0.027611647 0.099021666 -0.021335417 0.028432393 -0.054852 -0.04477904 -0.029748403 -0.060644437 0.043119747 0.095257655 -0.05879063 0.01373495 -0.007059685 -0.03991473 0.014576478 0.003693847 0.04042647 0.051647972 -0.047136366 0.005237315 -0.04480931 -0.07566058 -0.07273648 0.048145846 -0.080903895 -0.0738834 0.03349641 0.019153802 -0.075170904 0.05261274 -0.010889009 0.0023405568 -0.0014689312 0.022486996 0.041245125 -0.081200056 0.0011014891 -0.022946585 -0.059828732 0.03231769 0.03583612 0.06452025 -0.010440613 -0.016535643 0.016217215 -0.041401304 0.029717896 0.027903998 0.06307011 0.087371394 -0.046364464 -0.013706668 -0.022508942 0.1050778 -0.002723069 0.096323386 -0.024756385
942 -0.0659844 -0.06825299 -0.06081131 -0.033208285 -0.028589698 -0.047965523 -0.0562152 -0.087447084 -0.075051785 0.055238344 0.07630113 0.07511575 -0.048313677 0.045406528 0.043783035 -0.016697098 -0.0010848262 -0.013546927 0.005497825 -0.010104273 0.0301888 0.0067239506 -0.028162815 0.03300988 -0.06385411 0.053638082 0.018144816 -0.049814466 0.013418741 -0.019431006 0.04973126 0.006965721 0.063028276 0.022491693 -0.07787921 -0.042931437 -0.086753726 0.04629115 -0.02377629 0.009819478 0.017653663 0.082868025 -0.02134257 0.07832275 0.0074011814 -0.080721885 -0.061590146 -0.030108038 -0.0011547192 -0.02272135 0.032387786 -0.022391878 0.033043608 -0.021812115 -0.03994353 -0.072323725 0.062659994 -0.02763537 0.04693207 -0.017526904 -0.06215915 -0.009808933 0.028017448 -0.0006899084 -0.05167465 -0.025190864 -0.059181113 -0.012810129 0.06568829 -0.07634084 0.014433272 -0.05112441 -0.016739264 0.018904682 0.022489494 0.053829383 0.088607356 0.0025843647 0.006473934 -0.07674123 0.003547266 -0.049439788 0.04384086 0.04526746 -0.05997809 -0.021591729 -0.07257882 0.00807343 -0.024400434 -0.04605859 0.010985318 -0.049554203 0.071559444 -0.00850957 0.007537959 0.030484226 0.07534624 -0.034717847 0.028846812 0.013808645 -0.04919878 0.051397882 0.013144042 0.03784875 0.06829036 -0.020808678 -0.021836028 0.067082465 -0.05573431 -0.02065806 -0.057143867 0.05379887 0.036243744 0.007506796 -0.046424005 -0.03929513 -0.07822321 0.035338845 -0.005080776 0.0058646686 -0.058578864 0.023688082 -0.016544608 -0.03262137 0.061007623 -0.011241744 0.06288642 0.03372098
2006 0.011607471 -0.06612335 0.021005237 -0.011803612 -0.050897952 0.08572063 -0.02345588 -0.049124483 -0.023662604 0.0010497889 0.060837526 0.014981453 0.0035894448 -0.019128213 -0.061254535 0.019595165 0.019232195 -0.023643997 -0.00933423 0.01554302 -0.02221893 -0.0056971586 0.013948832 0.092706464 0.031997066 0.030857043 -0.0022332564 0.06298707 -0.012332256 -0.013579159 0.039145764 0.028449884 0.008348915 -0.026005007 -0.050717782 0.029910006 -0.028226037 0.034951396 -0.07501048 0.01688772 -0.009301421 -0.013512402 -0.056571074 -0.069945164 -0.06673023 0.009773864 0.04282339 0.00028442324 -0.044906378 0.02484875 0.00992783 0.02277309 -0.045375057 0.007751669 0.069424614 -0.09051064 -0.031490553 0.006072622 0.009766444 0.035192445 0.014494354 0.01270237 -0.0026874829 0.062404547 0.011472986 -0.004936292 -0.07996485 0.008607031 -0.02058041 -0.013585703 -0.0643533 0.0053361384 0.0048805075 0.04743119 -0.05734089 -0.034972828 0.066843495 -0.024111856 0.00023591185 -0.006156922 0.035036918 0.058365393 0.052875366 0.03955191 -0.0331565 -0.054140233 0.08093282 0.017949454 -0.009253982 -0.0093023125 -0.053103 0.02815817 0.006997915 -0.07717681 0.02168693 -0.053960323 0.010912193 0.002393096 -0.01573592 -0.032125 0.0015865876 -0.024856713 -0.04317594 -0.0044695493 -0.054510936 0.022545863 -0.016361173 0.0019393589 0.01994136 -0.058491815 -0.074127026 0.009443348 -0.050758317 0.021813553 0.015779281 0.04568643 0.049385548 0.055054966 -0.025482502 -0.024528354 -0.0028166466 0.06819262 -0.0007526507 -0.071775235 0.044667207 -0.0053787874 0.06405262 0.05478148
996 0.08633393 0.024106449 -0.013849985 -0.033929553 0.050725695 -0.061905112 -0.015879186 -0.047932945 -0.037396338 -0.03085021 0.05830873 0.073865816 -0.045284998 -0.0039202757 -0.07015524 0.02674015 -0.0029297422 0.0022143917 -0.059514638 -0.018911943 0.0068815607 -0.021733142 -0.02427514 -0.054277144 -0.07420415 -0.033325933 -0.06483589 0.075957626 -0.048402105 -0.02099682 -0.035529546 0.0018027199 0.013191297 0.09869824 0.079879075 -0.07709089 0.07638542 -0.007157196 0.09248564 -0.01724808 0.036395486 -0.021200268 -0.015018261 0.02900678 0.013886821 0.038678255 0.028793328 0.03856803 0.0021361334 -0.036776546 0.028418023 0.0191588 0.04107673 -0.030916117 0.069583155 0.002382792 -0.07310756 -0.019779928 -0.053577214 0.067047164 -0.048354015 0.009698176 0.039822504 0.002474315 -0.011719353 0.053452156 -0.038921963 -0.03265988 0.08482707 0.057198286 0.03822425 0.0012038588 -0.0024832964 -0.004912839 -0.056663204 0.02117437 0.0037417922 -0.0026823003 0.055407878 -0.004842848 0.042646438 -0.008378342 -0.078464374 0.022912418 -0.034775283 0.06213247 -0.020996025 -0.008675551 -0.011277259 -0.003557369 0.038065128 0.025556058 0.059015933 0.0024068635 -0.041999303 0.003770431 0.0014125296 0.027083125 -0.021922642 0.054654352 -0.030246256 -0.044950515 0.08619966 0.044830676 0.076516144 -0.00029963642 0.045932062 -0.009879566 -0.06098568 0.017955469 -0.03880673 0.02516843 0.014356367 0.038088173 0.0043684714 -0.028362 0.038786232 0.0105106095 0.036332447 0.0103664575 -0.038819324 -0.01934434 -0.008641343 -0.07627161 0.015650718 0.061884154 -0.037532315 0.090993024
882 -0.04832857 0.04790564 -0.017920641 0.07638383 0.02695475 0.044869963 -0.040291455 -0.01969469 0.019543001 0.025597595 0.03249112 -0.064319864 -0.015993591 0.00566853 0.034614015 -0.0017799612 0.042304363 -0.03076148 -0.0017958311 0.05395132 -0.06677052 0.06434548 0.10624683 -0.09106552 -0.0025641152 0.0057227355 -0.0393733 -0.004008324 -0.038656596 -0.012247854 -0.054317623 0.03223976 0.05002694 0.02749342 0.10916203 -0.066906765 0.05805393 -0.01173781 -0.035512313 0.078128226 -0.026906447 0.012224268 0.027011795 0.015421458 -0.057886764 0.012241033 0.016893823 -0.07134213 0.059683613 0.006485975 -0.019272398 0.10026655 -0.03375902 0.011273842 0.0067653675 -0.07103807 -0.027690982 0.096137784 -0.028447948 -0.05413742 -0.041498728 0.012105541 -0.011443965 0.0257453 -0.0013886535 0.011540245 -0.032895826 0.08228044 0.06936398 0.011448929 -0.057778 -0.014334586 -0.0077790795 -0.0067962636 -0.033750188 -0.03722739 0.022272034 -0.007892894 0.053604577 0.017715154 0.034123477 -2.5917678e-05 0.03512601 -0.031589612 0.04907652 -0.013714486 -0.08459689 -0.04688148 -0.054940782 -0.0077940836 0.057800904 0.0058177244 0.014420662 0.03227954 -0.011283529 -0.02181415 0.023654385 0.006674257 -0.022504386 -0.01238421 -0.060391616 0.05267385 0.0034009067 -0.038725406 -0.08066975 0.022849642 -0.0107270405 -0.05274275 -0.013209799 0.03674115 0.039868765 0.017563885 0.007883418 0.0056380616 -0.0017400814 -0.026864033 -0.011107425 0.05672495 0.037737224 0.011761274 -0.012585917 0.07906565 0.01589953 -0.0055194567 0.017617622 0.0009177411 0.024311258 0.07456789
618 0.038121697 -0.008973648 -0.04176065 -0.06941114 -0.03232729 -0.01157498 0.011257901 0.042955875 6.451992e-05 0.031839214 0.009025363 -0.066184394 0.0082140835 -0.015273875 0.059636056 -0.003378733 0.012316786 -0.023809113 -0.029147258 0.0370417 0.037656173 0.008803296 -0.03237045 0.06236889 -0.028007105 0.0054010004 0.06493973 -0.017592214 -0.0010663252 -0.07878812 -0.073179275 0.026864288 -0.06394822 -0.0023344932 0.0056692967 0.039329983 -0.08847343 -0.08746314 0.0075655757 -0.016189601 -0.04427715 0.031329047 -0.044323083 0.02795225 0.010711958 0.022255456 0.022399731 -0.060748976 0.06307332 -0.009052921 0.024442723 0.007919823 -0.06559302 -0.05507895 -0.034338694 0.026678745 -0.034341477 -0.046633516 -0.025681293 -0.031073699 0.060318038 -0.10181065 -0.0008615586 -0.03694661 -0.052346446 0.017346622 0.023415258 -0.047532678 -0.015081379 -0.056239616 0.09776703 -0.022686372 -0.0559303 0.041375663 -0.004231164 0.030273203 0.06935697 0.0021158275 0.027575947 -0.0073084715 -0.011535507 0.037177112 -0.013297143 0.045037825 -0.03411838 0.031051675 -0.038463064 0.08772963 -0.020371702 0.014016016 -0.057381 0.04713881 -0.03947073 -0.03221975 -0.018824086 -0.012884379 -0.04157152 0.017739508 -0.090106934 -0.057677846 0.003200411 0.042051915 -0.06513812 -0.017659606 0.057890918 0.017665958 0.058479544 0.01568101 0.031247469 -0.00096609845 -0.04997758 -0.06589394 -0.03602142 -0.020324161 -0.0070505696 0.019250957 -0.042295918 -0.056854438 -0.05537033 -0.009079859 0.013367459 0.050256178 0.008128422 0.015252525 0.017067343 -0.027263544 -0.03623234 0.025160914
296 0.0890697 -0.05060681 0.010679823 -0.057096183 -0.07871789 0.026136296 0.0010218153 0.08173912 0.0043519717 0.009983869 0.05327811 -0.05601845 0.05298224 -0.050922584 0.010926376 -0.0020226522 0.03706246 -0.004271244 -0.026536804 0.06507682 0.04523743 0.02490061 0.018474126 -0.03485201 -0.044787925 0.0040230444 0.08477574 -0.04790929 0.04014969 -0.09357421 0.0244257 -0.012732041 -0.063956745 -0.034463257 0.10577968 -0.013828275 0.050099466 0.0011355891 0.088040486 -0.011698227 -0.08162103 0.042959303 -0.055919264 0.0048381737 0.07102304 0.040248998 0.024255117 -0.0520738 0.060936406 -0.016573342 0.07226829 0.04623819 -0.08490109 -0.028658956 -0.016030254 0.031703133 0.059651926 0.060360312 -0.034914114 0.0025693257 -0.02537438 -0.022794826 0.060995057 -0.0729551 0.021561936 -0.0012022534 0.06768758 0.0048082937 0.007890647 -0.00670352 -0.011010591 0.07362966 -0.027254041 0.069188304 -0.026027385 0.026476149 0.024644624 -0.0015920609 0.058050025 0.008977186 0.0731157 0.038102742 -0.020365011 0.036265913 -0.007825901 -0.0112112025 -0.034525633 0.010855336 -0.06431297 -0.029970806 -0.03480971 -0.008907616 0.049999088 -0.008243173 -0.06004106 0.06630169 -0.08537932 -0.022688173 -0.0002898774 0.0074055376 0.008134991 -0.047051743 -0.020855207 0.03040313 0.020360904 0.016893078 0.020761518 0.0250459 -0.05912109 -0.08548599 -0.014941476 0.0542425 0.07230541 -0.022604117 0.026507039 -0.013143499 -0.016146207 0.023266584 -0.08866163 0.0028603664 -0.036012173 -0.0003264643 -0.0031150533 -0.0026334 0.019027594 0.01864166 -0.043932498 -0.00071636005
813 0.015729994 -0.06204333 -0.046029963 0.014687792 0.07082352 0.015668826 -0.029652582 -0.0011369467 0.096611045 -0.025741398 0.019666579 -0.05091307 0.0044982038 -0.03665995 -0.083840996 0.01300834 -0.033651263 0.034330312 0.017315043 -0.025341602 -0.004493834 0.016996706 -0.02247309 -0.063840695 0.029884428 0.09597882 -0.06955065 -0.00071664655 0.039808124 0.036541373 -0.07718497 0.056293905 -0.06405258 0.023270706 0.017238634 -0.023584671 -0.004169792 -0.046908576 -0.07174257 0.010671181 0.07924693 -0.0039983224 -0.028646916 -0.01915944 0.05503355 -0.059867628 0.06349117 0.0204668 -0.014081983 -0.0018090749 -0.022007223 0.047720265 -0.0047749816 -0.0037042073 0.062015083 -0.018524148 -0.017080992 -0.018158466 -0.015416292 -0.009850083 0.051512916 0.030342264 0.07562539 0.023492489 -0.003007806 0.00053930137 -0.0032364246 0.0026017672 0.05525026 -0.0018420287 0.003997994 0.057314485 -0.0029418794 -0.031842418 -0.022096328 0.025007678 0.045960326 0.018516578 -0.030900527 0.051778857 -0.026899893 -0.059588432 -0.030481579 0.0025803726 -0.0059093223 -0.002995475 -0.04561762 -0.045830708 -0.0038072653 0.08794735 -0.000273125 -0.025829606 -0.0038176817 -0.0024524503 0.0127627235 -0.0059547396 0.089674614 -0.049241316 -0.028704325 0.020570189 -0.08617362 0.017859848 0.071121864 -0.08408325 -0.0054544974 0.0021331452 0.0013914076 0.05024967 0.04149531 0.014661107 -0.015012118 -0.022777671 0.040407095 0.06582735 -0.01067177 0.09270649 0.038983136 0.083610766 -0.054451924 0.028608104 -0.02758339 0.039269272 0.05727723 0.024045356 -0.009285853 0.0059684855 -0.06053339 0.056789406
1282 0.038092583 0.08517501 -0.023475466 0.043580532 0.0038243507 -0.044368286 0.001689089 -0.015290801 0.07019253 -0.037107002 0.006523103 0.07042 0.027246155 -0.035443228 0.0069387094 0.047835167 -0.0056626475 0.027829643 -0.027346632 -0.060445476 -0.062913656 -0.011238387 -0.089665145 -0.013646842 0.021153351 0.0022248784 -0.026943943 -0.033936586 0.030549545 0.019209594 -0.05357138 -0.0068300418 0.011742494 -0.01126794 -0.03955201 0.0005461116 0.027029833 -0.037760343 0.00095307775 -0.03913306 -0.060824957 -0.021359563 -0.05699476 0.045801234 0.061745636 -0.036406852 0.020082297 -0.02175705 0.038076133 -0.08237254 0.04080453 -0.042503163 -0.003100306 -0.027399715 0.01748379 -0.021381235 0.029070346 0.04327945 -0.019382922 0.04812133 0.034516156 0.016085733 -0.008795539 0.009333267 -0.049081847 0.0043121325 -0.016754953 0.0113551635 -0.05297362 -0.009422178 -0.011809891 0.045059092 -0.019480154 -0.023188338 0.040538106 0.018895984 -0.028694717 -0.04320443 0.010863699 -0.07389867 0.0019031954 0.028179193 -0.02774265 -0.043512657 -0.047093257 0.059024658 0.018347088 -0.062693514 -0.007770666 -0.041162707 0.054682467 -0.010247326 0.017631052 -0.0017789901 -0.040687002 0.0014855071 -0.078100495 0.067393966 0.049128238 -0.02214537 0.07309226 0.06163392 0.008704959 -0.07901522 -0.0015778507 -0.05632376 -0.0028930835 0.001324215 -0.093019456 -0.00043221 -0.10128353 0.003476394 -0.035575632 -0.028833678 0.07230788 -0.0760142 -0.033120472 -0.0050201723 -0.0050930707 0.05266442 0.08652651 -0.043254588 -0.003744968 -0.012617146 0.10056465 0.029345497 -0.064328134 -0.050038535
1107 0.071296476 -0.023375077 0.05853657 -0.020771984 -0.05108161 0.030143224 0.02723394 0.014995275 -0.01765904 -0.037495855 0.012226938 0.040370315 -0.013764042 -0.0656511 0.015582568 0.03596472 -0.023171224 -0.03518178 -0.05251624 -0.047794316 -0.055432696 -0.08073613 -0.03362125 -0.050461676 -0.057276815 -0.013101928 0.0069854064 -0.073696196 -0.02900682 0.041654885 0.06841904 0.01090566 0.0330139 0.026492426 -0.017769117 0.009126795 -0.058668997 0.038416214 -0.047445957 -0.020975672 0.052809138 0.027861064 0.010242667 0.039621893 0.07898357 2.7493315e-05 0.010220622 -0.037755426 0.06869798 -0.016167063 -0.049350798 -0.060594507 0.08493532 -0.03390478 0.08586703 0.057921328 -0.07804667 -0.073712304 -0.0059012864 0.04598394 0.07421538 0.0091343 -0.026988784 -0.023832768 -0.07926356 -0.063142 0.03205124 0.03499535 0.0024896376 0.052508086 -0.05759682 0.044946298 -0.058303133 -0.07871763 0.0016166929 0.079229355 -0.07121557 0.05634975 -0.0290382 -0.042148884 -0.036687076 0.032036915 -0.0056254715 -0.00729277 0.007678452 0.013822271 0.06755036 -0.054515813 0.01876748 -0.06920866 0.09048615 0.00799537 -0.047706265 0.025889374 -0.04293375 -0.016374797 -0.02852263 -0.07577134 0.069437355 0.03049712 -0.015963722 -0.025135852 -0.029431755 -0.031863563 -0.013188903 -0.020578295 0.016449505 -0.013303957 -0.019142214 0.04432891 0.039838206 0.084563896 -0.024955887 0.03403592 0.010109866 -0.00975846 0.06659843 0.03809681 -8.274163e-05 0.020328991 0.04342734 0.030519 0.020541571 -0.064668305 0.037374683 0.056151778 -0.021946741 0.036471475
492 -0.04199605 0.024481615 -0.080663614 0.05051227 0.034367036 0.04521439 0.036468007 0.0005561544 -0.034841776 -0.027778404 -0.10052692 -0.03863139 -0.031218667 -0.041566834 0.031483766 -0.039466284 -0.043320023 0.013035334 -0.008427976 -0.0538332 -0.053438585 0.038722605 -0.05631781 0.013862504 -0.0021776462 -0.011952087 0.009633012 0.023619447 0.0017680513 -0.062519684 -0.026228795 0.049301922 0.049882825 0.021092227 0.02046014 0.039205723 -0.03908006 -0.04253904 0.0064088213 -0.050231166 -0.04259052 -0.019252682 0.00067979324 -0.054648753 -0.027616592 -0.037551407 0.057370868 -0.002099629 0.019359378 0.022197284 -0.008400081 -0.042681936 0.04373988 0.038160793 -0.012456268 -0.047141705 0.0023875386 0.020948244 0.028228458 0.086924426 0.09241171 -0.019060366 0.07240051 0.030900283 0.04069151 -0.0013940007 -0.06513633 -0.010153814 -0.024111174 -0.08765263 -0.021920396 0.017076187 -0.056100108 -0.011248405 0.03262767 -0.016444024 0.016151365 -0.0016969893 0.008065312 0.005530477 -0.007967424 0.027989984 0.027862221 -0.03701253 0.0014491791 -0.045581378 0.04817127 -0.013985288 -0.038080055 0.019438388 -0.06776765 0.0049481667 -0.052238517 0.021694764 -0.05366779 -0.063583955 -0.06326714 0.023991326 -0.09727525 -0.034214433 -0.014767456 0.074834086 -0.06662453 -0.06457169 -0.03606377 -0.017814962 -0.012107875 0.011251891 -0.021681942 0.022632819 -0.06801526 -0.023585102 -0.011954417 -0.052699614 0.050029024 -0.0109307775 -0.024982445 -0.03173092 -0.02125863 -0.02027935 -0.05522692 -0.012036908 0.10261906 0.0053972183 0.06738061 -0.040060278 -0.020253338 0.03496153
1141 -0.07591143 0.10677302 -0.023846082 0.043107726 0.030705448 0.02035582 -0.0108020725 -0.040063977 -0.038794987 -0.022051578 -0.01662411 -0.00781522 -0.08115943 -0.022392515 -0.018006397 0.019566568 0.00804157 -0.068949014 0.03244588 -0.011276091 -0.006096137 0.03897618 0.018100454 -0.019356327 -0.018397007 -0.014094845 0.05938312 -0.016036794 0.0034030636 -0.04295072 0.005488081 0.10358898 0.042772543 0.016337061 -0.011443571 0.027265958 -0.06414096 -0.044380598 0.020617895 -0.002287804 0.049683906 0.010226356 -0.010052239 -0.042311285 0.018140774 -0.05985597 -0.05549203 0.0321725 -0.022286769 -0.0482093 0.009761966 0.045279287 0.029559756 -0.02072293 -0.02712391 -0.033514883 -0.0034950685 -0.061308622 0.0005427994 0.0039961142 0.07335041 0.00458581 -0.0483276 0.013354093 -0.052107535 -0.06801881 0.017077034 -0.015044275 -0.055496003 0.03900801 0.04136374 -0.05235023 -0.0202645 -0.024182523 0.03465872 -0.01891334 -0.073929355 0.07120502 -0.08341466 -0.056208357 0.025085641 -0.043240197 0.018016666 0.023862908 -0.012264478 -0.046689387 0.011761337 0.018388597 0.013767318 0.014364565 -0.010565613 0.02420681 0.037493274 -0.04954518 0.015615345 0.01829777 0.004602211 -0.055191074 -0.04109849 0.046189643 0.032560777 -0.03561269 -0.08162668 -0.012575329 -0.052169967 -0.04905776 -0.05523907 0.068602405 -0.018955616 0.036609963 -0.03383966 -0.066669986 -0.012131102 -0.04547867 -0.036373176 0.08180867 -0.051478855 0.07859575 -0.055953622 -0.047557857 -0.01459287 0.051190905 -0.053023133 -0.07940994 0.076889485 0.05481312 -0.007670482 -0.013384448
954 0.0883291 -0.052716397 0.041857734 -0.06035834 0.06970245 0.015273657 0.08799144 -0.07622969 -0.04017064 -0.066091314 -0.011464476 0.06085384 -0.081616744 -0.04427964 0.04774736 0.090592325 -0.062298108 0.060478967 0.0011904236 0.006383778 0.004870188 0.09012823 -0.003018247 -0.06135995 -0.055786114 0.074511915 -0.0063427514 -0.005452097 0.011886154 -0.06782644 -0.030164605 -0.07017034 0.0122462325 0.0026906426 0.07317541 -0.038119756 -0.0018448144 -0.034757268 0.0030600668 -0.028935427 -0.009330876 -0.03901568 0.010270467 0.013755316 -0.0018382355 -0.0032222827 0.0773601 -0.060989603 0.020240184 -0.024217287 0.008996113 0.020438839 -0.0032535237 -0.012462958 0.05959636 0.011910617 0.027092671 0.041361578 0.036686577 0.020753799 0.014932561 -0.03534827 -0.021463012 0.07824577 -0.0774317 -0.03389776 -0.00054320606 5.0585295e-06 0.03901112 -0.0565802 0.046733186 -0.053635705 -0.0140732955 0.006810278 -0.028473591 0.044002894 0.028971761 0.01901199 0.045443658 -0.08850888 0.042273793 -0.0074607334 -0.06263948 0.0074017863 -0.04207747 0.040694233 -0.025253126 0.09222776 -0.02337569 0.08355585 0.06430277 -0.024778549 -0.017630031 -0.07198688 -0.054688003 -0.004159963 -0.064498544 -0.036382418 -0.049004305 0.019027447 -0.07041655 -0.019818375 -0.0138656385 0.06278991 -0.029372226 0.00850658 0.03770792 -0.0032631084 0.011446916 0.06628512 0.06607336 -0.044377092 0.010628619 0.02306643 -0.0860303 -0.06696808 -0.0024399925 -0.033822253 0.09077186 -0.023656683 0.06334525 0.0140201105 -0.016266126 -0.025226612 0.027076332 -0.010878423 -0.0093417065 0.06293136
812 0.07314915 -0.020579858 -0.049848385 -0.07314972 0.040423326 -0.05272273 0.03686778 -0.04589996 -0.030667758 -0.03954963 -0.0010839917 -0.008820709 -0.012236002 -0.045894284 0.028024053 0.0056323027 -0.08241556 0.0788642 -0.03764585 -0.03331962 0.033399686 6.701723e-05 -0.10470615 -0.08849848 -0.0808732 0.070543304 -0.06450952 0.039562467 0.057971273 -0.061862953 -0.009920885 -0.049291227 0.015207511 -0.031817432 -0.026488598 -0.018517604 0.03222194 -0.040286604 0.0069066305 -0.062549286 -0.0151384445 -0.06707191 0.0024668998 0.047125485 0.0072854003 0.00552894 -0.060497925 -0.058064364 -0.08377364 0.031084806 0.053334523 -0.028087286 -0.037331235 -0.016949313 -0.046869673 0.0059067504 0.07218589 0.038578548 0.037872776 -0.02071048 0.04409041 -0.06541305 -0.06101904 0.0048245434 -0.031184452 0.006420535 -0.00052821584 -0.0036316207 0.004200425 -0.019164031 0.022433437 0.022572525 0.037259378 0.008243544 -0.06633863 -0.052146047 0.017819054 0.02239367 0.03607118 -0.04741219 0.048254866 0.027529303 -0.074915126 -0.0027031715 0.0430789 -0.044922385 -0.042084143 0.020003654 0.08905268 -0.03593322 -0.01555219 -0.0038430751 0.015617116 0.043463733 0.01760922 -0.053223528 -0.008448776 -0.08003304 -0.013874262 -0.07220513 0.06014125 0.011252569 -0.00014732245 0.068677984 -0.053420495 0.053020827 0.05231445 -0.05964739 0.029680233 0.024726596 0.02945395 -0.014218337 -0.071761966 -0.0033204576 0.013992585 -0.023731828 -0.0138718 0.015198587 0.0020126293 0.048338376 0.003535967 0.09078121 -0.040316634 -0.03323356 0.029596468 0.014192963 0.03697902 -0.05000092
201 0.0011320217 0.016511243 0.07300475 -0.05558051 -0.011645163 -0.03844774 0.07856229 -0.0010966881 0.040270593 0.0123791 0.0006586184 0.014132131 -0.08067847 0.0034808968 -0.03344047 -0.022108678 0.013875662 0.04758826 0.0007578866 0.053452015 0.0058032125 0.012911862 0.02153471 -0.022076825 0.032184362 0.04867414 0.019976938 0.016243877 0.043157935 -0.02211999 -0.010049131 -0.040653385 0.0415187 0.024524512 0.0011627309 0.034523286 -0.027955854 -0.006517059 -0.0703115 0.01097189 -0.01653169 0.0045984364 -0.031020796 0.009550402 0.026509391 -0.015220311 0.047442663 -0.034411777 -0.039242152 0.09736852 0.03258904 -0.026265776 0.0220755 0.017875118 0.04167729 -0.07828143 0.07631696 0.03442388 0.019358974 0.037732407 0.008272658 0.0035192922 -0.031781137 0.020585857 0.014860091 0.05002819 0.08786099 -0.028274378 -0.057283446 -0.07129295 0.015803829 -0.018156521 0.013109559 -0.044724885 -0.06552932 0.03919817 0.01702975 -0.023451872 0.0057468256 -0.031785943 0.029229742 -0.022210434 0.038315438 -0.018782299 0.0018331123 0.008822863 -0.01007054 0.033354513 -0.05998381 -0.06433587 -0.04193805 -0.010800573 0.02028897 0.005107798 0.016926453 -0.03922231 0.018522318 -0.013588932 -0.014781998 -0.013731855 0.0824931 -0.0639614 0.039577257 -0.008567264 0.019937668 0.05247975 0.029765239 -0.022116443 0.0215339 -0.07362712 -0.0029131898 0.02045766 -0.023948632 0.08726775 -0.025529034 0.018117948 -0.049476545 0.03526965 0.002185705 0.04001079 -0.024894094 -0.002594771 0.020902814 0.02655212 0.03861723 0.0410909 -0.03501153 -0.02284917
