1818 128
177 0.018163346 -0.02922685 0.056527853 -0.027436122 0.0138332825 -0.014506275 0.053204488 0.025029143 0.034559935 0.06113063 0.043823726 0.00246618 -0.011816515 -0.019758742 0.0055264644 0.04548895 -0.040475294 -0.0063137813 0.0125338 -0.023316804 0.020016277 -0.006685418 -0.028389893 0.05597986 0.024571965 -0.026057597 0.058846768 0.026924722 0.008059387 0.048444487 -0.012162461 0.03450833 0.03370113 0.02148717 0.0041265846 0.079508245 0.0349252 0.03308727 0.028170936 0.04210873 -0.029644994 -0.037875526 -0.06503973 -0.02055616 0.022601431 0.009765148 -0.004530599 -0.040283103 -0.025915569 0.019264907 -0.0014917194 -0.017092474 -0.0056020734 0.0069620754 0.0244955 0.03077322 0.026986036 -0.04762371 0.032148797 0.0101191215 0.032271337 -0.016317228 -0.016934482 0.056277357 0.023426712 0.0065615107 -0.070992224 -0.0552109 -0.06743133 0.062051073 -0.08478635 0.005198102 -0.02747434 -0.0025556842 7.728726e-06 -0.0536526 -0.02700056 0.029962989 0.01563102 0.026021708 0.0040397746 -0.0032387176 -0.0548761 0.019255606 -0.020261914 -0.05405851 0.014098089 0.03392095 0.052839454 -0.058906104 -0.03147731 -0.005074165 0.01383155 -0.021412782 -0.012994902 -0.054670624 0.0026164015 0.047419447 0.02292723 -0.05491188 0.033556256 -0.03817725 -0.041490342 -0.034253865 -0.023674307 -0.009835117 -0.0585893 0.0022942019 -0.016408486 -0.05707074 -0.043507203 0.015447876 0.05534207 0.0016584416 0.029325712 0.007894925 -0.029521368 0.037715275 -0.033848744 0.046365973 -0.0017001395 0.0288399 -0.017601242 0.07499364 -0.026145402 -0.056807484 -0.038857497 -0.032616686
144 0.024847353 -0.010333265 0.05428339 -0.041639075 -0.062991805 -0.022049516 0.010449902 0.01570447 0.092948765 0.0062624216 0.061448902 -0.022701686 -0.016316585 0.0064142165 0.04176094 0.0587718 -0.04548717 -0.016337603 0.028499614 -0.021658957 0.056054454 -0.020694526 0.013907726 -0.023381991 0.020847378 -0.066974774 -0.0053957254 0.04192896 -0.048510715 0.0074607125 0.055318225 0.0040533426 0.021708718 0.051933095 -0.029954985 0.03230435 -0.057342526 0.043333948 0.029757757 -0.016136836 0.018957991 0.018299272 0.058477804 0.033966962 0.049865466 -0.03002781 -0.03067568 -0.017766654 -0.051737305 0.055169217 0.037540413 0.053588144 -0.06541557 -0.07273642 0.011686415 0.001306527 0.025501883 -0.052279904 0.04663745 0.01865486 0.018775197 -0.0060939854 -0.01448036 0.03639322 -0.01148753 0.042229485 -0.03557747 -0.013335365 -0.028995065 0.026989449 -0.072319835 -0.005790516 -0.024613552 -0.021184996 -0.028655227 -0.026216978 0.03673182 0.030303447 -0.02016118 0.024996463 0.006232431 -0.045334734 -0.027283113 -0.024950022 0.012779581 -0.03906679 -0.0033755447 0.025369795 -0.013721919 -0.019433733 -0.020083172 0.06464616 0.057471875 -0.06306763 -0.031051813 0.0030270983 0.029552061 -0.011029478 0.006180614 -0.051641583 0.041541174 0.007391612 0.051524732 0.019829636 0.005714999 -0.04036618 0.05875086 0.02814993 -0.008572123 0.016891345 0.019718641 0.015320229 -0.039793473 0.039994683 -0.05943144 0.03955983 -0.005257781 -0.039410178 -0.048281044 -0.034505397 -0.050998937 0.036198694 -0.05197633 -0.0001427622 -0.013036071 -0.0318496 -0.053490732 -0.020979762
1622 -0.035438303 0.041771617 0.0060974173 -0.016162442 0.022199411 -0.0010157321 -0.018303657 -0.04298656 0.052736267 0.05630527 -0.051779114 -0.0051195296 -0.031198677 -0.013860322 0.040009376 0.021969063 -0.011618556 -0.01296576 0.05862193 0.073039584 -0.056369986 0.015976844 0.009790128 0.012363333 -0.06948962 0.0001554033 -0.08029208 -0.013288903 -0.058639564 -0.094026655 -0.014841707 -0.010717031 0.004559037 -0.08128469 -0.0018976707 0.033143315 0.041041836 -0.04939166 -0.058506124 -0.003816349 0.051527314 0.017308561 0.06869729 -0.004303948 -0.044056106 0.009481507 0.0029033786 0.024756247 -0.0016755883 0.016579758 0.023202633 0.011661455 -0.045777254 -0.059658106 0.015069479 -0.07597214 0.0013001353 -0.024841301 -0.008110001 -0.001123076 -0.019054804 -0.031386714 0.026430149 0.04001565 -0.0030586421 -0.0004903941 0.050263077 -0.052416325 0.008662474 0.008545357 -0.0057955156 -0.017089795 -0.019754365 0.028785128 0.040859263 -0.030760942 0.0435964 0.004390319 -0.048807964 0.023632264 0.059297983 -0.056357466 0.014511734 0.009601551 0.021242544 0.013138134 0.0375693 -0.034132358 -0.07563761 0.05080461 -0.048309233 -0.06053438 0.0048268945 0.05634629 -0.07155594 0.042773444 0.049094293 0.044230107 0.032418918 -0.006663582 0.03446874 0.016701894 -0.02121852 0.004436449 0.039898597 0.03921906 0.005137693 0.0019911705 -0.026148101 0.026380384 0.05570216 -0.0037183838 -0.07514618 0.0059096743 -0.069118224 0.026784671 0.044582695 -0.02224267 0.0056620208 0.056265544 -0.031337243 0.037924707 0.018939013 0.05057206 0.051372733 -0.018854832 -0.012890418 -0.00722133
21 0.031929485 0.025345998 -0.023058645 0.008682137 -0.02731435 0.036530998 0.03865354 -0.030015422 -0.014989044 -0.058612656 0.011159653 0.018149622 0.023255195 -0.03587902 -0.08288416 0.059398685 0.027120467 0.039066967 0.006640153 -0.0031682912 -0.01922924 0.008821429 0.01827987 -0.048414037 -0.04482122 -0.03254973 0.026870938 0.02911214 0.015722087 -0.05656491 -0.06317674 -0.026303075 0.012892518 -0.0026955921 -0.09548717 -0.010838187 0.03605854 -0.041138932 0.0151151735 0.0073814276 0.031965826 -0.037088327 0.023081552 0.01683748 -0.065665595 -0.02444866 -0.011930093 -0.0081829615 0.0035098891 -0.0018190402 0.032247365 0.027892884 -0.037819944 0.010129284 -0.043552075 -0.0036150336 -0.00024598395 -0.072260015 -0.01790069 -0.011243767 -0.016175648 0.016350612 -0.0032371518 -0.002767698 0.06630469 -0.01458347 0.037859928 -0.07185305 -0.0020915878 -0.008456862 0.013974306 -0.008877441 -0.037760127 0.02628203 0.033445887 0.009255229 0.037443478 -0.021508398 -0.06587058 -0.0009776172 0.03745617 -0.034627702 0.015349879 -0.022812475 -0.009961012 0.05932161 -0.0011577476 -0.05869055 -0.00043311462 -0.032440733 -0.02122974 -0.020731399 0.042815913 -0.012697528 -0.0036511954 -0.021121304 0.025298234 -0.07034729 0.04596246 -0.02986052 0.015928773 -0.06000329 0.017929027 0.006754923 0.024195267 -0.019687735 0.005138744 0.028692236 -0.055390943 -0.04084339 -0.01846504 -0.013087104 -0.024113914 -0.018016193 -0.044478975 0.050726064 -0.005900572 -0.0022327472 0.014244163 0.05605202 0.031807516 0.043256868 0.058053717 0.08383637 0.031262815 0.042221252 0.019975409 -0.005053637
182 0.060700722 -0.03681064 -0.02305371 -0.041349314 -0.017607167 0.022756768 0.04225226 -0.0059628817 -0.0034507702 -0.0022285674 -0.024727382 -0.0145711545 -0.01219192 -0.030753229 0.047256324 -0.010199049 0.04908687 -0.021417122 0.022667028 -0.021306615 -0.06410168 0.051628157 0.007996786 -0.039623108 0.053251 -0.0319813 -0.006125652 -0.0014821955 -0.051556375 0.0101238 -0.0063117025 -0.0011963547 -0.025163991 0.003644859 -0.009776258 0.00067308167 0.021223744 -0.024456779 -0.009685902 0.04483016 -0.030200714 -0.036268942 0.024743127 0.021439033 -0.04107886 2.8458264e-05 0.009772318 -0.039776158 0.014392046 0.0055605453 0.020116782 -0.078895554 0.022274012 0.017467294 -0.017540712 -0.053194966 0.025966557 -0.017682226 -0.052858554 -0.037922412 -0.017782211 0.006339923 -0.018816888 0.009549155 0.0023256135 -0.05483676 -0.0244644 -0.01571752 -0.035474274 0.0226483 0.000262742 -0.055946402 0.01969092 0.03753259 0.00985281 -0.07732771 -0.032603618 0.0018315235 0.054341435 0.034408707 0.010583027 -0.030955581 -0.042343974 -0.051560726 0.031360753 -0.014565827 0.04641758 -0.020948755 0.029395884 -0.006761692 -0.053732738 -0.0112693105 -0.015533148 0.032081783 -0.053574968 -0.02251396 -0.03413076 -0.03301302 0.009878544 -0.009294324 -0.08846342 0.014536011 -0.0004947787 0.02491053 -0.09061278 0.016850349 -0.054095633 -0.00023361095 0.009247926 0.0218453 -0.0161486 0.069665276 0.03521586 0.072443366 0.014318967 0.023781113 0.064840846 0.03484412 -0.036316957 -0.035169344 0.037042234 0.02587367 0.029779842 0.034226816 -0.03771483 -0.017058028 0.03655972 -0.06349819
634 0.038393304 -0.050857123 -0.04335753 0.014249696 0.035423394 0.07753522 -0.023137558 -0.022743536 -0.024159161 -0.045139298 -0.059834454 -0.020136349 -0.016864996 0.050541367 0.088173114 0.0065646125 0.052589282 0.016593521 0.011447278 0.0067328177 0.042859867 0.07998389 0.06512233 0.005063956 0.04682482 -0.02275068 0.04166389 0.025157603 0.013117595 -0.04859676 -0.06055964 -0.03433281 -0.026403457 -0.020406697 -0.038121067 0.025292765 -0.023766873 -0.089397624 0.061955895 0.032275084 0.0071398905 -0.055946864 0.0018620575 0.0010219829 -0.07027804 0.025670208 -0.044604782 0.016073281 -0.03976577 -0.096672 0.084596604 -0.09279088 -0.013986818 -0.072174385 -0.022173917 -0.02882897 -0.015958771 0.083814286 -0.027053682 0.0275345 -0.080255486 0.046988726 -0.048938148 0.110305965 -0.04630967 -0.022306548 0.0036750503 0.014823642 -0.034031138 0.04503919 -0.030950708 0.0057412726 -0.04349399 0.022949718 -0.051869802 -0.06675039 0.02811289 0.009084582 0.021047281 0.059125025 -0.012932553 -0.036439616 0.057917587 -0.020622687 0.02428945 0.009321959 -0.0013912895 0.008374887 -0.0137608 -0.028183702 -0.041014273 -0.02582779 0.0018968744 0.019237574 0.023143522 -0.007326132 -0.008522094 -0.065864995 0.0061823404 -0.007614031 -0.05435861 -0.055925224 -0.0025478802 -0.007502689 -0.045628127 0.028370816 -0.041167315 -0.036116295 -0.021027757 -0.00471256 -0.009532714 0.033438496 0.061221957 0.037605528 0.030146992 0.023658128 -0.018042894 0.012656091 -0.029676765 -0.013035302 0.023334369 0.05345979 0.009766756 -0.036261823 0.017119734 -0.0021801563 -0.032745242 -0.05357157
2145 0.013166836 -0.06664809 -0.015802965 -0.045288824 0.0583033 0.0072699343 -0.07682967 0.053879112 0.071517035 0.072517395 -0.075105935 -0.035920747 -0.018809538 0.075865775 0.0662896 -0.0010574701 -0.025289983 -0.04452682 -0.041358467 -0.038976002 0.041522153 -0.004748095 0.018133126 0.009919901 0.03667792 0.042047683 -0.038504273 -0.020635162 -0.036035247 -0.023919633 0.05820142 0.008211052 0.009240104 -0.017149903 0.0056024822 0.04544465 -0.00088311324 -0.007035123 -0.046356015 0.013797224 -0.047348633 0.030731041 -0.014721031 0.024164028 0.005328417 0.040978216 -0.02087156 -0.008458398 -0.009999988 0.08056817 0.041632038 -0.015437749 -0.026822958 0.011346456 -0.0067572845 0.077880636 0.011827044 -0.024301287 -0.0345749 0.044074744 0.00096065353 0.021506622 0.038956225 0.016889898 0.024426524 -0.015499945 0.009296861 -0.0056899404 -0.03296945 0.019251926 0.07317909 -0.084944874 0.02422062 -0.008246447 0.030718006 0.008548843 -0.005629236 0.042174365 -0.04268343 -0.024627715 0.004269965 0.043820664 -0.0240012 0.018302068 0.034970764 0.028811427 0.0008439952 -0.032432128 -0.07316143 0.040387508 0.06513435 -0.0064295484 0.009937609 -0.002102433 -0.046668142 0.06321398 -0.06014964 0.03339141 0.044240262 -0.0044545713 -0.027475215 -0.01629459 -0.060063764 0.031212067 0.007614635 -0.04212252 0.008016735 -0.037922148 -0.00027681421 0.03683384 -0.045038756 -0.02083643 -0.02655522 -0.021321371 -0.048371483 -0.004142611 0.024013352 -0.0020910075 -0.0099459 -0.011988109 0.0027578273 0.051293135 0.007572735 -0.04470034 -0.01983523 -0.001814781 0.0047778874 -0.026045902
134 0.040848527 -0.09302444 0.010839573 -0.03169564 -0.0123634925 0.06065241 -0.020206355 0.015344312 0.03252392 0.05947786 -0.01137498 0.020469455 0.100003265 0.032342207 0.010210957 -0.059168242 0.044210814 0.02756036 -0.06573998 -0.041832376 0.013083963 -0.068675935 0.014807826 -0.019968476 -0.0626749 -0.015869217 -0.017403353 0.036786657 -0.0023239695 0.0853529 -0.009167929 -0.015019489 0.038777687 0.010763711 0.030585848 -0.0012870977 0.030261438 0.011545762 -0.015722869 -0.052120976 0.06543946 0.008910761 0.034021534 0.05440324 0.08749961 0.015272123 -0.050512485 0.0061396826 -0.049599487 0.06064712 -0.052558247 -0.10149733 0.00352089 0.042813256 -0.026221333 0.06997915 -0.005630231 0.029946845 0.011406676 -0.038701534 0.041608013 -0.040949073 0.07484841 -0.029906727 -0.01861378 -0.004799299 -0.012808652 0.008131341 0.0322018 0.05625988 0.031128298 -0.0015812434 0.0537909 0.025239056 0.012895432 -0.03927214 0.027661506 0.028752796 0.014446981 0.0013146285 -0.0004955747 -0.0076326155 -0.047039285 -0.018655814 0.021538617 0.042957198 0.023742205 -0.046058826 0.030880105 -0.059016675 0.013813526 0.0064982376 0.018447746 0.04688715 -0.02535877 0.009907552 -0.006302758 -0.006526407 -0.045196835 -0.052175708 -0.013612919 0.029062374 0.02501417 0.036180064 0.03641685 0.019235196 0.017638888 0.015901133 0.007896169 -0.051008422 -0.011586638 0.019467514 -0.03633645 0.03820135 0.044071827 -0.050312337 -0.018325135 0.013787596 0.050054494 -0.044155236 0.011814472 0.022732558 0.03210031 -0.012987141 0.0051860656 0.0022977837 -0.038165096 -0.023664994
1820 -0.017945444 -0.030187095 -0.0071752695 0.066938214 0.012118139 -0.07322712 -0.006926434 -0.02663294 -0.003065107 -0.019863216 0.009874563 -0.017281562 0.008004324 -0.031596046 0.030300442 0.019669598 -0.0110741025 -0.03038415 -0.011286599 -0.042963058 0.077813186 -0.013625326 0.06650854 -0.050849624 0.056747086 -0.03840468 -0.030899994 0.010113254 0.022437396 -0.008798096 -0.053000305 0.08071292 -0.029007806 0.041551195 -0.028442325 0.050071444 -0.0065853647 0.055092208 -0.042825457 -0.020788362 0.0039552706 0.08163688 -0.021525737 0.057915065 0.053701982 -0.02265958 0.0011419122 0.03700549 -0.06213241 0.0037804248 0.009563887 0.03372166 0.02509289 -0.03760324 -0.056710757 0.021686312 -0.0472337 0.005531845 0.026284464 0.015570712 -0.022801852 -0.021187538 0.020291645 0.014196303 -0.040990867 -0.014017253 0.0055650678 -0.051394187 0.036062468 -0.008139717 -0.0060391417 -0.020731267 0.049834237 -0.04823747 -0.016306445 -0.010547054 0.0046338043 0.061786316 0.028870866 -0.014014902 -0.0055843005 0.07709471 0.025651861 0.0388732 0.016778607 0.0082331095 -0.0021346216 -0.020975618 -0.005932167 -0.07399922 -0.009153999 -0.04164038 0.006096614 -0.028219992 0.026384246 -0.013641845 0.026461042 0.06379815 0.029329378 0.02800914 0.011307169 0.0069293682 -0.022590393 -0.06532135 0.054897256 -0.05972487 -0.007315056 -0.028125692 0.05890731 0.051251248 -0.056473654 0.043504354 -0.001260298 -0.056935474 0.06505523 -0.03969506 -0.0067755976 -0.02222162 -0.073675215 0.040599175 -0.030537847 -0.02112142 0.020907091 0.05448692 -0.04824987 0.021437267 -0.04384355 0.0050942954
1620 0.027283024 -0.049248066 -0.067088574 -0.051798716 0.007407848 -0.05221415 0.009724529 -0.045871966 0.017855307 -0.0019857406 0.009307591 -0.03722668 -0.035180848 -0.019921472 0.04257516 -0.008440949 0.007979695 -0.088271335 0.0039560706 -0.038597245 0.0378604 -0.059570294 0.051880844 -0.033959832 -0.0007625929 -0.040700432 -0.04587659 -0.018142844 -0.011075007 0.054388586 -0.0036272928 0.08556931 0.015507001 0.08502714 -0.037290506 0.048134346 -0.03357827 0.045767788 -0.036135845 -0.020011347 0.008253864 -0.010134115 -0.025398182 0.010412577 -0.019137606 -0.05163322 0.06257916 -0.036993165 -0.010691942 0.008115977 -0.016176017 0.013841039 -0.06993788 -0.06175183 -0.059816174 -0.032551665 -0.058508057 0.015617865 0.007183592 -0.03945556 -0.022367693 -0.08418388 -0.044020806 0.0036771386 -0.02166652 -0.031859227 0.056196675 0.041818872 0.06762032 -0.062130664 -0.03830765 0.0008408151 0.029483223 0.042221814 -0.018186778 -0.07248885 0.00094657444 0.02508612 -0.0064395186 -0.016197052 0.020818457 -0.027618652 0.042004094 0.03481596 0.02767956 0.027232759 0.04533233 -0.0022216514 -0.033484846 -0.020216 0.0062910407 -0.061322726 -0.012845145 0.058977667 0.068854645 0.012315753 0.061190635 0.0064193862 0.015252625 0.0122709405 0.010492517 0.0017065512 -0.045546792 -0.039966676 0.04304087 0.0055532716 -0.050461177 -0.073331684 -0.04450291 0.017718244 0.026501657 0.036180582 -0.031254977 0.031620868 0.0075072413 -0.011621666 -0.03239575 0.060539316 -0.03092991 0.012740135 0.016938496 -0.0070089325 0.012904329 0.02080461 0.017573431 0.035406683 -0.0012511947 0.06504156
136 -0.035628706 0.041433547 -0.08530067 0.049344875 -0.03133914 -0.0122031635 0.034795355 -0.040347297 0.03586962 0.038850375 -0.0008462318 -0.029576998 -0.015006538 0.08544966 0.045838244 -0.01699456 0.04263455 -0.06431213 0.014996013 -0.006674804 0.012224705 0.053846456 0.08008954 -0.008845082 0.009543305 -0.024354666 0.016172424 0.021051278 0.019776136 -0.02676879 0.0441072 0.072698906 0.018563738 -0.029165575 -0.06997193 -0.06595621 0.052103028 0.022052273 -0.015796918 0.07655943 -0.047216915 0.0047780154 -0.03120394 0.036953874 -0.0037860353 -0.08019016 -0.069473304 -0.0110089965 0.0140019 -0.007068248 -0.025084073 0.0013020879 -0.013314968 0.07412594 -0.014424169 -0.06556001 0.03365337 0.02588952 0.014838171 0.020651057 0.024294231 -0.038689476 0.033546623 0.03462969 0.04464325 0.07410489 0.05849379 -0.021662656 0.03606063 -0.041906603 -0.04077897 0.039258268 0.020102153 -0.01837115 -0.010399405 0.006785297 0.08512282 0.014322172 0.06564248 -0.04235934 -0.009201308 -0.029126864 0.027638137 0.030678581 0.06304977 -0.02723997 0.035644796 0.017068153 0.036163155 -0.04911331 -0.014354238 -0.06950177 -0.04195999 -0.0226025 0.0037520973 -0.008661589 -0.0002763043 -0.02616639 -0.029336546 -0.0005039747 -0.029910484 0.009383235 -0.016660504 -0.08832882 0.040844157 0.03574189 -0.020749047 0.03989829 0.031290576 0.006849044 0.04208255 0.040748704 0.010892315 0.060715772 0.032218933 0.04115194 0.00017884086 0.019286448 -0.045722283 -0.04351563 -0.008052441 0.01990227 -0.0058139525 0.027496533 0.06822499 0.019467942 0.042493306 0.045802128
115 0.022211384 -0.016559271 -0.056544792 0.08241207 -0.018493213 -0.020213347 0.009510136 -0.07875812 -0.0058809314 0.016427841 -0.009849588 -0.019513175 -0.034389544 -0.013605406 0.04759791 0.036048695 0.033358157 -0.053615354 -0.03428829 -0.03607844 0.036222886 -0.032706242 -0.011693599 -0.0038038678 0.051883873 -0.08676263 -0.01723486 0.012476034 0.009805202 -0.034376767 -0.00093095086 0.020293256 -0.0001300002 0.0064299013 -0.0397038 -0.0285421 -0.052736323 0.001190617 -0.05192362 -0.024485335 -0.0013176637 0.039374903 0.026158715 0.00014164142 -0.024985204 -0.045298487 -0.051954057 -0.028793836 -0.049018227 -0.007260575 0.013885282 0.006264286 -0.012348197 -0.014395485 -0.017184082 -0.034711957 -0.017434726 -0.0440188 0.030886104 0.022433164 -0.032785244 0.011016879 -0.013876071 -0.006233742 0.03351993 0.016665682 -0.032216467 0.017600277 0.016880056 0.0023926618 -0.033688866 -0.05974148 0.010156372 0.0856668 0.04902707 -0.0043971 -0.060283054 0.036646448 0.03529521 0.053146064 -0.03723724 0.063232206 -0.028139334 0.0006259596 -0.031720307 -0.016801978 0.023844687 -0.0457663 -0.052690543 -0.00388435 -0.018210363 0.029238176 -0.044510715 -0.05132638 -0.013400742 0.019423747 0.022361847 0.011323622 0.034279622 0.034253884 -0.013195397 0.037213184 0.04484989 -0.0593682 0.0046895086 0.017471151 0.074796505 0.046475172 0.017946744 -0.02621335 -0.0053457804 0.016975714 -0.0038782838 0.03700322 0.016400706 0.032111302 0.05131941 -0.007489763 -0.03428544 -0.029598664 -0.010964106 0.033200167 0.017378762 0.000957645 -0.07515534 0.038580213 -0.018664157 -0.062630765
186 0.023289135 0.059985943 0.054747175 -0.0531252 0.0101189315 0.009905755 -0.015695376 0.0014488326 0.004817605 0.037495095 -0.009923036 -0.06071946 -0.08516639 -0.025908839 -0.05370818 -0.013876096 0.03984149 -0.04902652 -0.0011252733 -0.021346314 0.010262502 0.010503768 -0.061612487 0.03604532 -0.03029199 0.0057211304 0.013033393 -0.04782395 0.013816795 -0.016443802 -0.078246616 0.05794137 -0.053822223 0.031676784 -0.03573322 -0.011840742 -0.027368521 0.023154577 -0.021586355 0.001652158 0.0064910273 0.02444675 -0.019996215 0.005213034 -0.002973102 0.030983979 0.0044333693 0.014150137 0.016150646 0.05208262 0.03629811 -0.059069708 0.017983252 0.05164012 0.04318155 0.022155158 0.060341995 -0.03671988 -0.0066190963 0.038633414 0.02981275 0.03815364 -0.013922768 0.04743603 0.028481402 0.05124271 0.0020688663 -0.036965035 0.03347971 0.021795776 0.038949702 0.026808951 0.0612511 -0.020691363 -0.027150355 0.008100232 0.04533602 0.002973547 0.04245113 -0.011460646 0.030315205 0.029571924 0.0146645745 0.03569189 0.027005857 -0.049450237 0.046152346 -0.012252192 0.016425904 0.016515853 0.02464105 -0.066372894 -0.060376476 -0.01961105 -0.05288326 -0.02610141 -0.028045624 -0.028137788 0.02056653 0.051752426 0.012479376 -0.02964449 -0.0053592566 -0.03865672 -0.008057494 0.026259212 0.01726583 0.04225499 0.04855854 0.04883418 0.026806789 -0.04420706 0.035533044 0.029791677 0.041434377 0.020474227 0.012458491 -0.0074478975 -0.0036886858 -0.0150223095 -0.02086676 0.019125687 -0.010180729 0.06306083 -0.018043432 0.05795087 0.020024898 0.024043348
540 0.0029585252 0.01632909 0.024639647 -0.038211394 0.013988839 -0.025173442 0.022607237 -0.0017771515 0.06280682 0.0172857 -0.000106283456 -0.03364623 -0.055184897 0.030715918 -0.016513815 -0.028763046 0.0011130039 0.0360843 0.037813332 0.05195095 -0.04250744 0.062081795 -0.04653798 0.014562573 0.0051107756 -0.013331718 0.035138704 -0.05897053 -0.0073172306 0.0072407695 -0.047946062 0.039098646 0.0069440803 0.00958318 -0.012327218 0.01646774 0.0039186236 0.0027537376 0.04776885 0.018231332 0.030331157 0.04212156 -0.07184573 0.01531018 -0.023280444 0.01501626 -0.022758996 -0.08649059 -0.03929558 0.08493579 0.009227479 0.019712826 -0.020550426 0.014520718 0.04684036 0.074849546 0.023801664 0.01502892 0.05955554 0.012774862 0.008440724 -0.01266423 -0.016631948 0.009249314 0.05456907 0.026525466 0.011291421 0.027709916 0.0723582 0.00930531 0.030849075 -0.0062477235 0.033671837 -0.02218746 0.010993894 0.0074908305 0.03517642 0.03388956 0.009386153 -0.004832328 -0.02216666 -0.0010038626 -0.007877612 -0.0031251446 0.003397125 0.023442784 -0.0128695825 -0.014737258 -0.05335372 0.008571167 0.019645823 0.023893438 -0.05995195 0.031714395 0.04556855 -0.052304685 0.012175353 0.04765814 0.021075191 0.017569674 -0.03593727 -0.023375476 0.070332296 0.055649303 -0.0021965038 0.02808287 0.022656664 0.047486316 0.012110116 -0.007020112 0.01782667 -0.064524986 0.014748975 -0.028923929 -0.016662266 0.048653256 -0.019363161 0.029320912 -0.02857164 -0.043540366 0.0011788873 0.026081122 0.015643379 -0.02212455 0.02964053 0.04279099 0.031424467 -0.0103454385
1767 -0.006948597 0.009821182 0.021209668 0.028842682 0.002922732 -0.02837592 0.0845531 0.013218282 0.014059116 -0.028485391 -0.04123938 0.049857594 0.019756861 0.00242011 -0.02419411 -0.04007423 0.092039764 -0.045822337 0.018627714 0.055175304 -0.024283348 -0.025420837 0.035346813 0.0038033926 -0.0135566695 -0.027665244 -0.0247308 -0.030608188 0.028725624 -0.020185597 -0.012577061 -0.027086921 -0.062864706 -0.05491453 -0.08197617 0.024936127 0.026666317 -0.0068288455 0.046019334 0.06738553 -0.035608754 -0.012124203 -0.0071069025 0.0137039395 0.026636964 -0.031918768 0.030894252 0.023065802 -0.00088191865 0.007822383 0.025593331 -0.018625202 -0.06328741 0.0034094867 -0.014139157 -0.0111832265 -0.033807963 0.01601682 -0.055216048 -0.022560995 0.06344947 -0.038548376 0.03463001 -0.005596785 0.013780123 -0.01456995 0.01841873 0.030465025 0.03376186 -0.059635848 0.042992555 0.031503197 -0.028647149 -0.012206243 0.006679375 0.01855507 0.0019599607 -0.06294929 -0.05036665 -0.031435717 -0.031806473 -0.0046819933 -0.03410862 0.04157809 0.056366805 0.0072874413 -0.045361795 -0.015823472 0.002204429 0.052095987 0.019493222 0.005793587 -0.045257308 0.06792828 0.0468876 0.06439141 -0.05312607 0.07233095 0.042120162 -0.00059852074 -0.0892469 -0.0016307438 -0.005866089 0.010615059 -0.01016899 -0.022331215 0.0019462507 0.016982274 -0.029592078 -0.048138153 0.027720483 -0.04042771 -0.034275547 -0.013668755 -0.07491957 0.038444687 -0.007892009 0.010960247 0.017240914 -0.02092304 -0.0488901 0.003874898 0.068273276 -0.059219442 0.01259097 -0.02841402 0.0060210815 -0.06575307
631 -0.002363511 0.010879366 -0.030894168 -0.012114346 -0.049152117 0.019122783 0.020107036 0.007413935 0.013701133 -0.050899383 0.0035683147 -0.0077281035 0.037391745 0.018551137 0.037924908 -0.02775946 0.07489924 0.015458671 -0.0038470023 0.06634375 -0.0018164436 0.014188504 0.08611057 -0.0019493342 -0.023294635 0.015663208 0.034232352 0.011825011 -0.026684195 0.025580911 0.040871844 -0.018371675 -0.051039077 -0.05544775 -0.07631976 -0.08743508 0.060783856 0.017729638 -0.010090767 -0.040656205 0.010086258 0.016775008 0.044235058 0.005343755 -0.05780178 -0.016812056 -0.0062789726 0.0051534874 -0.023563987 0.07029475 -0.0056633223 0.001024977 -0.046771817 0.05809195 -0.0040076524 0.05991175 -0.022373026 0.07313316 -0.037509847 0.020982625 0.007025398 -0.0016198615 0.024782924 -0.010857297 0.034339763 -0.0067910715 -0.003597528 -0.0663525 0.014111163 -0.006798225 0.016480474 0.02585417 0.023794197 -0.02420414 0.00093658024 -0.007647358 -0.01407935 -0.048708934 0.019069592 0.04072071 -0.021438092 -0.020459894 -0.0116679035 0.03047214 0.021276165 0.020790698 0.011126293 -0.049438167 -0.04574059 0.018054718 -0.012349339 0.027539818 -0.023131937 0.088744976 -0.011289385 0.062875025 0.01589953 -0.02922707 0.0170717 0.024086393 -0.01732127 -0.032432005 0.012623938 -0.004631828 -0.027504597 -0.03678927 0.030033026 0.007377034 0.0025045378 0.059376948 -0.011916235 -0.07907909 0.0523424 -0.0012724962 -0.038866796 0.010571056 -0.015435167 0.054438867 0.0065058 -0.010556513 -0.011687374 0.04629984 0.008362298 -0.052193314 0.032291856 0.039629474 -0.022164125 0.028794426
157 0.041161258 -0.0007076439 -0.004969188 0.007975575 0.0024323734 -0.012911395 0.013527801 -0.02843269 0.024494253 0.024449524 0.04964844 -0.03857065 -0.0041775643 0.04946309 -0.034543205 -0.020048216 0.025077663 -0.014755253 0.012539475 0.05550133 -0.060483042 -0.0712672 -0.043701455 -0.026164684 -0.024339074 0.04726376 -0.0065688635 -0.0002932037 -0.0024468044 -0.011557012 -0.0050550136 -0.017460171 -0.009268977 -0.015760984 0.0010320148 0.027865272 -0.008506665 -0.011666268 0.05289638 -0.060958844 -0.04031928 0.06552088 -0.05248972 -0.03323049 0.014477632 0.03967117 0.00032342592 0.010350979 0.052671086 -0.009775679 0.022886928 -0.01331632 -0.00020917441 0.061713137 0.010734986 0.012681411 0.024423925 -0.003480089 -0.020202441 -0.01297289 -0.010055933 -0.030845897 -0.0088608945 0.0052570812 -0.040055584 0.017546723 0.001674275 -0.026230805 0.05321408 0.020505717 0.05530377 -0.059536114 -0.050873738 -0.016647585 0.017089209 -0.04195316 0.004938524 0.0026476963 -0.0527955 -0.04101566 -0.008964818 0.040044904 0.058740914 -0.011648904 -0.038367223 -0.03019388 -0.058587838 0.017813908 0.03822968 -0.046773914 -0.0049151937 0.015161851 -0.063121185 -0.011444498 -0.00010582191 -0.0037514735 -0.0420331 0.0028892877 0.054592103 -0.0017963666 -0.030966112 -0.0069650016 -0.0044707693 -0.046940293 0.051362384 1.6995473e-06 0.0057882643 -0.041176546 0.01862265 0.051124472 0.019762488 -0.003158512 0.035338476 -0.03399921 -0.0038979764 -0.002349931 -0.009088774 -0.005092656 0.0029419342 -0.028492786 -0.016683947 -0.028972954 -2.5881083e-05 -0.041196592 -0.018529126 -0.029829735 -0.009941575 0.012625182
369 0.049909364 0.023542099 0.01861017 0.0034564761 -0.029997991 -0.0037945916 -0.0028972905 -0.022378126 0.004461618 0.041191436 -0.0062514935 -0.00022237789 -0.032656692 -0.042134576 -0.05037474 -0.038789336 0.034605876 0.0022408476 0.05006343 0.051261302 -0.034458056 -0.002828024 0.07620401 0.040744655 -0.05743795 0.06011933 -0.03240466 -0.04745713 0.0058662924 -0.0588019 -0.08962198 0.018673604 0.01716842 0.031110907 -0.015178096 -0.021909785 -0.05359542 0.038722258 0.024831032 -0.052070804 0.026634047 0.102202 -0.0050459453 -0.024994751 -0.029082308 0.017422266 0.015152507 0.014916874 0.059656773 -0.025864642 -0.06161749 -0.022887737 -0.025475476 0.013859019 -0.051700786 0.073683836 0.038575076 -0.025676765 0.007594537 -0.032518297 0.03899626 -0.020333735 0.025309311 -0.030460732 0.029849593 0.037006658 0.013575634 -0.04780015 0.027017104 -0.044211734 0.031337164 0.01976301 -0.005307241 -0.05718142 -0.05490799 0.038895313 0.00961415 -0.003878287 -0.06447897 -0.058734976 0.023650972 0.01902513 0.023807827 -0.03108026 0.040649716 -0.014467059 0.0129029825 -0.007146127 0.042514276 -0.044085 -0.021934967 0.011936653 0.010121624 -0.060828567 -0.03313644 -0.0042712013 0.02319853 -0.028268263 -0.0011812173 0.013269884 0.041658014 -0.023855263 -0.001221514 -0.04855217 -0.018276205 -0.07055624 -0.041139442 0.037676793 0.03627559 -0.015053672 -0.03547219 0.015337023 -0.011528423 -0.016426826 0.050630152 -0.005831052 -0.03985208 -0.004619813 -0.00720516 -0.017886769 0.03526721 -0.0047540045 0.022300392 -0.0077623636 -0.006854532 -0.06399442 -0.054125797 -0.01736328
108 0.00067954825 0.024316227 0.018830776 -0.0028734969 -0.023922425 -0.036005553 -0.03434328 0.013504414 -0.08395073 0.008989776 -0.030985558 -0.006814255 0.024844054 0.0070563834 0.048687782 0.037392963 0.036043104 -0.0002658797 0.00632871 0.052529145 0.05707814 0.02786668 -0.02200601 -0.011928891 0.016008005 -0.05195785 0.03231 0.031378902 -0.0047331145 -0.031881638 -0.020701196 0.04007266 0.025522092 -0.009416156 0.02781983 0.018222205 0.052576438 -0.064570755 -0.036172792 0.03534146 -0.00914457 -0.01731454 -0.008238171 0.0020644395 0.0022989062 0.013203389 -0.036942407 -0.041199714 -0.032194886 -0.05017213 -0.0060881744 0.020963982 0.027896004 -0.034206394 0.023283169 -0.0072600837 -0.024672791 -0.018032378 -0.0080875335 0.0534053 0.017255219 0.028029028 -0.016458541 0.035063766 0.051021896 0.014985422 -0.06438763 0.012578458 -0.00030749623 0.071878634 0.06336752 0.025035596 -0.044829454 -0.031559948 -0.050595395 0.017119134 0.05154876 0.05288834 -0.017708685 0.062602445 0.023336614 -0.010878835 -0.015942732 -0.0027407433 0.03247855 -0.04900869 -0.021968411 -0.0062349313 -0.005042434 0.032843433 -0.032495633 -0.02168309 -0.076430134 -0.044942513 0.07020314 0.021681301 0.030057708 -0.07306273 -0.020154621 -0.038846515 0.0070346408 0.010351303 0.024987662 0.040071532 -0.016320603 0.019326435 -0.054307282 0.027230825 -0.007933809 0.07168268 0.06299501 -0.0030936396 0.06384054 -0.013835683 0.030715968 0.045641042 -0.010422677 0.078729756 0.036207 -0.015097999 0.028061558 -0.022585364 0.04691414 0.033732686 0.01272286 -0.05424318 0.04650729 -0.01689156
1907 0.036556 -0.060431167 -0.015838206 0.057970162 0.007573665 -0.01708096 0.02295936 -0.007341305 0.0014810613 0.013295995 0.0095929615 0.048689622 0.06722575 -0.038866606 -0.015938427 -0.011146967 0.0016803434 -0.0010052208 -0.02100372 -0.018991413 -0.0013085215 -0.032984257 -0.04788249 -0.06441846 0.024687113 -0.021573454 0.0057744035 -0.007125827 0.046891067 0.036013257 0.03671107 0.0057152766 0.016906206 -0.05987413 -0.0338548 -0.019731129 0.060626946 -0.043082565 0.011929875 0.011224531 -0.010618402 0.028093763 -0.052410375 0.019085314 0.023185713 -0.021794176 0.028770177 -0.051065285 0.039004218 -0.011237027 -0.047678214 0.04679522 0.09228965 -0.042270407 -0.036032543 -0.007042717 -0.054304786 -0.0018268276 0.010912301 0.006859571 0.00804753 0.019653482 0.066164315 0.07749481 0.00054530764 0.020561634 0.031637836 -0.04002083 -0.023225255 0.04806857 0.02824745 -0.008633833 0.0521982 -0.02041798 0.008376182 0.03297636 -0.018227566 0.0011365942 0.0074031716 0.06174974 0.012324294 -0.005154719 0.03656423 -0.02508737 -0.05023048 0.026883366 -0.06505822 0.067156345 0.03293942 0.023106743 0.031775218 0.01577627 0.039396916 -0.004908874 0.034859125 0.045737777 0.038922332 0.0012847173 -0.0011045946 0.013757266 -0.010859414 0.06909711 0.0072518755 0.01606285 0.031424787 -0.016043004 0.04655182 -0.011887667 -0.008776208 -0.03401942 -0.026566708 0.053200398 0.008283149 0.016080977 0.021082083 0.020582091 -0.00661512 0.023241872 0.029435046 -0.029882655 -0.0016930029 -0.0120342765 0.011853297 -0.06150374 -0.032192867 -0.04861852 0.020680686 -0.035896946
123 0.0050422484 -0.018878616 -0.037471306 0.014642906 0.049067203 -0.083757706 -0.0031658802 -0.012259523 0.0037244014 -0.043192502 0.00431139 0.05952092 0.08602725 -0.033969823 -0.0077497866 0.0688292 0.057415385 -0.017225727 -0.041229136 0.034159087 -0.034045465 -0.0048157973 -0.06384159 -0.027499072 0.027270393 -0.0052583762 -0.0628087 -0.026254537 -0.061466575 0.054511562 0.028600426 -0.006891907 0.005433783 -0.030249197 0.041544728 0.058908205 0.051205855 -0.055345062 -0.054754127 -0.008908289 -0.0134517485 -0.0009386389 -0.073081434 -0.0019154119 0.020699246 -0.09203033 0.0066915853 -0.0051989597 -0.05958052 -0.08432168 0.011831732 0.053526536 0.031392124 -0.019692743 -0.011189329 -0.0037403142 -0.016223883 0.08697562 0.068496756 0.016108006 -0.00842537 0.029494796 0.05684303 -0.013111043 0.0053064143 0.029712811 0.025003327 0.08236958 0.002204147 0.06908943 0.054388233 0.02615537 -0.0075076027 -0.00019999352 0.027079519 0.05514859 0.019014833 -0.0015506755 0.025811078 -0.0195233 0.021711873 -0.011777291 0.017024081 -0.025733767 0.014102869 0.031435173 -0.060977213 0.034640323 -0.01857224 0.048220918 0.04485954 -0.04650728 0.05968641 -0.027102197 -0.0140977055 0.0049480833 0.01581932 -0.0055297604 -0.033076886 -0.012957802 0.006166359 0.05805152 -0.008036887 0.0022306286 -0.002294084 -0.037806563 0.0066972864 0.02471871 0.0017426935 0.0044145286 0.036347594 0.019569445 0.064967856 -0.018589607 0.05395496 0.022437338 0.023098135 0.014599644 0.028884346 0.056347355 -0.04211175 -0.027158886 -0.011046324 -0.028555108 -0.021195628 0.010854604 -0.025725536 -0.044349816
846 -0.016091796 0.04142747 -0.012193162 -0.0051802644 0.064770594 -0.057476904 -0.04925765 0.0008490358 -0.003666494 -0.05478109 -0.0046915426 0.026266513 0.005430137 -0.07317651 0.050698616 -0.034760006 0.0072234394 0.0104862675 -0.03268344 -0.017521482 0.027805293 0.013218984 -0.030529736 0.007432986 -0.03945918 0.02293139 -0.011621352 -0.026848258 0.022277324 0.0040226434 0.04383193 -0.07455548 0.010064512 -0.038223766 0.0024143956 -0.005180217 0.038192637 0.005143048 0.0036504453 -0.016403355 0.017289761 -0.02845492 -0.011426159 0.0064367023 -0.028712753 0.018826466 0.030678546 0.08296265 0.024727046 -0.027959168 -0.01788965 -0.027550906 -0.031133786 -0.019117258 0.020641427 0.01924573 0.054990206 -0.038735878 0.008584879 -0.00640717 0.03423789 0.010337959 -0.0021487705 -0.0049297838 0.036924616 -0.01576178 0.0067106765 0.036257487 -0.037801635 -0.0433543 0.039715484 -0.0030526773 0.004043155 -0.013835006 0.030732024 0.02480751 0.04009105 0.0542225 -0.009900961 -0.030330382 -0.007950118 0.06022328 0.0094049275 -0.037926048 0.042382836 -0.020533286 0.05240781 0.001506701 0.00080819754 -0.050290834 0.010344443 0.028039472 -0.015321766 -0.0137873115 -0.012471437 0.06748842 0.019491225 -0.018277045 0.0057276087 -0.033339214 0.012844265 -0.0672345 0.031545848 0.04977265 -0.050907835 0.038745254 -0.06145215 0.07599035 0.00022808801 0.01171535 0.026899315 0.010038086 0.030731544 0.03595117 -0.034321707 -0.011597228 -0.073423915 -0.022365034 0.009409807 -0.01618703 -0.016045678 -0.0056814346 -0.0026138232 0.024373423 0.01508263 -0.009039361 -0.019162081 0.0010162217
1341 0.043693095 0.08843255 -0.015491341 -0.02142842 0.030810626 -0.023019504 0.022630973 0.049554065 0.035420254 0.0019568808 -0.04014238 0.015133071 -0.010632967 -0.060714528 -0.022947365 -0.05277476 0.03545734 -0.048159156 0.030324483 -0.013166972 -0.040637653 -0.090574265 -0.050794322 -0.03901528 -0.069666624 -0.0023790936 0.043889157 -0.0006708691 -0.019220866 -0.036160834 0.056600273 0.015270208 -0.032722432 -0.04971819 -0.0059335665 -0.018965462 -0.03126881 -0.053874575 0.0019693838 -0.0484847 0.00566632 0.021651655 0.008186921 -0.0392591 -0.0034665954 0.023081772 0.05194102 0.059233837 0.06363682 0.054598935 0.038642358 -0.049886383 0.008604049 0.032949574 0.026221186 0.042935632 -0.011728586 -0.077037044 0.071846776 -0.0052567716 -0.010319537 -0.00416392 -0.014205403 -0.0021089984 -0.0032379816 -0.004129061 -0.02254302 0.0047004744 -0.045383107 -0.043494083 -0.01105517 -0.0067824395 -0.039908558 0.009036744 -0.005644144 0.04521283 0.016147634 -0.0048256735 -0.015617458 0.03225297 0.0074193073 -0.008457591 -0.06396544 -0.027888732 0.0046677925 0.03258704 0.00869206 0.013512881 0.016492825 -0.024025895 -0.044039555 0.004235798 -0.022303097 0.010825556 0.036284503 -0.0068295677 -0.044288892 -0.047998514 0.008444684 0.06396848 -0.018243318 -0.009934157 -0.012114142 -0.018142479 -0.0118921455 -0.0087069925 -0.036738135 0.03715255 -0.07011476 -0.0023928145 -0.024517054 0.04482544 -0.023391936 -0.04672442 -0.0034198316 -0.01497081 -0.060014647 -0.04348767 0.00016379372 0.06823048 0.018845554 0.047619957 0.055320308 0.022939576 0.0019036526 -0.01624265 -0.022625394 0.01932816
1085 -0.020083368 -0.03741622 -0.0025468245 -0.0064324774 -0.029935038 -0.015345145 0.01275236 0.014564243 -0.021972531 -0.026917502 -0.06660932 0.042777557 0.012857958 -0.011603123 0.00588172 0.022560447 0.028386177 0.051662847 0.0007297498 0.00077054265 -0.0009516596 0.015159674 -0.06117448 0.017895099 -0.054185994 -0.02923226 -0.023251597 0.00078782183 0.019023063 -8.344438e-05 0.07730877 -0.006533583 0.062248565 0.09511901 -0.05610879 -0.035090916 0.013376514 -0.039844763 0.046552245 0.003803132 0.024779107 -0.017573986 0.007473948 0.052030038 -0.017689213 0.043519273 0.06137225 0.01790898 0.03240843 0.006941741 -0.048051406 -0.035004288 -0.056536667 0.032902174 -0.006252483 -0.029930212 0.035213254 0.0128584895 -0.019692553 0.004742131 0.051943075 0.007483987 0.015699167 -0.025386114 0.046129107 0.0455507 0.02502481 0.009296047 0.0039732577 -0.025176061 0.023198131 -0.023041887 0.00087094284 0.048727717 0.030149324 -0.0042239972 0.03957453 0.012082519 -0.026039658 -0.03976534 0.025896821 0.0038272669 -0.018273134 -0.0045452253 -0.0013528463 -0.042651 -0.0059388257 -0.01472048 0.020946186 0.01660726 -0.055436105 0.00488249 -0.070572875 -0.008962387 0.01707518 -0.046411883 -0.04146198 -0.025699433 0.033846267 -0.050231263 0.05416445 -0.022529874 -0.00996027 0.03153722 0.025078211 0.0047902437 -0.02019 0.0059305844 -0.06953615 -0.02925092 -0.03004341 0.054114435 0.013276058 0.028389703 0.008828591 -0.025930587 -0.022533912 0.06299937 -0.08717967 -0.012536999 0.008116157 -0.014803258 -0.011809587 0.011096173 0.03688993 0.0002943825 0.053586144 0.05219737
367 0.0111485785 0.042299557 -0.0531004 -0.026810803 -0.040397022 -0.0021358235 -0.016255694 0.025194785 0.008332018 0.018392904 -0.0328305 -0.017412527 -0.024517411 -0.031378385 -0.0055319145 -0.016617307 0.040927164 0.023275672 0.04712586 0.078796305 0.029144127 0.021592978 -0.012575053 0.06889053 -0.008763704 0.03447835 0.0009921064 0.023806455 0.026662132 0.044375323 0.005098798 0.05588294 0.025897048 0.031262208 -0.02095788 0.022625325 -0.013584081 -0.07922747 0.06190894 0.010578172 0.06393688 -0.008643512 0.008687307 0.017203871 -0.029212095 0.024278587 0.05137158 0.057588175 0.008255191 0.019467192 -0.0035425024 -0.0017873159 -0.017569806 -0.04322709 -0.017294519 -0.019502692 0.0029875026 0.02251355 -0.035399985 0.04567632 0.025095908 -0.068688884 0.00913608 0.016173886 0.019672314 -0.05890976 -0.0018848599 -0.0765468 -0.0023269565 0.036500074 -0.025722818 0.006207725 0.013916329 0.074244365 0.030320108 0.0070617995 -0.01996857 0.03313372 -0.023851592 0.034583107 0.037143067 -0.012499558 0.02912759 -0.0029800662 0.015205328 -0.0741725 0.06372544 -0.035296723 0.024723884 0.048584312 -0.03621612 -0.026521318 -0.0035329578 -0.030022042 -0.009368792 -0.051569253 -0.06234328 -0.058298554 -0.0077445554 0.07438633 0.008715356 -0.034605622 0.05374524 0.0014067042 -0.01204665 -0.0035089888 -0.008933097 -0.0044032047 -0.015542207 -0.025975505 0.03315658 0.020549173 -0.03437418 -0.0060856305 -0.040573485 0.0032544006 -0.05956838 -0.017150251 -0.066046394 -0.028109608 0.017214257 -0.024306733 0.04218532 -0.0020713485 -0.06703445 -0.011505389 -0.026810095 0.03245919
472 -0.009087773 0.00460504 0.0142252315 -0.045707848 -0.038904034 0.0077520935 0.0048556295 0.005235921 -0.033265047 0.0348536 -0.04126574 0.040046565 0.008563381 0.07023609 -0.019899348 -0.002983895 -0.013840454 0.019210111 -0.019218253 -0.0040526097 0.016676683 -0.07234478 0.025260812 -0.0001936679 0.005598365 -0.016233483 -0.018323746 0.022091918 0.01248019 0.02234452 0.00618745 -0.04832519 -0.054405306 0.011902905 0.017562127 -0.015887588 -0.05413363 0.015420349 0.009078684 -0.031098552 0.01668405 -0.007796772 -0.046701785 -0.035290997 -0.04617904 -0.02507114 -0.012683994 -0.0041889776 -0.001403539 -0.02749109 0.055693317 -0.068254866 0.012311714 0.026769215 -0.029136237 0.03064204 -0.009044417 -0.037691664 -0.0027050278 -0.032047503 -0.015205931 0.0056817844 -0.032584593 0.0408704 -0.04169981 -0.018953487 -0.005408576 0.030414063 -0.0028327536 0.041982908 -0.029625006 -0.014533837 0.058344547 -0.009611591 -0.040890623 0.05382611 -0.047427583 -0.028631253 -0.06681649 0.003608931 -0.017591776 0.01608356 -0.011204613 0.0678902 0.042896926 -0.0036600227 -0.0127490675 -0.005836504 -0.043107644 -0.018896885 0.039889056 -0.066998444 0.00867078 -0.039376628 -0.07108279 0.03845857 -0.022527285 0.019738777 -0.03219846 -0.03873362 -0.01963218 -0.064757176 0.03015793 -0.042387605 0.040609524 -0.021753093 -0.014745612 -0.054864 0.0074276356 -0.018524114 -0.033089116 0.013564736 0.011674933 -0.070745595 -0.031688597 -0.028889345 -0.02544868 0.075505085 0.03361741 -0.00807772 0.02684177 0.016898492 0.033146676 0.04212974 -0.02233189 -0.017488679 -0.011318603 0.019959392
890 -0.054775767 -0.004534941 -0.043854717 0.028293207 -0.019580383 0.030302994 -0.0036695234 0.082408234 -0.0635819 0.03095032 0.018506408 -0.038266357 -0.0005803876 0.0232647 0.012117887 -0.045574173 -0.01921914 -0.058367874 -0.013382755 -0.033746067 0.039079025 0.0954335 0.025657827 -0.017476134 0.023784928 -0.06607772 0.027414177 0.043071155 0.025309466 -0.023072088 -0.0039930223 0.08423585 -0.0780507 0.00060589705 0.023599435 -0.035936285 0.059616018 0.05009468 0.01718338 -0.022600306 -0.03110291 0.01414536 0.03789058 0.012790264 -0.009560173 -0.046695754 -0.008787842 0.037510324 -0.025876585 -0.05261335 -0.03055169 -0.01129077 0.058510028 -0.0065617096 0.059874166 0.033470362 0.04729579 -0.00022986499 0.027570346 -0.015483288 -0.005052687 -0.008274858 -0.045337297 0.0073565533 0.0068467273 -0.05328157 0.03333389 0.024060851 -0.090197764 -0.00014111651 0.0042819437 0.0077100154 0.034280572 -0.03724223 0.026883831 0.0150155965 0.027202789 -0.002591083 -0.04340801 -0.063689314 0.0010948571 -0.027744561 -0.069260344 0.06713483 -0.0048947837 -0.057023335 0.023541665 0.076308034 -0.05593893 -0.012411616 0.0492049 -0.023968019 -0.082966514 0.058502346 -0.033830903 -0.060049616 0.033823077 -0.033011667 -0.011864883 0.0015736736 0.021190502 0.0021475665 0.052611865 0.010518105 -0.036403917 -0.016237106 0.012127024 -0.033965584 0.0021796178 -0.03564537 -0.0066233454 -0.05113476 -0.0019245537 -0.050916236 0.040618453 -0.030746872 0.060014293 0.056327466 0.022049354 0.058459926 0.023042161 -0.011024946 -0.02239581 -0.09192669 0.06371186 0.05514001 -0.002908915 0.02420882
1167 0.018526183 -0.012505421 -0.061389625 0.049768206 0.03681084 0.051593915 -0.04609531 -0.04044478 0.022009505 -0.0065280315 0.038601197 -0.014616192 0.036809485 -0.025869988 0.0018213625 -0.0071260803 0.024121698 -0.04352491 -0.022940587 -0.039635647 -0.029981678 -0.010363778 -0.029815163 -0.011199029 0.051160127 -0.027090842 0.042673588 0.027794866 0.014303919 0.03860665 -0.011426336 0.039348174 -0.026396338 -0.040424645 0.07331779 0.0513169 -0.017600365 -0.0402737 -0.0042722155 -0.038082562 0.052064348 -0.023309035 -0.007696821 0.0099399295 -0.054755248 0.03356198 -0.020354284 0.01790716 -0.02968123 0.021405667 -0.06690481 -0.038686905 -0.019947223 0.047840264 -0.021329552 -0.0099295955 -0.022035269 -0.012199486 -0.015203667 0.015542282 -0.012477825 0.022377433 -0.0213629 -0.0066449917 -0.015103754 -0.023382869 -0.07680377 -0.002330139 0.04440679 0.017738482 -0.00876334 0.029166067 -0.014299644 -0.0045365016 -0.014951306 -0.052461006 0.010567807 -0.038212344 -0.036141545 -0.041761752 0.049212284 -0.033434935 -0.029110305 0.04983698 0.06538979 0.0008535241 0.074340336 0.005454038 -0.0017487751 0.011849669 -0.0802322 0.03285769 -0.026460629 -0.020124659 -0.06617382 -0.00066295307 -0.046227925 0.026772892 0.0017846714 -0.0066806087 0.0127136605 0.026833339 0.00028952208 -0.06000629 0.022570686 -0.028947966 -0.036575187 -0.010773375 -0.012756763 -0.05266081 -0.044086482 0.06268458 0.032607555 0.07695506 -0.06472492 0.037780028 0.026329553 -0.046693206 -0.004274941 -0.059912127 -0.014209902 0.017595436 -0.05589404 0.037492447 0.002575758 0.017180609 -0.009480041 0.07249627
1233 -0.0042020935 0.03834642 -0.04348829 0.06677269 0.038287733 -0.014027451 0.020644749 -0.04040882 0.02008972 -0.0051287794 0.014783728 -0.052308735 0.03418063 -0.06328307 -0.029987914 0.017309343 -0.018709445 -0.057695866 0.01969348 0.03778726 0.0020454633 -0.077817604 -0.00046731663 -0.04997297 0.03624518 -0.0018869626 0.0061770594 -0.05089552 0.037524562 0.06601534 0.0793207 0.071741804 0.009474245 -0.042637717 0.030141128 0.04697615 0.013733947 -0.010202784 -0.018369876 0.043928515 0.026987854 0.048438944 -0.015064805 0.029273579 0.027719295 0.0136143565 0.0068121986 0.06357302 0.019146252 0.02788996 -0.0478385 -0.0205302 0.002953666 0.0039786254 -0.06754362 -0.059288707 -0.06882998 0.019965459 0.019229189 -0.017956989 0.009084231 0.01751108 -0.024060931 -0.039037183 -0.009479051 -0.02659248 -0.04601953 0.025540294 -0.0021196955 0.0027396067 -0.058869135 -0.027608655 0.068573594 0.012887432 -0.01577953 -0.030775182 -0.010114174 -0.0684658 -0.001870162 -0.045237117 -0.035438284 0.0012485737 0.024504393 0.02166163 0.016983315 -0.009111443 0.0020478552 -0.005374276 -0.022545185 0.02269913 -0.00298871 0.035045024 0.0010918018 -0.010391706 0.041062836 0.049633477 0.05645278 -0.0021857752 0.0006330456 0.043259196 -0.048357543 0.028100846 -0.063549 -0.026445389 -0.0094020795 0.03625265 0.048485514 -0.033311173 -0.022328405 -0.006745307 -0.026309464 -0.008432597 0.028185388 0.022986522 -0.0058358554 -0.018060582 -0.021919155 0.015551552 0.043284237 -0.013314091 0.033295568 -0.013562465 -0.027487753 0.071370706 0.021080185 0.06870852 -0.03362511 0.0011463827
1234 0.019159485 -0.016455974 -0.04548403 -0.04202879 -0.05721181 -0.01303555 -0.006786023 0.0035768372 0.0081014065 -0.012905212 -0.0280364 0.0423909 0.0034775147 -0.04213839 0.028746178 -0.03319141 0.023475308 -0.052123595 0.052680437 -0.050870366 0.051290642 -0.010972879 -0.01204717 -0.03307426 -0.031417944 -0.027960308 -0.026566826 -0.056607988 -0.015710115 0.028777502 0.04537695 0.012995549 0.036709663 -0.013885808 0.0015568201 -0.009629541 0.060150906 0.02141454 0.028139798 -0.03081671 -0.05180214 -0.008156984 -0.050635554 0.03647551 0.0018780635 0.025949433 -0.034225386 -0.046516795 0.034126792 0.028551279 0.031147351 0.0024887894 0.024869764 0.024028707 -0.032255698 0.04966262 -0.00962523 -0.026620615 0.017484229 0.05193193 0.026113763 -0.0031212084 0.009564032 -0.0077269366 -0.0005615043 -0.0501575 -0.018785253 -0.03653677 -0.005795698 0.017852472 0.07657761 0.018676482 -0.023292642 0.0033179985 0.04555371 -0.0017214514 -0.048592035 -0.0036254835 0.020268131 0.040912524 -0.02186981 0.03682047 -0.0057618665 -0.056249503 0.063468434 0.018647425 0.06611035 0.012146631 -0.05809123 0.02893609 -0.063435234 -0.022141177 -0.030418491 0.039206658 -0.02673333 -0.01650245 -0.015451849 0.04332669 -0.025292356 0.044404745 0.00031669418 -0.032664787 -0.0054845638 -0.02426561 -0.015942726 0.027039198 0.017683554 0.064926386 0.017302146 0.0027307982 -0.019460615 0.04657273 0.006466026 -0.0060203723 0.041075725 0.04991548 0.044497527 0.022666221 -0.057331786 0.0628266 -0.028760009 -0.0020553346 -0.010410195 0.03788513 0.019859606 0.02471685 -0.051849697 -0.014816578
454 0.022692848 -0.051707357 -0.005630162 -0.021023812 0.010099563 -0.065725446 0.03601666 -0.010698981 -0.0064823413 0.00034099977 0.029701464 0.008317577 -0.03740939 -0.028316442 0.016940577 0.041804012 0.0043028397 -0.0124739 0.002959108 -0.0063407975 0.029749036 -0.031586368 0.023610836 0.014222293 -0.011622173 -0.048282646 -0.030345531 -0.027109506 -0.019683558 0.03489495 -0.055831898 0.009832489 -0.028101385 -0.029284552 -0.016934639 -0.012020689 0.067236975 -0.019033263 0.010316209 0.013614756 0.009328523 -0.05655566 -0.017191928 -0.00078153907 0.029804142 0.07245856 -0.0044734403 0.0260848 -0.022615906 -0.03309751 0.024747899 0.051597007 0.04271196 0.024760144 -0.0030588568 0.0050103585 0.0062540267 0.009108071 -0.04955407 0.023412516 0.01825445 -0.05130712 0.020425938 0.051638052 0.053790793 0.006641549 -0.005645556 -0.032496285 -0.03100803 -0.06712179 0.0011855153 -0.04303468 0.011175951 -0.021142652 0.0077019655 -0.016342437 -0.037309356 -0.048167218 0.042141877 0.0014532919 0.0011377548 -0.014284529 -0.026731238 -0.058218535 0.032391295 0.004220017 0.040410575 -0.001361551 0.068172894 0.01047304 -0.013838192 0.023020823 0.02470044 0.063228324 0.03800047 0.02893858 -0.0452587 0.043140937 0.008720521 0.023317652 0.04986306 -0.0027953798 -0.033563137 -0.040765535 0.0061880206 0.009208391 -0.03336058 0.057473484 0.032913897 -0.017972134 -0.002890933 0.030979462 0.0069430303 -0.050357677 0.013454419 -0.069540314 0.045315646 -0.028010378 -0.018512813 -0.028562034 -0.08549326 0.0019366143 0.014807179 0.027146796 0.062089484 -0.023147402 0.025652498 -0.027761212
1447 -0.05813575 -0.074962914 0.010999897 0.044307232 0.03262417 -0.046218034 0.02369994 -0.027203051 0.014981046 0.019348389 -0.0007597347 -0.012177669 -0.0074833566 0.0074680047 -0.008728718 0.009780189 -0.044191927 -0.009155314 -0.008226018 -0.0008435985 0.008395089 -0.057083152 -0.042675674 -0.06447073 0.03508069 -0.0126713915 -0.0726774 -0.027982503 -0.05668512 -0.008904053 -0.045295056 0.063885026 -0.014446022 -0.007274838 -0.023177957 0.012990939 -0.036562663 0.034283385 -0.03905519 -0.03268252 0.03295912 -0.042342793 -0.034112304 -0.03975421 0.017077826 0.0492193 -0.0002553307 -0.087384515 0.020552978 0.013906837 0.013856303 -0.055292405 0.009786311 0.011806505 -0.03036363 -0.02909744 0.021786578 0.036076084 0.006712171 -0.014223198 0.019555174 -0.014791106 0.023111915 0.02925134 0.005312819 -0.025304483 -0.062169794 -0.017756736 -0.06998335 -0.015518923 0.036998533 0.09061404 0.031543005 -0.06229862 0.024283037 0.0675012 0.0717196 0.029777087 0.0080941385 0.030725095 0.05452736 -0.0052517406 0.0071183783 0.05824284 0.0009896806 -0.040505137 0.03336726 0.036143526 0.012702058 -0.04802659 0.022461498 0.009913217 0.043371763 0.039779514 -0.05487801 -0.022094399 0.0009100219 -0.03519146 -0.034398057 0.0066254656 0.04507806 -0.023991657 0.024955481 -0.013958494 -0.030472457 0.057264667 0.0007281559 0.037556376 -0.063250594 0.05962573 0.026045166 0.02271865 0.015037695 0.032579746 -0.054228146 -0.024046201 -0.050965853 -0.022804497 -0.03158714 0.02429866 0.0078069083 -0.045849755 -0.0156316 -0.013852912 -0.028624294 -0.0118427565 0.004984331 0.033845663
1487 -0.0269306 -0.014243942 0.020819925 0.026032357 0.0061894557 -0.0476784 -0.044481732 0.080809146 0.0709903 0.056677032 0.020361373 0.038339317 0.024217686 0.028869439 0.040339895 0.006325968 -0.02032284 0.039130908 -0.04054724 -0.08751823 -0.043849476 -0.007916686 -0.028953195 -0.065890975 0.029231675 -0.01623305 -0.039960217 -0.008789973 0.0044665495 -0.002086918 0.030915663 0.047124803 -0.032848332 0.04374911 0.001346828 0.009835584 -0.0050645117 0.020915078 0.03271472 0.06108709 0.06703022 0.04095743 0.011971196 -0.0690875 -0.029253796 0.053952176 0.03903896 -0.044479717 -0.0045888987 0.006084121 -0.07246087 0.006140691 0.0054537077 0.018578881 0.0557819 -0.019970957 -0.037764914 0.05085559 0.014115867 0.008093378 -0.0030533588 -0.009483902 -0.004712814 0.0022380918 0.053236373 -0.008351099 -0.0076562134 -0.021364368 -0.04525751 0.002231961 0.07652742 -0.007931777 -0.008874979 -0.017205605 -0.03996465 0.03180996 -0.042368446 -0.02686339 -0.011500216 -0.017019777 0.012675136 -0.01648152 -0.012016528 -0.038460594 0.012673501 0.06436298 -0.053130068 -0.01887374 -0.0027845684 0.022752263 -0.026563713 0.036099896 0.01569373 0.00044011557 -0.005608925 0.03195797 -0.012703935 -0.013445802 0.00044160176 -0.03388072 -0.04616521 0.016359422 0.016093964 0.051443014 -0.011957928 0.003383882 -0.015356639 0.013812538 -0.00036808636 0.016549896 -0.02273182 0.0070447046 0.039466668 0.044635322 0.05438735 -0.0094240755 -0.016586961 0.011598248 -0.005658417 0.039122444 0.027829453 0.006250853 -0.0066546863 0.022790257 0.057992093 0.012988243 -0.011717073 -0.051862348
750 0.027540246 -0.043352704 0.021413153 0.017692676 -0.056488607 0.015016129 0.045410864 0.0014941079 0.011785362 -0.07475124 -0.060257282 -0.012871452 -0.048486143 -0.04506107 -0.01054442 0.010066993 -0.016087873 0.015702782 0.040894452 -0.012708969 0.07494188 0.03518676 0.011485426 0.041545972 0.03812501 0.014941622 0.041114833 -0.037971936 -0.019064737 -0.011070545 -0.025293285 -0.017126795 -0.014628094 -0.027671177 -0.06435799 -0.04780979 0.04687561 0.0065744435 0.04701992 0.0029879427 0.048393838 0.010087602 -0.0014700078 -0.0063858833 0.03840113 -0.0107890535 0.042805694 -0.039800245 -0.052534193 -0.029932862 -0.0052865823 -0.020473134 -0.04932168 0.010832808 -0.0381405 0.08192019 -0.025307633 0.042900782 0.029570824 -0.01535271 -0.065045096 -0.025805734 0.056734215 0.038371313 0.015962265 -0.07923695 0.004071785 -0.04641893 -0.0038948169 -0.05846828 0.022262953 0.040572092 -0.04225636 -0.025335744 0.033758163 0.05657897 -0.0637736 0.022118421 0.05960612 0.044918634 0.010201645 0.042680606 0.013086294 -0.028436517 0.051871292 0.065365456 -0.021243805 -0.057807226 -0.06913493 -0.052721366 -0.00605405 -0.035003122 -0.034554947 0.06256895 -0.021572823 0.085170254 -0.041314736 -0.042056177 -0.053018805 0.069091916 0.011079382 -0.014879915 0.0009034546 0.022729168 -0.043890096 0.017270133 -0.028362708 -0.0017793562 0.04901232 0.018724728 0.023111325 -0.023473782 -0.0017461323 0.06556176 -0.022054402 -0.030874066 0.0016537098 -0.05211563 -0.043477863 0.008489684 -0.009740757 0.07261729 -0.049423113 -0.0009235614 -0.05144749 -0.015869563 -0.0027738377 0.06782307
413 0.04713397 0.02401958 0.038983423 0.056893162 0.009213478 -0.006105253 0.0737498 0.039660763 0.048406895 -0.0007606796 0.015434425 -0.004259704 0.017921714 0.021705857 -0.0062890463 -0.019566357 -0.0601664 0.01429557 0.008400625 0.024090545 -0.03106571 0.05414196 0.026252272 0.0383447 -0.021165827 0.00434056 -0.033149153 -0.05080025 -0.01956256 -0.00012823648 -0.07546507 -0.07022456 -0.011123555 -0.032476716 -0.023802815 -0.06408792 0.0016538298 -0.05042933 -0.05720139 -0.004180834 -0.008697079 0.0180898 0.0046631033 0.0054732254 0.05149041 -0.08756383 -0.05242865 0.011046705 0.07192623 -0.0045199785 -0.0037060238 0.019096108 0.04733704 -0.036276024 -0.059201896 -0.022457257 0.012197742 0.00687413 0.06705258 -0.03846346 0.01724895 0.011578692 0.04773663 -0.041443348 -0.03652439 -0.047985677 -0.0014750309 -0.007033201 -0.015177916 0.026964497 -0.03410558 -0.016860068 -0.0034204011 -0.07713224 -0.0045971805 0.02124617 -0.0059794607 0.028902987 0.019974178 -0.011380633 0.019641543 0.021989953 0.014475528 0.0051242122 0.039981373 -0.044163868 0.019571543 -0.0137159685 -0.021158155 0.038731106 0.019120347 0.029224683 -0.048642352 0.003118919 0.039761327 -0.02069142 0.001006653 -0.06880526 0.051862884 0.04687579 0.0073673534 -0.0032172778 0.025045447 0.054309987 -0.020486046 0.034799978 -0.06526254 -0.037330672 0.004392816 0.04885084 0.010149955 -0.032799482 -0.011843998 0.039863337 -0.006018639 -0.026693283 -0.021349015 -0.03592763 0.06339443 0.019919915 0.012790317 0.023308696 0.0014686442 -0.046830684 -0.00084165094 0.033700094 0.053845517 -0.06256226
2012 0.054634467 0.0022566707 0.061200257 -0.041869108 -0.012187876 -0.03990994 0.08863018 -0.0018738969 0.034111522 -0.047755737 -0.016438065 -0.040346965 -0.07495671 -0.0252461 -0.03853767 -0.051612254 0.0027200861 -0.016489089 -0.007734433 -0.054418348 0.0455072 0.020827772 -0.013104253 0.007721496 -0.08277904 -0.048444517 -0.06600345 0.037743744 0.02432884 -0.027755244 0.0077451793 0.03233456 -0.055840187 0.051482808 0.022530468 0.07363821 0.004556137 -0.019706817 0.023312874 -0.020405075 -0.026044726 -0.05276552 -0.017850082 0.04179785 -0.01855595 0.026885813 0.009369418 0.049044263 0.039430406 0.04171515 -0.085914105 0.041042335 0.01748744 0.029742116 -0.0070241084 -0.037848037 0.0287963 -0.031247308 0.096032895 -0.0019932669 -0.0115355905 -0.035891682 -0.015780212 0.06788211 0.005554982 0.02208546 -0.022730608 0.010179421 -0.024317842 0.027130019 -0.011793065 0.039803863 0.02708069 0.021343473 0.056644306 -0.0062147607 -0.00018399638 0.08333244 -0.017180387 0.009251965 0.030663094 0.0016465825 0.044894308 -0.046275638 0.026916642 0.0673591 0.007449286 -0.041711975 0.071218885 0.059449837 0.02247069 0.014686577 0.06288991 -0.048857618 0.076597355 -0.04746683 0.0014414527 -0.00789312 0.012394394 -0.005211606 0.06324895 -0.03542935 -0.0006055898 0.019476607 -0.052638255 -0.03368041 -0.053365175 -0.012676565 0.05754613 0.049391266 0.05130785 0.0061525856 0.007028905 0.022955114 0.044456255 -0.04132901 -0.031893995 0.025992215 0.06043954 -0.024142727 -0.021124944 -0.014892515 -0.0142413955 -0.0819812 -0.04496824 0.025135338 0.046722084 -0.0041399817
787 0.012595157 0.024791788 -0.0017822827 -0.062194273 0.036607355 -0.030924648 0.030572081 0.009635962 -0.0669961 -0.04250091 0.01077692 0.0489976 -0.05093492 -0.039564822 0.043797832 0.022003336 0.030844124 0.009707123 0.01332541 -0.017030144 0.0010220156 -0.010303664 -0.0010315551 0.023714883 -0.0270557 0.03291923 -0.054045808 0.0019113723 0.0015723868 -0.06920807 0.04104038 -0.010815552 0.034058936 0.0050712875 -0.009304009 -0.033985864 -0.008863137 -0.020333959 0.0074686077 0.04274972 0.053472858 -0.00014027473 0.07310523 0.014946227 0.021426205 0.033305936 0.08234559 0.0046234075 -0.00077597727 0.02141745 -0.018965067 -0.015613679 0.04709382 -0.0008656995 -0.034472864 -0.032048527 -0.021336485 -0.0022083255 -0.053053003 0.042934347 0.039661996 -0.012645604 0.015056253 0.055604458 0.027093682 -0.01606527 0.010165257 0.008592673 0.02223147 -0.029439412 -0.0065318733 0.005556627 -0.00044650098 0.05854594 0.007873479 0.055666745 0.041913662 -0.0059301388 -0.049702246 -0.01754143 0.059653554 0.048367646 0.017744176 -0.03651545 0.03547819 0.05390282 0.0008056023 0.028036466 0.031213501 -0.0032578576 0.010322114 -0.04646978 0.0044753486 -0.019087125 0.011043411 -0.010887305 0.052950162 0.0059569483 0.058585063 -0.038244497 -0.011287423 -0.031660497 0.052377425 -0.043408338 -0.01326264 0.021891287 -0.015610839 0.042972304 -0.008962933 0.024972782 -0.016098255 0.0012274302 -0.039495505 -0.024170233 -0.009076972 -0.042700574 0.029993247 -0.06405216 0.048246555 0.023790214 0.03912244 0.0026073586 0.03245948 -0.012622021 -0.028865712 -0.003186457 -0.0061138347 -0.0041411445
709 -0.019477893 0.00347416 0.037342515 0.017340759 -0.03177574 0.04479063 0.0054802466 0.03712263 0.0023086998 -0.06989571 0.011539426 0.015704935 0.007930998 0.058527257 -0.010436141 0.032299373 0.029829511 0.045868434 0.0008984796 0.01918557 -0.0053565595 0.05386456 -0.016228594 0.04385641 0.057471126 -0.026966784 0.08226745 -0.0015943716 0.014922727 -0.060140442 -0.010797004 0.07596982 0.016487444 -0.021371245 -0.0154267885 0.009492136 0.019730687 0.036766153 0.024497489 0.011106349 0.04217402 0.036384355 0.01733785 -0.016814837 0.04285708 0.0030643642 0.05148626 -0.021251978 0.050459623 -0.03254268 0.063960455 -0.030543037 -0.013953713 -0.02800641 -0.0066671628 -0.010669297 0.006156532 0.040144082 0.036454003 -0.041061904 -0.06230565 0.026416631 0.037374247 0.026388057 0.06270837 0.04771526 -0.024429666 -0.015541504 0.04697882 -0.021095105 0.015713435 0.01882515 -0.04502897 0.0069777486 0.014554167 -0.027917946 -0.00829155 -0.008735955 -0.008016545 0.055853214 0.08012542 0.0027630213 -0.015795896 0.0027869968 0.020462494 0.016922724 -0.011649201 -0.029079186 0.0029427249 -0.018559635 -0.024875827 -0.0045567723 -0.009217094 0.00034875007 -0.043896504 -0.046217002 0.028282037 -0.031064719 0.043813255 -0.019037472 -0.040815964 0.032869104 0.02635051 -0.038541596 -0.025513612 0.041741405 -0.003908197 -0.06804973 0.016196616 -0.012482199 -0.031565644 -0.036806658 0.018946394 0.08450884 -0.070063144 0.018432925 0.052117955 0.054623418 -0.04350819 -0.008021044 0.01759286 -0.07292777 -0.021646881 0.045696806 0.025290031 -0.058226276 -0.055716906 -0.0108092055
1364 -0.011208999 0.056535214 -0.012752022 0.029733008 0.037341576 -0.006530889 0.03540893 -0.0012522705 -0.033507045 -0.058134407 -0.03646159 0.07647236 -0.014383082 -0.029105678 -0.08692337 0.032579627 0.09213019 0.016477788 -0.021350993 -0.01360552 0.030898977 0.046363506 0.028124537 0.0020831935 0.0015846944 0.025974896 0.05086256 -0.025016004 -0.013008277 -0.04700524 -0.043903563 0.032726686 0.0011831875 0.030017164 -0.008530187 0.011722489 -0.02285356 0.030843316 -0.020348333 0.07666462 0.088638544 -0.004949204 0.0017742633 0.031106431 -0.010074776 0.0050914576 0.091027334 0.0015603023 -0.008922004 0.014436112 0.015381192 -0.07465134 -0.0036269422 -0.024829324 0.0113403695 -0.0077817664 -0.0067138043 0.001674721 -0.0025682563 0.033747047 -0.06553151 -0.008248941 0.006929429 0.028834578 -0.029373785 -0.014317461 -0.025014488 0.014665301 0.0040160953 0.03539234 0.035751328 -0.07260966 -0.024669403 -0.009270277 0.012101884 0.020831035 0.017623408 -0.0042530876 -0.04735499 0.009235901 -0.018409012 -0.0020582606 -0.020779496 -0.0046397345 0.0057459683 0.030421676 -0.0484333 -0.04482196 0.047361005 -0.0446906 -0.00073783234 0.027846185 -0.018487817 -0.015043989 -0.03659899 -0.004607439 -0.0018860017 -0.025912013 0.04454061 0.02600594 -0.037144274 0.0037733752 -0.018263957 0.06566441 0.015587765 0.017995145 -0.024777384 -0.0039447634 -0.028801994 0.032073162 -0.009922431 -0.02299638 0.02435754 0.060653497 -0.030234257 -0.0251405 0.02178543 0.011707505 0.005534134 0.03966418 0.00853515 0.019550791 -0.024484444 0.017050277 -0.04360095 -0.036791783 0.05801162 -0.022327103
2153 0.015467242 -0.070692755 0.024036994 -0.018443793 0.043620456 0.033474375 0.0012374289 -0.01435017 0.021785075 -0.0483895 0.04179352 -0.0054812003 0.057507142 -0.051389884 -0.042942565 0.049029883 -0.005250386 -0.022458356 0.009658269 0.000102178165 -0.01549233 -0.0061090756 -0.068974994 -0.004562429 0.0045892904 -0.029879047 -0.032699563 -0.031793386 -0.018828576 -0.04300351 -0.01033798 0.013776032 0.04034204 -0.032019507 0.06340066 -0.04443535 -0.011443973 -0.021401867 0.047792967 0.033602417 0.057269186 -0.040136945 -0.0031058213 -0.010062383 0.020348033 0.014226395 -0.04535244 0.038210824 0.0020589163 -0.05563503 0.051124398 -0.04982679 -0.0020414668 -0.046736993 -0.011863986 0.014032996 -0.0056438786 -3.0065756e-05 0.0011119498 0.038496815 0.0012015566 -0.017907057 -0.0019320444 0.0058534485 0.02886029 -0.036507096 0.012286085 -0.072201274 0.050012916 0.032116033 0.023647586 0.00020634974 -0.039292358 0.021260848 0.02481543 -0.020802693 0.008286061 0.037932485 -0.019873556 0.003340485 0.015770588 -0.0024321768 0.05711474 0.01738082 -0.013831474 -0.031823397 -0.0020755196 0.021593085 0.038530815 -0.005310306 -0.024419626 -0.012609106 0.024632555 0.02531486 -0.027131153 -0.0019602494 0.014095606 -0.008545434 0.010659309 0.048788663 0.065953076 8.5801235e-05 0.00970336 -0.010955143 0.028113287 0.018049898 0.015796315 -0.005039963 -0.02140465 -0.027705427 -0.008691207 -0.0091287 -0.0650615 0.015406278 0.00792176 0.008200113 0.026867075 0.014183077 -0.005365176 0.027804341 -0.014720313 -0.004540727 -0.012358686 0.027255356 0.0061421674 0.08345647 -0.023047058 -0.028873729
436 -0.024770055 -0.05129973 -0.023984686 -0.009037924 -0.027644055 -0.0065845954 -0.019964425 -0.009073482 0.06063514 -0.02680802 -0.00961895 0.029235523 0.054908223 0.009296684 0.028309867 0.049788132 0.044388313 0.04495618 0.010667672 0.00014071222 0.019735815 -0.0014407918 0.063934356 0.037037358 0.027649676 -0.03535563 0.023876777 -0.035306554 0.019621063 -0.07085661 -0.062977254 0.009409116 -0.017058099 -0.04330161 0.048211016 -0.01229482 0.016958827 -0.013888034 0.062182292 0.06256917 0.043016482 0.034139737 0.02151235 0.0008670495 -0.024811387 0.011230636 0.012512127 0.012467318 -0.027524004 -0.01579191 0.037435632 -0.01384328 -0.019095812 -0.029936375 0.041727968 -0.026170805 -0.025740745 0.047012974 -0.04030111 -0.021067964 -0.06257342 -0.038682334 0.008257806 0.0070258607 0.020231571 0.005643887 0.052339435 -0.045285456 -0.0048835985 0.017676374 0.01093425 -0.06001955 -0.03871778 0.05705627 -0.027519396 0.004577131 0.016990317 0.0022210823 0.0072317272 0.09200504 -0.07115452 0.011477067 -0.015678193 0.040802233 0.012674381 -0.05283605 -0.021815067 -0.004989406 0.055057406 -0.01485075 -0.016255863 -0.0092180325 0.007069406 -0.01085995 0.0082161315 0.0027825907 -0.0088011315 0.025147952 0.015816852 0.017346114 0.033244297 0.019406492 0.0046469695 -0.04844786 -0.02261828 -0.038796317 -0.027952079 -0.037098654 -0.020778475 0.037243076 -0.045761377 -0.0060919733 0.017872827 0.0106795505 -0.036398474 -0.008854384 -0.016113752 -0.023137895 -0.0044936566 -0.019111065 -0.021063648 0.080628775 0.042955797 0.036920413 0.03964461 0.049172193 0.0066270446 0.0028148876
1121 0.0048978915 0.034906637 0.06903199 0.018970056 0.009228589 0.022991214 -0.034740776 -0.013710889 -0.056680314 0.047179922 0.059156656 0.020629453 0.020540267 0.04564193 -0.047774952 0.031588484 0.0267829 -0.01595016 0.05687306 -0.056483634 0.052209023 0.021107974 0.078459464 0.011631342 0.049378615 0.0036987225 0.09016202 -0.087866455 -0.028528027 -0.00819751 0.038110394 0.004591669 0.012758311 -0.010176224 0.06359801 0.009230166 -0.0367713 -0.06275864 -0.014328284 -0.030628704 -0.026813496 -0.053321656 -0.06416396 0.020656897 -0.0142059205 0.045539983 0.046554476 -0.0058607347 -0.056563575 0.04139411 -0.058972687 0.045568638 0.05114464 0.041141707 -0.03243045 -0.063448146 0.019955441 -0.03927944 -0.06845698 0.011430202 0.030968394 0.009225513 -0.059342638 0.052564878 0.023606148 0.05715502 0.023660073 -0.011521172 -0.042391986 -0.03186107 -0.020632414 0.028993338 0.034988385 0.049112473 -0.008924029 -0.039976504 0.036893357 -0.007806862 0.007898509 0.0654644 -0.016659228 0.012837735 0.062178895 -0.006289445 0.0040147947 0.074501276 0.0036545813 -0.008940986 -0.03642973 0.039921958 -0.076105885 -0.015782254 0.05763268 0.0051822285 0.025615714 -0.042840995 -0.040036328 -0.020070476 0.018912598 0.056863412 -0.019974155 0.015784193 0.06035788 -0.04553539 -0.011640806 -0.018628698 -0.0073421183 0.04546143 -0.029073408 -0.0024443578 0.05068106 0.053346038 0.08380242 -0.044375025 0.007190964 -0.026040545 -0.0014846735 0.045935467 0.028704094 -0.025149737 -0.036259037 -0.00774998 -0.029458344 -0.017142653 -0.029454181 -0.02126196 0.025513137 0.050242867
221 0.010132844 0.022581048 0.08742651 -0.033722572 0.026367748 0.075160936 0.035094887 0.028427523 -0.05130436 -0.012086118 0.059764363 -0.021232173 0.041876957 0.05734384 -0.029980976 0.03984489 0.033407215 0.010265875 0.03757366 0.016868621 0.021769274 -0.01217941 0.03954982 -0.06637493 -0.0064323074 -0.06726656 -0.008709471 -0.08915163 -0.00016853295 -0.026265906 0.053260233 0.012899736 -0.027286729 0.018717926 -0.0029039546 -0.0011845207 -0.035492796 -0.029625513 -0.018256156 0.04200781 0.032612167 -0.049786337 0.0087463865 0.0008660841 -0.039720427 0.028004663 0.07719949 -0.034512706 0.06427401 0.010396553 -0.06629066 0.027015114 0.008017342 -0.046724554 -0.024107622 -0.018053189 0.011070148 -0.034113567 -0.028122801 -0.03358073 0.014687917 0.005416373 -0.0072148037 0.06467673 0.060560323 0.05807871 8.021088e-06 0.035850346 0.030324457 -0.03501342 0.03462532 0.01668585 -0.013056634 0.022237493 -0.045996074 -0.061587617 0.010446534 -0.029473858 -0.046914205 0.019066675 0.058716685 0.072504 0.0064932504 -0.05980782 -0.05528062 0.06488978 0.05513135 -0.028369345 0.03598242 0.028091276 -0.021772316 0.018768866 0.00010398062 0.0067889043 0.034146182 -0.020496832 0.028841048 0.05203032 0.032893736 0.00044576143 0.058773585 0.0006557013 -0.05820784 -0.03172635 -0.0638999 -0.02126474 0.031045666 0.0416811 -0.082955934 0.008720801 -0.017206741 0.021684498 0.06370198 0.023280887 -0.022812387 0.0016606261 -0.0032667713 -0.030192073 0.05438878 -0.006821432 -0.08336692 -0.040457305 -0.022343215 0.022264814 0.04154708 0.025231358 0.017853094 -0.062144708
1326 -0.02420711 0.0021051955 -0.066101275 -0.06918946 0.06275862 -0.012128309 0.022138057 0.053365387 -0.04203442 0.037727747 -0.011835006 0.047929496 -0.031742502 -0.06325483 -0.029747989 0.029587239 -0.020038249 0.021092536 -0.026117845 0.017919336 0.014529323 -0.039809056 -0.028752374 -0.020046042 -0.03260618 -0.031366006 -0.0146952495 -0.002446901 -0.06202595 0.0638465 -0.05120227 0.06130844 -0.05333742 0.07485473 -0.018029075 -0.0534265 -0.028639385 -0.006983267 -0.0011104195 0.060955532 0.053081326 0.018185213 -0.06906225 0.068393715 -0.008942377 -0.051511507 -0.034200292 0.00905147 0.06683055 0.053056 0.014728613 -0.05532166 0.013552309 -0.036288656 0.0336529 -0.006496243 0.035405293 0.04593848 -0.04592822 -0.068818845 0.041906007 -0.07061372 -0.08205641 0.08574482 -0.0452116 0.065177046 0.054298878 -0.059417706 0.023239382 -0.02382628 -0.06733611 -0.012168459 -0.07533661 0.043480255 -0.08025157 -0.019717291 0.0021654132 0.017204981 -0.02427866 0.06296039 -0.02142523 -0.016011722 0.06999626 0.021280726 -0.058870252 -0.057482373 -0.03827874 -0.03008956 0.05620281 0.035167973 0.036432322 0.03871175 -0.0036451777 -0.01781116 0.014167853 -0.06367036 -0.06615922 0.054911762 -0.004500693 -0.07067636 0.026612932 0.052893408 -0.043308653 -0.029504873 0.06048412 0.03404238 0.029414695 -0.028329188 -0.018813798 0.030831829 -0.029652061 -0.014439702 -0.0056274086 0.006610497 -0.06057589 0.057642456 -0.05411521 0.01822706 -0.03405707 -0.07116239 0.05135459 -0.013663443 0.020997271 -0.07091413 0.007886819 -0.036449578 0.014799651 0.053336617
1020 -0.0427475 -0.039342664 0.048911765 -0.0024637282 0.059094094 -0.00929287 0.017915351 0.055989947 -0.03677569 -0.011451549 0.045685418 0.016133567 -0.039408892 -0.055156436 0.010586045 -0.020286232 0.050773565 0.037466858 0.05667038 -0.0011194701 0.040739488 -0.00035829452 -0.028510954 0.02186828 -0.07029684 0.046214662 -0.037116747 0.023679424 -0.05859737 0.03782514 -0.01299193 0.055668503 -0.056737263 0.038743883 -0.0009128644 0.016818402 0.0016686488 -0.0030489296 -0.022313308 -0.02495797 0.007137251 -0.0054350565 -0.047016066 -0.024341276 -0.012571217 -0.008022957 0.03825469 0.013433457 -0.014869309 0.029193385 0.035131704 -0.0005561166 0.03668528 -0.009496564 0.08628694 -0.022139756 -0.010432338 0.030938184 0.02435065 -0.04039386 0.011611571 -0.00553256 0.0025911122 -0.012208707 -0.03891172 0.06205014 0.059026573 0.051408146 0.009010491 -0.03456822 0.028280636 -0.00521762 -0.065780416 -0.008149106 -0.022368286 0.061358683 -0.041061714 -0.046174325 -0.031165915 -0.013328771 -0.04270508 -0.0008907253 0.012172237 -0.019980224 -0.04678144 -0.033541895 -0.00093293964 -0.029958302 -0.027975919 -0.0061580557 0.012772039 -0.035189923 -0.01527028 0.015925424 0.018006342 0.0137332585 -0.031760473 0.007439294 0.035430726 0.0043018158 -0.041677028 -0.07033196 -0.0070827696 0.047817104 -0.015484597 0.053641897 0.0011300236 0.04136272 0.046078335 0.034199603 0.022333521 0.027450887 -0.04208062 0.011772314 -0.052898366 -0.07137457 -0.059242092 -0.009061256 -0.054770578 -0.05032516 0.039765835 0.033039987 0.0059016747 0.009177967 -0.08472671 -0.04198147 0.07144745 -0.029683122
1775 -0.007843924 -0.02222953 0.044716 -0.0040138653 0.007597139 -0.0401512 -0.042161364 -0.015590444 0.02573923 0.0047616027 0.03296293 -0.016099986 0.038125366 -0.042075686 0.037783768 0.045901373 0.05755791 0.029159077 0.0398989 0.04774181 -0.0070318384 -0.0070626265 0.033672187 -0.017323349 0.01956335 0.005527594 -0.029402299 -0.019039113 -0.017072078 0.011024448 -0.011969505 0.030885627 -0.018817501 -0.003958473 0.015647905 0.022350198 0.07202013 0.0188349 0.028744126 -0.04688149 -0.057981554 0.009841289 0.022249872 0.035960864 -0.009746756 0.029145787 -0.005764701 0.04296772 -0.05157181 0.05145386 -0.039564386 0.01384048 0.00020305524 -0.00054799014 -0.04982826 -0.054344542 -0.010379918 0.04991757 -0.0019374796 -0.012964674 -0.060511276 -0.0032521538 -0.017544392 -0.05581965 0.005671172 -0.0004045679 -0.030638542 0.057888985 -0.007775444 0.0476464 -0.020514943 -0.024554081 0.0011718888 -0.036921 0.030312568 -0.054389153 -0.008345157 -0.014114342 -0.01582114 0.037647232 0.035311583 -0.022804825 0.07213168 0.05596726 0.015751634 -0.062342368 -0.04219875 -0.02527974 -0.012105735 0.04856693 -0.0028061762 0.0076649464 0.008342635 -0.01289043 0.045199856 -0.06083837 0.018758155 0.025017118 0.012292209 -0.07697173 -0.0042079235 0.05233836 0.0070517063 0.05374889 0.024649484 -0.0009482758 -0.00392239 0.0019729773 -0.018621627 0.009930571 0.0641874 0.04738838 0.04913821 -0.010514732 -0.06748871 -0.07898112 -0.03887446 0.047481213 -0.031680536 0.0077731567 0.007658802 -0.015031005 0.0027174503 -0.012778052 0.02468487 -0.07090186 0.003903237 -0.014797438
1060 -0.045726262 -0.03151132 -0.020201579 -0.03464303 -0.04049398 -0.048916 -0.057026822 -0.019206781 -0.039719604 0.05092675 -0.004612019 -0.06966951 0.01821277 -0.030754777 -0.022856565 -0.008571997 -0.011739106 0.040593676 -0.009168214 -0.018825222 -0.053826302 0.052007515 0.043470867 -0.08697466 0.017505951 0.018545708 0.06660427 -0.03371936 0.018214518 -0.015691685 -0.023925481 -0.020042256 -0.07585137 0.040665727 0.018376658 -0.014297613 0.020170474 0.034443345 0.041922536 -0.00078311714 0.024011675 -0.03515841 0.010739367 0.033984695 -0.0043760194 0.0044909604 0.070638984 -0.06560984 0.04100627 -0.019381471 -0.011210393 -0.015776686 -0.026003227 0.0029777775 -0.07978137 -0.06465757 0.0045060683 0.048063908 -0.057676245 -4.282793e-05 -0.011438235 0.022378102 -0.03142457 0.02368143 -0.046429213 0.014474026 0.010368594 0.035561148 0.036761742 -0.013099187 0.014878523 -0.037442982 0.046540353 0.008975436 0.01808511 0.04692503 -0.078024186 0.01506485 0.019690037 0.0147064235 0.069912665 0.029248865 -0.0054767937 -0.022158453 0.033813205 -0.020972816 -0.011727221 -0.054201156 0.020012038 -0.010742955 0.081136204 -0.011890198 -0.034073476 -0.0024696528 -0.033788875 -0.07770062 -0.02380891 0.016259015 0.016288972 -0.036096938 -0.05252912 0.047050755 -0.019214962 -0.028851967 0.027581766 -0.043085653 -0.0034186384 -0.012436986 -0.029001692 0.017314022 -0.024188079 0.0014617953 0.050782636 -0.01536122 0.014101204 -0.056752577 -0.0066887774 0.01866262 0.00966669 0.017926035 -0.017973593 0.0009316657 0.031273756 -0.038442135 0.03658828 0.06931558 0.035401702 0.046992622
392 0.03083424 0.037679456 -0.026491994 -0.030342177 -0.027053284 0.013977832 0.05512954 -0.080106184 0.008363544 -0.020849817 0.0034281656 0.025306104 0.052577212 -0.0497535 -0.01956046 -0.000329689 0.045567125 0.0040236083 0.0057494976 -0.010039688 -0.005585845 -0.057576146 0.025475478 -0.057962056 -0.093239926 0.055715475 -0.04729922 0.010920035 0.032059487 -0.05982513 -0.050012123 -0.05441095 -0.018414712 0.07146882 -0.0783213 -0.036475502 -0.023924867 -0.012690102 0.049651887 0.012047621 0.05053327 -0.00558429 0.04036083 -0.016955292 -0.109674655 0.0392163 -0.0996917 -0.018789478 -0.009526164 -0.04867369 0.02475408 0.029135007 -0.0832412 0.012160055 0.003870311 -0.027067887 0.046945468 0.0072086384 0.036853783 0.032690544 0.007626692 0.066069834 0.0023913248 -0.03874193 0.0002487089 -0.05069308 -0.013997507 -0.024038488 0.0006807747 -0.002294853 0.02432963 0.036388807 -0.059776794 -0.033824638 -0.013208876 0.009565297 0.0602812 0.0499105 0.025118172 0.050793253 0.015035653 0.011527391 0.029814621 0.0049811937 0.035109647 -0.030708438 -0.016869415 -0.028011248 0.060355376 -0.007908905 0.068937734 -0.008680237 0.0045270678 0.020090317 -0.04087344 -0.007866039 -0.017737312 -0.03301626 0.052547865 0.03417509 0.035834495 0.010092029 0.004158362 0.04521604 0.07380793 -0.007998617 -0.052067786 9.731919e-05 -0.021142457 -0.06958031 -0.015620144 -0.04354731 0.05934903 -0.03211317 0.028365854 -0.08620296 0.040933225 0.032463748 0.0021475633 0.028631957 -0.043994956 -0.021435328 0.0546436 0.025577005 -0.014531438 0.05934266 -0.06087791 0.059463408
1107 0.017863687 -0.02072078 0.024080016 0.029610159 -0.05602729 0.040786173 -0.025524369 -0.008643248 0.041636705 0.0080578765 0.043560438 -0.026235381 0.02134948 0.010459848 0.022998774 0.059391245 -0.015451091 -0.0070236856 -0.019404037 -0.0007525689 0.028625632 -0.034825813 0.00430098 0.07385328 -0.013932121 0.0064535555 -0.08093725 0.027019417 -0.0138812885 -0.020850481 -0.007940817 0.0147589585 0.010407508 0.005291487 0.0097001195 -0.06243899 0.009287165 0.033791803 -0.072963566 0.017764596 -0.010774114 0.030666357 -0.0066177403 0.047266457 0.0350788 0.030024104 0.031881295 -0.031202178 -0.017354896 -0.029338129 0.0070496057 -0.060394928 0.013081647 -0.020637617 -0.029576965 -0.0069402214 0.048063155 0.015948977 -0.02209269 -0.0013367161 0.047251657 0.0045914184 -0.01414558 0.016339589 0.03996161 0.03401523 -0.041595235 -0.051400427 0.050764192 -0.035111 0.00042367526 -0.00743768 0.06143022 -0.013868505 0.043509874 -0.057044275 -0.012750591 -0.026341526 -0.023346145 0.06967978 0.06385457 -0.026640443 -0.004225707 -0.012635012 -0.039277557 0.03322282 -0.009248794 0.036237873 0.030286597 -0.04206574 -0.020584542 -0.043604787 -0.057365313 -0.03315526 0.040810812 -0.06748398 -0.027884198 0.028577056 0.047252063 -0.0442126 0.036689848 -0.007271979 -0.0062154457 0.013825988 0.015115477 0.031532805 -0.057375018 0.010511105 0.009681165 -0.068078786 0.017307984 0.013760561 0.05302622 -0.021615125 0.012285623 0.010528067 -0.03042388 0.0356041 0.0075675407 0.06819204 0.056012545 -0.031784337 -0.041387305 -0.027128763 0.06013165 -0.002268198 0.07094489 -0.008556349
1284 -0.071544 -0.06594158 -0.0444282 0.005717121 -0.03835319 -0.022583148 -0.019816322 -0.07867512 -0.022395955 0.02368679 0.09392354 0.02677033 -0.051578112 0.05392023 0.036187172 0.013046031 -0.024212187 -0.043056596 0.02034945 -0.02557404 0.032408345 0.01042851 -0.028356971 0.03940477 -0.074986964 0.066384986 -0.001498386 -0.05452326 0.032427464 -0.014025593 0.009366412 0.026818879 0.08270748 0.009263633 -0.077602535 -0.047643837 -0.050852418 0.034162685 -0.03938698 0.025117034 0.015569714 0.0780805 -0.045476396 0.088738635 0.031933345 -0.030081078 -0.079937585 -0.03311751 0.021422192 -0.03553088 0.040387135 -0.02655228 0.0440735 -0.06358793 -0.06281205 -0.06912282 0.08140571 -0.030120555 0.009745054 -0.04174112 -0.054933667 0.021969434 -0.00042641244 -0.022078758 -0.034641318 -0.027616465 -0.043076456 -0.016855318 0.063415155 -0.05096602 0.02004417 -0.04784046 -0.022934623 0.009459348 0.02098244 0.041276127 0.059574 -0.0013034785 0.006766466 -0.058233734 0.002858443 -0.045102675 0.021554962 0.03391293 -0.03786902 -0.01082035 -0.062370606 -0.0007506888 -0.018640269 -0.033233218 0.0030266994 -0.044578064 0.046337154 -0.0021692195 -0.00699691 0.033970233 0.053869825 -0.017707886 0.0384285 0.021325093 -0.03972874 0.04163495 0.014341637 0.012477705 0.05929809 -0.032671876 -0.016955622 0.039007936 -0.04843278 -0.011102371 -0.03358344 0.030329468 0.038657505 0.0032880034 -0.035183422 -0.035203833 -0.061393607 0.016506981 -0.00279602 -0.0016410084 -0.040275674 0.011710667 0.0039669387 -0.014047164 0.03696129 -0.0034321488 0.037003167 0.028193284
1003 0.022044644 -0.0545295 0.02300513 -0.03220782 -0.014375302 0.07347853 -0.00411997 -0.026833588 -0.028137153 -0.005463988 0.056195255 0.040771626 -0.0106772585 -0.025265994 -0.0679129 0.013438713 0.04314124 -0.010333983 0.028629407 0.036705818 -0.03549777 -0.019069538 0.00900388 0.059171163 0.018905537 0.024076795 0.00061417 0.06844189 -0.02494945 -0.022398237 0.03175208 0.009556781 0.018856438 -0.03178675 -0.014625975 0.00097282755 -0.024047786 0.04440213 -0.017200934 0.012148039 -0.011205704 -0.030706324 -0.044558946 -0.05776769 -0.04959881 0.039675083 0.04277184 -0.012524606 -0.029611997 0.0173931 0.04178551 0.010487822 -0.048009872 -0.017457254 0.05861711 -0.063813664 -0.016778868 -0.005947528 -0.022496652 0.032835186 0.030419217 0.023265725 0.00568611 0.0658648 -0.007612027 -0.022847535 -0.045102064 -0.011997883 -0.0012119006 0.0031169362 -0.044248443 0.013606226 0.03601304 -0.010729801 -0.027056245 -0.037220076 0.054843057 -0.0065772706 0.015157928 0.01616166 -0.005692739 0.043094773 0.04509896 0.029167417 -0.020699097 -0.030303026 0.04257179 0.016613208 -0.015702747 -0.016605843 0.0018140035 0.05636039 0.015925432 -0.06429617 0.011900753 -0.02476335 0.041143917 -0.005180243 -0.015586997 -0.011812228 -0.004847122 -0.029532477 -0.01716476 0.0013773479 -0.046191122 0.027025808 0.0026469775 0.012596051 0.021960646 -0.040254258 -0.05966191 0.010164631 -0.01289437 0.012996492 0.0003951526 0.027126668 0.036130376 0.04610708 -0.026226582 -0.014976342 -0.0023216864 0.035029255 -0.012079107 -0.059049647 0.037532683 0.02884952 0.07237535 0.028853742
522 0.09575304 0.014292276 -0.006521465 -0.050875735 0.009419883 -0.015287654 -0.02585032 -0.050167758 -0.056859363 1.9600266e-06 0.07707855 0.08771301 -0.05595427 0.011564005 -0.08312436 0.037576456 -0.001716609 -0.011026878 -0.027253963 0.012673662 0.022277292 -0.04396457 0.0026289239 -0.021560444 -0.03893157 -0.017359879 -0.029958632 0.0771024 -0.036880273 -0.035315175 -0.0072998386 0.028055891 0.028414898 0.06263219 0.027574299 -0.06089561 0.04912667 -0.02525775 0.048250288 0.0016969973 0.022340482 -0.017480277 -0.019246055 0.0036738925 -0.017063374 0.03082462 0.016563632 0.005893717 -0.037825514 0.009397859 0.06130583 0.011702701 0.018944947 -0.052692167 0.057437193 -0.010659892 -0.08085407 -0.013079895 -0.058034975 0.08033216 -0.016020937 0.022939356 0.050214056 0.022677233 -0.025333127 0.036099404 -0.038763206 -0.03386599 0.057669457 0.036383122 0.03829086 0.013310387 0.0014886685 -0.0054069953 -0.02993279 0.028314933 0.004004533 -0.008601927 0.044563416 -0.0094291605 0.022835253 -0.008285759 -0.06240918 0.014052601 -0.03260564 0.048091054 -0.0125663895 0.0003483095 0.0009131065 -0.013030931 0.02207639 0.03393974 0.050063103 -0.004730272 -0.044191387 0.0072771534 -0.0034174037 0.016373182 -0.028411414 0.04446489 -0.011183096 -0.039899662 0.05767888 0.044455376 0.065694936 -0.009945065 0.039115492 0.006030953 -0.049510274 0.004710449 -0.025585461 0.028930774 0.007711094 0.028735518 -0.00014282807 -0.029490909 0.01799163 0.013944027 0.024525944 0.0140837515 -0.019996116 -0.020547353 -0.016912442 -0.057779916 0.020486046 0.044111263 -0.026135657 0.06337374
1635 -0.063670084 0.000784643 0.0042640883 0.03764142 0.011242732 0.045355067 -0.050647404 -0.0011541299 0.031128097 -0.0042013456 0.013455025 -0.08185123 0.020774297 0.00014512689 0.070909835 -0.024822071 0.03332655 0.014124273 0.007322028 0.064766824 -0.087193355 0.054538973 0.08221123 -0.063642144 0.014570465 0.010948793 -0.037537914 -0.021312898 -0.030731324 -0.0016544354 -0.01823153 0.021823045 0.055842064 0.014543887 0.10104771 -0.04269796 0.023552356 -0.017929548 -0.007657166 0.06583811 -0.012128763 0.043041404 0.054882035 0.0012514215 -0.07741477 0.03019456 0.04052404 -0.09378986 0.062243126 0.036330514 -0.027731694 0.07787266 -0.04467604 0.0149214845 -0.0050473944 -0.05065575 -0.011959433 0.084706046 0.0011853154 -0.051343918 -0.047279954 0.030266102 -0.045763228 -0.0017813111 -0.019084636 0.0051115504 -0.0047251843 0.08880062 0.066400036 0.0042219604 -0.056654166 -0.023655934 0.0012749531 -0.01069514 -0.030499082 -0.015483548 0.012887867 -0.023618484 0.03978263 0.021667982 0.0398453 0.0010869743 0.01836549 -0.025445191 0.046597667 -0.012135459 -0.075740755 -0.051960103 -0.039293915 0.0001826991 0.048280437 0.016639138 0.022742717 0.020355023 -0.009058543 -0.014343918 0.021476481 -0.0057340665 -0.025108589 -0.03049414 -0.050708972 0.05507809 0.0006129782 -0.049322054 -0.038083047 0.013730306 -0.029810721 -0.02855651 -0.011622121 0.052599765 0.034654662 0.023866443 0.02762997 -0.006230793 -0.01037203 -0.032244664 -0.011446342 0.043252 0.038584985 -0.0074638803 -0.0015317055 0.058804568 0.0115201445 -0.003571165 0.033795003 0.0016459114 0.029974418 0.07394158
372 0.018970348 -0.0019730781 -0.047023736 -0.061333317 -0.032991506 -0.009727098 0.005517599 0.042006668 0.021357195 0.035175808 0.012362096 -0.057251547 -0.007910104 -0.013973621 0.071005985 -0.026386414 0.039580263 0.00093329157 -0.039815143 0.007980397 0.06434186 -0.005169699 -0.04004565 0.042443037 -0.021520598 0.022730472 0.07577316 -0.034111902 0.025900437 -0.06325707 -0.05595115 0.018764786 -0.08648541 0.007316533 0.012648622 -0.009791028 -0.055583064 -0.058880664 0.024863971 -0.023931734 -0.044330582 0.033057 -0.031347007 0.008099316 0.012808249 0.02708513 0.028087722 -0.05245395 0.06390308 -0.017223528 0.022351937 0.023639234 -0.058774326 -0.015977927 -0.044993956 0.029069368 -0.0045206426 -0.033791937 -0.016862348 -0.036310732 0.05322545 -0.0670578 -0.003872783 -0.027922405 -0.044738162 0.012384375 -0.0018292849 -0.033148993 -0.03651707 -0.040014554 0.07973617 -0.029094573 -0.04408524 0.025995765 -0.0053458577 0.04172165 0.058031972 -0.01501651 0.009069048 0.001333114 -0.024078082 0.017097162 -0.013819097 0.03706619 -0.03097049 0.024302855 -0.056310005 0.063147135 -0.014429688 -0.010572843 -0.056112804 0.030006282 -0.02772843 -0.043049257 -0.022349058 0.00027699582 -0.008316193 0.020868512 -0.08704535 -0.027215797 -0.012292847 0.037200574 -0.030287165 -0.032758866 0.07045411 0.013318415 0.024760067 0.016940067 0.017299755 -0.007214448 -0.02807686 -0.06547791 -0.014369159 -0.0005685622 0.0070941644 0.017337216 -0.029639727 -0.049366124 -0.044551477 -0.015930677 -0.006377386 0.044872265 -0.027372552 -0.007166255 0.021075826 -0.00866009 -0.019468253 0.0037969102
219 0.0529739 -0.028472308 -0.011073967 -0.030301197 -0.071344286 0.032743234 -0.021206247 0.052252885 -0.017026942 -0.029283863 0.04426144 -0.03201009 0.017977282 -0.026443312 0.00037191433 0.031223876 0.027920129 0.009372927 0.005127117 0.06528236 0.042974934 -0.007889925 0.04481414 -0.010422229 -0.02300015 0.015240404 0.06817959 -0.02133879 0.024826013 -0.08972614 0.0080950055 -0.0057755024 -0.054301176 -0.042803843 0.06706415 -0.011568949 0.06953052 0.017835073 0.044205032 0.008768363 -0.071628116 0.051186234 -0.037336666 0.015759593 0.028497715 0.005693294 0.037764493 -0.00938954 0.014098978 -0.020068806 0.023150947 0.04320928 -0.08498506 -0.030334122 -0.015115767 0.032290105 0.06684324 0.08760663 -0.022520801 0.010508481 -0.030602952 -0.02661754 0.041365873 -0.030941477 0.01725327 -0.0009620103 0.05416175 0.0038474652 0.0063138804 -0.005363974 -0.008810374 0.058916446 -0.021807939 0.05536259 -0.020826401 0.021185491 0.019719955 -0.0012739237 0.046450045 0.007183299 0.05850518 0.030488772 -0.016295524 0.029018993 -0.006262072 -0.008970898 -0.027626468 0.008686143 -0.05146148 -0.023981819 -0.027853778 -0.007127631 0.040007904 -0.006595962 -0.048043214 0.053052798 -0.068318196 -0.018154455 -0.00023195198 0.005925709 0.006509397 -0.037649516 -0.016687768 0.024327753 0.016292239 0.013517378 0.0166128 0.020041045 -0.04730708 -0.06840356 -0.011955761 0.043403365 0.057856813 -0.018087197 0.021210209 -0.010517069 -0.012919753 0.018617284 -0.070944615 0.0022887872 -0.028815955 -0.0002612278 -0.0024925806 -0.0021071746 0.015225361 0.014916548 -0.035153583 -0.00057321176
1784 0.04179894 -0.043204766 -0.00800909 0.014760855 0.05099233 0.008776961 0.0007654901 -0.0052375705 0.08196021 -0.023596225 0.025346166 -0.017525282 0.011526745 -0.034162983 -0.055884443 0.03574377 -0.020504322 0.019444898 -0.00021189962 -0.04859529 -0.0012554419 0.034198847 -0.007866605 -0.027047168 0.018683542 0.079688124 -0.0382949 -0.00093262 0.05671414 0.028949872 -0.060175132 0.056282163 -0.03572373 0.013293868 -0.012199715 -0.018971205 0.009275493 -0.060072917 -0.07059956 -0.006003566 0.061637573 0.00057389785 -0.024107095 -0.02444307 0.040568963 -0.04371915 0.05278684 -0.0018438939 -0.002541983 -0.02716591 0.005515712 0.039726965 0.011520501 -0.01591163 0.050398365 -0.00970162 -0.027237307 -0.022184554 -0.038388044 0.025779648 0.060213726 0.008932156 0.05177881 0.026603404 -0.004713492 0.012988173 -0.01649834 -0.002787552 0.036221046 -0.015628928 0.020616408 0.057772692 -0.002769503 -0.01373809 -0.006966106 0.02951442 0.039268408 0.014971137 -0.020209733 0.023203764 -0.025271123 -0.034291852 -0.03585835 -0.0032071336 -0.027548334 -0.0027217586 -0.033946227 -0.04385776 -0.0038524682 0.06280812 -0.005225837 -0.020017006 -0.0054337895 -0.002806078 0.0011157551 -0.0025176122 0.06465724 -0.04858825 -0.0044759107 0.01655479 -0.057791922 0.017281443 0.07005844 -0.074487515 -0.019804697 -0.0015438172 -0.008050101 0.034426123 0.014258447 0.040084857 -0.020746326 -0.02144554 0.028416747 0.0505991 0.011872038 0.07722963 0.020249493 0.055946562 -0.033175 0.02581896 -0.002669398 0.022359032 0.04381065 0.013240517 0.01677296 0.018867014 -0.07068547 0.033611663
1783 0.05531616 0.048642647 -0.042028166 0.053903393 0.033936545 -0.025663273 -0.00887433 0.00014249074 0.07831721 -0.05162693 0.016815541 0.031532526 0.025282802 -0.043354575 -0.0223556 0.054334655 -0.024225164 0.041132018 -0.029334513 -0.065096214 -0.06413459 0.015412695 -0.083635405 -0.019875333 0.03803433 0.028117962 -0.04627631 -0.013160997 0.040678665 0.037947208 -0.06800738 0.017887317 -0.0019963288 0.011006984 -0.012122856 -0.021651765 0.050303727 -0.046910573 -0.022386907 -0.012615456 -0.025337553 -0.00058615825 -0.067731224 0.017220097 0.06539152 -0.05019149 0.039258074 -0.010717264 0.034073465 -0.079451956 0.029433554 -0.014683191 0.013581896 -0.045779705 0.030823084 -0.037927546 0.0062330356 0.017220879 -0.042666916 0.06700755 0.040594835 0.035689346 0.0184398 0.024063017 -0.026882855 0.011791818 -0.019753488 -0.0022222407 -0.040072843 -0.020361276 0.0018891913 0.02054588 -0.01112951 -0.0009480797 0.019055655 0.0058273077 -0.00535615 -0.028493753 0.013541092 -0.04608562 0.0056876745 0.014619505 -0.024085097 -0.030744428 -0.044012927 0.043663617 0.0070023863 -0.04088683 -0.009055438 -0.021223344 0.030158343 -0.005246185 0.027588056 -0.0032959753 -0.016357103 0.005922222 -0.049915407 0.06724572 0.028426161 -0.01396849 0.061057646 0.060284145 0.0032257824 -0.0575404 -0.0117018055 -0.04175911 -0.0044359514 0.0044319923 -0.07271166 -0.0073713902 -0.07391765 -0.005280554 -0.031590067 -0.030501908 0.05855158 -0.05715344 -0.036842152 -0.01901093 -0.011574089 0.04927699 0.068263546 -0.03896772 -0.010896101 -0.0015309512 0.0671876 0.008917223 -0.057023205 -0.041396998
646 0.029308805 -0.03295933 0.041138094 0.0038258808 -0.06160301 0.030251272 0.009127373 0.016973944 -0.016358769 -0.033397686 0.0023620687 0.015389252 -0.029369352 -0.07134859 0.0153726665 0.0254363 -0.0014608175 -0.031915575 -0.043309804 -0.031545747 -0.041259076 -0.04495316 -0.047963515 -0.02482347 -0.044179387 -0.0055133975 0.013532626 -0.035331514 -0.026815157 0.029111095 0.040979978 0.016434701 0.049001586 0.017419342 -0.027749784 0.008294935 -0.07046089 0.037624866 -0.03590898 0.0023142665 0.04811965 0.021580897 0.018841742 0.013623232 0.06408827 0.00045874243 0.0013762651 -0.013362353 0.05449947 0.008957646 -0.0310722 -0.039128955 0.08668844 -0.027615145 0.0518248 0.04435014 -0.070927985 -0.056045737 -0.010595938 0.023175452 0.049449094 0.0050918204 -0.007916584 -0.019629553 -0.07521629 -0.058814447 0.014030021 0.014864016 0.009611866 0.014897184 -0.06173707 0.028896188 -0.06631147 -0.036157906 0.00589809 0.046681337 -0.038496193 0.054085303 -0.021877548 -0.019806346 -0.0052563907 0.02806172 -0.003036552 -0.011737787 0.005544835 -0.019226365 0.07835761 -0.037644826 0.017896675 -0.071798004 0.05205875 -0.010098547 -0.04756376 0.026560182 -0.058753468 -0.023364188 -0.038600836 -0.032979395 0.04713748 0.017315572 -0.0075526047 0.0005681783 -0.032025754 -0.04076677 0.0009691054 -0.019534577 0.014719868 0.006243302 -0.02452156 0.020800646 0.02556219 0.07980997 -0.037815187 0.025879024 0.028827159 -0.009392485 0.06032644 0.03462261 -0.0071951402 0.02152375 0.01926319 0.022792624 0.01576927 -0.050441653 0.02604254 0.03533442 -0.028637618 0.032226935
75 -0.029636119 -0.008521281 -0.057760034 0.06627068 0.01766529 0.008537366 0.002624996 -0.0037683265 -0.015166807 -0.015281939 -0.07373162 -0.014928305 -0.02126495 -0.037075195 0.056046825 -0.025005361 -0.047528356 0.0068503283 -0.010290385 -0.036488175 -0.0459505 0.0031405203 -0.020312246 0.009049166 -0.032376382 -0.018024055 -0.010780758 0.002930455 0.01868268 -0.04396775 -0.020567691 0.048293803 0.05731471 0.05817553 0.008811135 0.039038997 -0.05036757 -0.049261633 0.025354233 -0.0031605612 -0.007129735 -0.0013584227 -0.013317949 -0.028702267 0.008530866 0.018276596 0.06647317 0.009651968 0.025994131 0.022753691 0.01687473 -0.024051437 0.050838266 -0.006257177 0.008040453 -0.028602106 0.015122511 -0.0036499784 0.008885043 0.068339236 0.06980387 0.008977003 0.08273212 0.029688003 0.03734309 0.0058812164 -0.05335005 -0.010583668 -0.020003647 -0.07169236 -0.018472876 0.017831134 -0.041805547 -0.00018712532 0.027883152 -0.0025616428 0.022856683 -0.005010402 0.015990356 0.01261756 0.0086398255 0.026064936 0.023728931 -0.021785885 -0.00022226671 -0.037591416 0.030719314 -0.01616213 -0.04320788 0.017619617 -0.056147452 -0.009911019 -0.058794133 0.02141509 -0.05619189 -0.05049847 -0.05663464 0.022239862 -0.07228797 -0.0327461 -0.01393136 0.072071955 -0.044192016 -0.047660224 -0.010112441 -0.008800156 -0.0009765546 0.0001131854 -0.02385722 0.007872848 -0.060847223 -0.008212218 -0.0020506086 -0.028909843 0.033758096 -0.019295009 -0.020700483 -0.038198393 -0.023130516 -0.0049032466 -0.047422722 -0.021667073 0.0739837 0.004613265 0.04317566 -0.037827004 -0.022328904 0.029545482
1075 -0.07572024 0.07562544 -0.009352193 0.0080919 0.038272135 0.0032107693 -0.036595177 -0.04651671 -0.023820559 -0.0075390446 -0.00892446 0.019185483 -0.0399791 0.009989644 -0.025852118 0.056857884 0.008449499 -0.059077553 0.05249807 -0.008915795 -0.003778912 0.014898126 0.006561856 -0.02778657 0.005569761 0.010178153 0.048968587 -0.028422302 -0.009183983 -0.018248161 0.030679781 0.06840675 0.028106555 0.005605058 -0.009128576 0.0042826417 -0.032464646 -0.0043776846 0.016561968 0.0088306125 0.0610019 0.018178176 -0.007745169 -0.052799758 0.047369808 -0.024828672 -0.059456285 0.02959358 -0.043862775 -0.04762668 0.018986499 0.07294388 0.0020131678 -0.03746872 0.011780275 -0.028293407 -0.031805597 -0.06901072 -0.0076703485 -0.033307474 0.079790816 -0.0002872592 -0.048735205 -0.016288454 -0.054156825 -0.06169129 0.017678125 -0.024680013 -0.03307317 0.015638672 0.009070856 -0.06019219 -0.024645872 -0.01970579 0.03298294 -0.0022502844 -0.05872329 0.058080066 -0.05398728 -0.047451355 0.016386362 -0.04827204 -0.004594998 0.018920813 -0.01184737 -0.027054027 0.022354791 0.035233393 0.020372516 0.03034244 -0.0042917137 0.012458811 0.035226744 -0.044597015 0.022308225 0.017790476 -0.003492358 -0.04128085 -0.052738547 0.020880593 0.033070832 -0.04338178 -0.05751785 0.007010697 -0.07045499 -0.055005305 -0.038371757 0.055186443 -0.022056358 0.018210903 -0.015633086 -0.064966716 -0.00084160647 -0.0432572 -0.058830123 0.056593835 -0.043377113 0.033896104 -0.022067118 -0.046033673 -0.007716402 0.04376181 -0.041840293 -0.07350974 0.05452753 0.054288633 -0.009898723 0.004939519
1208 0.046273675 -0.0177977 0.030984826 -0.05281102 0.04768748 -0.00010736417 0.061967235 -0.06634854 -0.025377613 -0.06646434 -0.026391525 0.059250917 -0.07825716 -0.04864253 0.019339457 0.08827683 -0.032345667 0.030320045 0.004181719 0.032904383 -0.037588634 0.04191433 0.023697019 -0.014754559 -0.037870333 0.031457547 0.005662763 0.0128791295 -0.013052372 -0.0372385 -0.0019374074 -0.047783297 0.030800596 0.025176022 0.027920123 -0.0070517627 -0.026415316 -0.0013675884 -0.03212176 -0.004157377 0.014445085 -0.048833963 0.032534312 -0.0239 0.0031912834 0.0037486036 0.05966257 -0.033344913 0.022996001 -0.037192736 -0.0072106034 0.025374068 0.010804048 0.021004677 0.054932773 -0.0013512678 0.022942547 0.026640056 0.0292065 0.019719385 0.00056089857 -0.015250733 -0.02609473 0.044257835 -0.046642505 -0.016678946 -0.011043259 3.9168735e-05 0.039905414 -0.041956197 0.054361086 -0.055074066 -0.029103441 0.0063267522 0.010441371 0.0512966 0.022822121 0.041374717 0.037630003 -0.055570807 0.035088606 -0.010655259 -0.029504266 -0.024375144 -0.050099645 0.050694488 -0.022430958 0.0770221 -0.018031796 0.070254855 0.0617716 -0.01662596 -0.018651607 -0.07323397 -0.037389584 0.008250243 -0.06011384 -0.03816669 -0.039515533 0.03408866 -0.06939084 -0.016188333 -0.019025737 0.039079867 -0.031914115 0.0033330552 0.020365817 -0.0014282225 -0.005176059 0.040468544 0.057199612 -0.038181067 0.016071055 0.015829554 -0.08866895 -0.060212146 0.0074252468 -0.024548532 0.08768762 -0.031196292 0.05156372 0.01719187 -0.007913461 -0.008534128 0.013269294 -0.02331688 -0.021573022 0.061179906
401 0.06260075 0.0063812393 -0.041612156 -0.061075523 0.027674047 -0.025090342 0.0052027786 -0.027524102 -0.013652887 -0.004495942 0.018109404 -0.009799862 -0.0037333916 -0.022558376 0.013244064 -0.016041422 -0.04184297 0.056213073 -0.012702672 -0.0012110035 0.029277636 -0.030935138 -0.06389895 -0.065331906 -0.04342048 0.052121636 -0.031690404 0.0062102443 0.041421626 -0.03736283 0.01996556 -0.048213422 -0.00882476 -0.025686923 -0.036555294 -0.0029491123 0.018253407 -0.0071216696 -0.0054327175 -0.08333429 -0.014052262 -0.048940368 -0.012393407 0.04867222 0.023526784 -0.012420729 -0.085453756 -0.052082665 -0.061783686 0.025484938 0.03438251 -0.012849027 -0.03539381 -0.0021020635 -0.056343883 0.0012294877 0.052197568 0.012291729 0.02830983 0.012893495 0.00558196 -0.0339273 -0.018370185 -0.026393438 -0.054546382 0.0056928797 -0.007836787 -0.015362767 0.003533989 -0.0011138623 0.018698586 0.023821833 0.022497704 -0.0037648175 -0.0673236 -0.05236931 0.014265108 0.02811625 0.015998693 -0.022027677 0.050953098 0.046919726 -0.048041616 -0.029552925 0.04129289 -0.04961806 -0.024402162 0.020986898 0.06900595 -0.028260466 -0.037134174 0.003118213 0.018755484 0.020728385 -0.004844265 -0.046155594 -0.0114550525 -0.05712648 -0.0084003145 -0.04266422 0.07007101 -0.001568398 0.0042552035 0.07710957 -0.035075787 0.0331854 0.032535195 -0.058165547 0.04505154 0.0054324865 0.029268201 0.005143664 -0.050954882 0.034366988 0.0029816662 0.0086067915 -0.008572725 0.032022987 0.023425622 0.047464363 0.012485722 0.059691645 -0.019134538 -0.012939557 0.01152968 0.01696146 0.036343046 -0.066515826
400 0.010632066 0.009689948 0.06259487 -0.065301426 -0.0075564887 -0.048098944 0.043495696 -0.005658512 0.055592496 0.012351089 0.014631851 -0.0012335873 -0.057000622 -0.0076622525 -0.042322893 -0.036201067 -0.017019603 0.060547713 -0.020934133 0.031233056 -0.010185653 0.00896246 -0.01543658 -0.042580914 0.018321991 0.027457507 0.00030038992 0.022624075 0.02807155 -0.029023044 0.0017797867 -0.031893775 0.020815082 -0.0017636336 -0.017295953 0.0027939694 -0.03699012 -0.025170896 -0.08166397 0.0051770695 0.008343945 -0.022768205 -0.050094467 0.027831892 0.012308076 -0.032571238 0.0007006003 -0.0146763455 -0.03824343 0.092101395 0.03812098 -0.040593505 0.01636214 0.01437204 0.03354836 -0.045308582 0.0649399 0.044744 0.021736717 0.026093043 0.011176055 -0.021539584 -0.02805977 0.022864636 -0.010593524 0.051812023 0.062814586 -0.0101331035 -0.053892396 -0.034406815 0.0103342 -0.008887595 0.014987416 -0.026060607 -0.045729768 0.0075312797 0.008346561 -0.0018999685 -0.0022338214 0.0021057616 0.01566335 -0.008378968 0.0018118587 -0.041641247 -0.013980366 0.013697316 0.010728251 0.0149301505 -0.032059666 -0.044599194 -0.046192512 0.025795374 0.02580411 0.024425602 0.021648537 -0.05084826 0.0021528911 -0.014373535 -0.017344108 0.0015547619 0.060425628 -0.03988009 0.03829503 0.010732058 0.013027505 0.015726801 0.010223482 0.005183576 0.015200541 -0.044926625 0.008325802 0.014245969 0.003513334 0.08985195 -0.027457358 0.0018177246 -0.027002264 0.03627983 -0.0013588408 0.061751075 -0.022238422 -0.034217022 0.034396518 0.022126468 0.012887998 0.031716462 0.0036700133 -0.055402648
