698 128
478 0.020222766 -0.07983187 0.09174265 -0.036037758 0.022382325 -0.018736497 0.08989724 0.038244676 0.032553222 0.09863909 0.09213324 -0.018903121 -0.016156971 -0.004753385 0.00925235 0.055624902 -0.04850488 -0.014851767 -0.005339641 -0.030197987 0.028937988 0.004284875 -0.049278237 0.08134251 0.043172095 -0.008178989 0.07405976 0.03412213 0.0074714255 0.07227881 -0.04264547 0.058727447 0.063468345 0.028470043 0.024418322 0.11044759 0.06273534 0.011484923 0.02704039 0.060823523 -0.02511042 -0.08242842 -0.10096461 -0.0225462 0.033419743 0.018751957 -0.0046087243 -0.05330121 -0.030914849 0.016532632 -0.009303087 -0.024726443 -0.016463818 0.03173295 0.06760997 0.023845281 0.034825493 -0.060488176 0.041388247 0.024969358 0.04361715 -0.03613897 -0.01566668 0.080237836 0.030716171 0.0025773703 -0.11258299 -0.08640791 -0.09130281 0.07453855 -0.09793766 0.019232621 -0.063043155 0.015894026 -0.016418438 -0.077586405 -0.03270205 0.044384234 0.017106362 0.026023407 0.011947273 0.011542792 -0.085670285 0.041429654 -0.035520196 -0.07167731 0.04587039 0.030738594 0.072624184 -0.08618779 -0.033907544 -0.027670644 0.012186107 -0.03513542 0.008496778 -0.09781077 0.004215582 0.0585744 -0.0024766254 -0.09086682 0.061724924 -0.041179467 -0.08777935 -0.047250625 -0.025995996 0.0022699758 -0.09584059 0.00930621 0.003199761 -0.100639075 -0.06788627 0.013415831 0.072695866 0.007882142 0.050069995 -0.008708138 -0.059233908 0.062454112 -0.029029729 0.058554865 -0.0032260364 0.028376287 -0.015341846 0.11750889 -0.01121548 -0.06258444 -0.055575658 -0.044621825
1315 0.08615955 -0.029547704 0.060913954 -0.07318956 -0.10769312 -0.0011566711 -0.0053527574 0.024170954 0.108854026 -0.013523387 0.08450459 -0.075392626 -0.047887553 0.0057168724 0.053564668 0.104255915 -0.064327985 0.0014801379 0.037600674 -0.04902267 0.095526904 -0.0363783 0.04235018 -0.057587367 0.026900407 -0.09713386 -0.019059557 0.046451967 -0.10014647 -0.0018245685 0.09720038 -0.0042152847 0.04377572 0.087683864 -0.024535267 0.041236654 -0.08622591 0.048622947 0.010749579 -0.03715982 0.025882512 0.039486136 0.09549853 0.062033754 0.066046946 -0.03669856 -0.049985446 -0.016658604 -0.08794853 0.054765932 0.06324847 0.09244438 -0.08580091 -0.0965799 0.0015076807 -0.0021325857 0.05492014 -0.08045569 0.05778172 0.02034482 0.026280452 0.02562386 -0.0030228836 0.026451869 -0.026449567 0.04719184 -0.044308484 0.0063090124 -0.027123457 0.03568016 -0.105675116 0.007203785 -0.0024415334 -0.011305311 -0.011925914 -0.048245214 0.051444184 0.06584196 -0.047749955 0.040415112 -0.006715724 -0.09435198 -0.07082377 -0.061686706 -0.002666139 -0.074174404 -0.01700704 0.04252941 -0.015000938 -0.049111374 -0.013324392 0.0796998 0.099699914 -0.085927345 -0.032229032 -0.011653241 0.018647771 0.009394224 0.010256624 -0.10544338 0.054648776 -0.0037250426 0.09193596 0.07107764 0.010135282 -0.04823191 0.045510836 0.05055193 -0.008279722 -0.011929301 0.04107853 0.03698847 -0.059939343 0.06403207 -0.09650303 0.046166833 0.010723873 -0.046870563 -0.07606423 -0.0596657 -0.06375774 0.053613737 -0.079209834 -0.017689595 -0.03052113 -0.042444754 -0.06461112 -0.03536735
746 -0.012167444 0.053383842 -0.010658629 -0.04635701 -0.024063217 -0.011262226 0.009810599 -0.068096615 0.026210122 0.09992374 -0.07217504 0.01769383 -0.08001498 -0.027239038 0.08979395 0.009030866 -0.04292163 -0.048130855 0.07874786 0.10617788 -0.04040869 0.025960678 0.011578454 -0.008124326 -0.08285332 0.023952836 -0.08550095 0.006400668 -0.08774547 -0.10566347 -0.031084418 -0.0075194733 -0.012357383 -0.10777786 0.0220393 0.03946432 0.042679697 -0.06772654 -0.1095691 -0.047767207 0.08103135 0.031540524 0.08864643 -0.022629876 -0.037462704 -0.0108747175 -0.024119118 0.049404573 0.009997827 0.028954007 0.004275992 0.0015590842 -0.05438176 -0.046977405 0.03410923 -0.09427173 0.04673973 -0.036800783 0.017601721 0.03571219 -0.061819743 -0.054766256 0.01602552 0.06940899 -0.02378024 0.0037668315 0.058743913 -0.08324657 0.00011245182 0.010002053 -0.0062657716 -0.029367134 -0.029401222 0.029544795 0.058276985 -0.04191031 0.04628539 -0.023754457 -0.07321722 0.061827105 0.079781756 -0.10184813 0.01967969 -0.015319613 0.04138606 0.0015372366 0.077308685 -0.05824941 -0.09864829 0.08422113 -0.10394523 -0.066895634 -0.012094027 0.11533735 -0.091950156 0.069246665 0.046387874 0.07484983 0.051149443 0.0026090154 0.037384942 0.04219962 -0.039044198 0.0041617346 0.05591774 0.050758656 -0.015174854 0.0020255023 -0.014653334 0.057400085 0.068203695 -0.012013102 -0.12727156 6.9754984e-05 -0.09549393 0.01842645 0.106258295 -0.029400673 0.011128614 0.0699463 -0.07242123 0.07231662 0.0044832495 0.04369641 0.07873796 -0.052057043 -0.0015967669 -0.037079934
1756 0.06056766 0.013329929 -0.030797891 0.023808222 -0.031110128 0.039005164 0.032291714 -0.034427535 -0.038902096 -0.060165774 0.036232926 0.029548192 0.050807152 -0.0029561934 -0.10593523 0.08571284 0.0011580739 0.035089366 0.019483576 -0.006095939 -0.010861276 0.0410028 0.02942361 -0.06566112 -0.06953827 -0.025483625 0.035766155 0.02763512 0.012227805 -0.06425657 -0.061190974 -0.024712622 0.017900508 -0.009389306 -0.118802175 -0.009646078 0.06167047 -0.081563726 0.0069277603 0.024890227 0.036943726 -0.03482882 0.038764454 0.043916766 -0.056865714 -0.020638417 -0.008328229 0.018288309 0.029833991 0.02741306 0.039691027 0.04260659 -0.039584845 0.045609467 -0.056234095 -0.022228334 0.027352773 -0.10334636 -0.027962781 -0.011982397 -0.046852298 0.010862397 -0.03931996 -0.006807586 0.056484308 -0.03533642 0.07042872 -0.11222113 -0.04457027 -0.015978012 0.026181009 -0.018452147 -0.039050285 0.037303764 0.058426388 -0.0061610066 0.059295423 -0.015294443 -0.10008457 -0.0016460548 0.03810411 -0.03719837 0.036869425 -0.023988025 -0.032865077 0.06973942 0.018374074 -0.07681502 -0.028429257 -0.034596957 -0.014378732 -0.03189805 0.10820556 -0.0014501874 9.677051e-05 -0.038417783 0.008892093 -0.079227254 0.05759629 -0.045066986 -0.0069857105 -0.058160897 0.019180385 0.019821584 0.023057004 -0.028320268 0.04568661 0.057612818 -0.07861138 -0.052093156 -0.047435652 -0.019505203 -0.033559818 -0.02136216 -0.10862096 0.06627329 -0.031369083 -0.02283914 -0.0020535954 0.051345713 0.075974934 0.05147227 0.060230516 0.114917636 0.04009352 0.028559964 0.0662512 -0.0028098244
214 0.09667395 -0.06071675 -0.0079280725 -0.06608874 -0.0038380283 0.007313669 0.072420225 0.014589314 0.007433715 -0.013920622 -0.025302585 -0.03213214 -0.011845952 -0.056160685 0.07067636 0.0059602126 0.08659645 -0.05147562 0.0036670612 -0.019503541 -0.1004224 0.0679693 -0.004646267 -0.030222056 0.09430209 -0.02114708 0.0068910243 -0.0033072217 -0.066298254 0.016270896 0.016452707 -0.0023400884 -0.037668277 0.014422113 -0.016370488 0.021138689 0.02339082 -0.024932224 -0.014237391 0.057172712 -0.030993726 -0.04006781 -0.006787765 0.010693178 -0.06886148 -0.014371784 0.009206166 -0.06498202 0.027749948 0.02964891 0.023140065 -0.08931518 0.01987311 0.026128363 -0.03254823 -0.078474715 0.04817163 -0.025988586 -0.057108052 -0.07587788 -0.042152427 -0.009899843 -0.003751826 -0.0038723769 0.028575169 -0.06405627 -0.0005772943 -0.0021899012 -0.032381125 0.016787767 0.020479351 -0.08590192 0.037975304 0.042972907 -0.0046724337 -0.10945106 -0.07902311 -0.0034864368 0.09996838 0.0119797075 0.011945776 -0.047696773 -0.07665693 -0.08998926 0.06430602 -0.003990226 0.033974238 -0.019995227 0.036644902 -0.001982988 -0.07554549 0.009888114 -0.005774207 0.030747384 -0.07759218 -0.05808277 -0.009475083 -0.03945765 -0.025112236 -0.024121543 -0.11797356 0.024608094 0.00023897328 0.04952461 -0.12454816 0.021554472 -0.045042295 0.013891211 0.039824355 0.034162607 -0.0048714946 0.11335237 0.04289171 0.11988381 0.016870972 0.013355314 0.10055878 0.040317606 -0.027496837 -0.03749954 0.070376016 0.03749123 0.042968787 0.058235757 -0.055248044 -0.012443181 0.058990367 -0.07772357
14 0.02291524 -0.093922876 -0.077016324 -0.02683633 0.010525827 0.11830829 -0.060441855 -0.047265507 -0.013997454 -0.063257605 -0.088790245 -0.034032084 -0.036303647 0.079299666 0.12200475 0.0034202929 0.050965454 -0.02959729 0.028164899 -0.05838748 0.06905475 0.10350452 0.048700836 -1.3814541e-05 0.043119803 0.0012863105 0.041911054 0.019348696 0.039195355 -0.038039945 -0.08637284 -0.027398497 -0.08423683 -0.009232353 -0.022012204 0.0054701427 -0.0014281301 -0.12194671 0.07792331 0.052767724 0.016234528 -0.060640484 0.017802503 0.05838411 -0.06685904 0.031690642 -0.010040214 0.000848412 -0.012888435 -0.104205936 0.109554216 -0.10276185 -0.028715726 -0.05537235 -0.07017459 -0.055179913 0.03347672 0.10064722 -0.038664587 -0.010519201 -0.09367797 0.04667521 -0.035014745 0.10323502 -0.07277866 -0.035056192 0.00577558 0.023296315 -0.053482145 0.07078201 -0.04864105 0.0090227835 -0.06835363 0.03606697 -0.081516765 -0.10490258 0.044181235 0.014277012 0.033077173 0.09291882 -0.020324348 -0.057267223 0.09102125 -0.03240989 0.038172446 0.0146500645 -0.0021865019 0.013161678 -0.02162599 -0.04429252 -0.0644566 -0.040590048 0.0029810613 0.030233098 0.03637155 -0.011513492 -0.013393025 -0.10351112 0.00971595 -0.011965944 -0.08542809 -0.087890126 -0.0040041595 -0.011790964 -0.07170756 0.044586584 -0.06469711 -0.056759108 -0.033046488 -0.0074060946 -0.014981281 0.05255077 0.09621429 0.059099533 0.047377955 0.037180286 -0.02835558 0.019889869 -0.046638966 -0.020485824 0.03667148 0.08401553 0.015349091 -0.05698781 0.026904775 -0.003426257 -0.051461276 -0.0841912
1180 -0.010125437 -0.080131784 -0.027527371 -0.06302397 0.061719205 0.0124224285 -0.1070773 0.09974057 0.0997115 0.09972102 -0.12562422 -0.04910199 -0.065443106 0.053957652 0.09863545 0.011738173 -0.048750587 -0.06851293 -0.055604026 -0.033105023 0.04471667 0.009540248 0.028168231 -0.004186591 0.07545385 0.08328505 -0.01423203 -0.037373967 -0.037060738 -0.06296796 0.08457637 -0.013520024 -0.014016741 -0.023582498 -0.0071921037 0.08320878 -0.0007579625 0.0032863573 -0.07249701 -0.0029848497 -0.09049309 0.048497453 -0.012227079 0.03144148 -0.0030525525 0.06355721 -0.024671761 -0.039062757 0.0042421194 0.117008395 0.043297675 -0.0039059105 -0.06448492 -0.003622037 -0.0004605719 0.106962584 0.019841379 -0.012743462 -0.036624342 0.052182842 -0.007436658 0.05209461 0.04704236 0.035554886 0.024170985 -0.0024442354 0.010634458 0.013336859 -0.08163381 0.0044642626 0.09370688 -0.096432865 0.0402949 0.0182446 0.05121625 0.01918912 -0.00014140498 0.046629068 -0.041034162 -0.04272752 0.008902219 0.06894329 -0.051531665 0.025082564 0.04131082 0.056154653 0.014970549 -0.06211723 -0.07720308 0.040178187 0.06978166 -0.015223902 0.035865806 -0.02254016 -0.047388986 0.08594709 -0.05900221 0.02772793 0.04999112 -0.023330424 -0.048008975 -0.017455941 -0.08760797 0.040464036 -0.0057808934 -0.09085681 -0.012853 -0.0674161 -0.018997831 0.059104882 -0.083389014 -0.028219098 -0.02888469 -0.004150674 -0.091031276 -0.046630085 0.041031927 0.005354447 -0.0728156 -0.050193124 -0.026904529 0.0329657 0.008543021 -0.04363947 -0.0071533984 0.0025952405 -0.0008228703 -0.034794744
864 0.025058497 -0.10095612 -0.0009185133 -0.034715097 -0.0031632103 0.058824103 -0.010296493 0.049468126 0.05246506 0.051230207 -0.01747865 0.035551727 0.09352346 0.02986145 0.0009626787 -0.020887064 0.012755608 0.018285565 -0.079071544 -0.04744006 -0.011647363 -0.06163622 0.06556652 -0.07840194 -0.06303492 -0.0077147223 -0.01628605 0.012576057 -0.022120887 0.09743342 -0.019388426 -0.07397486 0.013650797 -0.005664091 -0.0019909444 0.032707036 0.021698298 -0.008984964 0.0039292015 -0.028336793 0.052916437 0.03399593 -0.010967245 0.057022844 0.0972303 -0.0116753355 -0.07467031 -0.00791564 -0.07689162 0.06349895 -0.037151966 -0.10450253 0.0207064 0.005081687 -0.02055183 0.09034166 0.05266084 0.032747492 0.037967797 -0.055840906 0.066947885 -0.04982259 0.07826159 -0.007549503 -0.029252764 -0.0075424104 -0.020129628 0.012778931 0.050607223 0.08841606 0.048920143 -0.0024850266 0.0845359 0.039664816 0.02026601 -0.061718717 0.043471854 0.04518689 0.02270437 0.002066024 -0.0007788279 -0.011995152 -0.073925294 -0.029318826 0.033849336 0.06751002 0.03731242 -0.07238444 0.04853009 -0.092748545 0.021708854 0.010212403 0.028991831 0.0736862 -0.039852954 0.015570362 -0.009905194 -0.010256672 -0.07102977 -0.081997514 -0.021393586 0.045673408 0.039311394 0.056859322 0.05723145 0.03022936 0.02772066 0.024989665 0.012409343 -0.08016305 -0.018209156 0.030594463 -0.057105098 0.060035903 0.06926174 -0.07906911 -0.028799139 0.021668103 0.07866389 -0.06939282 0.018567212 0.03572569 0.050447717 -0.020410135 0.0081502395 0.0036111164 -0.05997893 -0.037191078
142 0.0073270854 -0.02991274 -0.021203987 0.11287222 -0.01295374 -0.0931891 -0.023764446 -0.007961213 -0.010276323 -0.023772137 0.032771178 -0.00631294 0.015786191 -0.038946077 0.06211575 0.015625132 -0.025863253 -0.051600244 -0.0017474113 -0.049794305 0.09646176 -0.0077210213 0.09562286 -0.08387855 0.09682819 -0.040225804 -0.02123506 -0.003711567 0.047943484 -0.014455677 -0.08154962 0.10786624 -0.027800161 0.04373879 -0.05905789 0.080045044 -0.03266504 0.07600748 -0.07960839 -0.018170103 0.009404242 0.11057902 -0.01782743 0.08491473 0.0874251 -0.047890376 -0.018899847 0.061363872 -0.08268197 -0.0007216678 0.027322605 0.03758525 0.07660843 -0.041508373 -0.07041344 0.06014497 -0.05727971 -0.00478459 0.04734526 0.0226067 -0.0077189864 -0.017314399 0.021428818 0.03593579 -0.025077654 -0.013430704 -0.016714191 -0.081640005 0.061216272 0.011357973 0.014416444 -0.026403151 0.067107625 -0.08840122 -0.034988243 0.001189978 0.0018321323 0.09116432 0.040174972 -0.013538864 -0.004586719 0.09723865 0.027544634 0.043333203 0.0039402326 0.00846563 -0.021531355 -0.043889496 -0.0020227395 -0.096464746 -0.014433894 -0.057364803 0.008431797 -0.05677521 0.036595948 -0.0031130996 0.022041861 0.07515534 0.043104462 0.026997272 0.029945817 0.017737648 -0.04786225 -0.08158951 0.06126918 -0.08605409 -0.0074810437 -0.036275268 0.08470177 0.062398367 -0.07303301 0.05897513 0.007347181 -0.10121111 0.06161793 -0.07207877 0.008547004 -0.010378174 -0.09831283 0.04124227 -0.033973955 -0.0140511105 0.04467486 0.052612253 -0.061108638 0.019487727 -0.07075547 -0.0017760133
471 0.06926312 -0.058041193 -0.055694114 -0.06615663 0.023953516 -0.04994116 -0.02377854 -0.08897783 0.015250915 -0.014678751 0.0593477 -0.012035417 -0.020983117 -0.0037034552 0.04102679 -0.040046863 -0.004717999 -0.08270046 0.053937133 -0.07307581 0.0049038697 -0.090892136 0.052777197 -0.023066763 -0.031002551 -0.0894101 -0.044626664 -0.07521852 0.007852607 0.048629005 0.020618731 0.104523525 0.0018442243 0.102020614 -0.013012487 0.04472218 -0.08927411 0.05199126 -0.03107615 -0.010879148 0.05792755 0.0016092759 -0.038752466 0.005582516 -0.025345417 -0.050471507 0.12510002 -0.08367052 -0.0023805231 0.060163498 -0.06971323 0.050980363 -0.084940664 -0.06795718 -0.07039335 -0.050644234 -0.069000676 0.05311477 0.010637791 -0.03929009 0.01229507 -0.11466717 -0.03460426 -0.005241659 -0.03405034 -0.050068844 0.08831673 0.06572107 0.10626974 -0.09764238 -0.06020296 0.0013213955 0.046334803 0.06635432 -0.028581705 -0.11392094 0.0014876033 0.039424468 -0.010120122 -0.02545472 0.03271756 -0.043404505 0.06601217 0.054715544 0.04350023 0.04279805 0.071242705 -0.0034914694 -0.052623615 -0.031770755 0.00988678 -0.09637265 -0.02018698 0.092687234 0.10820955 0.019355007 0.09616506 0.010088483 0.023970492 0.01928458 0.016489672 0.0026819562 -0.07157975 -0.06281023 0.06764153 0.008727327 -0.07930302 -0.11524551 -0.06993922 0.027845372 0.041649077 0.056860138 -0.04911923 0.049694248 0.011798117 -0.018264204 -0.050912026 0.09514147 -0.048608363 0.02002195 0.026619947 -0.011014993 0.020279992 0.032695796 0.02761779 0.055643905 -0.001966334 0.102217026
1385 -0.047923557 0.043879617 -0.10513165 0.047303665 -0.032959625 -0.0046460214 0.025189046 -0.031026881 0.028904388 0.052478757 -0.022909122 -0.04584356 -0.017799845 0.09651182 0.04823538 -0.004296789 0.039159417 -0.08299273 0.008666261 -0.00573218 0.02682308 0.09917627 0.09121357 0.024154592 0.0009529344 -0.008775911 0.046527423 0.00034110542 0.040695574 -0.037155233 0.023106504 0.10543438 0.037627712 -0.039161544 -0.06954815 -0.10225166 0.078822844 0.018119063 -0.029339712 0.1034385 -0.08243239 0.0051193302 -0.052323513 0.04994047 0.0079825325 -0.07964948 -0.0806387 -0.007371399 -0.0026141186 -0.011570945 -0.037013024 0.016510915 -0.022979986 0.078596994 0.006813051 -0.0871094 0.049501818 0.04309594 0.015290467 0.016456965 0.037849832 -0.03519396 0.06379257 0.043774523 0.06375663 0.09410739 0.076345704 -0.015578594 0.046357587 -0.060817316 -0.06120253 0.05974867 0.016059535 -0.022177504 0.011499847 -0.015017254 0.12438524 0.012227142 0.094547756 -0.078884296 -0.019245269 -0.028384324 0.036490396 0.054880545 0.069775365 -0.03891522 0.041317996 0.020116495 0.06287683 -0.044074204 0.0013178546 -0.09100669 -0.06400367 -0.024805486 0.0038374641 0.006128475 0.016773291 -0.039689895 -0.026719198 0.0028591384 -0.03851382 0.004660083 -0.03963147 -0.11353992 0.077158734 0.042775206 -0.035595257 0.04193436 0.032504287 0.0032081031 0.06378184 0.061192475 0.02177288 0.07189372 0.039297316 0.043446474 0.007793992 0.009849401 -0.07165364 -0.048121873 -0.008930351 0.008875122 0.026713679 0.03478863 0.081563294 0.0153102605 0.06414785 0.055507004
1340 0.028519826 -0.033331428 -0.04057948 0.09684044 -0.015261375 -0.032627314 -0.00069482776 -0.08560864 -0.02262339 0.06034271 -0.0037128075 -0.037414 -0.034951963 -0.0009267216 0.068772614 0.0037435852 0.02257966 -0.060461264 -0.020073926 -0.015918009 0.00416051 -0.022595493 -0.0062800394 0.0009085475 0.024783729 -0.1266321 -0.053944744 -0.026379943 0.02459612 0.0038706271 -0.00047067518 0.056571443 0.0059697283 0.007332378 -0.045885533 -0.031143218 -0.066393934 -0.017883549 -0.06721129 -0.029887352 -0.0035132307 0.042122595 0.009650045 0.00089756976 -0.017548978 -0.07479261 -0.06525278 -0.014834279 -0.026569659 0.00876541 0.045138128 -0.03263511 -0.06289959 -0.030457526 -0.029072726 0.0026253406 -0.03988574 -0.008164049 0.053895067 0.07175623 -0.029271714 -0.013526647 0.019871138 -0.021170571 0.015523093 0.042255104 -0.09048026 0.032928642 0.058945876 0.033456195 -0.030832442 -0.10100075 0.0063815615 0.10514517 0.04460109 0.041230295 -0.07470154 0.019143147 0.04187164 0.08390481 -0.03879247 0.09065904 -0.06384763 0.02465373 -0.0360187 0.021297233 0.027714416 -0.05370529 -0.061783236 -0.03539614 -0.019969294 0.03833295 -0.08739619 -0.04454744 0.01890255 0.0035626614 0.052992053 0.033981293 0.023206672 0.035112355 -0.0072703753 0.032768983 0.05477357 -0.09663156 -0.04133324 0.008774639 0.099765785 0.0580707 0.0280925 -0.031209888 -0.03798806 0.00537653 0.023506302 0.049750682 0.042524703 0.06155857 0.09695382 0.00917297 -0.07536646 -0.056332666 -0.0025644412 0.051448166 -0.009062296 0.020787787 -0.1071282 0.061543543 -0.04186601 -0.09435528
1393 0.013728438 0.09991503 0.086536065 -0.06864915 -0.026761554 0.03325499 -0.012199778 -0.0017251014 0.021011451 0.07435253 -0.016243747 -0.05929853 -0.11799993 -0.059804782 -0.061228417 -0.022451751 0.048460074 -0.1130895 -0.0015727984 -0.048822254 0.061073907 0.0107945185 -0.08914708 0.05263049 -0.062298175 -0.021610795 0.016491432 -0.07077722 0.017698104 -0.03435845 -0.101466194 0.115029775 -0.05458834 0.05037652 -0.06304329 -0.03585328 -0.051098343 0.03481168 -0.02470147 -0.005250352 0.012761772 0.03717721 -0.040691078 0.01901169 -0.0141609125 0.091776304 0.019646432 0.048041414 0.018298134 0.056712016 0.09666039 -0.103369825 0.047262676 0.08992928 0.050759304 0.025281953 0.10746496 -0.07986634 -0.030651843 0.06390041 0.036580786 0.04768193 -0.046254784 0.07419231 0.051593784 0.0563381 0.007327239 -0.065299325 0.05345315 0.018717384 0.06891676 0.04028723 0.06300544 -0.02975197 -0.0422047 0.019729607 0.074044816 -0.020846438 0.06884832 -0.0045656078 0.035455093 0.05749842 0.042259213 0.049265444 0.020633217 -0.082961865 0.0746305 0.007179545 0.0358382 0.013859462 0.03573762 -0.10470632 -0.07963578 -0.05971672 -0.07160316 -0.0281371 -0.073505804 -0.0778043 0.03951525 0.060053814 0.042670798 -0.04575343 -0.017028918 -0.08176066 -0.013545395 -0.0055196527 -0.0014351334 0.040753573 0.05374569 0.099505335 0.015337242 -0.066497214 0.068897024 0.04281397 0.068951726 0.02324236 0.05532733 -0.030676285 0.00484097 -0.018148143 -0.011207889 -0.0049642376 -0.017289644 0.117177 -0.029577792 0.09317469 0.026580168 0.025315346
1548 0.009947967 0.0032386894 0.02745047 -0.03180133 0.01844723 -0.056487903 0.05208839 0.015611302 0.07204366 -0.004370822 -0.034602046 -0.020547595 -0.066064276 0.06398412 0.00840026 -0.07325464 0.030019324 0.049795136 0.045320604 0.09275112 -0.066653125 0.078914195 -0.048674945 0.01783529 -0.0030395116 0.01020579 0.027161866 -0.085103735 0.030753072 0.047891587 -0.06736376 0.027768765 0.019867646 0.04747913 -0.0071572177 -0.014313409 -0.006569008 0.04404953 0.030950204 0.008111708 0.03855482 0.042010706 -0.079919234 0.06918265 -0.06537907 -0.0092672035 -0.020868273 -0.10195013 -0.09360636 0.10240218 0.016595168 0.025447931 -0.02658814 -0.0097934 0.05690634 0.087029174 0.007829803 0.0060354206 0.096589185 0.017958077 0.027313469 0.017789051 -0.019347237 -0.0066562737 0.08575884 0.041686494 0.0177452 0.043547936 0.11371561 0.0146239 0.048481327 -0.009818704 0.052917484 -0.034869038 0.01727762 0.011772327 0.05528203 0.053259645 0.01475095 -0.007594317 -0.03483635 -0.0015776353 -0.012380179 -0.004911368 0.005338803 0.03684186 -0.020225385 -0.023160558 -0.083848834 0.013470145 0.03087469 0.03755009 -0.09421838 0.049841233 0.07161394 -0.08220021 0.019134358 0.07489786 0.033121035 0.027611885 -0.056477755 -0.03673608 0.11053178 0.087456495 -0.0034519485 0.044134054 0.035606418 0.07462783 0.019031836 -0.011032563 0.028015772 -0.10140521 0.023178972 -0.045455836 -0.026185835 0.076461755 -0.030430464 0.04607972 -0.044902187 -0.06842652 0.001852698 0.04098818 0.024584588 -0.03477017 0.04658202 0.06724882 0.049385592 -0.016258528
484 0.015212073 -0.013505314 0.018869998 0.06759111 0.0070072226 -0.045359015 0.10297275 0.0136656575 -0.0042747646 -0.03919899 -0.066674165 0.0869055 0.024535097 0.017244564 -0.046127643 -0.085404076 0.09695081 -0.060206313 -0.011851467 0.07778605 -0.042926792 -0.045890313 0.038633693 0.003969769 -0.009228218 -0.06728132 -0.027449219 -0.03338107 0.062035084 -0.022693468 -0.047387023 -0.039862156 -0.08295747 -0.09788113 -0.10407819 0.03777491 0.02019199 -0.0124965925 0.0742303 0.10413181 -0.052668493 -0.021629984 0.013005115 0.026064456 0.050461777 -0.0075035235 0.0611875 0.0063504362 -0.010380966 -0.015818717 0.03110704 -0.0012263749 -0.0809674 -0.042306166 -0.01580901 -0.023844762 -0.0099983765 0.0033750678 -0.10356594 -0.0159084 0.097295575 -0.02805837 0.06686012 -0.042512644 0.051400892 -0.021515667 0.03442295 0.031364992 0.034345254 -0.0484897 0.015967295 0.054539256 -0.081456594 -0.021397589 0.008541854 0.032130554 0.023083594 -0.10409359 -0.05797728 -0.039404206 -0.06836686 0.0007121964 -0.0066371663 0.07209189 0.08541523 -0.029834356 -0.078884676 -0.013297513 -0.0007045581 0.08641956 0.008876442 0.0039393026 -0.06849941 0.10688455 0.058566388 0.07173616 -0.07454106 0.12800509 0.10328102 -0.021989092 -0.119656295 0.020080272 -0.016563904 0.011921201 -0.0046741744 -0.016007626 -0.005729077 0.054377668 -0.047396857 -0.06959119 0.052642126 -0.06805348 -0.04787262 -0.011040047 -0.107238725 0.058298152 -0.054933965 0.041580353 0.03087487 0.013240318 -0.055347014 -0.024436127 0.09523235 -0.067086585 0.02027213 -0.043091644 -0.0134662995 -0.086124405
715 0.016912827 0.018720537 -0.04055236 -0.05358463 -0.05703858 0.00057073054 0.021739447 0.014682723 0.020508422 -0.06152764 0.040134165 -0.020515949 0.042108692 0.017048739 0.073636316 -0.0099362675 0.080521934 0.033542074 -0.023246046 0.112917215 -0.010104039 0.051588655 0.10162872 -0.0100960955 -0.053114712 -0.015575485 0.025820443 0.024097294 -0.0422832 0.042169824 0.073122516 0.018317109 -0.036483884 -0.04557902 -0.09857458 -0.10786066 0.071009025 -0.011080211 -0.019993592 -0.083553694 0.047035877 0.041151166 0.09613835 0.024758399 -0.10474597 -0.040606275 -0.01943789 -0.014583522 0.008565323 0.067260616 -0.033230193 0.008051751 -0.089525975 0.10322409 0.0041550705 0.097435206 -0.04449135 0.07489309 -0.046265952 0.04639419 0.011773438 -0.028856598 0.054299418 -0.07125289 0.0069691776 -0.016343147 -0.032065045 -0.09259414 0.016666032 -0.058438856 -0.010923264 0.034510482 0.032316234 -0.038998626 -0.007028985 0.038364246 -0.052487962 -0.048062857 0.018182095 0.0486224 -0.024555348 -0.006595225 -0.020230977 0.03574634 0.0116791725 0.015991282 -0.004733867 -0.08086338 -0.06960379 -0.01284089 -0.003396138 0.05730714 -0.012451483 0.12169578 -0.018052444 0.10806411 0.018059019 -0.0422152 0.034173965 0.013797396 -0.021174243 -0.06798241 0.029888673 -0.00936134 -0.03836379 -0.07739033 0.049699977 -0.025470255 -0.027739514 0.11533806 0.017954165 -0.09822903 0.048031095 0.014279271 -0.028688798 0.045204792 0.0030902012 0.06774081 -0.00073049194 0.0045655207 0.016736308 0.05532789 -0.018492486 -0.0775332 0.04600844 0.08518968 0.006262384 0.040956736
1130 0.06771954 0.008300957 -0.01845523 0.052948475 0.019435873 -0.029654572 0.015820773 -0.04706757 0.035452113 0.024025198 0.06699963 -0.07059691 -0.02428704 0.06780238 -0.06384384 -0.008174331 0.030771405 -0.043297015 0.012935874 0.08176319 -0.09205795 -0.11262221 -0.08496414 -0.061630793 -0.022748983 0.06806646 -0.0022331886 0.015156403 -0.01679821 -0.012777827 -0.017018026 -0.011703491 -0.02125517 -0.043469798 -0.0206745 0.042865075 -0.0056091696 -0.034854636 0.06950775 -0.055621203 -0.06497313 0.077531055 -0.080983534 -0.05300539 0.06461536 0.06243498 0.00028752783 0.031013722 0.07309727 -0.05617664 0.014499764 0.010227281 0.004364007 0.101394944 0.00045641806 0.021221759 0.046765424 -0.0004798308 -0.0034471927 0.0014764072 -0.03891864 -0.03537305 -0.021559926 -0.008273106 -0.03617331 0.0062311343 0.02713144 0.0027784728 0.054923978 0.036645073 0.052194104 -0.08625165 -0.071227215 -0.0046750377 0.026204726 -0.08162487 -0.008062594 4.497147e-05 -0.08100895 -0.017383004 -0.013367452 0.04107707 0.086932376 -0.007913892 -0.08159354 -0.03909953 -0.09884428 0.042804163 0.036615714 -0.05030811 -0.01246406 0.032436233 -0.09658042 -0.0021110927 0.011615769 0.0123358285 -0.08005531 0.012940586 0.094484374 -0.0053304452 -0.036527082 0.023923408 -0.029844606 -0.049304247 0.08504001 -0.018112315 0.033440728 -0.050009426 0.009737679 0.07636662 0.022492994 0.0027938485 0.04120196 -0.06908486 0.0063238326 0.0074005076 -0.0043176706 0.0032665052 0.021199629 -0.041367423 -0.026923262 -0.03380513 -0.00029240534 -0.05171849 -0.06759821 -0.033187628 -0.0043472447 0.0439729
191 0.05668709 0.07790136 -0.01015378 0.023761261 -0.0018108645 0.020067444 0.034911115 -0.0040220167 -0.024993686 0.032417055 -0.043985847 -0.018899066 -0.08177984 -0.077512674 -0.06274047 -0.025556784 0.080749474 0.024842136 0.11788127 0.087148026 -0.03711349 -0.01455017 0.09289604 0.09497778 -0.056402102 0.06804344 -0.022011338 -0.030303514 -0.026556095 -0.07612403 -0.11194665 0.018541671 0.051754974 0.054338098 0.0071561215 -0.053137884 -0.054287862 0.07900369 0.05935657 -0.088035695 0.07317411 0.12528543 -0.008520441 -0.008621442 -0.04336521 0.0008837576 0.057111185 0.009011271 0.060568616 -0.01480094 -0.065095805 -0.059273154 -0.00011968381 0.006875895 -0.06757983 0.08289754 0.06802198 -0.061901644 -0.026805377 -0.024286369 0.091072686 0.0020146396 0.016065478 -0.041617706 0.046910577 0.058158368 0.02133499 -0.075121045 0.042459134 -0.06948161 0.04924839 0.031058853 -0.008340674 -0.08986432 -0.08629148 0.06112651 0.015109262 -0.00609498 -0.10133289 -0.09230583 0.03716904 0.02989923 0.03741555 -0.04884465 0.06388367 -0.022735924 0.020277875 -0.011230603 0.066813946 -0.06928244 -0.034472227 0.018759226 0.01590679 -0.095596045 -0.052076068 -0.0067124707 0.036457997 -0.044425413 -0.0018563598 0.020854484 0.065468274 -0.037490096 -0.0019196885 -0.07630289 -0.028722245 -0.11088372 -0.06465331 0.05921153 0.05700945 -0.023657825 -0.055746853 0.024103127 -0.018117666 -0.025815824 0.07956857 -0.009163877 -0.06263013 -0.0072603365 -0.011323377 -0.028110221 0.055424716 -0.0074712276 0.035046514 -0.012199058 -0.010772342 -0.100571394 -0.08506221 -0.027287522
1678 0.008981534 0.048411492 0.048874162 0.016197558 -0.041680153 -0.071724564 -0.03205356 -0.006628156 -0.08803162 0.053767964 -0.051638644 0.031847462 0.06985908 0.033700056 0.047827385 0.036979124 0.042122424 0.0022270165 0.029562706 0.0860988 0.09470877 0.028875217 -0.024394901 -0.036962345 0.0040798113 -0.10438927 0.054276578 0.025697958 0.0003670778 -0.020513691 0.0028549454 0.0931929 0.06542798 -0.023272041 0.008187724 0.03487355 0.09022436 -0.0940428 -0.05584105 0.033347253 -0.029209232 0.0057741003 -0.056417648 -0.0022526546 -0.0014590799 0.024103139 -0.028265964 -0.07430247 -0.011740923 -0.040549666 -0.05636634 0.03232432 0.06839156 -0.032967694 0.010009214 -0.016304117 -0.022351459 -0.026754493 -0.028375726 0.059866 0.052838106 0.028731255 -0.0013745049 0.043752186 0.08214257 0.024140205 -0.07573046 -0.0049144807 -0.021785324 0.111857265 0.067643434 0.058592908 -0.028351728 -0.059628963 -0.050637208 0.0284734 0.034037076 0.06723384 -0.052740976 0.10382084 0.038885735 -0.03655857 0.0031842967 -0.016384693 0.022351842 -0.0863603 -0.056229707 -0.007738134 -0.004653446 0.052453984 -0.062384408 -0.041546866 -0.11328983 -0.03805713 0.123089254 0.061691985 0.0520593 -0.06612178 0.0024893517 -0.05116702 0.011705026 0.05192732 0.015531938 0.07730153 -0.021006929 0.033688813 -0.06732911 0.04743294 0.013638625 0.059367545 0.07203658 -0.0046587805 0.08399819 -0.056055285 0.01875327 0.034368232 -0.005789852 0.114933975 0.06772121 -0.023865614 -0.026197648 -0.08077193 0.077129506 0.061140954 0.0142405145 -0.070889026 0.080126055 -0.0069853542
2137 0.05139364 -0.073487476 -0.0069051613 0.07472164 -0.0075855586 -0.0286552 0.04704429 -0.014952477 -0.0023595523 0.047280565 -0.009599733 0.07070528 0.09654335 -0.03238585 0.024928555 -0.010201514 0.0056500696 0.017402917 -0.0039037543 -0.013114476 0.014579076 -0.035045505 -0.07760508 -0.10711269 0.026242504 -0.032274496 0.04459979 0.037952855 0.0781296 0.026538962 0.026614552 0.034698308 0.032536242 -0.10187601 -0.04968074 -0.02263647 0.09876296 -0.05171226 0.012072855 0.035405498 -0.023972038 0.070059985 -0.060210627 0.0029547252 0.024164021 -0.01426928 0.004261032 -0.112267904 0.06518619 -0.0102457395 -0.08209058 0.085374996 0.12895791 -0.11623517 -0.043641888 -0.0049186093 -0.10224966 -0.022137415 -0.011108583 -0.014195592 0.051763985 0.017574947 0.067392744 0.11812232 -0.019834764 0.018288443 0.043848984 -0.07996333 -0.049813 0.042622045 0.018148877 -0.03679216 0.10772534 -0.035422154 0.013228588 0.0296902 -0.0374576 0.013611789 -0.016201666 0.10360485 0.0113575775 -0.01336616 0.06260504 -0.033980127 -0.092565335 0.047750365 -0.06908241 0.081948385 0.054781314 0.0014728592 0.034674566 0.04711014 0.037957028 0.013376919 0.038250644 0.054165795 0.056656793 0.015268081 0.0067284056 0.033424117 -0.005513495 0.09665159 0.012398704 0.0066365846 0.03847242 -0.0076188236 0.03977385 -0.036039 -0.029969877 -0.03875552 -0.057715025 0.06983566 -0.030085998 0.054346252 0.024796922 0.013389258 -0.018714782 0.013900961 0.030206017 -0.05189574 -0.024218716 0.0012731099 0.03433942 -0.09433858 -0.027046157 -0.058441974 0.042304713 -0.034072835
1129 -0.003884353 -0.022482727 -0.019036477 0.038791943 0.061905634 -0.09288157 -0.024587544 -0.016936686 -0.02648041 -0.069334544 -0.001979351 0.06969187 0.10687393 -0.027384773 -0.0034352231 0.09907644 0.07289986 -0.031450976 -0.039474398 0.09065837 -0.03377582 0.032291308 -0.11771328 -0.038303822 0.03766511 -0.01305616 -0.09713113 -0.05238491 -0.062240362 0.062790535 0.024336116 -0.013853033 0.015768433 -0.057496168 0.080475464 0.085735075 0.038805284 -0.08929146 -0.0920395 -0.026679605 0.008094713 -0.014547126 -0.07922041 -0.0031190673 0.0042785387 -0.08774317 0.00029339542 0.009254757 -0.10387713 -0.114459105 0.03258108 0.060962696 0.014797405 0.013718173 0.0024718712 0.039371677 0.015386449 0.09167046 0.074750945 0.014397694 -0.0008934376 0.043830335 0.071713306 -0.02494856 0.013951501 0.03399295 0.015159996 0.12719937 -0.0018712964 0.11293804 0.07043337 0.049879763 0.00427664 0.009234862 0.030735107 0.08427785 0.040454302 -0.00490372 0.02066993 -0.032517284 0.0049895775 0.01775762 0.021253183 -0.07484216 0.040890206 0.06570469 -0.093262516 0.057367787 -0.03301822 0.05101498 0.0754079 -0.05730465 0.056869105 -0.06252764 -0.009622258 0.035410024 0.013455656 -0.01827865 -0.01088066 -0.016972162 -0.0011706798 0.09317827 0.017709838 0.027135655 -0.0019161333 -0.069703564 0.048845295 0.041838385 -0.009239833 0.014513792 0.048169535 0.05727623 0.08065941 -0.03583797 0.08790972 0.024043145 0.028182607 0.015900204 0.021044854 0.10450119 -0.03142807 -0.0382947 -0.00981209 -0.05547369 -0.032482836 -0.0033088597 -0.02398335 -0.02354123
378 -0.018290563 -0.00016189902 0.02675105 -0.0031893174 0.084519744 -0.08741589 -0.0811168 -0.02017741 0.008301535 -0.06966816 -0.0008824395 0.07508534 0.03604543 -0.102743305 0.088184096 -0.029119577 0.00994351 0.029657781 -0.0812841 -0.009509657 0.03192041 0.0027895481 -0.06258662 0.020299159 0.0053546997 0.003752105 -0.044548877 -0.06922368 -0.0034240088 0.056162365 0.027528496 -0.07479214 0.03813408 -0.056031067 0.016018808 0.012069988 0.053450428 0.028029472 0.024686513 -0.02197153 0.005110933 -0.042454388 -0.015820896 0.0063312924 -0.04786484 0.026202025 0.009597859 0.11936298 0.017924944 -0.054486644 -0.033671115 -0.027603256 -0.021655321 -0.038800407 0.0042124344 0.06883102 0.11658396 -0.02720994 0.011529954 -0.003933221 0.04514201 0.024653252 0.017955692 0.010496645 0.048155665 -0.021261832 0.039546836 0.08198005 -0.019756049 -0.04712446 0.08698093 0.012200826 0.030195737 -0.024581457 0.020624228 0.015405748 0.04880827 0.0939975 -0.013541503 -0.06742581 0.009870607 0.10352547 0.037251417 -0.05713616 0.038439233 -0.024361182 0.054989837 -0.0006950454 -0.012163528 -0.0717612 0.04322334 0.048922405 -0.0210172 -0.02098728 -0.045571964 0.11080032 0.03772901 -0.018930515 0.0112491725 -0.06297107 0.020448621 -0.054927453 0.061039012 0.07530824 -0.053287737 0.07233604 -0.07996297 0.075387456 0.037951007 0.022422774 0.061911557 0.011375287 0.041930914 0.08056112 -0.036278863 -0.041037876 -0.07857989 0.0075814677 0.010051447 -0.06908164 -0.018170726 -0.025797121 -0.036606632 0.0130227 0.026484616 -0.014984437 -0.010645875 -0.025900917
2097 0.019452412 0.0763167 0.013973838 0.0021354049 0.060248137 -0.03780536 0.061155047 0.028237246 0.024419557 -0.009990327 -0.05111974 0.03312298 -0.045577034 -0.07457976 -0.020556368 -0.013169783 0.043838535 -0.07786405 -0.0043250984 -0.021272704 -0.056967866 -0.083004646 -0.07239146 -0.020004915 -0.06778242 -0.01891466 0.058192953 0.02679801 -0.026983516 -0.08722187 0.05324188 0.01927631 -0.07570901 -0.04222113 -0.056715753 -0.026386537 -0.03656293 -0.052821748 -0.050017666 -0.109803975 0.054892883 0.044396713 -0.028218314 -0.013681918 -0.035247043 0.020908477 0.06045787 0.051043242 0.11755331 0.044537395 0.034402765 -0.10356461 -0.0023379843 0.018478785 0.03700656 0.057421103 -0.02847757 -0.065791234 0.07332215 -0.060239583 -0.03392444 -0.009555625 -0.03322874 -0.061808348 -0.002248076 -0.0081255995 -0.024642287 0.016565774 -0.074670166 -0.0751691 -0.008456439 -0.015284077 -0.054169085 0.024841525 -0.005735845 0.06455193 0.025041016 -0.0020876972 -0.033801522 0.04241449 0.015866116 -0.009723995 -0.110142276 -0.041693185 -0.0035074833 0.05031273 0.012173869 0.019610897 0.027530875 -0.03419178 -0.076242454 0.020921333 -0.049503677 0.01937215 0.0639112 -0.01817591 -0.07737105 -0.08842626 0.017345123 0.09297377 -0.0153813 -0.02207621 -0.02824021 -0.010648588 -0.010592681 -0.02131287 -0.062293608 0.06548909 -0.118164 -0.0091409 -0.046490047 0.07159488 -0.034395065 -0.062184807 0.008383607 -0.0321087 -0.09753217 -0.058800165 -0.003264713 0.110687435 0.029168729 0.0652358 0.07448992 0.047023878 0.014916007 -0.024401722 -0.028007384 0.03816038
477 -0.0044409777 -0.034456104 0.056570563 -0.0072845356 -0.037635054 -0.043456446 0.012948906 -0.012787521 -0.026015997 -0.024966178 -0.094557405 0.076173015 0.004864612 -0.009188828 -0.0017786437 0.06267142 0.04099111 0.048104536 0.020920802 -0.021007858 -0.022740379 0.037876364 -0.09137854 -0.00044179967 -0.06992357 -0.04713283 -0.0071331365 -0.039647892 -0.0075271917 -0.044650104 0.0966747 -0.046515446 0.08179006 0.09501704 -0.068657495 -0.07169383 0.014306679 -0.06980023 0.04736991 0.011463981 0.009738792 -0.014991043 -0.0024430929 0.09696677 -0.014598852 0.06436377 0.061207835 0.03862418 0.027841264 0.024721466 -0.08920548 -0.060464196 -0.072896995 0.06261506 -0.012781685 -0.0066793486 0.061375048 -0.016701788 -0.0066695726 -0.011182616 0.027569827 0.014797078 -0.0047531654 -0.050981756 0.05723466 0.0698759 0.042922 0.014901387 -0.002758646 -0.052758906 0.01944701 -0.020140937 -0.012114166 0.046841715 0.02610971 -0.007842535 0.03236065 -0.0014989923 -0.023759665 -0.057831235 0.040286347 0.031402703 -0.046624403 -0.05955154 -0.0359842 -0.016374096 -0.029359603 -0.0003580456 0.052148163 -0.01550277 -0.06786238 0.006354504 -0.07318761 0.0017199027 0.036994103 -0.06027357 -0.0088793505 -0.012707802 0.055542417 -0.08551798 0.0792086 -0.03339075 -0.040367473 0.075794 0.04016747 0.018186634 -0.0020979238 0.01066121 -0.075936764 -0.04448749 -0.066080704 0.0633654 0.031762596 0.04051852 0.046971727 -0.08582554 -0.034489796 0.09691473 -0.09658633 0.006358487 -0.030232608 0.005114778 -0.052403852 0.039998446 0.09423819 0.029796641 0.097839504 0.055596426
1594 -0.012951717 0.057344273 -0.037108153 -0.0057733823 -0.05001575 0.013349256 -0.04408411 -0.0025477672 0.06099383 0.06721665 -0.05327526 -0.017694969 0.01152766 -0.009616351 -0.019124785 -0.021987341 0.07506186 0.035370644 0.033248246 0.06864476 0.049277514 0.030754402 0.012652222 0.082204536 0.0060450584 0.0797141 -0.00012763233 0.01878056 0.025755588 0.037941452 -0.015245634 0.05628324 0.024465682 0.057069436 0.008530203 0.060112808 -0.014436984 -0.07760242 0.067639075 0.021341128 0.059695825 -0.006453988 0.0047590383 -0.008264379 -0.046240196 0.028048595 0.035625193 0.04915633 0.01978708 0.021797916 0.015826931 0.02028471 -0.017843116 -0.030299148 -0.066105954 -0.015825193 0.002496449 0.026334478 -0.092243485 0.053838097 0.0009055177 -0.067954555 -0.0014884395 0.046771556 0.03706202 -0.07214053 -0.0055214553 -0.06547579 -0.007621155 0.059884414 -0.044263884 -0.0011676226 0.06342653 0.08673307 0.044770673 0.004834715 -0.006028944 0.037549254 -0.047990557 0.015246615 0.051920027 -0.0036902323 0.05057527 -0.0026570098 0.05051295 -0.10877892 0.07025883 -0.014125678 0.032279193 0.05629133 -0.033003353 -0.035047747 -0.009181924 -0.028710578 -0.026666002 -0.07276099 -0.0764164 -0.077300124 -0.004448265 0.07748687 0.017264215 -0.004984364 0.07766983 -0.027484097 -0.029764 -0.017073357 -0.036521625 -0.01705514 0.00302863 0.0047333036 0.056164972 -0.020803995 -0.038620193 0.0026638552 -0.05507819 0.015948191 -0.10519061 -0.001710723 -0.07009087 -0.03481144 0.03217915 -0.043826252 0.052793216 0.0023567243 -0.09261088 -0.011535777 -0.02816851 0.035207577
1364 -0.002857493 0.040265944 0.03247439 -0.071415395 -0.06829545 0.0052168504 -0.021701891 0.00902097 -0.030112091 0.086415954 -0.07036853 0.04707107 0.043704286 0.103175625 -0.08399189 0.0060711447 -0.012743584 0.04521645 -0.039603446 -6.630577e-05 -0.0045706793 -0.09921501 0.026045838 0.030538522 -0.0050684703 0.012189522 -0.086352624 0.04608475 0.0038345424 0.04872368 0.036416933 -0.030661011 -0.05923806 0.038430754 0.036160152 -0.022978455 -0.036150854 0.0036896442 -0.019428067 -0.029520405 0.033113804 0.027619224 -0.07448337 -0.073544495 -0.031591777 -0.055706054 -0.03649932 0.0043412955 0.0043057743 -0.021856451 0.05950427 -0.09226215 0.025316171 0.03048409 -0.042078886 0.024523217 -0.01118707 -0.0932637 -0.0042823083 -0.017409844 -0.021565244 -0.05391994 -0.030649787 0.04377089 -0.034902237 -0.0137023255 0.0026021146 0.025885718 0.004782341 0.051460274 -0.058837987 -0.033612277 0.08119872 -0.025428947 -0.037066884 0.07086927 -0.07166775 -0.048418615 -0.10335768 -0.016576847 0.014975213 0.016797889 -0.031557027 0.103783086 0.018511197 -0.01756962 -0.04326555 -0.011271919 -0.065657906 -0.024754733 0.07108436 -0.10462575 0.012244205 -0.0621575 -0.071928196 0.08415855 -0.0306213 0.042541757 -0.05421165 -0.072951175 -0.0043973443 -0.061846197 0.03788359 -0.04394855 0.09953417 -0.04691297 -0.0113928 -0.050280258 0.047015604 -0.020047445 -0.042236403 0.0032652772 -0.02594126 -0.116796926 -0.044645075 -0.02578906 -0.03412497 0.10746177 0.08690083 0.0016234698 0.054512173 0.043385282 0.03833857 0.0477139 -0.016222911 -0.022139423 -0.0034408444 0.06379091
1550 -0.057083037 -0.022179974 -0.037852157 0.03232972 -0.05734227 0.048574615 0.0036396408 0.092466146 -0.08151026 0.033414956 0.011960402 -0.042202808 0.00723985 0.040813833 0.021518234 -0.05774033 -0.004804261 -0.078533284 -0.020694606 -0.06816159 0.056274544 0.10611195 0.02852207 0.03800644 0.05247301 -0.0802977 0.0019517266 0.0684213 0.04004099 -0.019623738 -0.017512666 0.099097885 -0.0898072 -0.011136722 0.02517285 -0.067012586 0.08792339 0.055364367 0.012927659 -0.0321516 -0.03075045 -0.0030228493 0.047046654 0.01324951 -0.0027502165 -0.032424424 0.010845069 0.060904548 -0.06851749 -0.049292214 -0.053337872 0.0042155297 0.106803864 -0.005091371 0.10636585 0.041869536 0.06314522 -0.016024321 -0.0066156583 -0.03954493 -0.009978072 -0.017695412 -0.04629359 -0.00014745047 0.0133103775 -0.08296473 0.015610529 0.0042552934 -0.09497436 0.009641425 -0.009289911 0.03205309 0.04135122 -0.046248388 0.056053653 0.016215343 0.04153939 -0.00079765695 -0.05782506 -0.06138235 -0.01493579 -0.06738974 -0.08351405 0.09125751 0.006237224 -0.0851518 0.06711898 0.07021246 -0.06621357 -0.018830905 0.029137667 -0.03230027 -0.112664916 0.095273286 -0.044094857 -0.0832392 0.03113637 -0.030388158 -0.021289919 -0.00773325 0.0047941674 0.009465732 0.08302744 0.0074794455 -0.050704423 -0.009141145 0.025449822 -0.025000852 0.014555008 -0.050098676 -0.024207631 -0.049874485 0.016888887 -0.06564764 0.027893847 -0.0076096393 0.11083123 0.06389026 0.025611624 0.029357037 0.008678429 0.014332311 -0.05918264 -0.09962317 0.08650145 0.08738488 0.002433666 0.03375174
707 0.022558998 -0.03490136 -0.11431226 0.06836275 0.058606945 0.0905393 -0.051267337 -0.058480144 -0.00032657594 -0.030455338 0.086015336 -0.0658541 0.05723732 -0.031284202 0.009748079 -0.026377784 -0.0030684664 -0.08455832 -0.026575897 -0.054796103 -0.041045807 0.02778789 -0.03313483 -0.004112225 0.086539045 -0.03736856 0.04720038 0.0633829 0.013377457 0.015162513 -0.057269644 0.07801181 -0.064062476 -0.067867525 0.10122349 0.048595652 -0.02496065 -0.036671594 -0.0082144495 -0.07277762 0.06797206 -0.028969722 -0.008160106 0.015032501 -0.06418973 0.018799193 -0.018690769 0.028113168 -0.054256156 -0.011208309 -0.10720496 -0.02065976 -0.0129183065 0.065891005 -0.010174561 -0.0015207187 -0.005502591 -0.022626195 -0.039683074 0.024210181 -0.063250236 0.02572875 -0.05600619 -0.00773743 -0.0028341615 -0.048894905 -0.0819505 -0.023489986 0.04919018 0.018852564 0.008216948 0.030276975 -0.04949068 -0.014923499 -0.016231244 -0.048173163 0.017908068 -0.029636655 -0.055845458 -0.060654826 0.0790643 -0.06685811 -0.06250503 0.068711825 0.07154371 -0.010706233 0.0734631 0.02071876 -0.024931934 0.018938836 -0.111978464 0.038147666 -0.05425739 -0.03532745 -0.07872417 -0.0013876448 -0.07300236 0.02963172 0.017257046 -0.015381164 0.03768167 0.019827595 0.024637682 -0.09860102 0.025317498 -0.05023714 -0.06808651 -0.0031601533 -0.004444044 -0.05597137 -0.043464713 0.07257614 0.052482657 0.08034383 -0.092861414 0.089669555 0.06509422 -0.057457373 -0.035125807 -0.06600289 -0.041140262 0.028372101 -0.058880094 0.025813568 -0.002748119 -0.0037343137 0.016052589 0.10653272
1075 0.021570876 0.037592735 -0.042422973 0.08926296 0.013269752 -0.06460344 0.054801825 -0.032468583 -0.0015919597 0.014446876 0.0041126176 -0.030551117 0.024470942 -0.07972463 -0.006870903 0.053107694 -0.0061301123 -0.05388811 0.053040214 0.04567633 0.036153782 -0.08970455 0.009375161 -0.092651024 0.045318745 0.028313022 -0.035681076 -0.12213235 0.030521361 0.073129244 0.11506662 0.07938759 0.017653642 -0.026401639 0.032254104 0.0332365 0.060900025 -0.010053466 -0.04917747 0.09571844 -0.0006038664 0.092422634 -0.05795104 0.014337752 0.057668686 -0.019497512 0.04347392 0.06333243 0.080094576 0.0014488501 -0.051933892 0.0010982557 0.005170512 -0.008255561 -0.08347779 -0.054182664 -0.077087454 0.042447306 0.01488074 -0.014305495 0.0047560185 -0.009467397 -0.033292312 -0.03733634 -0.012543682 -0.0447385 -0.07714669 0.028428195 0.0043330737 0.008749919 -0.08149962 -0.043999583 0.11172859 0.036061116 -0.02562247 -0.058588054 -0.025903052 -0.10062475 -0.008596355 -0.06845118 -0.05938776 0.005716447 0.03764514 0.019222539 0.028821196 -0.013562088 0.011066033 0.0011888124 -0.04447326 0.043509528 -0.010154986 0.044259988 -0.0043085124 -0.014931518 0.06341274 0.074083 0.094885506 -0.0032946127 -0.00563619 0.07221138 -0.07019623 0.040636238 -0.0996855 -0.04286897 -0.017777357 0.06359355 0.0816808 -0.047169756 -0.023491181 -0.009261807 -0.04416928 -0.0008539586 0.05124487 0.032129224 0.0043984265 -0.017667722 -0.021642951 0.03848393 0.055741914 -0.01378405 0.05095791 -0.01892119 -0.05314516 0.11608665 0.03595124 0.11092484 -0.059569128 0.007993529
579 0.06380801 -0.016882898 -0.08858006 -0.06281097 -0.10815792 -0.0035392074 0.007984993 0.014900811 0.039364167 -0.009349858 -0.040082477 0.0648109 0.05402334 -0.017104091 0.06914769 -0.06267252 0.028784003 -0.05364601 0.098889746 -0.050364275 0.083452046 0.009046673 -0.024223946 -0.0607765 -0.0742569 -0.042672362 -0.029673569 -0.058235563 -0.019197252 0.033374146 0.058371924 0.04456089 0.06410874 -0.022861324 0.009386619 -0.004589571 0.098499976 0.028544502 0.0045277895 -0.06076189 -0.075331725 -0.007032212 -0.08407813 0.036203902 0.011718866 0.05574603 -0.045137014 -0.07812517 0.05003207 0.039281715 0.010948918 0.024675926 0.056424998 -0.01537071 -0.048569188 0.056323115 -0.008860628 -0.015328724 0.04028292 0.064909704 0.024494136 -0.009688687 0.018186629 -0.02862575 0.0020578718 -0.06688802 -0.032760784 -0.08275299 0.014435659 0.047525745 0.101682775 0.037882406 -0.050726775 0.025035456 0.05588754 0.0021790157 -0.07796991 0.007415883 0.009874151 0.060179625 -0.018420484 0.10112816 -7.993018e-05 -0.06369637 0.07263126 0.026824534 0.0900067 0.014566395 -0.096468315 0.06596325 -0.07604106 -0.040326476 -0.05261908 0.036342956 -0.038288113 -0.047025494 -0.015692625 0.041459396 -0.012999822 0.045852304 0.004180855 -0.029032376 0.010436697 -0.041529365 -0.048741944 0.05455885 0.041247346 0.0870816 -0.00495188 -0.023444282 -0.035171513 0.09543246 0.03583864 -0.0052336804 0.091419615 0.09501673 0.037223198 0.05845011 -0.053825025 0.11687881 -0.03978244 -0.0008543219 -0.026461186 0.02798594 -0.015170884 0.027994044 -0.10175158 -0.010167512
589 0.0017676372 -0.0661529 -0.01648455 -0.038418073 0.011679541 -0.085451335 0.048523955 -0.010503222 0.0047924425 0.016144585 0.07405845 -0.00030902217 -0.10938957 -0.05665108 0.027769992 0.07163026 -0.03381365 -0.010929525 0.0053539653 0.006425016 0.035052434 -0.024955852 0.07272823 0.026678741 -0.02326262 -0.023033794 -0.08981313 0.0056656455 -0.06480022 0.047567286 -0.063841015 0.0028789698 -0.0650388 -0.010604189 0.019282697 0.004553235 0.09773883 -0.06029325 -0.009356211 0.017737355 0.04048808 -0.030597225 0.0031181998 -0.025004482 0.016593687 0.064956956 -0.037380107 0.032515433 -0.056822643 -0.062796 0.04490377 0.057295907 0.023668105 0.008450545 0.010268487 -0.022823581 0.031745892 0.014345639 -0.078690946 0.014349191 0.033177335 -0.096180126 0.030455163 0.09044486 0.11577708 -0.02078054 -0.04202519 -0.030806348 -0.049745366 -0.09259039 0.009691584 -0.06480614 0.009119655 -0.043471582 -0.0054948973 -0.008907341 -0.036487333 -0.07962599 0.056222633 -0.017632082 0.011041235 -0.042734284 -0.025490424 -0.07176791 0.0705336 -0.013198749 0.07407111 -0.02987038 0.11564079 0.01628515 -0.028574204 0.04554521 0.05167544 0.10527267 0.08362965 0.05797563 -0.0714908 0.06888235 0.028161317 0.039612982 0.05875968 -0.0034503916 -0.029435595 -0.056654237 0.00064893096 -0.011757281 -0.03801121 0.09654997 0.04364688 -0.04840997 -0.02335464 0.018271804 -0.008235275 -0.07842861 -0.0029124415 -0.0794809 0.08115991 -0.066675834 -0.029584082 -0.056561023 -0.10735369 0.031054243 0.01873825 0.03989428 0.068383135 -0.024735548 0.04209544 -0.038965575
1203 -0.09020729 -0.11985892 0.019913668 0.0896209 0.081878796 -0.06630528 0.023931837 -0.05509098 0.026722416 0.034412015 -0.008114834 -0.026092727 -0.01685542 0.00773543 -0.041925214 0.051246725 -0.075954996 -0.003474103 -0.011933979 0.0015746384 -0.041245162 -0.10225239 -0.057693906 -0.08563721 0.013118438 -0.009900733 -0.066418454 -0.04793708 -0.06851084 -0.041737333 -0.07980618 0.10933308 -0.020216474 -0.0077621285 -0.039926775 -0.015453904 -0.046809968 0.0681795 -0.067178875 -0.050916944 0.03542794 -0.07960457 -0.055646285 -0.04155431 0.031871147 0.044552322 -0.013591484 -0.10763828 0.0667574 0.01968449 -0.009834039 -0.09752329 -0.00066107116 0.020507857 -0.05516976 -0.013652087 0.061063044 0.043274526 0.010661123 -0.031664997 0.015161567 -0.004387235 0.017905535 0.07214918 0.054836925 -0.01588638 -0.08607829 -0.024057528 -0.07097303 -0.034769192 0.037189055 0.10795323 0.060741857 -0.09175042 0.03625583 0.06912837 0.10497799 0.01559756 0.02948301 0.037212394 0.026918504 0.023310063 0.00019304219 0.06086345 0.029841747 -0.051907383 0.042424865 0.007866215 -0.0063873446 -0.0694137 0.028503718 0.05965404 0.067309074 0.070898354 -0.09446702 -0.054117683 -0.015823774 -0.02858787 -0.01870081 0.010801905 0.053905964 -0.021490682 0.04096561 -0.01667179 -0.050217696 0.11136922 0.010385109 0.07403425 -0.10548457 0.0869843 0.06468332 0.010434952 -0.00036884134 0.051744822 -0.0475828 -0.033760354 -0.07009322 -0.021686893 -0.06665102 0.07728046 0.011788642 -0.08473014 -0.014082411 -0.01110871 -0.036159106 -0.019035248 0.014046351 0.073233776
1282 -0.050898377 -0.008362343 -0.019150095 0.048182085 -0.022917464 -0.04619813 -0.10300676 0.09967198 0.10163884 0.08131707 0.053350728 0.03436136 0.060529932 0.02334566 0.061291452 0.038867734 -0.024281858 0.06903689 -0.048251055 -0.11948304 -0.08258477 -0.023133647 -0.027973931 -0.06886014 0.06825148 -0.047323342 -0.044157453 -0.0024748668 0.019073261 -0.038979273 0.045566507 0.042053353 -0.042753953 0.06991531 0.018737637 0.01881992 -0.007820271 0.020641925 0.08215743 0.08293349 0.09163107 0.053291105 0.01912472 -0.08797861 -0.05727532 0.08354183 0.080230854 -0.054736566 0.027892923 0.01069447 -0.11042156 0.015561539 0.01597753 0.035804547 0.095313795 -0.030529572 -0.054526072 0.049054496 0.0030901418 0.022781426 -0.004924055 0.010235485 -0.025748594 0.003931566 0.060926467 -0.017637057 -0.013473302 -0.014129431 -0.105438136 -0.019136978 0.107757226 -0.022163955 -0.020956205 -0.015311488 -0.05866941 0.03351771 -0.059500948 -0.053545985 -0.010199408 -0.029282091 0.015764495 -0.01599964 -0.009040002 -0.045923036 -0.016396254 0.07066601 -0.064930096 -0.036441904 -0.00590175 0.038505957 -0.0067981007 0.031962607 0.042005662 0.019483699 -0.0247232 0.08044757 0.006646169 -0.048818015 -0.009757914 -0.07631289 -0.10334166 0.0010100137 0.041655656 0.040867463 0.014052973 0.0007334789 0.002742117 0.037438203 -0.012819743 0.05083607 -0.04597511 0.028956033 0.00015964931 0.04869156 0.0479397 -0.03890667 -0.05863364 -0.028318586 -0.004290869 0.040487953 0.007630871 -0.0071003507 -0.018577773 0.027801786 0.089696765 0.045041762 -0.041954927 -0.07046855
1062 0.036330365 -0.096444815 0.021044325 -0.0038297113 -0.03689129 0.02319204 0.09128459 0.020296048 0.033768978 -0.11269994 -0.08938735 -0.008340315 -0.07377491 -0.09615178 -0.0025912507 0.019596685 -0.055503298 0.013855382 0.078911416 0.0025579098 0.06593989 0.06391465 0.027172578 0.044303603 0.01667543 0.046001416 0.07406966 -0.044733044 -0.019587206 -0.012615954 -0.029109908 -0.039603747 -0.0063035227 -0.047389183 -0.0766107 -0.05866339 0.09683644 0.036961757 0.08394226 0.0034063808 0.060958955 0.0244258 0.019701421 -0.028365742 0.048835173 0.0054103807 0.085541174 -0.05823115 -0.093163334 -0.044821624 0.0020037044 -0.028141547 -0.104889065 0.0057368954 -0.05704613 0.10150132 -0.014035296 0.06952881 0.03888128 0.004192344 -0.09603121 -0.01901733 0.052261934 0.02269998 0.03470112 -0.118079774 0.037796002 -0.063549794 -0.00015124495 -0.10369092 0.056426987 0.056978032 -0.09431687 -0.056504484 0.031547334 0.044949718 -0.084739864 0.02993422 0.054731075 0.05519175 0.051544536 0.09318073 0.013217278 -0.021971501 0.07917928 0.09948124 -0.045120325 -0.065854706 -0.09242846 -0.09173901 -0.043093197 -0.062425118 -0.07502669 0.091938265 -0.06395274 0.12411378 -0.0120031005 -0.05487238 -0.10186241 0.10573358 0.03796654 -0.002300071 -0.02695133 0.009160445 -0.023582375 0.034306765 -0.037738636 0.019993354 0.117645055 0.04053014 0.00092893816 -0.0110148275 0.0040542283 0.092911504 -0.037708744 -0.06418661 -0.01768029 -0.044285677 -0.060997475 0.033577524 -0.031842887 0.08308914 -0.10367249 -0.023617137 -0.074637964 -0.0032496506 0.015729232 0.07851692
543 0.0859993 0.02504073 0.086924806 0.06579291 0.019349517 -0.029258452 0.102451555 0.057861306 0.07950222 0.01893794 0.043028735 0.03368039 0.057317343 0.0091036465 0.010763344 -0.026236406 -0.050803173 0.0009934797 -0.0008333916 0.064744726 -0.036381904 0.0711612 0.062279757 0.0483998 -0.014395263 -0.039556567 -0.029934203 -0.054548223 -0.053945154 -0.037553556 -0.10005109 -0.08402827 -0.02672329 -0.037790783 -0.014272341 -0.07927919 -0.027032707 -0.09575824 -0.038773008 0.011340459 -0.031507656 0.014712827 -0.022311771 0.007377058 0.074360386 -0.091035694 -0.06495721 -0.01649438 0.10570865 -0.025676752 -0.03780732 0.046984814 0.036910035 -0.07395191 -0.109740175 -0.054261584 0.036183774 0.0033073262 0.111499295 -0.030461982 0.005606271 -0.010762776 0.047472753 -0.029947687 -0.03531676 -0.07665966 -0.004198889 0.012040562 -0.045023985 0.016358597 -0.03827676 -0.054924186 0.009038465 -0.08754853 0.018523227 0.036022294 0.013366144 0.042345 0.003633302 -0.027478639 0.04280604 0.013933498 0.040253717 0.002813389 0.08376409 -0.042702556 0.03370283 -0.03983793 -0.036781516 0.038203835 0.025036557 0.06041898 -0.087736614 -0.0015134288 0.08629066 -0.026459102 0.026125273 -0.111342624 0.073769316 0.047637027 0.0016224777 -0.023181297 0.005452714 0.040018685 -0.034720823 0.07528601 -0.08842889 -0.04804924 0.024092067 0.059329513 -0.019925462 -0.07021481 -0.04253139 0.07203095 -0.039901014 -0.058290485 -0.056525297 -0.077802464 0.090707086 0.002380542 -0.034605816 0.055636164 -0.033319265 -0.101114936 0.025773065 0.06740631 0.06307588 -0.06313433
313 0.104249 0.015408927 0.08238947 -0.07200925 -0.04115619 -0.08655031 0.12169588 -0.006620758 0.04686713 -0.04970881 0.0028598097 -0.06502723 -0.08295427 -0.007394533 -0.046098888 -0.10310725 -0.028605428 -0.002867499 -0.028495016 -0.056946635 0.027962247 0.033436757 0.030955875 0.012962896 -0.11604043 -0.08065807 -0.12091091 0.020188382 0.022148414 -0.0436237 -0.032583997 0.038782656 -0.108024605 0.07055523 0.004692293 0.077905424 0.019993687 -0.029779084 0.049130872 -0.01063572 -0.04827986 -0.059463814 -0.024188984 0.04085212 0.006162937 -0.00081387395 0.017889012 0.0140331825 0.085102 0.01276659 -0.1185181 0.08276645 0.027142122 0.023765808 -0.050127555 -0.04064149 0.06953238 -0.031158054 0.12305493 -0.013679493 0.00803914 -0.020428088 0.013456579 0.071572624 -0.023236554 0.058177777 -0.039879143 0.038183093 -0.031074865 0.041314255 0.01572097 0.06783093 0.024830174 -0.00092641235 0.074962094 -0.030908393 -0.008282672 0.09829057 -0.041249853 -0.0012149399 0.03173915 -0.03003804 0.058029477 -0.045742616 0.027262082 0.07868233 0.020268962 -0.079165354 0.09152443 0.08871016 0.005596865 0.041632246 0.07355087 -0.050615244 0.11264467 -0.051442936 -0.007131212 -0.023721091 -0.0026660573 -0.0058466815 0.07213071 -0.05238623 -0.020145841 0.03547096 -0.08454558 -0.042537764 -0.07245893 -0.041962698 0.07287453 0.058425345 0.051591057 -0.012344941 0.045036495 0.012116158 0.08106858 -0.036534958 -0.039559033 0.03473845 0.09155208 -0.039123796 -0.07369105 0.002342533 -0.037700437 -0.10927884 -0.069605105 0.046937764 0.080507554 -0.02410051
19 -0.019643871 0.05007734 -0.038358323 -0.0761507 0.054607026 -0.008217883 0.03561124 0.019476138 -0.07496057 -0.028283803 0.060097475 0.10847157 -0.043971557 -0.043063276 0.10399894 0.064836636 0.07930541 -0.02874677 0.010235095 -0.014667254 0.012159731 0.0121151265 -0.007913152 0.008123036 -0.0020075105 0.043564294 -0.052423783 -0.03372767 -0.002182396 -0.08043864 0.062310185 -0.01910421 0.064044036 -0.038975816 -0.050371133 -0.06895237 -0.0483881 -0.052739367 -0.01263052 0.03127207 0.08004339 0.052119326 0.082001865 0.004900211 0.05353162 0.007331136 0.110166125 0.04790442 -0.026143424 -0.006872367 -0.028179394 -0.0533407 0.061721236 -0.015380886 -0.04780629 -0.021265415 -0.022871556 -0.03602431 -0.076965444 0.028920347 0.02820606 -0.0011311071 0.07834375 0.04866946 0.053486444 -0.014679335 -0.006504832 0.005581326 0.047805764 -0.05131828 -0.0080860695 0.015496749 -0.012853492 0.088650085 0.021356927 0.06877147 0.06865806 -0.0076353387 -0.07872521 -0.019889822 0.10171951 0.07803365 0.039447837 -0.062451333 0.065449364 0.098534174 -0.005689186 0.03196752 0.04387288 -0.004525036 0.015546249 -0.06974985 0.011716198 -0.029432595 0.00461402 -0.025761204 0.09201184 0.009929395 0.09107862 -0.07123348 -0.033021335 -0.04247967 0.08504647 -0.067277774 -0.025319302 0.039128188 -0.020005887 0.058386985 -0.011726507 0.03396678 -0.040009703 -0.005914896 -0.062387645 -0.026234336 -0.018177532 -0.052420653 0.059427492 -0.09097603 0.0760357 0.028958809 0.059901994 -0.0007100418 0.052044433 -0.016181184 -0.044893295 -0.011436884 -0.014848837 -0.011273555
1170 0.012412863 -0.0046621053 0.04164319 -0.0169792 -0.09330451 0.043598924 -0.008992731 0.0837908 0.017877383 -0.08874523 0.038786042 0.03164692 -0.00067911076 0.058093492 0.0027219234 0.07639721 0.05998686 0.056529336 0.019002607 0.010499339 -0.022992631 0.06695599 -0.045845415 0.060956337 0.08779557 -0.009984604 0.10215136 -0.008818011 0.014191555 -0.09466288 -0.010416855 0.103061154 0.055524852 -0.051349256 -0.06379678 -0.023040878 0.06405693 0.07787945 0.030341465 0.001842392 0.062130883 0.06634506 0.014094029 -0.023342505 0.06867155 0.037628002 0.039829336 -0.042598892 0.051577173 -0.058276918 0.10559311 -0.04039038 0.019950751 -0.04523165 -0.032642838 0.010714883 0.0019752784 0.06117973 0.024527296 -0.076718345 -0.061649688 0.009828492 0.052752946 0.044260833 0.08905305 0.07488587 -0.05610297 -0.021580633 0.03774163 -0.055310864 0.0126631195 0.06410636 -0.039172504 -0.007941643 0.037957747 -0.0617661 -0.011985251 0.00010715378 0.013918503 0.09544891 0.11492091 0.009457144 0.0034455792 0.038863912 0.049835216 0.038970765 -0.012978391 -0.030069344 -0.017856387 0.0043104705 -0.07674183 0.0019529705 -0.0037543424 0.016278986 -0.038905 -0.028043516 0.0322115 -0.011015206 0.03298078 -0.030436527 -0.060543824 0.04099558 0.02980353 -0.06818539 -0.03669693 0.04218678 0.0023057575 -0.07307424 0.017326633 -0.03804991 -0.022885213 -0.047619436 0.0016703709 0.09922053 -0.085176006 0.047842953 0.068742424 0.0755313 -0.09214566 -0.03183843 0.005078396 -0.10500039 0.0016275779 0.07697017 0.058727216 -0.06113273 -0.08493308 -0.017766928
1939 -0.003980351 0.055524353 -0.035037626 0.040879026 0.08204984 0.012313645 0.054612756 -0.058414202 -0.0695345 -0.04810774 -0.0030852798 0.07103617 -0.0017974252 -0.03766056 -0.10637906 0.008746964 0.11113549 0.025354387 -0.05849116 -0.027684793 0.03219746 0.041131202 0.03209057 -0.038924534 -0.024559963 0.027784398 0.033944376 -0.03343861 0.028518924 -0.03871319 -0.06673801 0.05940602 0.0037196681 0.0691255 0.044562135 0.045761336 -0.08188818 -0.006709837 -0.040830657 0.07980133 0.092384145 -0.01690092 0.0064805234 0.06098875 -0.046439525 -0.042383574 0.092235 0.026739793 -0.038182713 0.03590372 0.058878943 -0.08236439 -0.037481565 -0.014542472 0.06487707 -0.04737199 -0.047311947 -0.0029267226 0.002389399 0.025137546 -0.061014365 -0.046225462 -0.029662509 0.066929206 -0.044277973 -0.038071897 -0.04727028 0.022067502 0.008767355 0.06308519 0.054687645 -0.11275471 -0.036364656 -0.0072554965 0.018280335 0.027798418 0.03000146 0.0080555165 -0.083706 0.016746705 -0.02451958 -0.004964649 -0.020471416 -0.0011508123 0.004100002 0.042341847 -0.06900235 -0.0755864 0.081506155 -0.07346879 -0.0115754735 0.04288011 -0.01989621 -0.021996595 -0.055531546 -0.0085497685 0.010324326 -0.04622832 0.0638168 0.035278182 -0.050975215 0.006314413 -0.015019909 0.11322415 0.034248915 0.03194681 -0.038167063 -0.0007135028 -0.041079435 0.033579204 -0.014953232 -0.040309086 0.025933638 0.10822123 -0.043605052 -0.040171232 0.044886336 0.015777977 0.0063869264 0.07238588 0.01460395 0.02244211 -0.038270958 0.03565372 -0.08149098 -0.057873532 0.09446623 -0.043433137
927 0.03631064 -0.07663689 0.03148479 -0.027652197 0.070474595 0.057039432 0.052341953 -0.052156493 0.0055869306 -0.12598781 0.071878985 0.004566334 0.05486638 -0.08949589 -0.07740133 0.047937497 0.002328314 -0.033838883 -0.0052547874 -0.026118508 0.0040984587 0.012364996 -0.08990337 -0.047836836 -0.023452895 -0.029279944 -0.0212838 -0.035687715 -0.0045689302 -0.042904276 0.005651356 0.040267427 0.08014863 -0.043816194 0.090615086 -0.056150552 -0.031489965 -0.05415663 0.0762281 0.058432654 0.103341036 -0.09694663 0.009801273 0.025303489 0.030678738 0.029283954 -0.05824688 0.048277464 -0.027998969 -0.070556045 0.08159824 -0.09602639 -0.00021416144 -0.048304085 -0.028875515 0.03239172 0.0065627545 -0.02995162 0.03525653 0.05416252 -0.0073121893 -0.0023805834 -0.018611751 0.027595274 0.035429142 -0.07493637 0.049844373 -0.074162126 0.073150426 0.06254578 0.019772822 0.004322636 -0.068848096 0.0030928287 0.03446181 -0.036692213 0.010089788 0.05547762 -0.026849097 0.003641262 0.022889242 -0.005715864 0.10689699 0.0062855417 -0.026086334 -0.034738928 -0.03644048 0.023564555 0.027968092 0.0014649035 -0.033118784 -0.016556283 0.02851971 0.019882388 -0.02706971 -0.007086619 0.07320442 -0.0054608583 0.02381274 0.067055404 0.09323353 0.02273179 0.022797523 -0.0034117505 0.035291698 0.06271667 0.01306127 0.01621124 0.0009856408 -0.021882541 0.025749916 -0.0057536773 -0.08591758 0.03223103 0.010115536 0.010413071 0.027500901 0.040712368 -0.029170787 0.06694964 -0.006962945 -0.017928544 -0.019736597 0.04220976 -0.010603402 0.07758416 -0.016937524 -0.061170675
1869 -0.050256252 -0.045220517 -0.043151483 0.021916507 -0.05190022 0.024160117 -0.07395309 0.016023625 0.06555502 -0.004250859 -0.027223784 0.05289478 0.108664885 0.0051910863 0.04527942 0.09452618 0.08580998 0.10729472 0.0044770623 -0.0130956145 0.038084082 -0.0033445396 0.1226191 0.05464675 0.049311798 -0.011561765 0.022062842 -0.03861038 0.031766035 -0.08480739 -0.08516667 -0.014062881 -0.07242471 -0.0438626 0.076337606 -0.025313497 0.046330273 -0.02370224 0.1087765 0.07046853 0.033529203 0.07529799 0.024388485 0.04070018 -0.027319659 -0.013022994 0.05000967 0.01499646 -0.03816716 -0.005657355 0.0629328 0.007847041 -0.024264911 -0.03679363 0.05868574 -0.058794707 -0.02540091 0.09625417 -0.060536973 -0.017666442 -0.11335189 -0.07267436 0.04477875 0.018699156 0.06979061 0.028435765 0.035633907 -0.08467733 0.009591 -0.016128365 0.031827815 -0.08862314 -0.028273659 0.11744712 -0.08790922 0.027621835 0.04514802 0.027506897 0.044107337 0.12660511 -0.109653525 0.04799085 0.031600393 0.037617795 0.048719186 -0.08060432 0.0066994564 0.0066849208 0.06725651 -0.00654957 -0.011547525 0.011418426 0.022039654 -0.014970056 0.03438923 -0.018568387 -0.010135954 0.020992503 0.026809623 0.02859845 0.043364555 0.011919327 0.022792587 -0.06938194 -0.051238306 -0.051099442 -0.042996828 -0.024214642 -0.053101476 0.015510451 -0.0651097 -0.02218933 0.02802068 -0.02536681 -0.047491055 -0.0027938422 -0.030841354 -0.019637305 -0.013107606 -0.089837134 -0.03732443 0.115546174 0.03308458 0.07939181 0.041155525 0.079177044 0.024768349 0.036508147
1694 -0.025096906 0.028975653 0.09830757 0.07840177 0.030579377 0.027855437 -0.050073177 -0.0023969722 -0.083658315 0.041960433 0.10620466 0.079691775 0.016238121 0.04086143 -0.042349968 0.09567527 0.045348335 0.024706332 0.083224215 -0.08072015 0.04208419 0.002430703 0.12922655 0.042521127 0.09363766 -0.00046983958 0.12697975 -0.08459853 -0.039618175 0.0026798623 0.041664295 0.0073135016 -0.014127422 -0.05159751 0.07467324 -0.030491386 -0.027830217 -0.062182054 -0.020038096 -0.028952451 -0.06322976 -0.07905613 -0.096736796 0.042410117 -0.03857 0.05232043 0.049487643 0.039053887 -0.12122103 0.0394765 -0.06722545 0.045773275 0.06820678 0.04661196 -0.021048922 -0.083404616 0.038673826 -0.005080672 -0.1122928 0.07095089 0.018570077 0.010642984 -0.050591804 0.07450147 0.038336262 0.045031376 0.04394381 -0.013848716 -0.0452683 -0.05710647 -0.052798368 0.025982026 0.04532427 0.06327483 0.014553391 -0.048989777 0.042818837 0.025179924 0.0066562686 0.061671857 -0.05508335 0.010599399 0.07996147 0.010736047 0.018134184 0.09749511 -0.034092616 -0.010694593 -0.060872495 0.052727316 -0.08705544 0.016642045 0.07948461 0.0006918154 0.048096765 -0.028223606 -0.07021491 -0.064450435 0.05443814 0.0848708 0.006749077 0.0061089913 0.091510564 -0.071004845 -0.02856963 -0.028208397 -0.029926546 0.07142951 -0.038782522 -0.009512931 0.07196602 0.057676334 0.09589666 -0.0636027 0.030292563 -0.03899735 0.02101319 0.07892844 0.0133681735 -0.022439955 -0.035324533 0.022719352 -0.04011388 -0.0408035 -0.06412011 -0.021940725 0.01522148 0.08646007
813 0.013626884 0.05293679 0.08888141 -0.034028236 0.04935795 0.09195294 0.050960004 0.059055638 -0.07531165 -0.04878318 0.034326144 4.9279624e-05 0.041058462 0.055417527 -0.031545024 0.031870935 0.01901474 0.009160352 0.031741377 0.0637991 0.009403029 -0.030265553 0.02460629 -0.06386734 -0.023435237 -0.10895205 -0.010953312 -0.111789845 0.0021973592 0.0214842 0.042629942 0.05851076 -0.044973038 0.020258596 -0.0064921984 0.0084077865 -0.044933748 -0.016004017 -0.03839017 0.07131567 0.0274335 -0.07424709 0.03175716 -0.027410835 -0.059031043 0.02701178 0.09472786 -0.091993265 0.110226385 0.030617626 -0.055166364 0.022948135 0.028430078 -0.088018626 -0.07450924 0.002302113 -0.0053353882 -0.0050940136 -0.040661704 -0.04763385 0.035478678 -0.00211094 -0.011382833 0.07819009 0.10076769 0.12009787 -0.00442853 0.07932404 0.053574476 -0.051960554 0.03147805 0.010447775 0.005533578 -0.016369335 -0.078103445 -0.08404859 0.0017426674 -0.070273876 -0.049220562 0.008023372 0.093394004 0.075000696 0.051764306 -0.091575615 -0.07574699 0.05243472 0.07810282 -0.07888275 0.0778553 0.06875048 -0.04060652 0.030045131 -0.032878462 0.008496584 0.04317939 -0.033746336 0.032269634 0.082662046 0.066256285 -0.0045507215 0.05010499 0.034454994 -0.06321017 -0.05453147 -0.05582916 -0.022791188 0.026698522 0.038864136 -0.10920715 0.03154369 -0.041012865 0.011155306 0.07597439 0.033784855 -0.020597136 0.01853859 -0.0016013865 -0.05192053 0.05574024 0.0063623106 -0.089979924 -0.08586334 0.0020297044 0.01408407 0.066942684 0.0484178 0.009618766 -0.07897159
93 -0.0084671425 -0.010061451 -0.09120084 -0.103198506 0.08064309 0.010593813 0.018469913 0.07447159 -0.08359308 0.038650095 -0.027304051 0.04699193 -0.005680902 -0.08009472 -0.040409617 0.040050447 -0.053007968 0.02752378 -0.04009001 0.03575882 -0.020190794 -0.059554055 -0.02598818 -0.045126695 -0.009415771 -0.045255102 -0.009792817 -0.025301939 -0.10193708 0.061302368 -0.04173764 0.07900208 -0.025460517 0.12193145 -0.029237574 -0.074596085 -0.048617687 0.014029004 -0.02073152 0.100888014 0.053623345 0.010224967 -0.06852073 0.079640456 -0.01784413 -0.04340221 -0.04611326 -0.027599884 0.094591215 0.06029321 0.0035698183 -0.04553605 0.038298625 -0.05133895 0.006344982 0.021154026 0.01460068 0.059351683 -0.056188207 -0.06790958 0.08577009 -0.11345234 -0.09175347 0.12537888 -0.055592336 0.07468085 0.063688114 -0.080918744 0.031480834 -0.012629066 -0.11079037 0.007978721 -0.082064524 0.04315734 -0.09168506 -0.025600318 0.0023380225 0.0448064 -0.04134854 0.084793776 -0.02904984 -0.0005439221 0.097475365 0.02240263 -0.046398796 -0.08228804 -0.06429541 -0.0308232 0.09621806 0.040291373 0.029828837 0.05969261 0.01206757 -0.0062635145 0.026178734 -0.085794054 -0.064256765 0.049910933 0.0038509017 -0.081123106 0.043617655 0.09147366 -0.044241212 -0.032151032 0.056197446 0.042603012 0.037000526 -0.031187814 -0.028482594 0.054553702 -0.029378258 -0.033252347 0.0048314137 0.006175945 -0.057682406 0.11128023 -0.055586774 0.016433667 -0.020072076 -0.08751675 0.04608032 -0.04358132 0.039069187 -0.08985449 0.02228701 -0.051257413 0.007822201 0.06253
1288 -0.013208669 -0.053745378 0.05138441 -0.04076094 0.0611604 -0.01774235 0.006836576 0.055845305 -0.055357877 -0.038971953 0.07614255 0.030237947 -0.078850836 -0.08801756 0.044106137 -0.024779052 0.046308063 0.0793706 0.093756594 0.00970368 0.06889512 -0.005843515 -0.014608351 0.060045548 -0.068847775 0.09466002 -0.029260056 0.005961659 -0.07015815 0.04530241 0.03728631 0.06715837 -0.10485391 0.049767002 -0.018495286 0.05455026 0.008631562 -0.03313305 -0.008509665 -0.057063885 0.02300033 -0.05815857 -0.05315441 -0.061003305 -0.0245199 0.01626708 0.068336196 -0.022973845 -0.009710761 0.060402293 0.036869477 0.025273116 0.07186087 -0.033933662 0.12329634 -0.016721921 0.036041398 0.03252886 0.07739635 -0.02674559 0.021105785 0.026324585 -0.008821916 -0.05519197 -0.059618805 0.075674795 0.08303621 0.07899157 0.022060063 -0.06816539 0.04198187 -0.013806697 -0.10116754 0.0107044 -0.019640641 0.10194918 -0.043709747 -0.045129463 -0.062248196 0.015000639 -0.054788407 -0.0005977609 0.025579242 -0.044242993 -0.05318564 -0.03212143 0.014944437 -0.05698896 -0.061500147 0.030903721 0.0012287832 -0.028030366 -0.0067420364 0.01580373 0.030049244 0.013116915 -0.052294347 0.04812833 0.07944407 -0.0037349158 -0.059173755 -0.08288488 -0.032377966 0.060201522 -0.026937878 0.047975723 -0.0029399698 0.061620604 0.045310374 0.028760837 0.008914346 0.023600806 -0.07125521 0.01604158 -0.06982769 -0.11260613 -0.07875164 0.034704797 -0.11409787 -0.11162075 0.049712554 0.059469957 0.024652375 0.039421804 -0.11721942 -0.08687286 0.11706609 -0.023953741
1923 -0.0051902346 -0.021013815 0.038833234 -0.008659899 -0.0040264167 -0.04661665 -0.040382873 -0.018503984 0.018587464 -0.022943072 0.068277806 8.493342e-05 0.057764206 -0.06614952 0.051842812 0.0923366 0.04961349 0.037825797 0.03409786 0.06269006 -0.0022182963 -0.022783885 0.027636396 -0.0105032455 0.009665891 0.002809254 -0.04678436 -0.0013470153 -0.017692152 0.015295366 -0.0008713936 0.055119358 -0.013200199 -0.021488896 -0.0022706531 0.0135376975 0.09800953 0.016850082 0.04524127 -0.087886296 -0.102167346 0.021673525 0.03661356 0.04812695 -0.014020186 0.037186217 -0.025567152 0.060139563 -0.089745 0.054969653 -0.09108539 0.019592399 0.019122757 -0.019049954 -0.057674915 -0.078614056 -0.017245213 0.06683582 0.024997106 -0.0077554435 -0.10116655 -0.025520539 -0.028377116 -0.1063208 -0.016471298 -0.000651261 -0.036404505 0.056693673 -0.016579323 0.057800457 -0.028263977 -0.037456088 -0.04016481 -0.03890591 0.019520609 -0.07164023 -9.963348e-05 -0.037215002 -0.029352752 0.028819814 0.045495857 -0.021979997 0.08638979 0.070749804 -0.011444462 -0.10377792 -0.04529637 0.00423654 -0.011844393 0.051993888 -0.008452006 0.01935476 0.012434003 -0.052904088 0.08531013 -0.06086777 0.04179427 0.023437638 0.03498388 -0.1291242 0.01099098 0.04650145 0.024106858 0.10229899 0.06715427 0.00019447735 -0.01640213 -0.01618594 -0.0129959015 0.010506948 0.10700758 0.054201998 0.065195136 -0.009142128 -0.08867319 -0.12341606 -0.045710377 0.0432294 -0.051610727 -0.00048988534 0.011388853 -0.03789987 -0.02111284 -0.009936491 0.006918695 -0.1118627 -0.019598572 -0.04160032
1896 -0.06852118 -0.060521908 -0.0024480468 -0.054839417 -0.07473307 -0.050028432 -0.068416364 -0.0687983 -0.019397998 0.08073408 -0.037446488 -0.06818026 0.021455163 -0.051828828 -0.009321361 -0.009960529 -0.023750901 0.029047363 0.027808711 -0.032379407 -0.046714764 0.026257519 0.04954026 -0.116947144 0.010719649 -0.00083801005 0.070537925 -0.0543788 0.02222014 -0.02338238 -0.022414688 -0.020709332 -0.109710276 0.05915592 0.03248916 -0.0032830061 0.029700441 0.02002383 0.054734644 0.0045892033 0.06319041 -0.05970334 0.0043810364 0.013021791 -0.02772525 -0.00033706793 0.06852853 -0.075788505 0.02844697 0.010571761 -0.06974865 0.00018030373 -0.029062632 -0.01245951 -0.10073314 -0.095768884 -0.00084123027 0.065828994 -0.055625893 -0.010173859 -0.023420226 0.024139276 -0.037986424 0.04683462 -0.08252898 0.018385535 0.013886732 0.045463186 0.039547887 -0.009302993 0.028893052 -0.037942283 0.07792153 0.023600277 0.049863216 0.08035965 -0.10321027 0.0011822836 0.055595517 0.02626619 0.108724415 0.032826334 0.017112069 -0.059136022 0.058496226 -0.039120607 -0.02529021 -0.0932061 0.054527864 -0.01643066 0.08518244 -0.017526189 -0.06598513 0.026157988 -0.03150169 -0.09606159 -0.010437201 0.009720564 0.06632613 -0.07639387 -0.09368304 0.08842562 -0.043141473 -0.05407845 0.02943572 -0.080138795 -0.013706997 0.013548899 -0.023075104 0.022142243 -0.019735387 -0.008060888 0.048303753 -0.004179136 -0.018205943 -0.07296294 0.025986763 0.021226808 0.017044775 0.019626891 -0.017119674 -0.021873055 0.010708677 -0.02376762 0.05774687 0.08903179 0.05411461 0.05483667
473 0.025999237 0.024549259 0.015724229 -0.02241791 -0.058350306 -0.010349258 0.05074108 -0.078998074 0.028904932 0.009420775 0.016267797 0.0341211 0.115231626 -0.062003776 -0.03994972 -0.022107424 0.022398662 0.004455571 0.024952443 -0.0172339 0.010873229 -0.08285974 0.049531564 -0.04401635 -0.11160524 0.07786383 -0.093263075 -0.00093432516 0.03654562 -0.073571235 -0.03196339 -0.03578953 0.010627089 0.1174011 -0.07809171 -0.06524284 0.0012293288 -0.06646009 0.08783572 0.011031022 0.081226155 -0.028756429 0.044202458 -0.031213887 -0.10222213 0.037557494 -0.102966994 -0.051460706 -0.04957502 -0.050399527 0.053392217 0.02404704 -0.11823644 0.045967337 -0.017767336 -0.025815122 0.052438468 0.036964364 0.09174684 0.0640799 0.007506586 0.07801412 0.0057836487 -0.033528212 0.02738329 -0.026220486 -0.05341305 -0.037286624 0.019960336 0.0027717066 0.020205557 0.038193565 -0.06495318 -0.040486116 -0.004907881 -0.03452773 0.053275198 0.026979439 0.026701514 0.07970597 0.03338911 0.0227695 0.05697021 -0.0140023185 0.041372124 -0.0014199044 -0.013464876 -0.029782208 0.10889434 0.0049209567 0.097621 -0.013187334 -0.02744872 0.01940094 -0.050609928 -0.0026291122 -0.012039553 -0.06614599 0.059641484 0.01167477 0.067432754 0.03721301 -0.015242435 0.08047625 0.091135465 -0.010440402 -0.08592494 -0.008448285 -0.03704309 -0.10595953 0.0057890145 -0.031446632 0.06996554 -0.044796888 0.041229937 -0.105108544 0.07984254 0.03510139 -0.004944561 0.037201706 -0.07097085 -0.035589803 0.052830804 0.027465194 -0.015402253 0.0713284 -0.07374893 0.08876243
476 0.05396014 -0.0019563625 0.06782702 0.030138409 -0.11653169 0.0537208 -0.031792495 -0.0012616515 0.06289402 0.010016154 0.060592256 -0.05804579 0.07556674 0.02959036 0.04905107 0.036443654 -0.045171265 0.0045667323 0.011570554 -0.005917968 0.04534775 -0.06695982 0.009972324 0.0827944 -0.008238702 -0.022836247 -0.12215161 0.049496565 -0.033488158 -0.07245756 -0.006781222 -0.0075789387 0.00034727453 0.02679974 0.06472593 -0.111601256 0.047805663 0.0186137 -0.0738111 0.018264735 -0.041350547 0.030921564 0.025780333 0.05370461 0.040735625 0.032584544 0.09351322 -0.030912431 -0.040534943 -0.026662622 -0.0052806316 -0.04738153 0.0016136876 0.014162972 -0.05609443 -0.00021798324 0.07276048 0.007639088 0.010170486 0.015569801 0.07106299 0.015323137 -0.0034862715 0.0024344167 0.048158873 0.06699976 -0.06858235 -0.042081606 0.058042623 -0.05844143 -0.020722838 0.015287601 0.104865134 -0.0150474105 0.04973496 -0.07909486 -0.032625113 -0.046538606 -0.06306472 0.07721197 0.11465151 -0.05285114 0.015589611 -0.004463741 -0.056435715 0.030877182 -0.0008606406 0.07108717 0.06482 -0.038437217 -0.003627418 -0.06672057 -0.105480656 -0.0708681 0.044749305 -0.11156458 -0.08547751 0.05561986 0.05390816 -0.06546909 0.047887273 0.0016113066 -0.014082722 0.0124537675 0.019314326 0.06146964 -0.087092355 -0.016199816 -0.00026049008 -0.08225725 0.05368667 0.021169236 0.05744458 -0.030448778 -0.0026542349 -0.0028595738 -0.049349997 0.05029334 0.035221837 0.075124994 0.10151631 -0.032305937 -0.045951698 -0.042214815 0.105566286 0.00320223 0.10723381 -0.027563846
558 -0.08134693 -0.098524995 -0.08918078 -0.038283136 -0.022807527 -0.06373265 -0.08005179 -0.11432101 -0.069607444 0.054953888 0.10255199 0.08637841 -0.07178689 0.023500782 0.058217987 -0.025316298 -0.008235043 -0.026901867 0.02282856 -0.027425539 0.037423946 0.036054414 -0.03794476 0.032300033 -0.06765177 0.06502063 0.0091729425 -0.07404792 0.023286693 -0.007677168 0.04504123 0.028418021 0.09001363 0.03309951 -0.08993082 -0.060612887 -0.10832738 0.067238785 -0.03640308 0.006117331 0.030120105 0.108226456 -0.025203696 0.10682848 0.003700718 -0.08949729 -0.10215505 -0.031124257 -0.019859914 -0.035900135 0.03111578 -0.021042159 0.05162125 -0.05476768 -0.045770764 -0.09331055 0.07696701 -0.022908919 0.071587294 -0.009760856 -0.074537024 0.0038087668 0.04521445 -0.0060035847 -0.0495777 -0.05506687 -0.08289612 -0.026831485 0.098411165 -0.086440824 0.02840639 -0.06555281 -0.025107084 0.018848713 0.031188792 0.05979375 0.10439782 0.00038416806 0.012252155 -0.090073995 0.015692553 -0.06460404 0.050833683 0.06600501 -0.074867785 -0.026496474 -0.08520583 0.0012985896 -0.021234177 -0.06145403 0.0026492646 -0.057676047 0.08380641 -0.011979137 -0.007846763 0.04547156 0.08790287 -0.03554323 0.063929565 0.036484722 -0.050678242 0.06209788 0.013978922 0.02808958 0.086285375 -0.047663502 -0.039657272 0.064364225 -0.072365515 -0.021515219 -0.058462523 0.05446963 0.06275816 0.010304298 -0.053055774 -0.04411409 -0.10021104 0.028787976 -0.0044873995 -0.0010574951 -0.058917224 0.023783715 -0.00517618 -0.025946276 0.05741023 0.0020081555 0.06173168 0.052724708
634 0.034717947 -0.07681996 0.056250077 -0.0135403415 -0.037615098 0.10397507 -0.031299915 -0.05432401 -0.017986005 0.012838714 0.08208177 0.021886254 -0.0012528517 -0.010641977 -0.066558704 0.00036898535 0.008460866 -0.045192797 -0.018412337 0.051905382 -0.032011773 -0.0018826808 -0.0068285535 0.11389626 0.02058203 0.05686754 -0.0020174186 0.072777465 -0.044952426 -0.031209823 0.045787003 0.03182911 0.016675722 -0.06456644 -0.06340969 0.017496508 -0.05201614 0.06475605 -0.08808166 0.0055108597 -0.027399777 -0.015080419 -0.075498804 -0.09613016 -0.047861896 0.012480522 0.036915906 0.01738453 -0.029275741 0.0136194825 0.022578117 0.043648086 -0.05908606 -0.017094988 0.06679922 -0.11011382 -0.013021959 -0.0024374104 -0.028052764 0.0561669 0.03365075 0.01963899 0.0053882743 0.09816175 0.002546873 -0.020434396 -0.076725826 0.011631162 -0.014895534 0.006266368 -0.06733455 0.011034385 0.016779775 0.030167243 -0.06653136 -0.037705727 0.07429556 -0.034155093 -0.01106144 -0.002871467 0.015506705 0.08107494 0.06758522 0.058030754 -0.042664383 -0.07401331 0.084738865 0.023670439 -0.0013356544 -0.017048083 -0.04327424 0.050549723 0.02708015 -0.09578648 0.034249965 -0.05899563 0.032745995 -0.008621698 -0.004370388 -0.011074566 0.02310594 -0.043212745 -0.04380596 0.016071307 -0.065083526 0.038516857 -0.019493777 0.010266882 0.021353625 -0.067339055 -0.08672838 0.025883423 -0.059697844 0.03746272 -0.0070415116 0.068397455 0.06494244 0.07737074 -0.0429198 -0.0016917351 0.019519735 0.07936499 -0.017486019 -0.08122102 0.02866115 0.011398506 0.0967796 0.054721795
1321 0.098218285 0.04230329 -0.030271541 -0.030165812 0.046911463 -0.040365547 -0.018120438 -0.036123607 -0.03587077 -0.02267987 0.081690535 0.091264404 -0.067426585 0.005565481 -0.09428035 0.013186581 -0.008493998 0.014158437 -0.055923957 -0.018236026 0.004092321 -0.02369538 -0.02319126 -0.08545455 -0.067551956 -0.034178566 -0.08701043 0.09521946 -0.07793324 0.0010969912 -0.028385257 0.016402716 0.012877893 0.11734773 0.098269776 -0.0668019 0.086509354 -0.018943788 0.10342596 -0.029390354 0.026401663 -0.018698072 -0.029613016 0.045114897 -0.010947555 0.062368605 0.03810743 0.034481764 -0.012153449 -0.017625535 0.06560713 0.045240603 0.05586096 -0.036346704 0.060787775 0.005209441 -0.09253581 -0.010521205 -0.06594875 0.08145303 -0.055785455 -0.0019925097 0.038180694 0.0010934217 -0.041157514 0.05259612 -0.07541786 -0.041473955 0.10161178 0.05834458 0.04646117 0.02213249 0.0032816408 -0.0030027302 -0.0498816 0.046369057 0.00962271 -0.014131085 0.07818599 -0.0052309735 0.03854231 -0.0070251217 -0.09652793 0.018085709 -0.036435753 0.082502216 -0.027442172 -0.008035062 -0.0012814514 -0.030342065 0.03829124 0.051138487 0.08193862 -0.0011397799 -0.0689145 0.022178577 0.0060371156 0.035422154 -0.04152408 0.07223908 -0.03471144 -0.049769115 0.09244031 0.06281101 0.09075514 -0.013021446 0.05579811 0.0027594331 -0.08713878 0.017099693 -0.03238838 0.043033298 0.016180512 0.046781246 0.004695981 -0.057869706 0.031759363 0.036527794 0.039459594 0.022251101 -0.037446816 -0.020760871 -0.025338478 -0.09874677 0.035619054 0.06454095 -0.028413352 0.11151955
1084 -0.075364694 0.018505326 0.0013896349 0.07689526 0.014995426 0.08929329 -0.046821006 -0.012325103 0.05034412 0.004609881 0.025063433 -0.095901914 -0.009650129 -0.018433582 0.04713476 -0.02541713 0.016845731 -0.009456403 0.015385217 0.07960394 -0.110665694 0.048418626 0.1031111 -0.097871326 0.021390432 0.02346445 -0.0418214 -0.018753711 -0.03696091 0.0027223446 -0.03899552 0.015636548 0.04656158 0.027899722 0.11862448 -0.07277953 0.061850246 -0.0068317517 -0.052765276 0.0653897 0.00031162065 0.045164116 0.053012285 -0.0015629944 -0.09381394 0.04443621 0.054252617 -0.11165595 0.08739148 0.022946471 -0.028343247 0.108607866 -0.054945167 -0.0218337 -0.0019960005 -0.07658381 -0.025463296 0.08910588 -0.017058056 -0.08198859 -0.028955651 0.022542333 -0.031739872 0.016354602 -0.008183349 0.01796697 -0.044233087 0.09661739 0.08027903 0.026009966 -0.0624341 -0.026518717 -0.003155602 -0.00841521 -0.04642919 -0.057174474 0.035578236 -0.017170994 0.050758228 0.023593955 0.030122101 0.00044993573 0.047551453 -0.05642597 0.05786767 -0.025077142 -0.09885688 -0.04301055 -0.05970344 -0.008628002 0.08316015 -0.0014162059 0.016864823 0.035283666 -0.017593896 -0.0122175645 0.015325183 0.0044342256 -0.033976104 -0.014570851 -0.08119583 0.06618409 0.012537916 -0.040164933 -0.09878827 0.036713995 -0.029454008 -0.06876889 -0.014137022 0.054047655 0.055963177 0.019774195 0.018623581 0.0144966245 -0.0054098302 -0.03362033 -0.018165229 0.07230363 0.044831578 0.018220501 -0.012335332 0.10034486 0.007891691 -0.019648021 0.027931366 -0.0035978174 0.034916352 0.08848114
144 0.041564073 -0.0034236605 -0.03031319 -0.10402097 -0.041973226 -0.007977349 0.029104326 0.061982825 0.015273421 0.05024436 0.003922933 -0.08504677 -0.021729376 -0.010742594 0.0730955 -0.018455086 0.043762367 -0.00616845 -0.029445564 0.036725998 0.067523144 0.029763035 -0.04392167 0.06857997 -0.03813636 0.006470339 0.09763653 -0.029388724 0.011913486 -0.09014027 -0.08321644 0.028947521 -0.09998405 7.271432e-06 0.025663892 0.025786169 -0.10672198 -0.07435893 0.02669857 -0.037651554 -0.05459822 0.032806724 -0.050775353 0.008142778 0.0069287927 0.023118362 0.045866814 -0.07559434 0.06772635 -0.02704593 0.027788153 0.0061406456 -0.08945078 -0.06500094 -0.03814827 0.049337104 -0.047324765 -0.045458075 -0.020004906 -0.03905497 0.076722406 -0.12040095 0.005740351 -0.04120801 -0.07252347 0.011597505 0.032874905 -0.048119463 -0.042587087 -0.069871396 0.105474584 -0.03755927 -0.063977174 0.046236437 0.0006766657 0.049713705 0.09180835 -0.013688888 0.021347156 -0.009368062 -0.014668857 0.026802748 -0.010953786 0.05022963 -0.0567578 0.027719628 -0.063497365 0.097218536 -0.0069037904 0.0017391983 -0.07959873 0.06279392 -0.055472333 -0.03938799 -0.025405569 -0.026245944 -0.03720914 0.022440193 -0.1018903 -0.0718496 -0.010116093 0.05023242 -0.063814506 -0.041634426 0.08456725 0.0073139817 0.047156185 0.040803894 0.038179867 0.0020175874 -0.042118993 -0.08212326 -0.045652367 -0.024751732 -0.0068953615 0.025761146 -0.034181055 -0.06078037 -0.067997165 -0.0043899924 -0.00923564 0.07364957 -0.007397712 0.0044149277 0.02529185 -0.047490172 -0.02016161 0.020038469
481 0.103054754 -0.028796392 0.0233665 -0.063342705 -0.09023377 0.043076705 -0.0060195117 0.09466702 0.0033919543 0.004814485 0.032300334 -0.040444016 0.060179513 -0.053949207 0.0042010844 0.027676977 0.04171184 0.0051184176 -0.023860937 0.07193676 0.04945606 -0.0006676263 0.057606764 -0.054639366 -0.025259867 -0.026124734 0.09793882 -0.02659513 0.05553143 -0.108422935 0.066474535 -0.050962415 -0.07246849 -0.0101827625 0.10518331 -0.027721183 0.07204931 0.01156962 0.10394655 -0.007934961 -0.0933611 0.01898889 -0.061605494 -0.005271853 0.05396606 0.040740985 -0.0036359264 -0.030826304 0.040887408 -0.013816424 0.08149573 0.05072924 -0.09825604 -0.026727717 -0.011035472 0.031721912 0.08349554 0.08572745 -0.0069702775 0.010800099 -0.04105875 -0.019361077 0.070285365 -0.065853685 0.027114637 -0.0015118617 0.08511871 0.0060465415 0.009922674 -0.008429833 -0.013846075 0.092591025 -0.034272593 0.087005906 -0.032730043 0.033294376 0.03099119 -0.002002054 0.07299926 0.011289021 0.091944695 0.047915086 -0.025609476 0.045605235 -0.009841253 -0.014098348 -0.04341679 0.013650838 -0.08087506 -0.03768899 -0.04377402 -0.011201535 0.06287502 -0.0103659835 -0.07550303 0.083375916 -0.10736649 -0.028530907 -0.00036452763 0.009312637 0.010229941 -0.059168663 -0.026225911 0.038232647 0.025604311 0.021243438 0.026108094 0.031495806 -0.074346155 -0.10750063 -0.018789256 0.06821121 0.09092574 -0.028425205 0.03333322 -0.016528256 -0.020304231 0.029258272 -0.11149407 0.0035969776 -0.04528615 -0.00041053648 -0.003917252 -0.0033115621 0.023927644 0.023442324 -0.05524614 -0.0009008395
1500 0.049092047 -0.06510912 -0.038733914 -0.0042740833 0.06670639 0.041128278 -0.012995672 0.012454065 0.10838878 -0.008329545 0.04284892 -0.038715202 -0.022305889 -0.06527039 -0.07863083 0.031590644 -0.043271955 0.013221179 -0.0007891577 -0.064169355 -0.0012047419 0.027135113 -0.010482524 -0.06345807 0.022602404 0.111831725 -0.05756681 0.008973361 0.072109744 0.03692935 -0.06444894 0.06988648 -0.044469852 0.041757315 -0.007821111 -0.022669546 0.011280181 -0.060305152 -0.08672332 -0.00019553205 0.09821994 0.026359845 -0.018404132 -0.038966928 0.060119856 -0.06453433 0.0705638 0.03344543 0.0022682867 -0.03905972 -0.009546745 0.07547264 0.029362032 -0.028562263 0.09691048 -0.007226599 -0.043293193 -0.056564108 -0.022985417 0.0057463394 0.10441685 0.031312127 0.06785967 0.01289169 -0.016079515 -0.007172616 0.00473228 0.007845983 0.05053566 -0.004725314 -0.0048967637 0.086072154 -0.0021368929 -0.049610868 -0.013554426 0.045824647 0.047400136 0.030741202 -0.044409987 0.054233655 -0.035419267 -0.06737806 -0.05536354 -0.0024260515 -0.020604068 0.0132280905 -0.049163945 -0.06663918 -0.004238328 0.10641947 0.013866971 -0.035044037 -0.017316602 0.005786284 0.010420782 -0.005882003 0.10105765 -0.05649036 -0.03583712 0.024220483 -0.09342111 0.031089412 0.087214395 -0.11323797 -0.008896649 -0.01002924 0.014102436 0.056370255 0.0456391 0.027660513 -0.032168996 -0.012673132 0.039865173 0.07299419 -0.0038299628 0.10522265 0.05480345 0.11584928 -0.0669609 0.049026683 -0.017505437 0.046948828 0.06743875 0.022696793 -0.0008387003 0.029427104 -0.08723107 0.08043667
513 0.06640027 0.09670705 -0.05247131 0.072087675 0.0076867393 -0.08041934 -0.003945077 -0.008503656 0.10290344 -0.05878257 -0.01878882 0.06756946 0.050354093 -0.04992733 0.009803194 0.06322554 -0.020411825 0.045259785 -0.053719897 -0.08129577 -0.075178094 -0.021545183 -0.12574264 0.0125793 0.014607814 0.02410299 -0.028270608 -0.03233339 0.04333755 0.03967586 -0.086940706 -0.017710824 0.015464381 0.00013546337 -0.050967738 -0.014875522 0.041053817 -0.053518344 -0.014372976 -0.05274492 -0.058634076 -0.011048506 -0.08484059 0.04577219 0.08241587 -0.033973925 0.041763235 -0.048780438 0.04331928 -0.07956899 0.07870551 -0.04303867 0.0011059159 -0.051836625 0.02927665 -0.040490445 0.054799642 0.045029383 -0.0440275 0.05746098 0.018573849 0.0381842 0.008681363 0.015907709 -0.042248156 0.018531607 -0.031043889 -0.0034923956 -0.062977076 -0.031999066 0.002968987 0.032289185 -0.017490748 -0.0014899689 0.0299472 0.009157993 -0.008417538 -0.044779785 0.021280706 -0.07242655 0.00893855 0.022975503 -0.037851293 -0.048316866 -0.06916917 0.06862021 0.011004705 -0.06425631 -0.01423121 -0.033353865 0.047395796 -0.008244721 0.043356422 -0.0051798397 -0.02570625 0.009307156 -0.07844531 0.105681024 0.04467356 -0.021952389 0.09595606 0.09474046 0.005069527 -0.09042848 -0.018390149 -0.06562716 -0.006971386 0.0069651636 -0.1142711 -0.011584619 -0.1161664 -0.008298734 -0.049645845 -0.047935728 0.09201761 -0.08982035 -0.057899833 -0.029876912 -0.018189432 0.07744199 0.1072806 -0.061240308 -0.01712393 -0.0024059894 0.10558968 0.014013995 -0.08961567 -0.065058075
2055 0.09566342 -0.04915487 0.06769478 -0.040959526 -0.05805157 0.057670455 0.015243847 0.038993623 -0.01623137 -0.052336186 0.03364685 0.031117704 -0.037593767 -0.088517785 0.012029849 0.050817344 -0.03489102 -0.038906306 -0.050038487 -0.06614591 -0.057203196 -0.081736565 -0.04847621 -0.063975036 -0.066604376 -0.010205407 0.0029743086 -0.073295034 -0.03065911 0.05838376 0.08036515 0.033789527 0.022297038 0.053465903 -0.02074225 -0.0033719942 -0.06849387 0.042867158 -0.06629802 -0.008687716 0.08629131 0.05514275 0.0069925534 0.030111069 0.10526663 -0.005869876 0.018844062 -0.027991336 0.06952262 -0.026455093 -0.08140254 -0.05643785 0.12681502 -0.048987966 0.113459736 0.06783143 -0.118154675 -0.11279534 -0.013207693 0.06316904 0.09925378 0.017588444 -0.012442915 -0.025421798 -0.09967578 -0.07940254 0.040305182 0.044007473 0.0031307773 0.066030145 -0.072429344 0.05652102 -0.07331755 -0.09898925 0.002033029 0.09963276 -0.08955525 0.07086112 -0.036516216 -0.053003207 -0.046134856 0.04028717 -0.007074162 -0.009170828 0.009655832 0.017381828 0.084946156 -0.06855491 0.023600543 -0.087031506 0.11378845 0.010054364 -0.05999174 0.032556493 -0.053990196 -0.020591687 -0.035867874 -0.09528423 0.08731909 0.038350843 -0.020074753 -0.03160892 -0.037011117 -0.040069174 -0.016585354 -0.025877686 0.020685636 -0.016730037 -0.024071783 0.05574464 0.050097477 0.10634108 -0.031382613 0.042800967 0.012713393 -0.012271492 0.08374908 0.04790763 -0.000104049526 0.025564183 0.054610897 0.038378354 0.025831506 -0.0813219 0.046999536 0.07061217 -0.02759854 0.04586373
1088 -0.058563747 0.021628672 -0.093889624 0.06937925 0.059050154 0.04060482 0.010505323 0.01522834 -0.05762946 -0.021257453 -0.11298656 -0.03440826 -0.022907853 -0.05125896 0.04362645 -0.029125685 -0.066964194 0.042335458 -0.003849766 -0.065411955 -0.05030334 0.053971417 -0.054353744 0.010551614 -0.0048216786 -0.007815257 0.0004353085 0.030698147 -0.00018292203 -0.07638682 -0.028951785 0.040621515 0.053863186 0.04588998 0.016218109 0.06043127 -0.04902144 -0.075145245 -0.0003098072 -0.05064101 -0.040060632 -0.042584337 0.009480603 -0.06672447 -0.015188549 -0.024612574 0.068348505 0.0061222576 0.022602255 0.042079277 -0.0012853899 -0.062077433 0.0612361 0.02750567 -0.0067311036 -0.06400739 0.004291509 0.01331362 0.03754908 0.1107595 0.11633505 -0.021982461 0.076464444 0.056527905 0.05345187 -0.003723832 -0.07390346 -0.025660384 -0.0425168 -0.10526982 -0.025411054 0.0078988075 -0.06630492 -0.0019356998 0.0487332 -0.008990738 0.02711509 -0.004328107 0.009198705 0.011789678 0.006330811 0.026133254 0.046053436 -0.026744734 -0.0036102037 -0.06405305 0.05118476 -0.0070188744 -0.06687727 0.03880575 -0.09405104 -0.003451972 -0.08891576 0.025488675 -0.0818141 -0.0679032 -0.09674301 0.02791363 -0.12611002 -0.051921982 -0.013397277 0.10931251 -0.0774745 -0.07316218 -0.02706089 -0.013836162 -0.012558228 0.0055137863 -0.0505664 0.014865811 -0.09746763 -0.025096187 -0.0014663192 -0.048462015 0.04860528 -0.012831566 -0.044931397 -0.045810137 -0.044199593 -0.020364814 -0.084109955 -0.026785398 0.11740575 -0.0056317616 0.0795599 -0.05044966 -0.031026682 0.04580373
64 -0.086734064 0.124273494 -0.020623041 0.045696955 0.030634921 0.015663316 -0.05070598 -0.0805493 -0.041144446 -0.016990384 -0.011443089 0.00014764594 -0.06634486 0.0067907856 -0.031000556 0.060641926 0.01795665 -0.09204188 0.07522059 -0.005206166 0.0022787037 0.040409654 0.032083843 -0.033797547 -0.020769196 -0.011174279 0.046921264 -0.02892004 -0.028431699 -0.044854105 0.014814474 0.119563565 0.044214893 0.0140162315 -0.02357182 0.02604695 -0.07055473 -0.04792001 0.021157995 0.0068688816 0.09731711 0.019882463 0.009469758 -0.044482 0.035139292 -0.038423628 -0.079266846 0.03205756 -0.0353965 -0.06780768 0.020875948 0.06528037 0.02819903 -0.06203848 0.0013111962 -0.033612624 -0.011718329 -0.086387485 -0.033906467 -0.004258699 0.08321871 0.013864923 -0.0700193 0.008721768 -0.06552644 -0.085535236 0.02147477 -0.018918527 -0.06978752 0.049053483 0.052015867 -0.06583164 -0.025483083 -0.030410087 0.043584146 -0.023783967 -0.09296789 0.08954197 -0.10489588 -0.07068332 0.03154578 -0.054375555 0.02265638 0.030008165 -0.015422868 -0.058712997 0.014790155 0.023124091 0.017312724 0.018063776 -0.013286506 0.030440629 0.047148667 -0.06230422 0.01963666 0.023009872 0.005787388 -0.069404066 -0.051682312 0.058084555 0.040945936 -0.044783793 -0.10264746 -0.01581377 -0.065604955 -0.061691277 -0.06946442 0.086269125 -0.02383713 0.046037886 -0.042554162 -0.08383907 -0.015255145 -0.05719049 -0.045740116 0.10287631 -0.06473586 0.09883599 -0.070362985 -0.059805118 -0.018350875 0.06437376 -0.06667782 -0.099859856 0.09669032 0.06892878 -0.00964581 -0.016831256
888 0.082735784 -0.061951928 0.05622461 -0.05807196 0.0722871 0.027287746 0.0862146 -0.090287656 -0.048552867 -0.087625794 -0.013797839 0.07550832 -0.098647654 -0.04650191 0.05837489 0.11559734 -0.058874402 0.046447422 -0.013423227 0.025698878 -0.025953341 0.10732161 0.018928599 -0.07482237 -0.049582213 0.07454057 -0.009102812 -0.011866144 0.0038711524 -0.06427929 -0.045948878 -0.07709546 0.021904659 0.020540865 0.08844052 -0.062239368 -0.014693065 -0.04137312 -0.019313626 -0.024971394 -0.0033263413 -0.03407239 0.01689898 -0.016094152 -0.014154754 0.012404271 0.11784249 -0.0932573 0.046433877 -0.024039097 -0.027877033 0.03259833 -0.005964696 -0.012579758 0.10166735 -0.00440216 0.00611048 0.06041543 0.0369749 0.015500285 0.014316371 -0.024453571 -0.019975562 0.076774515 -0.09504945 -0.046014126 -0.010228509 0.019555742 0.043067038 -0.048559695 0.03775068 -0.07881165 -0.030107625 0.014048383 -0.015254464 0.06480618 0.040980987 0.020113718 0.06884995 -0.08906528 0.042519953 -0.028672379 -0.05569555 -0.022466017 -0.07135207 0.05349465 -0.018381165 0.10055108 -0.04405414 0.09839918 0.094802864 -0.038470462 -0.02753283 -0.093350984 -0.07035768 -0.01115829 -0.062987275 -0.016000884 -0.07109214 0.036916997 -0.12121814 -0.02939734 -0.0055059292 0.05978249 -0.04539888 -0.0024870327 0.03886866 0.013088444 0.007286103 0.076631255 0.07233061 -0.053021442 0.011146306 0.019438056 -0.109302804 -0.08362553 0.007781824 -0.019621117 0.11837351 -0.047684323 0.08901592 0.011274567 -0.005386718 -0.016268287 0.016301703 -0.022293368 -0.005353012 0.10340907
486 0.067942135 -0.0001771557 -0.062204897 -0.080284886 0.023862036 -0.0543079 0.019527186 -0.03646501 -0.036339562 -0.036022123 0.0020100276 -0.0064523304 0.0011357906 -0.040406365 0.006901972 -0.019952865 -0.08679675 0.093795136 -0.02953261 -0.0122773675 0.049710702 -0.015756948 -0.09838606 -0.08196529 -0.07314406 0.07608671 -0.07048761 0.033804245 0.051584207 -0.045784865 0.010094413 -0.030297251 0.0010554492 -0.02159361 -0.02746509 0.008013129 0.05376707 -0.021401582 -0.004632186 -0.09675004 -0.012004062 -0.06844369 -0.014937452 0.090960614 0.02472572 -0.020153333 -0.08776938 -0.04875593 -0.08067251 0.037338264 0.04031586 -0.017749218 -0.064422004 -0.009678093 -0.08671003 -0.013139379 0.070883445 0.03623317 0.05284541 -0.00098254 0.023741106 -0.06205657 -0.063444965 -0.01750651 -0.042046107 0.0092577 0.0032990712 -0.013031259 -0.006997385 -0.030327402 0.029220756 0.033467878 0.04675404 0.006771187 -0.08863075 -0.057833787 0.01529803 0.03739784 0.04139611 -0.059265755 0.06358379 0.049514543 -0.09485542 -0.008063629 0.054026335 -0.05492691 -0.03624347 0.020357171 0.11333167 -0.056974407 -0.02305918 -0.021860017 0.031289566 0.043145485 0.034267057 -0.08296102 -0.016757281 -0.092613734 -0.029014267 -0.0787221 0.0796451 0.020127648 0.0075905733 0.08295143 -0.059986398 0.068877675 0.061244268 -0.07935195 0.0397688 0.019951764 0.026510913 -0.0058500366 -0.091370076 0.005699147 0.007801057 -0.035432395 -0.030184386 0.015132635 0.008548752 0.07115827 -0.003972386 0.11228125 -0.048442926 -0.037694715 0.046216585 0.022270884 0.05105228 -0.07448805
1044 0.031126127 0.04691612 0.08834677 -0.057828337 0.020783246 -0.041149624 0.101286195 -0.0140134115 0.07460717 0.015931152 -0.016261462 0.0143981455 -0.073062375 0.008860109 -0.056593623 -0.04997664 -0.008177845 0.062065583 0.032170746 0.059577446 0.020327343 0.020237632 -0.0014781638 -0.03365822 0.029836046 0.032824676 0.019450754 0.042914163 0.05049675 -0.04964689 -0.023973983 -0.014239497 0.05817135 0.027472086 0.010199185 0.05083163 -0.03134533 0.008337908 -0.106101185 0.000117473595 0.016734572 -0.019079916 -0.039660677 0.025986565 0.020524 -0.017320812 0.027597196 -0.03906509 -0.070272386 0.09855793 0.01844681 -0.037500706 0.002924777 0.022548111 0.03823092 -0.11023435 0.12262245 0.0676655 0.026089719 0.075594336 0.02970645 -0.00010817242 -0.065274835 0.028316768 0.0022860323 0.049898934 0.09619939 -0.031993113 -0.07689599 -0.08748259 0.0065358644 -0.03160075 0.03167622 -0.051903326 -0.07052615 0.030252384 0.04058207 -0.01826016 0.00038413532 -0.032793637 0.03647905 -0.006852553 0.026704865 -0.041449517 -0.00039992007 -0.00575393 -0.005650221 0.015502186 -0.071852274 -0.069691546 -0.052030433 0.0012740773 0.0394474 0.018906815 0.03350845 -0.0478118 0.016260926 -0.03626927 -0.027445706 -0.021946458 0.09190775 -0.09598736 0.04320586 -0.01245863 0.03143769 0.051655777 0.0397315 0.0023429033 0.014892236 -0.08235028 0.0025890719 0.037091628 -0.018498851 0.11615224 -0.041245677 0.019549916 -0.06861403 0.029101 -0.005835191 0.07905639 -0.016934246 -0.022362132 0.023614764 0.027868291 0.029849943 0.035231642 -0.007198365 -0.0454335
