2043 128
1278 0.0126265455 -0.042276885 0.07370451 -0.02254049 0.015969528 -0.026711188 0.060694404 0.03141824 0.020158906 0.043529328 0.04132303 -0.011561139 -0.0011516719 -0.0015356877 0.01419567 0.0563512 -0.041485865 -0.007855783 -0.011628282 -0.013150513 0.0302886 -0.006979997 -0.030062716 0.040944878 0.021258157 -0.0050102696 0.044597883 0.034698207 -0.004499848 0.019439055 -0.021096434 0.025260823 0.04765036 0.033046443 0.02533572 0.07809196 0.036968883 0.020594278 0.0034160842 0.03668959 -0.029734345 -0.046697035 -0.03282561 -0.024496822 0.03694617 0.033100836 -0.00874084 -0.011047094 -0.014676226 0.0009248798 -0.0067701754 -0.014252933 -0.0073799137 0.009941745 0.020922154 0.01470019 0.023666441 -0.04399113 0.0381757 0.0046051117 0.014033349 -0.02557472 0.0036439234 0.05211198 0.02244108 0.02297339 -0.06415129 -0.06511137 -0.0846325 0.052736104 -0.0786642 0.0054743374 -0.020884927 -0.02060736 -0.014175518 -0.047620915 -0.040723424 0.023463251 0.0060604573 0.0072375815 0.023721708 0.00074161275 -0.06708901 0.01708885 -0.001032054 -0.04093003 0.03779343 0.043089047 0.028222926 -0.06384203 -0.032541174 -0.022438942 0.0056678723 -0.01530193 -0.006409206 -0.080372594 -0.027430288 0.050304495 -0.012466406 -0.06427173 0.022078851 -0.017987216 -0.087027624 -0.048001207 -0.019801246 -0.0048851697 -0.041354135 0.01497662 0.011533984 -0.057749856 -0.054755338 0.02158798 0.030794961 0.01831088 0.038847204 -0.013058222 -0.043032877 0.030207977 -0.020198207 0.056036174 -0.013825543 -0.008023541 0.010785034 0.049811363 -0.019784406 -0.045968764 -0.029609473 -0.019074293
1070 0.045777537 -0.019045295 0.055856597 -0.044540152 -0.06469382 -0.025675304 -0.0015260152 0.026473455 0.08149569 -0.006410367 0.04424746 -0.02552472 -0.025937995 -0.0036583983 0.044671524 0.036761917 -0.007257885 0.003287303 0.036002163 -0.049927775 0.09332724 0.008067081 0.004404007 -0.022105131 -0.003509108 -0.04645645 -0.005746398 0.005369265 -0.08240146 0.014038356 0.057922937 -0.010438453 0.03885752 0.07855264 -0.027560268 0.028604092 -0.06896246 0.022920901 -0.01293118 -0.0046267426 -0.00265327 -0.010510938 0.069854684 0.043866195 0.06794772 -0.0040624193 -0.012676188 -0.028372454 -0.0640851 0.08011521 0.05298384 0.06460289 -0.08002192 -0.039776858 0.0024325177 -0.019798439 0.04193453 -0.06889657 0.024288954 -0.014238472 0.024429606 0.033513494 0.0067032143 0.049237534 0.0033431763 0.04534893 -0.0014395445 -0.0181394 -0.021688232 0.016512932 -0.06350982 -0.014658906 -0.0068233646 -0.0013872836 -0.029636217 -0.014887396 0.0057621105 0.034919098 -0.025744354 0.032774325 0.00215974 -0.035764977 -0.056474306 -0.043307807 0.0010503194 -0.054054674 -0.00820679 -0.0041129645 -0.0046536042 -0.015502233 -0.016137429 0.06917501 0.060535375 -0.039017458 -0.019125987 0.0043610735 0.0040989267 -0.005657213 0.024233723 -0.049570903 0.042249467 -0.0029289906 0.06665356 0.024089215 0.022165228 -0.017018873 0.06040394 0.032507736 0.0050745057 -0.019221038 0.017659238 0.040826485 -0.042371508 0.05074277 -0.03942738 0.014640069 -0.012916227 -0.032725304 -0.061397158 -0.018060645 -0.05765567 0.06272175 -0.052280948 -0.020356199 -0.02137617 -0.046745818 -0.046662714 -0.031464078
1998 -0.013811582 0.045261916 -0.018517496 -0.03734415 -0.02431241 -0.006679456 0.016813057 -0.06628822 0.019516936 0.06669015 -0.04754351 -0.006479064 -0.024717864 -0.0015219444 0.0647389 -0.0030615067 -0.020652475 -0.045977373 0.04957799 0.040292334 -0.033052973 0.025259526 0.00939172 -0.014171751 -0.06835142 -0.009664258 -0.062184993 -0.0049785 -0.051985435 -0.060356386 -0.030085452 -0.00020286557 0.007278594 -0.06861523 0.014120521 0.008689462 0.018690279 -0.041731384 -0.065285414 -0.008950747 0.042800736 0.021820232 0.038063996 -0.00060273975 -0.020749364 -0.023659466 -0.007657827 0.027365867 0.016703077 0.010078191 0.0040245936 -0.009812042 -0.053803865 -0.031081503 0.0157751 -0.048845418 0.036326885 -0.040405236 -0.003600237 0.024575261 -0.049282607 -0.02296319 0.0033009008 0.0510856 -0.0006899567 -0.008143442 0.04497753 -0.043090887 0.014294341 -0.0010194782 0.009109588 -0.013764331 -0.002891312 0.0098758815 0.050250825 -0.013203939 0.02718877 -0.00137984 -0.049980085 0.026966143 0.06255443 -0.035578888 0.0018184085 -0.013441145 0.0133305695 0.01033948 0.03919823 -0.028048353 -0.065778024 0.03767258 -0.04398777 -0.005656479 0.013548468 0.059054002 -0.061043017 0.022072617 0.03240059 0.03605006 0.033553913 -0.012907735 -0.006419565 0.024519045 -0.004181909 0.01948651 0.026014877 0.02403799 0.007931699 0.005561468 0.01570441 0.017109249 0.029965825 -0.005597828 -0.034996424 -0.006700874 -0.06139146 0.03479677 0.0748228 -0.024692925 0.021868503 0.04903394 -0.04274146 0.04708013 -0.0004561208 0.043110278 0.04663557 -0.048037037 0.0052217958 -0.015534934
1470 0.014863459 0.042068355 0.0017965904 0.01844985 -0.024522876 0.019820673 0.018688124 -0.02575744 -0.0069335815 -0.033080965 0.014710876 0.0037452213 0.040527552 0.012073038 -0.03336112 0.054333836 0.022555372 0.030386614 0.007832309 -0.02656624 -0.01596402 0.031332556 0.04031718 -0.03033217 -0.036865655 0.0057215253 0.0024296106 0.013508591 0.02580413 -0.056739792 -0.055846263 -0.021435225 -0.004038778 0.013977399 -0.059282165 0.00868911 0.04490861 -0.058636792 0.0034824235 0.00368078 0.047049426 -0.0072406703 0.00906165 0.022752242 -0.046675082 -0.010869884 0.0048693186 0.0042107557 0.029349912 0.006785819 0.016274571 0.057272322 -0.025287488 0.035529736 -0.03647078 -0.02286388 0.036340494 -0.055442434 -0.012368785 -0.02409409 -0.04912012 0.017330538 -0.01582247 1.5205325e-05 0.043546375 -0.04095624 0.050569836 -0.06362783 -0.012835411 -0.018744145 0.02345491 -0.03482879 -0.04440968 0.016029922 0.01655094 0.013325262 0.05504614 0.019142795 -0.0546567 0.009623603 0.010869761 -0.022861663 0.010708782 -0.013794091 -0.039761703 0.010954476 -0.015806532 -0.08946995 -0.011416072 -0.024753554 -0.0062918253 -0.0065241056 0.054565255 0.012659695 -0.0007127521 -0.025692716 0.0010279921 -0.047841575 0.024401326 -0.04627519 -0.01187685 -0.06728664 0.022070333 -0.010171692 0.004292789 -0.028672885 0.013705225 0.024128493 -0.04469269 -0.028524287 -0.01790139 -0.020912765 -0.04191776 -0.047828324 -0.07239099 0.0014823942 -0.018321449 -0.012832671 0.00030499406 0.02779872 0.05301993 0.01422184 0.055723045 0.064476565 0.04252295 0.027146246 0.036971442 0.014589164
542 0.057274766 -0.029603178 -0.009816889 -0.052154224 0.030711723 0.018664239 0.047173798 -0.0030320087 0.0042246846 -0.010049103 -0.036178995 -0.004820853 -0.024186047 -0.044468675 0.054414682 -0.011166686 0.04609279 -0.031493947 0.014089888 -0.012975581 -0.037608676 0.05860382 0.010748917 -0.03845827 0.044821355 -0.019811092 0.0027905 -0.0055350447 -0.06770617 0.00087943807 -0.0007232469 0.006698331 -0.03073045 0.02522291 -0.016136061 -0.007765233 0.037284136 -0.04234294 -0.00974444 0.004133268 -0.0086341 -0.03485293 0.0066232863 0.02797736 -0.024890354 -0.0216071 0.009546819 -0.0377018 -0.005706072 0.011616092 0.0116390195 -0.06874172 0.031323608 -0.02108443 -0.008205814 -0.06254095 0.0052787643 0.0017719937 -0.035531215 -0.036118854 -0.035947703 -0.0025328272 -0.008447603 0.02571639 0.012045449 -0.035885558 -0.0071463864 0.001575554 -0.055170722 -0.0038470472 -0.0060857823 -0.062618434 0.013137881 0.0333118 -0.015007126 -0.08637736 -0.030449929 -0.00081540993 0.07925627 0.016086392 -0.016267937 -0.024057062 -0.035563808 -0.0614879 0.058579702 0.0051038465 0.018441541 0.0055934666 0.009576385 -0.018593103 -0.038780075 0.001970774 0.018929139 0.027453873 -0.0377406 -0.021662217 0.0082154665 -0.023297623 -0.0024954148 -0.029458066 -0.107314885 0.006582185 -0.03123701 0.03512446 -0.0888273 0.02551716 -0.014206531 0.03919227 0.043689135 -0.005001383 0.016152142 0.060048237 0.048590247 0.054589283 -0.010662589 0.017076708 0.093593284 0.031330794 -0.028062562 -0.033085268 0.041025754 0.036706917 0.037715975 0.018865792 -0.011212618 -0.0018796586 0.056294773 -0.07866601
486 0.008082248 -0.057800565 -0.075140394 -0.013396196 0.03773082 0.07822429 -0.05451334 -0.015723772 -0.025968488 -0.025287151 -0.035723362 0.009262153 -0.050195888 0.07657769 0.077780314 0.0260999 0.054666772 -0.035332706 -0.014637622 -0.06182795 0.048513792 0.09418845 0.07222802 0.02029375 0.025371125 0.007715001 -0.012177002 0.03945344 0.0022561902 -0.016681917 -0.0758182 -0.033642843 -0.07556453 0.009800188 -0.011409584 0.0132528795 0.021126853 -0.09873657 0.08131599 0.021600083 0.024209628 -0.02910374 0.010912572 0.044659168 -0.0023098602 0.03893169 -0.020826444 -0.019425066 -0.039153848 -0.1150052 0.06682362 -0.05095577 -0.017132757 -0.061749764 -0.054482266 -0.03366188 0.0076439474 0.09926799 -0.016550263 0.026636347 -0.07365125 0.026264777 -0.042671572 0.10899119 -0.051033743 -0.038895175 0.02714705 0.014736923 -0.06831033 0.070861556 -0.019971773 0.011653019 -0.05010065 0.016882088 -0.06809372 -0.049979307 0.029247057 -0.009444562 0.026560353 0.038061563 -0.017729165 -0.0203972 0.089489065 -0.0038821786 0.074076906 0.020635126 0.007139945 0.007053048 -0.020015597 -0.022206157 -0.0525411 -0.030062152 0.03427288 0.043380618 0.0032295135 -0.036858182 -0.00066606974 -0.08751606 0.0129224 -0.031691026 -0.062160805 -0.082142584 -0.0058294935 0.0020526308 -0.038120747 0.0381444 -0.030873869 -0.048286967 -0.052876685 -0.006194072 -0.004726348 0.012504154 0.051395725 0.02708909 0.013522457 0.04787529 -0.024313767 0.025128229 -0.02214683 -0.042316064 0.046265494 0.095640525 -0.013301301 -0.046388164 0.03597526 -0.016490323 -0.041382965 -0.07595485
1647 -0.0042132232 -0.03572174 -0.029631881 -0.004811327 0.040180102 0.01135691 -0.06079238 0.079449095 0.076813176 0.06195725 -0.06668478 -0.028634993 -0.026045678 0.064290375 0.05615393 0.009133982 -0.027868371 -0.040011343 -0.038175687 -0.014488346 0.03522697 0.020060977 -0.008117156 -0.009050844 0.053718515 0.045958105 -0.0069983774 -0.0074913725 -0.030175777 -0.035741996 0.06487929 -0.005073658 -0.001402226 -0.032205127 0.014626923 0.061387036 -0.01460235 0.017377887 -0.061453663 0.023171999 -0.028670043 0.025132738 -0.0153865535 0.026340503 0.0165279 0.023912206 -0.008102365 -0.04096782 -0.016222395 0.085533805 0.026944824 0.006516295 -0.011957246 0.009625753 -0.021542264 0.073539875 0.019528382 -0.00048015168 -0.014182896 0.049392957 -0.005150449 0.007880669 0.013433196 0.024583548 0.01868666 -0.028839175 0.0099898 -0.0023948147 -0.06672119 0.01307328 0.075639695 -0.066760145 0.04343445 0.0018604437 0.03193092 -0.005566308 -0.011049887 0.033971213 -0.024838556 -0.027829912 -0.002197132 0.047447562 -0.05783776 0.0017302937 0.042998318 0.029559666 0.012038621 -0.043101676 -0.0743417 0.020116009 0.03198556 0.000117838026 0.02159788 0.0034293274 -0.037361592 0.05578353 -0.032539207 0.0045658983 0.025692474 -0.0059259282 -0.039188847 -0.029552203 -0.037390303 0.011998279 -0.013266081 -0.065445766 0.0054871147 -0.039101224 0.0114306845 0.04130678 -0.041589957 -0.035985596 -0.02744126 0.0030156197 -0.041102808 -0.04306843 0.03027547 0.0042223386 -0.01944344 -0.02752383 -0.017901434 0.048675753 0.026719907 -0.032547403 0.0034468714 -0.0046335924 -0.017416723 -0.003957704
1742 0.004684996 -0.043531682 -0.022870636 -0.006363088 -0.023056645 0.028684061 -0.028041085 0.00870117 0.01893368 0.05117458 -0.0284903 0.023073427 0.036342803 0.005530262 -0.0023293905 -0.0021388019 -0.0034216922 0.0057186703 -0.03744455 -0.035121877 -0.03649045 -0.05867603 0.047591355 -0.068244465 -0.018972337 -0.029714677 0.016066385 0.020668367 0.016561424 0.09878127 0.00744087 -0.053201616 0.017229564 0.0025073355 -0.0028709532 0.016000094 0.005375677 0.022332564 -0.008347449 0.023707159 0.019311124 0.0027512282 -0.031183096 0.045439474 0.042837895 -0.015113915 -0.038131118 0.001665971 -0.08563418 0.04825032 -0.024162207 -0.075127594 0.028811764 0.0017058081 -0.00027116225 0.07497896 0.035836793 0.027253147 0.028306564 -0.029543016 0.05271156 -0.031271253 0.0041070143 0.003109176 -0.042104032 -0.026769124 -0.018334772 0.015475269 0.04270271 0.063959666 0.03997949 -0.022880627 0.055478577 0.0071051987 -0.0040900735 -0.06495748 0.018228533 0.033185408 0.021647006 -0.015540124 -0.009620157 0.01061701 -0.02040369 0.010300705 0.017249119 0.049840514 0.013437092 -0.06188092 0.024203554 -0.05619679 -0.01227057 0.029093014 0.043588117 0.029327681 -0.027317083 0.023108127 -0.016063835 0.004091533 -0.036653988 -0.04693044 -0.031022912 0.05141616 -0.000561734 0.042580467 0.051385578 0.0075258473 -0.009595225 0.004956646 0.0053745476 -0.05611367 -0.00026063135 0.016842151 -0.056451414 0.066972725 0.045813862 -0.04026829 -0.016359733 0.024865683 0.036931712 -0.039773688 0.016963677 0.020597652 0.035225112 -0.03782022 0.022605265 0.0096006775 -0.036630318 -0.013352102
485 -0.0387668 -0.009004578 -0.015561124 0.08136685 0.0023432523 -0.06264465 -0.047694128 -0.02081468 -0.017682394 -0.03421223 0.032776795 -0.021521734 0.02166314 -0.0187622 0.029359698 0.026317753 -0.03279481 -0.01636955 -0.011313429 -0.060198158 0.07014003 -0.0158354 0.044006314 -0.08945094 0.04630259 -0.030260768 0.0033574938 0.006343778 0.045229398 -0.037662756 -0.063379064 0.08415655 -0.017313406 0.01905505 -0.0490381 0.04561468 -0.012317969 0.072103575 -0.06135526 -0.011324713 -0.0024754885 0.054943223 -0.021683093 0.039514802 0.085871555 -0.03210537 0.0021493789 0.06290493 -0.079852134 0.005266045 0.011633757 0.009808068 0.04533517 -0.0067203077 -0.058766548 0.032366328 -0.020536706 -0.02225557 0.023561534 0.021508107 0.013693993 0.018681763 0.026541622 0.03704508 -0.016920302 -0.030610546 -0.011193482 -0.034344584 0.037668686 -0.011169605 -0.003390608 -8.699695e-05 0.039664682 -0.05253584 -0.009268732 -0.001046848 0.015465375 0.052503426 0.03359013 -0.010231687 0.005087005 0.039194208 0.02888974 0.04612875 0.014839739 0.017540319 -0.0019148319 -0.03224114 -0.012275502 -0.08237844 -0.0006044727 -0.043349434 -0.021756934 -0.011214564 0.014263437 -0.013091648 -0.006695336 0.046094388 0.02143426 0.0072907754 0.005126807 -0.011707524 -0.029836277 -0.060944736 0.037396286 -0.055799473 -0.013423179 -0.016456986 0.06743672 0.05365572 -0.05113803 0.04761556 0.006809711 -0.052496374 0.02932756 -0.0644239 -0.015705947 -0.0031883204 -0.08158242 0.024977554 -0.027608613 -0.0057559893 0.015774895 0.05798754 -0.05902738 0.0020845246 -0.025680546 -0.0021314155
37 0.011907742 -0.04726184 -0.063844405 -0.026162764 0.00621266 -0.044491448 -0.03022737 -0.06917396 -0.007741655 -0.024506148 0.05148904 -0.036908254 0.0025523263 -0.015508132 0.036681734 -0.0077182045 -0.017827267 -0.07717226 0.0026317444 -0.059746407 0.03264656 -0.08211267 0.04389841 -0.028792705 -0.0065906676 -0.06812121 -0.004166192 -0.025544062 0.019069131 0.011987445 -0.0014241072 0.07721848 -0.01327493 0.073176146 -0.030191114 0.039995443 -0.06611174 0.045700833 -0.032270633 -0.015295551 0.032669798 0.013394636 -0.03752775 0.015556586 -0.00060630485 -0.044954967 0.0551012 -0.020102523 -0.015722612 0.03628971 -0.017692996 0.042251267 -0.03876206 -0.048492927 -0.057110984 -0.018316088 -0.053742092 0.017022347 0.032800596 -0.0074253255 0.0057635116 -0.0367918 -0.007301333 0.026676347 -0.020477017 -0.030110141 0.053111453 0.039522998 0.063907936 -0.05871966 -0.036204543 0.00079465396 0.027864581 0.039903816 -0.017188316 -0.068509184 0.0008946071 0.02370888 -0.006085986 -0.015307827 0.019675514 -0.026102375 0.03969805 0.03290455 0.02615994 0.025737667 0.042843565 -0.0020996816 -0.031646512 -0.019106131 0.0059456597 -0.057956077 -0.01213994 0.055739764 0.065074496 0.011639613 0.057831243 0.0060669594 0.014415249 0.01159726 0.009916472 0.0016128607 -0.043046255 -0.037772484 0.04067791 0.0052483943 -0.047690835 -0.06930574 -0.042059682 0.016745504 0.025046704 0.034194253 -0.029539065 0.029884867 0.00709509 -0.010983631 -0.030617207 0.05721568 -0.029231843 0.012040696 0.016008565 -0.006624139 0.012195876 0.019662429 0.016608642 0.03346284 -0.0011825036 0.061470743
681 -0.029584415 -0.0046188068 -0.06301384 0.06276293 -0.030714234 -0.040699586 -0.015574039 -0.044312894 0.012128679 0.03395365 -0.027235096 -0.035629544 -0.00033254485 0.06910463 0.045820713 0.0062680114 0.023632074 -0.046302695 -0.021384558 0.011007715 0.011107968 0.0643185 0.051420756 -0.009769274 0.02079141 -0.016932191 0.030289346 0.02376044 0.025709506 -0.029436097 0.010978033 0.06297591 0.007245667 -0.03539463 -0.040569685 -0.061164524 0.043199264 -0.0041201483 -0.015819848 0.049315266 -0.064024836 0.007128957 -0.016757157 0.03182017 -0.004274079 -0.05094835 -0.06329676 0.012520027 0.0009864888 -0.023162153 -0.019545827 0.004284918 -0.0068542114 0.06355686 0.00010546371 -0.04072073 0.008619974 0.021266157 0.03351193 0.0074338475 0.013060374 -0.026276667 0.01578829 0.016635679 0.029451432 0.065336265 0.025062231 -0.0031553234 0.038025938 -0.057155374 -0.046731662 0.028492628 0.034156833 0.013040604 -0.0017181841 0.0030849786 0.07620181 0.015155541 0.05268981 -0.032915697 -0.027354745 -0.0017778554 0.021892974 0.01930034 0.043092877 -0.03741051 0.01099922 0.01424202 0.017368518 -0.03239652 -0.022024052 -0.047390096 -0.05653326 0.0011847806 0.0066939685 0.016954286 -0.0033754047 -0.031000197 0.0019108166 -0.012398124 -0.054955084 0.0029092683 -0.017288407 -0.08062103 0.03030485 0.05240388 -0.014972366 0.028832387 0.02388012 0.0058610225 0.04115208 0.0326289 0.052565873 0.05103365 0.0028497116 0.062822506 0.0075826026 0.006423245 -0.04833225 -0.042274643 0.004635359 0.011681217 0.015772572 0.018192548 0.06356626 0.012298109 0.025077907 0.0105835
952 0.026756499 -0.006475168 -0.039766412 0.069097094 0.011372574 -0.025344972 -0.005132279 -0.08892296 -0.01366721 0.040723424 -0.017549131 -0.046423744 -0.044578142 -0.0010347 0.031809818 0.0025551564 0.038915098 -0.02293434 -0.021995882 0.005270455 0.04924394 -0.020508325 0.0014157885 -0.015363046 0.009088834 -0.096381195 -0.04045781 0.004302734 0.019624073 -0.0007692977 -0.0028256583 0.021105759 0.007357633 0.033508874 -0.025382878 -0.035746936 -0.068377525 0.016435897 -0.07047392 -0.033928256 0.0062468117 0.03235536 0.028313804 0.023715682 -0.02086732 -0.066775165 -0.06635186 -0.00901589 -0.04768732 -0.0049602184 0.04081672 -0.010665804 -0.063935325 0.004720527 -0.011879658 -0.01615744 -0.009548887 -0.0329424 0.011423083 0.038896773 -0.01859275 -0.007480652 0.043992817 -0.023457645 0.008925989 0.06031429 -0.07848177 0.008431493 0.019230247 0.022779932 -0.024544667 -0.065461434 0.0028840904 0.078089386 0.018874371 0.02224934 -0.039035935 0.027888387 0.05743124 0.048341185 -0.018848069 0.056832884 -0.03294081 0.018359488 -0.017187627 0.0041124937 0.01894351 -0.060765766 -0.047667526 -0.005123901 -0.01966334 0.0290898 -0.075003594 -0.03354667 0.01195856 0.008416431 0.028994553 0.028818205 0.044295896 0.03542881 -0.005094691 0.042222474 0.03535105 -0.07623037 -0.010379446 0.0048281844 0.0635681 0.0419822 0.027852315 0.0071139913 -0.03106518 -0.010511794 0.00884189 0.023353562 0.034128428 0.06429785 0.063930474 -0.012347843 -0.062880844 -0.03162549 0.009240388 0.03590758 0.0018877224 -0.012199741 -0.08918622 0.056887668 -0.033387158 -0.05983934
2231 0.027810037 0.056249343 0.045696303 -0.047703296 -0.0020301472 0.018193517 -0.00025045837 -0.011977241 0.019362897 0.04101395 0.0003431945 -0.03596274 -0.075962804 -0.046520893 -0.06484407 -0.008174 0.0075367982 -0.052918937 -0.011228684 -0.022029305 0.013232649 0.006383721 -0.047172077 0.04693714 -0.026799684 0.008107254 0.014292168 -0.04093687 0.01180586 -0.030976525 -0.0998913 0.05320948 -0.022886615 0.056942668 -0.05110652 -0.036490776 -0.044230543 0.019347616 -0.0032129716 -0.010707315 0.02125674 0.03472352 -0.015129938 0.009193163 -0.033928882 0.025067085 0.015088774 0.0066177524 0.010336673 0.052512687 0.03774099 -0.030616663 0.041496504 0.028815322 0.012502062 0.027028712 0.062959455 -0.049160752 -0.006966053 0.064469546 0.036122065 0.010464519 -0.011670101 0.040198598 0.042361587 0.023530487 0.00810274 -0.03364085 0.04588152 0.00446826 0.037845984 0.033608306 0.05431782 -0.037632506 -0.029401895 0.02746635 0.04813304 0.017608898 0.05218038 -0.009968176 0.00040596805 0.014183993 0.006653905 0.033420254 0.013284822 -0.06440043 0.033325568 0.020145772 0.018280651 0.0006985575 0.020792384 -0.045975026 -0.066950016 -0.012440123 -0.03235359 -0.018795213 -0.047657743 -0.027397612 0.01267628 0.036690302 0.03625734 -0.011084489 -0.0010446802 -0.0317726 -0.028224688 -0.0013595934 0.0051234383 0.014074354 0.030303795 0.042754605 0.011663146 -0.055144478 0.032990687 0.013671601 0.04167966 0.02063451 0.016048247 -0.0013528517 -0.0058322405 -0.010876558 -0.007541519 0.013105009 0.000562229 0.075455554 0.001472266 0.05789111 0.026283884 0.014750796
1879 0.014630703 -0.030413112 0.023021009 -0.019861223 -0.00044744322 -0.034430787 0.05784511 0.010436787 0.026777295 0.008432215 -0.0012451813 -0.02366207 -0.046881795 0.012796068 0.004391641 -0.051887985 0.023558283 0.059094064 0.028734375 0.06855024 -0.053065225 0.04658271 -0.031941142 0.02435091 0.018291403 0.012107372 0.0038170102 -0.07883649 0.039150376 0.03549198 -0.06097543 0.0354604 0.021773305 0.030014565 0.0073141595 -0.010106163 0.01150559 0.028752191 0.019224694 0.00739447 0.04690174 0.030819934 -0.04562261 0.027492715 -0.033177238 -0.021039538 -0.023618119 -0.073052935 -0.04350278 0.075011075 0.007638032 0.024946671 -0.007850239 0.005881443 0.004858514 0.036688074 0.0027162738 0.002886426 0.060664445 0.022120152 0.042435583 -0.015738977 -0.012218669 0.021802 0.051831663 0.043587174 0.020048175 0.027639251 0.05853983 -0.017790422 0.021607623 -0.007264195 0.03457354 -0.010114857 0.041169208 0.022590723 0.028835254 0.022910342 0.023660287 0.011642602 -0.034458604 -0.005876064 0.004414723 -0.016577484 0.006034353 0.033205736 0.0038873227 -0.0071660476 -0.06742714 0.011850478 0.036404315 0.03303782 -0.05133603 0.0587088 0.060842723 -0.06347893 0.030213831 0.033332102 0.006867889 0.026240231 -0.024876425 -0.02580291 0.07432403 0.06829847 -0.020864487 0.015363711 0.043297403 0.04494736 -0.005028604 0.013104296 0.014451264 -0.058473956 -0.013120376 -0.01938757 -0.0007996325 0.052614592 -0.03268862 0.04871063 -0.026646663 -0.022242336 -0.012667378 0.029553022 0.02308026 -0.014547811 0.02092815 0.047698267 0.02037577 -0.017491195
1124 0.0099301385 0.01358023 0.00017299593 0.03829216 0.009997312 -0.05474072 0.09914411 -0.0015126383 0.0023770232 -0.030965379 -0.05419807 0.06868777 -0.013256322 0.051280208 -0.02974553 -0.052832175 0.08332387 -0.0145881865 0.027000042 0.07826597 -0.03396656 -0.04394061 0.031092932 -0.022638846 -0.013115067 -0.07641979 -0.017684806 -0.040262584 0.031867605 -0.007537993 -0.026674267 -0.013548828 -0.07796949 -0.08129387 -0.08735991 0.026096871 0.012447601 0.02379382 0.06739814 0.07618318 -0.024155859 -0.027412038 0.020234423 0.012392661 0.03303338 -0.016814679 0.016365593 -0.0057024006 -0.025608601 -0.027022123 0.024980785 -0.021884104 -0.048924338 -0.041272923 0.011734007 -0.009228172 -0.029080858 0.021356955 -0.023553574 -0.006542968 0.048381876 -0.038857196 0.041092917 -0.0265783 0.050666258 -0.0029701735 0.026158292 0.017694145 0.012713859 -0.03142214 0.003491863 0.030075362 -0.049397565 0.0005627902 -0.004699291 0.021304725 0.04026178 -0.053435396 -0.04256612 0.00062679325 -0.0501361 -0.012769439 -0.0265497 0.035248797 0.07038643 -0.024734296 -0.044416968 -0.01746809 -0.02293763 0.06302951 0.018511705 0.007566301 -0.038409274 0.06106714 0.038112637 0.04003872 -0.04848787 0.069122426 0.077178374 0.01129009 -0.058641862 0.01960306 0.00198586 -0.014790236 -0.018956253 -0.023905585 -0.003977478 0.029426876 -0.033443034 -0.036329158 0.014613924 -0.046897903 -0.027601605 -0.022882445 -0.06295427 0.037812967 -0.0520306 0.013639697 0.01024015 -0.011977437 -0.040092416 -0.0052691437 0.054189686 -0.051391132 0.016839588 0.0025480813 0.007953592 -0.04771359
1132 -0.0075584403 0.024423908 -0.006023082 -0.033608887 -0.092919976 -0.035170455 0.015848521 0.006346525 0.028216032 -0.06914709 4.2256142e-05 0.013433106 0.010883605 0.026905714 0.021992546 -0.0031019659 0.077790625 0.027245888 -0.009997427 0.08898347 0.017920222 0.06347634 0.04858924 0.02237575 -0.06578709 -0.011749536 0.0467574 0.027520286 -0.04507811 0.05430891 0.03106033 0.020798966 -0.027812451 -0.04893956 -0.08002482 -0.08253003 0.027053416 0.031020965 -0.025537446 -0.027205767 0.021626676 0.0156211015 0.076217815 0.0075516035 -0.05343587 -0.028527034 0.016649682 -0.04848201 -0.0378465 0.025670249 0.0014631759 -0.012197361 -0.08381929 0.045959312 0.02382787 0.051936314 -0.05563007 0.02414794 0.018751623 0.035690483 0.010871475 -0.027870895 0.031986028 -0.016035428 0.02308952 -0.024845786 -0.02853666 -0.055859294 -0.007460637 -0.03828319 0.0069565927 0.031780254 -0.008707537 -0.0375783 0.0007518654 0.0051473835 -0.010813889 -0.01851299 0.007456545 0.03746207 -0.015614538 -0.03539937 -0.03086126 0.02546826 0.004060384 -0.013277814 0.00806105 -0.038764182 -0.06049828 -0.00933702 0.002678529 0.054294508 -0.032941855 0.04584828 0.006850496 0.055975717 0.012815536 -0.03875852 0.030037338 0.03376118 -0.020097049 -0.042990588 0.028202381 -0.004123623 0.009099754 -0.034439348 0.029832153 -0.013748704 0.0058311704 0.07487107 0.012313434 -0.066818304 0.026655424 0.0045743594 -0.010969105 0.023827445 -0.017687032 0.033285778 -0.0007865692 0.003973586 0.017762184 0.014383435 -0.01642678 -0.045494348 0.018331524 0.07020997 0.0023223795 0.01560602
1282 0.028102199 0.02315509 0.012310326 0.014728381 0.015235978 -0.013470985 0.013614053 -0.015429805 0.030433837 0.01978062 0.037338343 -0.04044332 -0.048192494 0.035255514 -0.06021976 -0.012153059 0.021426804 -0.036510527 0.024131674 0.048271473 -0.05018795 -0.07935899 -0.052959047 -0.028414415 -0.03842276 0.041462354 -0.020593697 -0.009147151 -0.016679868 -0.002582573 -0.015490134 -0.027588215 0.010770587 -0.012894225 -0.039608054 0.032486547 -0.034471296 -0.022887588 0.024145233 -0.020616068 -0.047558885 0.048806533 -0.035963796 -0.032142345 0.032887 0.04046285 0.005811321 0.007167187 0.044574082 -0.053302474 -0.0035738654 0.014995434 0.0094230715 0.052273896 0.02740094 0.038164295 0.061215244 -0.023934068 -0.01795678 -0.022249922 -0.014961442 -0.01861141 -0.0014320826 0.0073434417 -0.030382654 0.019269286 -0.0062306495 -0.014254243 0.047755286 0.008355473 0.021795187 -0.044015963 -0.05902593 -0.020458277 -0.0067534987 -0.039264143 0.026206117 -0.02185793 -0.05745618 -0.01492773 -0.014406991 0.027571505 0.05327367 0.041069392 -0.04252162 -0.017388154 -0.06491494 0.049174216 0.03187187 -0.054319736 -0.018617518 0.04120991 -0.06353786 0.0008477286 0.011507562 0.023500532 -0.05366811 0.013462218 0.038398035 0.012931041 -0.026067453 0.020982146 -0.018425638 -0.032629374 0.061045203 -0.033089597 0.024057534 -0.025182214 -0.008514666 0.029255694 0.023921354 0.010270631 0.02673713 -0.03828458 0.014680418 0.015048793 -0.016525475 -0.013511403 0.021090347 -0.02675292 -0.026749637 -0.004655406 0.010991775 -0.026811909 -0.029641364 -0.030698568 -0.032181002 0.029065702
1284 0.017914955 0.07345278 0.013735378 0.009584444 0.016923813 -0.016595112 0.00075283553 0.0062086736 0.012267747 0.007009233 -0.021122271 0.017117431 -0.08173243 -0.033001754 -0.06540962 -0.012088502 0.05906357 -0.010920636 0.09712615 0.08083805 -0.028597161 -0.03770657 0.032867145 0.036163874 -0.061487928 0.0664826 -0.00954187 -0.05250733 -0.036182065 -0.060504697 -0.061596286 -0.0131081585 0.054566763 0.050804492 -0.021764874 -0.008076188 -0.06101319 0.059091035 0.011431321 -0.050326064 0.069252245 0.08664395 -0.010902069 -0.02580873 -0.032230664 0.025138266 0.06481007 0.007249014 0.061849806 -0.031490743 -0.05066032 -0.056467 -0.0044009523 0.02626866 -0.01651344 0.07589165 0.06533475 -0.07549636 -0.030951066 -0.042265654 0.031199416 0.016850382 0.00069777924 -0.01875689 0.028210837 0.034974974 0.012830325 -0.0451759 0.025533853 -0.041784488 0.02961674 0.018678011 -0.005015871 -0.05404214 -0.051893517 0.036759943 0.0090863295 -0.0036653671 -0.060939044 -0.055510398 0.022352524 0.017980643 0.022500766 -0.02937394 0.03841803 -0.013672811 0.012194603 -0.0067538014 0.04018022 -0.041664712 -0.020730726 0.0112813255 0.009565943 -0.05748905 -0.031317234 -0.0040367106 0.02192492 -0.026716322 -0.0011163679 0.01254136 0.03937097 -0.022545598 -0.0011544522 -0.045886636 -0.017272834 -0.066682674 -0.038880866 0.03560832 0.034284044 -0.014227219 -0.03352475 0.014495013 -0.010895507 -0.015524985 0.04785053 -0.005510925 -0.037664182 -0.004366183 -0.006809593 -0.016904777 0.033331025 -0.0044930074 0.02107609 -0.0073362063 -0.0064782146 -0.0604811 -0.051154267 -0.016410029
810 0.01803949 0.018691739 0.04897269 0.01337462 -0.023710556 -0.061152685 -0.01850384 -0.027365383 -0.04886949 0.03356338 -0.016620893 0.016925456 0.041815285 0.04667785 0.043656074 0.008621304 0.040541552 -0.024782836 0.014913705 0.047894876 0.06242019 0.010405039 -0.020545293 -0.02357734 0.022880964 -0.09142514 0.026167396 0.024471147 0.009675109 -0.02824655 0.0015430652 0.06269058 0.039772335 -0.020677825 0.006752033 0.014238717 0.060523815 -0.059278168 -0.04765729 0.012061221 -0.012488937 0.01897865 -0.062179096 0.0010630449 -0.013421122 0.02239574 -0.030850068 -0.060641542 -0.020204004 -0.024208521 -0.028650919 0.041112274 0.051748317 -0.041438166 -0.0012601333 -0.011116958 -0.028295353 -0.02924159 -0.0069241906 0.02636386 0.02976463 0.016865306 0.008377325 0.049354393 0.040861446 0.011942414 -0.04783742 0.004047775 -0.028890776 0.070539966 0.04376553 0.033022173 -0.0060358327 -0.04638613 -0.04234395 0.037850525 0.023507003 0.040664244 -0.027363881 0.07081389 0.035496555 -0.030530335 0.011324295 -0.0023047733 0.002081059 -0.057132743 -0.048513055 0.0034331782 0.007298285 0.047493212 -0.03313723 -0.02536534 -0.06380954 -0.016067563 0.0756205 0.029303135 0.02155317 -0.059751857 0.011436855 -0.013054907 0.028383581 0.042039637 -0.013316092 0.06239957 -0.013755445 0.008591588 -0.049745787 0.012342583 0.0045401603 0.045871906 0.04848904 0.00299511 0.06878353 -0.028639326 0.006492987 0.022227721 0.0011565319 0.09630468 0.023890553 -0.011345982 -0.010939578 -0.050130643 0.064277515 0.030412598 0.0056034154 -0.052026838 0.044032685 -0.023032244
1294 0.051462706 -0.034221184 0.013759867 0.060339805 -0.019945761 -0.034166325 0.012747346 -0.029338531 -0.015775466 0.044606622 -0.020318976 0.058562703 0.07365982 -0.0003501795 0.032242995 0.0063541355 0.020760398 -0.014711158 0.014493704 0.0077124853 0.024698043 -0.007854791 -0.06205497 -0.076981045 0.03732769 -0.036985252 0.042266358 0.04085571 0.06628761 -0.0019968497 0.010637982 0.037078742 0.036197234 -0.07790841 -0.015961599 -0.0010546459 0.07560846 -0.047234196 -0.009295421 0.033660702 -0.026953453 0.0625384 -0.054326966 0.01137676 -0.004137114 0.009068828 -0.015668869 -0.08477035 0.02214287 -0.020328207 -0.06556452 0.069924735 0.09456495 -0.087606214 -0.017172316 -0.018417127 -0.08086797 -0.0312192 -0.019249909 0.00608258 0.046447635 0.023139061 0.056962375 0.08929762 -0.011928127 0.010998208 0.026369674 -0.04808793 -0.02995628 0.025631825 0.010914276 -0.022125876 0.0647833 -0.02130199 0.007955339 0.017854936 -0.022526056 0.008185786 -0.009743272 0.062305346 0.0068301605 -0.008038071 0.03764909 -0.020434791 -0.055666458 0.028715864 -0.04154442 0.049281694 0.0329441 0.0008857404 0.02085241 0.02833085 0.0228264 0.008044541 0.023002971 0.032573942 0.034071967 0.0091818385 0.0040462934 0.02010042 -0.0033156767 0.05812383 0.0074562677 0.0039910744 0.023136344 -0.0045817685 0.023918992 -0.021672944 -0.018023128 -0.023306593 -0.03470836 0.041997407 -0.01809296 0.032682464 0.014912243 0.008051962 -0.011254598 0.0083596865 0.018165138 -0.031208789 -0.014564525 0.0007656162 0.020650862 -0.05673284 -0.016264876 -0.03514553 0.025440987 -0.020490544
1756 0.014448806 0.00808847 -0.027872417 0.027048282 0.042511176 -0.04509399 -0.027504059 -0.013809736 0.007824365 -0.035142384 0.01290144 0.03129092 0.039855633 -0.027024394 0.018976683 0.05006212 0.036190342 -0.020352187 -0.03945339 0.0785523 0.022069594 0.010782169 -0.055356354 -0.045402896 0.029984228 0.0064310743 -0.06618037 -0.04200578 -0.01755784 0.027750826 -0.0120832315 -0.031500496 0.017501842 -0.036196616 0.056815162 0.059261054 0.028085602 -0.03806123 -0.06615778 -0.011618138 0.04000779 -0.031458285 -0.022653012 0.0032074815 0.006256052 -0.07501733 0.011026299 0.014754031 -0.07333525 -0.07506458 0.03322887 0.03121813 -0.008823361 0.011356839 -0.02153275 0.029344127 0.012950621 0.036056314 0.05118255 -0.0173378 -0.01253457 0.020306263 0.043250035 0.008615918 0.026405087 0.005057795 0.025844246 0.093559 0.010660894 0.037329376 0.035138633 0.06038249 0.01885141 0.010367611 0.031011004 0.022429336 0.016965082 -0.0006521303 0.044672173 -0.0139168175 0.016350294 0.026251066 -0.0057560476 -0.046619773 0.028304406 0.024432624 -0.05296355 -0.0025067506 -0.03011529 0.02774378 0.06771762 -0.034380168 0.0495242 -0.06281642 -0.031820938 0.04135368 0.0016321976 -0.02238862 -0.011014177 0.007728269 -0.0006538938 0.08063312 0.018321736 0.020843433 -0.0071014552 -0.025390413 0.03926199 0.035071637 -0.017380659 0.039064296 0.046780612 0.0428972 0.040609665 -0.01867531 0.06661919 0.028986646 0.028456643 -0.0005454658 0.010270286 0.07282366 -0.0119575 -0.026676942 -0.0070816567 -0.026359549 -0.012447231 -0.0011194795 -0.014326668 -0.044701938
192 0.03969067 -0.02598772 0.026830537 0.026405068 0.09270259 -0.06631674 -0.073460944 0.0065099034 0.014609575 -0.053289223 0.008929228 0.05538148 0.056191623 -0.093515806 0.026461424 -0.0123627465 0.018837657 0.00637779 -0.06034858 0.028109215 0.050515775 -0.028162997 -0.046522707 0.04421992 -0.0013232217 0.025407506 -0.034794442 -0.0141917495 0.014238432 0.03837073 0.051366307 -0.09231427 0.013415735 -0.06435245 0.005002689 -0.0035217055 0.026674414 -0.00019855265 -0.012588699 -0.017397096 0.008443416 -0.040215787 -0.011954154 0.020552168 -0.06571476 0.017022775 0.035774253 0.10527868 -0.010081737 -0.010326522 -0.02573881 -0.0313765 -0.047073852 -0.039462447 0.048015647 0.0014874156 0.038591523 -0.04211564 0.0015681993 -0.02113115 0.04381837 -0.02284748 0.022299288 -0.00601622 0.028959602 -0.01278633 0.02378247 0.049300734 -0.01188079 -0.02833946 0.05230814 0.007337269 0.018158954 -0.014782667 0.01240289 0.009264628 0.029352063 0.056527723 -0.008143518 -0.040548183 0.005935934 0.062257603 0.022402063 -0.034360245 0.023116384 -0.0146502005 0.0330695 -0.00041798278 -0.007314839 -0.043155372 0.025993427 0.0294207 -0.012639213 -0.01262122 -0.02740583 0.06663252 0.022689275 -0.011384334 0.006764969 -0.037869215 0.012297285 -0.033031985 0.036707323 0.045288473 -0.0320459 0.04350107 -0.048087712 0.045336112 0.022822777 0.01348449 0.03723205 0.00684081 0.025216194 0.048447423 -0.021817192 -0.024679145 -0.04725596 0.0045593036 0.006044687 -0.041543957 -0.010927416 -0.015513739 -0.022014307 0.007831523 0.015927179 -0.009011262 -0.00640216 -0.015576158
1300 0.011409573 0.081480205 0.025730642 0.006648465 0.037044715 -0.035826262 0.055841345 0.010394498 0.044597764 0.02459532 -0.00903545 0.009968361 -0.044721972 -0.037058953 -0.039125416 -0.021376157 0.05076998 -0.067447945 0.003215549 0.023367045 -0.029524006 -0.05761062 -0.037458476 -0.008662363 -0.06330626 -0.001193828 0.021755012 -0.006960002 -0.03181173 -0.06390723 0.0067213606 -0.0046529537 -0.015747376 -0.005881818 -0.035689503 0.00743929 -0.0488329 -0.040443927 -0.024243278 -0.06997694 0.027479105 0.06177028 -0.014715438 -0.003312708 -0.025119634 -0.0044599595 0.028613728 0.030294366 0.08080136 0.004104765 0.024697423 -0.08164944 0.02681464 0.0062907585 0.045074888 0.061676737 -0.019732898 -0.07255688 0.029356353 -0.05372212 -0.018814871 -0.015742537 -0.020509867 -0.05620062 -0.019232064 0.015369327 -0.0019966408 0.000545863 -0.021870079 -0.036901966 -0.0056240195 -0.014308693 -0.06464291 -0.0037952857 -0.009531227 0.039593115 0.025904877 -0.0053699985 -0.023504216 0.022201728 0.0041503897 -0.017739238 -0.042454977 -0.036704183 -0.009543433 0.011548078 -0.018426502 0.025960233 0.036237314 -0.04101538 -0.046211157 0.015836457 -0.038891 0.0031691948 0.027312877 0.008241273 -0.054885257 -0.048990086 0.014481254 0.05505272 -0.022687687 -0.025076823 -0.03037479 -0.023671765 -0.005630537 -0.018376488 -0.036651604 0.02209224 -0.057151016 0.0345164 -0.036029194 0.043976843 -0.02436332 -0.06929174 0.011439616 -0.013054031 -0.07565424 -0.06030912 0.006764962 0.049152855 0.015701402 0.05495236 0.055876017 0.006596953 -0.0077313553 -0.03640519 -0.0294422 0.0055207247
1811 0.015873425 -0.03507332 0.034714036 -0.014565117 -0.03009643 -0.0023544987 -0.0038267071 0.022190573 0.010982539 0.007594589 -0.057538845 0.048901156 0.009879326 -0.008491191 -0.00989382 0.06425983 0.049222592 0.055079266 0.0034254768 -0.011469104 -0.019418744 0.021313647 -0.05363025 0.026108814 -0.03378411 -0.035093762 0.013340004 -0.028281178 0.017276328 -0.039274815 0.031980038 -0.057581708 0.056095958 0.08706102 -0.04632152 -0.06065192 0.019446831 -0.043159336 0.054779142 0.012502227 0.0043822573 -0.00372689 -0.0028710186 0.062100675 0.0042597726 0.031470858 0.05879937 0.033188794 0.020887708 0.022535075 -0.060170773 -0.018877463 -0.04487148 0.04428405 -0.007488194 0.014314758 0.03284903 0.0017583348 -0.018340105 0.017163219 0.027061563 0.0065919217 0.011175443 -0.06320469 0.05162664 0.028054327 0.040843293 0.028867928 0.0044005145 -0.029989727 0.028237881 -0.0028797681 0.007923544 0.028021187 -0.008929393 0.01863218 0.0026986946 0.0221545 -0.041046914 -0.020189721 0.026224047 0.016262386 -0.04974402 -0.034972988 -0.05248584 -0.03285342 -0.017704647 -0.027181977 0.01375161 0.0051489472 -0.04939038 -0.0044700806 -0.066352844 -0.007799002 -0.003200065 -0.04844055 -0.026590941 -0.03133041 0.028411023 -0.040445082 0.024938852 -0.022643838 -0.0036235242 0.031568576 0.04089359 -0.005818295 -0.014544278 0.01527784 -0.033280645 -0.0432568 -0.060156196 0.041704953 0.00013987772 0.01726276 0.015864113 -0.04636264 -0.009487965 0.07467081 -0.08009278 -0.019060701 0.004927401 0.023991179 -0.022483783 0.010466428 0.07000481 0.003611407 0.044573203 0.073214784
1398 0.016888067 0.028859103 0.0137965465 0.017546475 -0.043388575 -0.030783273 -0.031256054 -0.010939718 0.053726185 0.048494715 -0.036330555 -0.024166074 -0.011265347 -0.009403667 0.006748927 -0.01734583 0.047233853 0.018670619 0.039367676 0.07511679 0.008919375 0.017515818 0.0066138385 0.07870168 0.018177131 0.017783571 0.011493014 0.0064279004 0.012641875 0.040934384 -0.0017767596 0.0480995 0.007877176 0.04709886 -0.030414505 0.041387584 -0.03133441 -0.0636996 0.075616084 0.019929193 0.01955578 -0.0050215353 0.0019148667 0.013781487 -0.037248433 0.04165751 0.04965826 0.05573971 0.0065617017 -0.0027135198 -0.009498727 0.0034889593 -0.032253932 0.0028545603 -0.03561971 -0.02814856 -0.015664 0.028599963 -0.08881105 0.042582087 -0.02735707 -0.032071285 0.018916398 0.010136716 0.014691542 -0.052605312 0.005786443 -0.052344684 -0.033484746 0.053054914 -0.012057703 -0.006095224 0.033588935 0.056905996 0.043255482 -0.020321831 -0.0089121945 0.027353497 0.010717412 0.012470057 0.0010517859 0.0023320923 0.034794215 -0.00784202 0.030804306 -0.07147218 0.0032150645 0.015981592 0.009979035 0.024387853 -0.027190082 -0.030801805 0.0042672614 -0.016813468 -0.0031723175 -0.06514422 -0.0409642 -0.04192204 -0.001467751 0.039164174 0.007015296 -0.015622584 0.034789186 0.00947782 -0.030331405 -0.034761723 -0.0132541 0.0038387445 0.0050532413 -0.0030178197 0.009791072 -0.024696 -0.03162076 -0.0018280313 0.0021538534 0.0068372088 -0.032566294 -0.0026352976 -0.06189818 -0.019935679 0.02459211 -0.003142508 0.025615826 -0.0053948094 -0.07853919 -0.021389581 -0.021153267 0.012475368
473 -0.020030426 0.024797797 0.034602508 -0.02210093 -0.038745496 -0.008050222 0.0066855894 0.0130996825 -0.020926835 0.061355785 -0.056980092 0.052777823 0.052173857 0.0820807 -0.05866404 0.016643688 -0.043078072 0.002802842 -0.011567708 0.01965746 0.021175334 -0.06277154 -0.00033448884 0.009587013 -0.02313418 -0.023575062 -0.026314907 0.01029862 0.009482577 0.015113404 0.055362605 -0.006234392 -0.032505944 0.0008945454 0.03419623 -0.012925147 -0.007691494 0.019315643 -0.028818488 -0.026653565 0.028402958 0.018135382 -0.055003747 -0.05837109 -0.015178356 -0.050937887 -0.02390693 0.0047119735 0.02373802 -0.020221857 0.054461442 -0.031431332 0.019411592 0.0375938 -0.015715515 0.020529866 -0.031246435 -0.071250476 0.013376825 -0.025068777 -0.0420943 -0.05120102 0.02444781 0.02040689 -0.037692674 -0.0127019575 -0.009064368 0.02849479 -0.027764952 0.027169267 -0.025542228 -0.03481139 0.05833617 -0.04223724 -0.0051768674 0.06991006 -0.050500214 -0.033121437 -0.044146672 -0.026848324 0.023291968 -0.008344496 -0.024866814 0.07643175 0.024530148 -0.019780682 -0.0056721084 -0.0029361336 -0.032900937 -0.024616994 0.055193007 -0.07326695 -0.012599004 -0.013720037 -0.03023017 0.04656113 -0.008935268 0.022483021 -0.040125884 -0.061298266 0.00038300426 -0.05724503 0.046153076 -0.011896531 0.02023863 -0.025147624 0.024789544 -0.054649115 0.03729663 -0.0030404371 -0.04223999 -0.016171053 0.0008612263 -0.088698186 -0.006218087 0.01969951 0.000102441736 0.059801206 0.05319836 0.0021181046 0.021341057 0.040997 -0.0041621886 0.0037809655 0.00048779877 0.010215067 -0.01835193 0.04217799
465 -0.056262072 -0.0035662635 -0.010053812 0.0378982 -0.022547413 0.018968314 0.035771 0.09407888 -0.09079571 -0.00017585722 -0.0106460145 0.010033098 0.039775185 0.06281793 -0.007433429 -0.03404559 -0.0567375 -0.041826274 0.009172452 -0.053114846 -0.0023729785 0.0700272 0.026225884 0.0018792059 0.022317376 -0.034195513 0.0067478255 0.074864924 0.044868395 -0.0188469 0.016909203 0.048125118 -0.07250199 -0.029713513 0.050201293 -0.061500743 0.0781 0.03793164 -0.013582988 -0.055896424 0.0038908457 0.04241439 0.040818244 -0.018003898 -0.021774398 -0.07033949 0.0018677106 0.049440682 -0.04289573 -0.028279476 -0.04375118 0.009690399 0.06468773 0.03087348 0.06485663 0.0360366 0.0141994 -0.001940795 0.031093482 -0.022646677 -0.01825169 -0.022918431 -0.0049632853 0.019053882 -0.0019292955 -0.051692344 0.0024723648 0.02258012 -0.07289988 0.011024346 -0.015508123 0.025891954 0.054351788 -0.02421848 0.037220694 -0.0011939364 0.010090365 -0.01203687 -0.01895357 -0.03801191 0.014767724 -0.02372704 -0.05714457 0.044801846 -0.008271432 -0.0572148 0.07179379 0.03374007 -0.026398454 -0.011463991 0.06920961 -0.013197886 -0.060891308 0.053250637 -0.03970476 -0.034186836 0.04376028 -0.045699004 -0.0017570591 -0.008683838 -0.014947619 -0.01918457 0.058240235 0.012057307 -0.02364935 -0.011688989 0.032111112 -0.032076173 0.025516398 -0.009280229 0.01599787 -0.037844732 0.031262588 -0.03702711 0.015585522 -0.0027943577 0.06788072 0.040990993 0.011544272 0.038930316 -0.019041553 -0.0052962513 -0.025281735 -0.079484336 0.078047276 0.05920695 0.0059020394 0.010254424
347 0.013489652 -0.011909089 -0.038796965 0.05661943 0.047292527 0.042886388 -0.05175297 -0.029943917 0.012370381 -0.026263475 0.06918454 -0.06377597 0.031236984 -0.018867811 -0.0006925206 0.009102652 0.016848128 -0.0700248 -0.022297 -0.029032482 -0.035702836 -0.0065445583 0.008370845 -0.027394094 0.031475153 -0.018695658 0.03544713 0.010117831 0.005099091 0.028198237 -0.018821692 0.04634405 -0.007452323 -0.015748268 0.053079866 0.065578006 -0.044224426 -0.047533453 -0.02071413 -0.02750848 0.069384396 -0.019804025 -0.03260763 0.0037415486 -0.04840581 0.035684515 -0.021937005 0.0010087095 -0.0026003544 0.01718659 -0.058686905 -0.0121682715 -0.0161349 0.06341808 -0.05431753 -0.005266577 -0.042452876 -0.0039356817 -0.035824507 0.03390685 -0.03935553 0.03727 -0.054333385 0.0070929774 -0.008369972 -0.019973181 -0.07857762 0.0020315791 0.048594855 0.011632359 0.00681384 0.009471848 -0.021783518 -0.029127246 -0.03346296 -0.042987097 0.008233137 -0.032790534 -0.037287023 -0.061906096 0.04015161 -0.045850433 -0.04660034 0.012959405 0.043078344 -0.018374883 0.04404023 0.004567242 -0.030942038 0.009117657 -0.06546853 0.035302155 -0.038277455 -0.025407514 -0.047185685 0.015159805 -0.030914942 0.001053834 0.02222243 0.00038706555 0.013106317 0.015781622 0.0011703399 -0.086543165 0.024747204 -0.01993611 -0.02392792 -0.030949416 -0.027771328 -0.03108699 -0.030536985 0.047817416 0.029383194 0.051563382 -0.042014 0.049797248 0.06262308 -0.05224268 -0.020791449 -0.043238997 -0.016062642 0.02191248 -0.03504234 0.028208086 -0.006274602 0.015197389 0.020967815 0.07688384
797 0.032512806 -0.0074534295 -0.033699643 0.06523634 0.018484423 -0.02349875 0.04109326 -0.018073013 0.013023672 0.018454703 0.008233127 -0.04884778 0.018742768 -0.051378936 0.01530576 0.0531738 -0.001372304 -0.039472654 0.010976717 0.033186276 0.0067636184 -0.04449699 -0.003403925 -0.06557898 0.04849318 0.026708659 -0.03147471 -0.04647255 0.047122855 0.03429199 0.066831924 0.06408914 0.0019049442 0.00059091445 0.029601205 0.057206895 0.040940553 -0.03559401 -0.03954646 0.06367186 0.012953201 0.061802812 -0.040617313 0.016623786 0.04546446 -0.0016431378 0.021863086 0.05104204 0.027765963 0.022284422 -0.056876346 -0.0020467103 -0.011130026 0.022609567 -0.04995807 -0.028881779 -0.060565546 0.026612524 -0.013489859 -0.0016766915 0.012784758 0.012394015 -0.051918015 -0.020857492 -0.031804003 -0.013107224 -0.04905973 0.04291516 0.008198433 -0.0082699 -0.05378637 -0.022457954 0.06699582 0.00276676 -0.021020487 -0.050560847 -0.037101556 -0.07218001 0.017744178 -0.054291826 -0.01380779 0.012421533 0.014095809 0.04991798 0.019009078 -0.008245566 -0.007187353 -0.006380668 -0.03202118 0.022750596 -0.01899205 0.044805877 0.00044343172 -0.03421038 0.033445843 0.04424554 0.04402793 -0.011538676 -0.009776146 0.02259891 -0.029622998 0.043343443 -0.06182225 -0.049824983 0.0013325426 0.021032862 0.05153253 -0.046256434 -0.047446545 0.00544633 -0.012040482 0.0037009288 0.015544685 0.0134952925 0.0063976827 -0.02188216 -0.010693221 -0.0069885976 0.04204448 -0.034456216 0.024523145 -0.004419203 -0.04402674 0.08021128 0.00011964428 0.06632147 -0.04091635 0.011552606
1260 0.026793957 -0.03782841 -0.0484004 -0.046746098 -0.060899187 -0.0026317593 0.009531362 0.014860153 0.014481861 -0.008223637 -0.025897224 0.050345305 0.015608897 -0.024425082 0.0363347 -0.03852959 0.018719377 -0.053143747 0.06864928 -0.043023225 0.059819542 0.00018448567 -0.017694553 -0.041769676 -0.06944002 -0.011261608 -0.015632275 -0.019143086 -0.029067688 0.020527376 0.014136593 0.022101402 0.043747395 0.0075807357 -0.0006707109 -0.009004275 0.06840727 0.014330471 0.0152394 -0.031981114 -0.05420705 -0.021146439 -0.029262034 0.012245881 -0.0029701162 0.025998002 -0.033356663 -0.02328514 0.014127789 0.023256395 0.026388552 0.021132004 0.0101877535 -0.015717367 -0.041875474 0.025335819 0.014778201 -0.021891618 0.015516971 0.02702645 0.03497275 0.0007162865 0.026194047 0.0006910076 0.007274923 -0.039191835 -0.007882652 -0.07448439 0.013718789 0.025826162 0.0773485 0.005119364 -0.0114557855 0.0029239887 0.023354638 0.006690094 -0.052376647 -0.013910268 0.011759209 0.028556373 -0.0043668416 0.05340645 -0.0034246515 -0.05881293 0.04607926 -0.014394852 0.028212825 -0.0014832492 -0.06496591 0.014604265 -0.051546004 -0.008699566 -0.020836512 0.04759532 -0.013208205 -0.02268132 -0.020294564 0.042430483 0.004924043 0.0431295 -0.002571991 -0.012325662 -0.0016670813 -0.005871132 -0.02922604 0.010633806 0.019571923 0.06107901 0.020127611 -0.019601177 -0.031535007 0.046231188 -0.0017428163 -0.013192571 0.06095338 0.047433954 0.027216258 0.02604687 -0.028199337 0.058700785 -0.024343636 0.0066112936 0.008224723 0.016719423 0.008487293 0.01395202 -0.040096246 -0.034221306
1307 0.05260893 -0.058249947 -0.018234579 -0.043365188 0.019725507 -0.020685522 -0.0008523826 0.014964009 -0.022960877 -0.008771605 0.03564375 0.028871221 -0.054829657 -0.02255037 0.0121096345 0.027864832 -0.0027856603 -0.013794783 0.015070415 -0.01579373 0.051973153 -0.0052200826 0.049221728 0.03765228 -0.014436292 -0.004061143 -0.03952401 0.0081363 -0.020116612 0.0136500215 -0.038024213 0.0004725161 -0.04477793 -0.011049597 0.0029593771 -0.008630519 0.059266057 -0.028262565 0.010746681 0.044590253 0.0058679157 -0.04441437 -0.012708263 -0.0007485156 0.0078561185 0.071769625 -0.02895412 -0.0076787355 -0.031208742 -0.07023434 0.039223038 0.03875716 0.0018538296 -0.0074095204 -0.015255252 0.0037182057 0.021016032 0.041662745 -0.069270216 0.017938845 0.012959437 -0.052837875 0.016678547 0.07118387 0.05445727 -0.01686281 -0.029192073 -0.0073012705 -0.04813987 -0.049180005 0.0071792575 -0.05360247 0.0021391583 -0.01135461 -0.021183409 -0.016524864 -0.012692153 -0.04561076 0.030182313 -0.014065474 0.0040044514 -0.04145645 -0.0070332256 -0.052530788 0.033246227 0.0044925455 0.039823443 -0.010765194 0.06470684 0.017973319 -0.03628868 0.014248801 0.021923954 0.05055024 0.062985405 0.028973628 -0.037093382 0.019164484 0.018982794 0.021925412 0.03808308 -0.012233149 -0.010220432 -0.035180643 -0.012440036 0.002291273 -0.035577897 0.051812638 0.018800123 -0.037969112 -0.01986336 0.027704451 0.011317975 -0.03691166 0.006938465 -0.04714166 0.05103376 -0.03414971 -0.026973845 -0.035228807 -0.048704416 0.03161116 0.007491842 0.012289864 0.066796124 -0.007234385 0.01694518 -0.055382412
2189 -0.040108252 -0.07065086 0.011080521 0.04876922 0.059002083 -0.06601528 0.0030954108 -0.033065114 0.03650805 0.010710501 -0.013103971 -0.014749113 -0.020565262 0.015853701 0.006515219 0.03772943 -0.038047686 -0.0013291748 -0.005686055 -0.003854611 -0.014709558 -0.07223322 -0.046961587 -0.06048123 0.01800357 -0.0009036908 -0.056166034 -0.013115551 -0.03804324 -0.03411312 -0.028649371 0.048422396 -0.022740802 0.0033716126 -0.023973346 -0.008138593 -0.023318432 0.022098538 -0.0201995 -0.031297002 0.007106762 -0.014382573 -0.033967655 -0.00042027017 0.030391287 0.040348686 0.0065554986 -0.059492514 0.038652766 0.03819403 0.002830969 -0.054576315 -0.016183838 0.0070537445 -0.049592525 0.0037759517 0.03398968 0.01601297 0.0052705584 -0.007550926 -0.007673447 -0.0043231617 -0.0002598347 0.036909297 0.032709774 0.025408708 -0.08082168 -0.019098852 -0.066745274 -0.025025493 0.028479533 0.049060658 0.047317676 -0.06037667 -0.0044045947 0.055497523 0.061339315 -0.005758232 -0.003204697 0.027441954 0.03077685 0.007915048 0.0021905538 0.055539727 0.002366307 -0.032119587 0.042569198 -0.006838627 -0.009422474 -0.037670206 -0.0014074579 0.032525767 0.061051436 0.06544742 -0.060287304 -0.028765328 0.019082667 -0.019644318 -0.0067698695 0.0061022947 0.028800406 -0.03253279 0.027611896 0.007554398 -0.028208213 0.0641309 0.010143675 0.04869403 -0.04709113 0.06181216 0.028837379 0.013158816 0.0014323177 0.03005815 -0.026132466 -0.028357496 -0.029816044 -0.03605845 -0.016738864 0.039974958 -0.0027979952 -0.053067002 -0.023501812 0.0009450632 -0.017001932 -0.003864366 0.012021078 0.047448006
2072 -0.032070063 -0.011540453 0.0032406293 0.035306167 0.020351803 -0.04622003 -0.07265029 0.06500676 0.066082306 0.061783828 0.013413418 0.0018194176 0.042123344 0.020204445 0.050583277 0.044184357 -0.0152254915 0.044321336 -0.027387682 -0.08169394 -0.020274332 -0.01719168 -0.039095826 -0.040640477 0.034071106 -0.03229241 -0.014969346 0.010557562 -0.016802179 -0.01963594 0.035541635 0.005883362 -0.01889617 0.048156034 0.025809582 0.028853761 0.0029936517 0.042785555 0.056967493 0.071591586 0.043249518 0.044993676 -0.011439268 -0.06593699 -0.0010319551 0.049972557 0.032638248 -0.003617113 0.014506117 5.22568e-06 -0.07365411 0.016164659 -0.0093998425 0.05055147 0.045853287 -0.005387736 -0.020796875 0.026341438 0.011469712 0.011542797 0.0011693873 0.001109303 -0.019019838 -0.006931934 0.04008785 -0.015614727 -0.0027509558 -0.02751334 -0.06937264 -0.036395513 0.08874411 -0.034957726 -0.015193766 -0.016665375 -0.03839341 0.050299346 -0.05271094 -0.041598238 -0.029718405 -0.018537547 0.008107234 0.011520029 0.0058158813 -0.0074918573 0.006692126 0.053281996 -0.041547794 -0.030191123 -0.029452775 0.04718938 -0.02486026 0.02520713 0.028795237 0.015482445 -0.028700547 0.042413168 -0.03482636 -0.04219059 -0.01827654 -0.047960296 -0.06814345 0.007951782 0.025348626 -0.0013892415 0.031289823 -0.0054455465 0.018472886 0.008657482 0.009634448 0.0037785089 -0.009966352 -0.008966613 0.022459041 0.050962355 0.022798605 -0.005907536 -0.037774775 -0.037678957 -0.029698316 0.012191243 -0.008883942 0.009503569 -0.026433308 0.032666188 0.039466746 0.05307976 -0.039108448 -0.06714708
561 0.033350483 -0.05334399 0.020279724 -0.038563494 -0.004393639 -0.0065228883 0.060695887 0.02140181 0.056574117 -0.060775023 -0.04525033 0.00963746 -0.067788005 -0.044845145 0.00044643175 0.030165253 -0.026819138 0.05088631 0.029260695 0.006589749 0.04023069 0.043675177 0.0029345974 -0.0013534203 -0.004061785 0.005497888 0.04354123 0.0098667005 -0.05201784 -0.035794158 -0.026970917 -0.024624908 -0.0074463524 -0.01235299 -0.028480686 -0.04275714 0.072977625 0.040618632 0.041374825 0.0062627573 0.076689206 0.04403814 0.021970889 -0.028783968 0.048569303 -0.035852186 0.035905175 -0.04628644 -0.03821567 -0.01929017 -0.0005427866 -0.016442236 -0.037806377 -0.0019659083 -0.009877388 0.07227614 -0.029187068 0.039817855 0.02151082 -0.010639042 -0.064055905 -0.010904186 0.022622224 0.020542527 0.02410738 -0.0937177 0.010670576 -0.04794809 0.0012150726 -0.061878335 0.045727443 0.0038192691 -0.058273867 -0.028307144 0.029303368 0.06545001 -0.030933645 0.033256467 0.043642804 0.0034460942 0.010728942 0.0635611 0.00026658518 -0.007299419 0.0692287 0.06591125 -0.06466634 -0.045299657 -0.049680438 -0.06645308 -0.020620475 -0.034130905 -0.015943574 0.047267187 -0.04683232 0.0882699 0.008880099 -0.05424523 -0.08937177 0.051537585 0.018951748 0.008814951 -0.006019227 0.014695288 -0.010675313 0.020611154 -0.018303562 -0.014893322 0.070140965 0.012538634 0.024621116 -0.021359796 0.0071581765 0.041395392 -0.02839383 -0.038029 -0.007100538 -0.02522448 -0.018944241 0.015858019 -0.013674351 0.06644035 -0.0732514 -0.0125255985 -0.011323358 0.009607364 0.02429334 0.057266552
513 0.06321874 0.039499022 0.0738825 0.053083006 0.02339816 -0.024662083 0.09057232 0.07222489 0.0589363 0.006932357 0.0019947493 0.0489481 0.04460378 0.005266643 0.006510958 -0.007938687 -0.036093745 -0.009199566 0.02912096 0.06281869 -0.0127364835 0.081738085 0.05866657 -0.011163208 0.004433543 0.014183284 -0.0012868401 -0.050297383 -0.064238876 -0.050858527 -0.045695182 -0.09399637 -0.019892287 -0.04682972 -0.047824167 -0.06554948 -0.030956026 -0.050017092 -0.04284395 0.03760168 -0.032136817 0.027427603 -0.026203765 0.008760317 0.03506379 -0.10151781 -0.06650073 -0.0030927868 0.070832975 -0.043707002 -0.028482355 0.006460131 0.025215117 -0.066387855 -0.095791705 -0.04494053 0.038185585 -0.006691656 0.08283697 -0.020106174 0.008510328 -0.022964034 0.04559981 -0.021705037 -0.005364223 -0.07603588 -0.0106437765 -0.007247124 -0.03028369 0.033216625 -0.018566819 -0.043419622 0.0115352925 -0.051837485 0.00013695426 0.02411703 -0.009474291 0.017627886 -0.0070333956 -0.023836842 0.0026066632 0.025695832 0.029853256 0.021444617 0.03827981 -0.05695775 0.009311119 -0.024029002 -0.040155914 -0.007435332 0.007326985 0.04439783 -0.06340296 -0.003713767 0.07069217 0.011197042 0.0054827454 -0.08337817 0.0641831 0.06241811 -0.021415858 -0.008269927 0.017529488 0.039255828 -0.042546947 0.073924534 -0.056441583 -0.023874234 0.008118197 0.050880726 0.004153956 -0.027661609 -0.018215826 0.03855483 -0.01559242 -0.0140924305 -0.023793496 -0.078246556 0.04484989 -0.0038447105 -0.04172622 0.0627876 -0.010771151 -0.06408641 0.03748449 0.038910277 0.052126754 -0.04344316
587 0.056413956 -0.01238105 0.040045053 -0.041863117 -0.0051242914 -0.032841094 0.10778825 0.007979217 0.012533411 -0.0259472 0.0097421985 -0.013943841 -0.03678246 -0.031494614 -0.019822089 -0.046607733 0.008153579 0.009958678 -0.025591569 -0.03888294 0.0017457547 0.016077837 -0.0057272404 -0.014126568 -0.10165094 -0.043909825 -0.060564745 0.011923637 0.022189166 -0.025549749 -0.024318637 0.03218121 -0.050471213 0.05899397 0.016854232 0.07161664 0.008260566 -0.01688175 0.04723939 -0.013686265 0.0013641665 -0.031064972 -0.009653573 0.025937965 -0.018535115 0.0032210823 0.044759274 0.0023282173 0.026036007 0.008743512 -0.08453496 0.046341922 -0.0021958123 0.011914539 -0.043749567 -0.032161664 0.026163982 -0.032302067 0.075865686 -0.0113129215 0.00027694282 0.00073962903 0.027096145 0.05353835 -0.014114698 0.019576749 -0.03080976 0.016431272 -0.011719487 0.028345661 -0.005785887 0.050497647 0.024975084 0.01686799 0.035628684 -0.033529833 0.0048263627 0.05838932 -0.036618143 -0.01880926 0.03353996 -0.010994195 0.04522286 -0.036304597 0.0028934253 0.05257196 0.016091375 -0.04313252 0.05943354 0.053448815 0.002623893 0.016095232 0.046802737 -0.03209459 0.08380064 -0.014948913 0.023132592 -0.0043411525 0.0021640414 -0.015307468 0.050934926 -0.019854529 -0.0052472795 0.014655914 -0.030610949 -0.017641723 -0.038495835 -0.027406845 0.045556866 0.045736354 0.035048626 -0.009351488 0.03663674 0.016192075 0.025689162 -0.04024003 -0.008122804 0.0068360646 0.06891906 -0.052985907 -0.022705445 0.008095509 -0.0042134873 -0.06508384 -0.043790642 0.02249957 0.033943143 -0.013029285
211 0.018579902 0.010678748 -0.013793571 -0.02880396 0.032339413 -0.028637927 0.030871125 -0.024854524 -0.06560487 -0.03461439 0.06028485 0.07222345 -0.036754552 -0.029946238 0.07737182 0.026065744 0.06805839 -0.008829573 -0.021627055 -0.033206735 -0.008521633 0.017365191 0.011536934 0.0099578155 -0.02232844 0.03766661 -0.050716825 -0.05513688 -0.00029156206 -0.066189975 0.0077455454 -0.012870212 0.016009793 -0.007259194 -0.016485687 -0.028183592 -0.06724992 -0.058645073 0.014249559 0.05044885 0.036331512 0.040137473 0.06596716 0.00027497506 0.021615569 0.0021837293 0.08744105 0.01498033 -0.02050307 -0.021058964 -0.055103324 -0.02728341 0.048744593 -0.03655291 -0.055611707 -0.044568833 -0.004304412 0.016349375 -0.056903273 0.0008597479 0.0037776404 0.0029139933 0.015762104 0.07275154 0.0016830867 -0.047265545 0.011835052 -0.00245257 0.028273197 -0.008246748 -0.016771348 -0.008802006 0.0024117208 0.04506687 -0.016853094 0.008338101 0.0553328 -0.0045296648 -0.059849422 -0.030853063 0.07557183 0.049974166 0.023554234 -0.032087836 0.03500095 0.03538101 0.03108238 0.013640786 0.027726538 -0.010915977 -0.0041608666 -0.036447734 -0.003327639 -0.018473795 0.028613064 -0.0003595251 0.03629083 -0.011609838 0.053874794 -0.029094743 -0.03501782 -0.02832701 0.05773046 -0.043822598 -0.041520055 0.03481212 -0.02710316 0.046562497 -0.026228728 0.022088628 -0.03878899 0.019575935 -0.021432335 -0.017802238 -0.020289171 -0.048793774 0.043157823 -0.066868044 0.031040473 0.016780686 0.04341665 0.016807597 0.045748692 -0.019850397 -0.0067401226 -0.018933663 -0.015336757 -0.0070962645
2135 -0.01693138 -0.012292209 0.031847663 0.0055002 -0.045257434 0.033415474 -0.0011839735 0.033556107 0.0026900799 -0.058501262 0.014846041 0.006750574 0.00010209411 0.056469463 -0.018957471 0.04255522 0.061461743 0.05578262 0.004119014 0.0055517377 0.012765861 0.027337704 -0.009339707 0.035659235 0.045858413 -0.012815782 0.08255943 0.002523823 0.0011676031 -0.053639036 -0.02108305 0.08261688 0.026389593 -0.009768348 -0.030932963 0.017677885 0.05749073 0.06572128 0.0206702 0.012921739 0.046637177 0.03768235 0.0076325485 -0.02582572 0.029155139 0.0031145026 0.035612006 -0.030020004 0.035898406 -0.01187921 0.07886683 -0.029980555 -0.01583101 -0.017731342 -0.00038292192 0.0043965145 0.010393618 0.042220153 0.016086224 -0.0408862 -0.04417721 -0.016904324 0.022717565 0.03006292 0.03867582 0.06104196 -0.057716176 -0.011935418 0.016154576 -0.030232832 0.019054618 0.016214758 -0.035302 -0.02904949 0.03955326 -0.038865957 -0.0018530068 -0.017414143 0.005092088 0.053283393 0.053686567 0.0059036477 -0.016028373 0.023389043 0.017519306 0.026900448 -0.018068962 -0.034967683 -0.008527013 0.016687699 -0.056974646 0.013393029 -0.033435415 -0.006530192 -0.046262696 -0.018938038 0.008515049 -0.0062308684 0.0263004 -0.01973733 -0.04261392 0.051723532 0.009848284 -0.03789029 -0.013495469 0.039991133 -0.023078319 -0.031024976 -0.0064522177 -0.018733114 -0.02535845 -0.03877176 0.0050382535 0.07515144 -0.06693938 0.030628003 0.05707904 0.052518573 -0.05111013 -0.0052613127 0.0035447397 -0.06604268 -0.0270708 0.061301738 0.025530124 -0.057077818 -0.032602068 -0.02420346
2260 -0.028431011 0.016532484 -0.024875574 0.049862474 0.017335432 -0.0015632047 0.010310782 -0.027204007 -0.041448418 -0.047714766 0.024532864 0.06918004 -0.010716165 0.0025097956 -0.044954944 0.023406222 0.1018464 0.030442538 -0.04377783 -0.030112406 0.03904946 0.020092167 0.006051261 -0.027118288 -0.006127799 0.023406638 0.052244235 -0.006608251 6.6484805e-05 -0.038204413 -0.027230782 0.06602968 0.024593195 0.04705884 -0.002500505 0.042957358 -0.03144265 0.030279515 -0.034894966 0.06480384 0.043149453 0.0221322 0.017695095 0.0024746305 -0.04006525 -0.00569602 0.06016077 -0.013004396 0.0060045673 0.036391657 0.048296556 -0.07348982 -0.03114752 -0.041609515 0.017160628 -0.01457483 -0.008251358 0.027137458 0.011020095 -0.018573476 -0.0705061 -0.039526273 -0.02495689 0.070134394 -0.027761152 -0.013531426 -0.023641182 0.013860169 0.00379561 0.033449285 0.03378856 -0.06862336 -0.023315042 -0.008761334 0.011437485 0.019687403 0.016655874 -0.004019591 -0.044755176 0.008728846 -0.017398348 -0.0019452611 -0.019638693 -0.004385011 0.005430512 0.028751511 -0.04577429 -0.042361215 0.044760864 -0.04223707 -0.000697325 0.026317416 -0.017472828 -0.014218067 -0.03458969 -0.0043544886 -0.0017824593 -0.02448943 0.04209531 0.024578203 -0.035105035 0.0035662153 -0.017261257 0.062059402 0.014731989 0.017007204 -0.023417095 -0.0037281942 -0.027220752 0.030312331 -0.009377685 -0.021733869 0.0230203 0.057323594 -0.028574383 -0.023760276 0.0205894 0.011064758 0.005230307 0.037486598 0.008066567 0.018477444 -0.023140237 0.01611421 -0.04120724 -0.034771897 0.05482676 -0.021101335
240 0.020077875 -0.051102605 0.030190445 -0.016344398 0.017988317 0.031235091 -0.005593542 -0.019421449 0.022306075 -0.056813672 0.05670008 0.009109138 0.054915223 -0.052346304 -0.041123733 0.024291197 0.008550783 -0.017287796 0.0094200615 -0.0034803196 -0.00605739 0.0008720035 -0.04947297 -0.01193692 -0.0039417786 -0.02842681 -0.048394635 -0.019335672 0.01439184 -0.01850149 0.031635568 0.032886077 0.07272277 -0.044613678 0.05789693 -0.035432413 -0.03355127 -0.03272296 0.06765779 0.04821606 0.08271171 -0.039321873 0.015382369 2.3088505e-05 0.016946768 0.032674972 -0.04750739 0.028514454 -0.002121218 -0.070255615 0.015834156 -0.055127237 -0.0030784484 -0.016033374 -0.040209357 0.018663442 -0.000841033 -0.015300281 0.012684038 0.046058193 0.012846076 -0.034912284 0.011683895 -0.004502318 0.030095821 -0.037773754 0.050366014 -0.034187023 0.045484323 0.045395505 0.014379049 -0.021580817 -0.031425815 0.0085971765 0.020022467 -0.005062242 0.0056398124 0.03724116 -0.0055526528 0.023186283 0.012179605 0.0011826624 0.04606775 0.02052652 0.012077908 -0.034370817 -0.014624362 0.013874304 0.03326167 -0.016839698 -0.022933142 -0.00928438 0.02089984 0.00619645 0.015770799 -0.014599087 0.056706894 0.0019570985 0.0123819215 0.03801013 0.06500124 0.0065301596 0.011464366 -0.008402078 -0.0011887577 0.036500912 0.01738193 -0.013963754 0.003005629 -0.022240723 -0.0077636633 -0.024268262 -0.051788375 0.015401635 -0.008761085 -0.0044967476 0.0030262512 0.014144962 -0.001367918 0.015409364 -0.028586883 -0.009231283 -0.0056314925 0.05601891 -0.027210476 0.058558278 0.008563969 -0.04100797
634 -0.024415603 -0.05507725 -0.00021457311 0.044923253 -0.03336159 -0.015030881 -0.021322243 0.016888145 0.071795955 -0.023391921 0.014403006 0.04193006 0.06601629 0.0053098304 0.072989516 0.061365224 0.058239914 0.09094644 0.020189265 0.038007744 0.013939825 0.03409259 0.05988358 -0.014155045 0.023974823 -0.04690248 0.03047483 -0.029132655 0.027929572 -0.061219268 -0.073783964 -0.037538182 -0.020844653 -0.076507665 0.04912062 -0.054133113 0.06238448 -0.035928022 0.08513115 0.080184236 0.038047593 0.03399101 0.06288109 -0.006861983 -0.03424279 -0.020211143 0.049991272 0.01575768 -0.052510757 -0.013904575 0.0858223 0.017849764 -0.00965884 -0.0034462255 0.039217494 -0.04781553 -0.002925758 0.035512514 -0.065819435 0.0021545158 -0.05906784 -0.050266992 0.053931847 -0.010333971 0.035043627 0.012534517 0.020966776 -0.04581122 0.0030376478 -0.005441213 0.028327122 -0.05533028 -0.017589951 0.06635872 -0.05659973 0.01788807 0.027253006 0.010591185 0.019701364 0.06984488 -0.058012627 0.026239054 0.009749843 0.023840688 0.036322396 -0.05385117 0.0072824033 0.0031012257 0.047461208 -0.008012062 -0.0042080157 -0.00075353245 0.009944816 -0.011963909 0.012441883 -0.009421702 -0.0024312977 0.017099509 0.01251014 0.009077817 0.027672911 0.007052143 0.0062636817 -0.03734164 -0.024125922 -0.023929102 -0.021093708 -0.022972364 -0.027169252 0.016980518 -0.047018044 -0.017565828 0.011501215 -0.007079081 -0.028757835 -0.004183462 -0.022249797 -0.017713606 -0.0076541207 -0.045310702 -0.02096076 0.06977859 0.023140922 0.047015782 0.030679574 0.05029178 0.016798133 0.012078655
1743 -0.0027077512 0.026358742 0.07413052 0.020179374 0.029308751 0.021390054 -0.027017856 -0.0086950045 -0.071350195 0.013703378 0.07558282 0.011849658 -0.001966403 0.04705739 -0.031631008 0.05667882 0.017701108 -0.00082298287 0.032735277 -0.058042113 0.03299518 0.002002134 0.07992135 0.017265394 0.051460013 0.0034736851 0.087232634 -0.07644645 -0.025657145 -0.009308676 -0.0025344659 0.020046465 0.0117348945 -0.06414664 0.058862984 -0.005696226 -0.07040042 -0.06664418 -0.04625741 -0.036417697 -0.045847006 -0.057904508 -0.06993643 -0.0013547051 -0.030918881 0.061740495 0.03887474 0.013383134 -0.06147994 0.05077243 -0.05226223 0.031377707 0.036643784 0.012993135 -0.029177293 -0.057153095 0.028846193 -0.0225913 -0.08053279 0.030533517 0.01082094 0.010649864 -0.037788626 0.049535897 0.057603173 0.038275708 0.035387743 -0.0120695 -0.0012833689 -0.041072313 -0.026204133 0.014558076 0.041134283 0.033803068 -0.038741384 -0.054302327 0.02343374 0.006886334 -0.0034624105 0.025695821 -0.00955027 0.009506882 0.05289354 -0.0019525078 0.007071577 0.063704506 -0.01272035 0.0051018074 -0.049641363 0.015960969 -0.046119023 0.019332131 0.036254883 -0.012224183 0.021283668 -0.0012603466 -0.06263562 -0.045073822 0.048837725 0.06737665 -0.019576976 0.0029172257 0.07360556 -0.05486882 -0.007181727 -0.002612399 -0.005171263 0.06589524 -0.026236374 -0.0006437881 0.049452573 0.06490533 0.081761934 -0.03411145 0.00052081986 -0.011568103 0.0235668 0.03692935 0.008599601 -0.014435009 -0.016266203 0.009510179 -0.030036813 -0.042594485 -0.057321496 0.0072720763 -0.0045073368 0.07606289
1097 0.008394893 0.053431045 0.07136482 -0.004694433 0.0052985717 0.06724808 0.02063946 0.027880961 -0.024197899 -0.050319057 0.045377836 -0.011782534 0.044735417 0.07437317 -0.015930157 0.03144544 -0.010861944 -0.008088783 -0.0024920467 -0.006058446 -0.009373301 -0.019973751 0.024709547 -0.04374956 -0.006713481 -0.07698603 -0.007930654 -0.051470723 0.00021061099 0.0049169185 0.022305677 0.03959888 -0.02675821 0.0059499526 0.041708346 0.015447499 -0.03558069 -0.0094708735 -0.024811449 0.045653842 0.012497767 -0.05157772 0.009279828 -0.0045438567 -0.041903578 0.035075776 0.063181154 -0.06088876 0.061597854 0.03642358 -0.045163725 0.019227138 0.008665591 -0.038475774 -0.043819677 -0.02261957 -0.018630702 -0.009326716 -0.020399416 -0.007822641 0.016052084 -0.0140948 -0.016111217 0.05926866 0.08723063 0.05760908 -0.0037752884 0.048807275 0.053825006 -0.014189846 0.024257837 -0.0048587066 -0.0020254138 -0.0074836435 -0.05612347 -0.044853028 0.00032969133 -0.049604535 -0.015669672 -0.0035902984 0.07619364 0.04872073 0.021058923 -0.0453599 -0.028518442 0.040936116 0.07184632 -0.048741724 0.02185912 0.022028714 -0.03675739 0.0062319404 -0.023071552 0.03986433 0.025244066 -0.0072605168 0.009955188 0.06753753 0.060196903 0.013067071 -7.190398e-05 0.024253938 -0.047369614 -0.021690935 -0.038746078 -0.017151786 0.011052868 0.04946905 -0.07706877 0.0029963825 -0.02188338 0.013949975 0.04504218 0.024471167 -0.018966848 0.009669496 0.011046561 -0.060784765 0.07489336 0.0019430921 -0.06365498 -0.0231919 0.010018715 0.038799994 0.016256025 0.035014305 0.016364677 -0.015677385
1909 -0.01907899 0.0014425772 -0.0728353 -0.07538339 0.038785968 0.01693886 0.00022189898 0.03967441 -0.03496014 0.04184559 -0.035864625 0.028042952 -0.015528261 -0.070398055 -0.02887775 0.025793139 -0.021141933 0.04051764 -0.037439827 -0.003720618 -0.02146198 -0.014318498 -0.013734519 -0.039536074 -0.022126859 0.009538323 -0.020559255 0.013299484 -0.071382776 0.008043604 -0.022586474 0.06329302 -0.041503668 0.08184758 0.0142357275 -0.066489644 -0.0061605624 0.012359879 -0.014705008 0.06730029 0.013242956 0.0043458487 -0.039018583 0.087853536 0.016293058 -0.0459235 -0.0030979447 -0.024822379 0.055702403 0.064998046 0.029426271 -0.057531565 0.0065657916 -0.04117203 -0.027389847 0.021830507 0.048647333 0.054806132 -0.029292043 -0.0235291 0.063946076 -0.065917976 -0.079944886 0.06176948 -0.047253042 0.06258765 0.052694894 -0.055094536 0.03399416 0.009040306 -0.06513016 -0.012464357 -0.04917809 0.03974193 -0.058177825 -0.008141737 0.009300449 0.014713921 -0.04921471 0.095258616 -0.021821067 -0.009000961 0.06400773 0.020629192 -0.027360218 -0.05799285 -0.02242866 -0.036679115 0.07042605 0.019236853 0.021875562 0.04929623 0.010210486 -0.0005845409 0.040470384 -0.07539566 -0.045856073 0.027711172 0.038975608 -0.084437646 -0.003712989 0.04934983 -0.034961253 -0.021219341 0.04672871 0.03844561 0.03442269 0.0072793826 -0.002831535 0.050198123 -0.04172244 0.0015165546 4.3440974e-05 0.013002501 -0.03320528 0.06601173 -0.060863797 -0.023069056 -0.02996942 -0.0693813 0.03274125 -0.029721119 0.038215082 -0.0321893 -0.01464737 -0.02679457 0.022765255 0.05741141
446 -0.0072295265 -0.036386993 -0.0017271149 -0.0023703137 0.017691594 -0.009864159 0.027654974 0.051886976 -0.03396937 -0.039363667 0.041986976 0.02566867 -0.027665814 -0.037599295 0.029534558 -0.0016449005 -0.0048670596 0.017407516 0.044438813 -0.017879914 0.022672027 -0.016534038 -0.0068868105 0.016156046 -0.058611315 0.029204953 -0.018349973 -0.007999898 -0.037107978 0.025434963 0.012216715 0.037253026 -0.040382 0.01864261 0.0072284737 0.022969943 -0.0017192503 -0.020939112 -0.012547274 -0.019310996 0.010553973 -0.034063347 0.011691955 -0.034678124 -0.004779605 0.0038963817 0.026661854 0.006885902 0.015726637 0.053103294 0.01456281 0.017030276 0.037745666 -0.026421806 0.0559316 -0.017169824 0.006153801 -0.0004346065 0.036872137 -0.050787766 0.0395999 0.0043693744 -0.020470565 -0.0047070445 -0.052160475 0.02707395 0.06265459 0.06257694 0.03702601 -0.027467456 0.03417856 -0.018629216 -0.04837034 0.029788148 -0.027640486 0.057457086 -0.022366019 -0.0034211166 -0.03567398 0.011098153 -0.025047371 -0.0061328546 0.014703375 -0.01879588 -0.029255278 -0.04750957 0.030715408 -0.02956821 -0.041501567 0.024910761 -0.017439967 -0.014018289 -0.00052494975 0.025932778 0.009708121 0.007913661 -0.054427896 0.011060767 0.07349992 0.011082335 -0.048587553 -0.036462076 -0.027480649 0.02162639 -0.02694084 0.046978626 0.02038963 -0.0082020005 0.0241323 0.008162986 -0.0055108033 0.010289447 -0.060304765 -0.008506289 -0.038030777 -0.071790144 -0.05530397 0.012542617 -0.07075541 -0.06018574 0.030138269 0.0027497865 -0.0023844738 0.02573152 -0.0549319 -0.01835119 0.069945894 -0.00532956
737 -0.015156531 -0.0020929435 0.01318537 0.0034443955 -0.004612022 -0.038426492 -0.036937304 -0.025124798 -0.007125041 -0.012808967 0.031240238 -0.0012260998 0.031443 -0.05158018 0.038368203 0.041623082 0.052230604 0.01837449 0.014853146 0.032540254 -0.0016147605 -0.01711305 0.02843507 -0.0035120237 -0.0034056182 -0.0025767852 -0.01963276 -0.024810633 0.008725746 0.0057678837 -0.0024769972 0.031064842 -0.020858362 0.0037027579 0.0028870234 -0.006492404 0.03376773 0.00840916 0.04626593 -0.051174376 -0.056781527 -0.005478576 0.017606398 0.022673009 -0.01294686 0.028235922 -0.013967334 0.034886613 -0.06722876 0.02911331 -0.06074856 0.020032533 -0.0067042983 -0.008310689 -0.0605013 -0.030137533 -0.0016318038 0.047349602 -0.0064163445 0.005941549 -0.06794128 -0.02507101 -0.01696576 -0.045074932 -0.02040822 -0.018043544 -0.03374846 0.0378914 -0.00035797956 0.049311537 -0.0039183223 -0.00897157 -0.014651693 -0.025468927 5.6848832e-05 -0.03463202 0.007937254 -0.02302284 -0.0045228223 0.02656692 0.043836404 -0.034597885 0.04385471 0.048856083 0.0043031443 -0.0605155 -0.015792474 -0.006782364 -0.0059749205 0.04366851 0.0004706572 0.018323103 -0.008458381 -0.01884515 0.056106985 -0.03321377 0.029893795 0.030920506 0.015516423 -0.09282464 -0.013532145 0.043558713 0.008314646 0.054061905 0.004693366 -0.0014151501 -0.021843348 -0.013331238 -0.009008613 -0.0010245419 0.04814506 0.017112844 0.042117443 0.013071244 -0.057976693 -0.07843019 -0.0011675212 0.04180053 -0.020049088 0.0054797796 0.009868505 -0.03396968 0.0011858821 -0.0009266938 -0.00014909661 -0.06038501 -0.010355049 -0.026405863
50 -0.039947845 -0.038195968 -0.034102097 -0.049136925 -0.035003282 -0.040025238 -0.06571455 -0.034577228 -0.016087947 0.08058386 -0.04296938 -0.07207693 0.014373851 -0.03356456 -0.024388645 -0.012016107 -0.018986749 -0.0007378145 -0.006603969 -0.052554995 -0.038461518 0.04733953 0.036765944 -0.08438378 -0.005263425 0.019251598 0.040988408 -0.041932963 0.028572986 -0.022019483 -0.023872986 -0.017118573 -0.08048602 0.073376104 0.04408074 -0.018855458 0.013065432 -0.0017263604 0.035885025 0.0076964763 0.035430126 -0.046208628 0.019494615 0.019016534 -0.0092771 0.018814877 0.04690167 -0.047679394 0.01412529 -5.413639e-05 -0.06634224 -0.0038451885 -0.032842815 -0.013849895 -0.08656708 -0.07295645 0.022884237 0.03749634 -0.06428658 0.042619523 -0.008832196 0.028936883 -0.026583878 0.042273834 -0.0650157 0.01277938 0.003924752 0.010416439 0.019337133 0.012728585 0.03942313 -0.021100698 0.072169036 0.015231774 0.0466247 0.045232862 -0.064089395 0.008232567 0.04610939 0.018342474 0.09414702 0.039791234 0.026004901 -0.023608971 0.066291 -0.0054260087 -0.05310635 -0.05642629 0.03651962 0.005186023 0.07769713 -0.0276207 -0.05108486 -0.00014082874 -0.016688986 -0.0680102 -0.007865434 0.014188312 0.059952177 -0.04478527 -0.08122543 0.07152941 -0.036342308 -0.06404246 0.01640131 -0.06349769 0.00010392595 -0.008992079 0.005917972 0.017827732 -0.036413264 -0.0008683992 0.041445397 -0.021677585 0.019156773 -0.035457492 0.044849843 0.018276818 -0.007801386 0.037103303 -0.03256612 -0.023488315 0.0016467394 0.004086656 0.03599975 0.047926757 0.020357607 0.05966601
244 0.012165062 0.019879144 0.028592419 -0.017513826 -0.046750173 -0.011477571 0.025449494 -0.050402466 0.011189989 -0.0045742425 0.0125579275 0.0068276315 0.08358556 -0.030722572 -0.030090462 -0.01276202 0.007815618 -0.013818935 0.026674077 -0.013125285 -0.007821033 -0.07047444 0.015545969 -0.026113132 -0.07063217 0.05567423 -0.08043626 -0.015146743 0.004413927 -0.08631332 -0.038624227 -0.043766152 -0.014173227 0.05460019 -0.035180308 -0.033828866 0.015338593 -0.01775159 0.0326335 0.013455213 0.030866172 -0.04196457 0.055484124 -0.017272463 -0.05040133 0.06636275 -0.041008905 -0.028754722 -0.03832982 -0.033484507 0.019468218 0.035155486 -0.07423956 -0.00050663913 0.029907988 -0.024976982 0.03965507 0.014410657 0.047754746 0.012984781 0.0120353205 0.041197356 0.0228657 -0.03842275 0.028156487 -0.020062951 -0.02014694 -0.008494061 0.027049547 -0.012347221 0.014060561 0.045632936 -0.022955254 -0.037765305 -0.001632114 -0.03191603 0.03553452 0.010748196 0.011808195 0.013087567 0.037401576 0.00492965 0.03884169 0.0075093065 0.02044218 0.020325614 -0.015179639 -0.010849287 0.0671347 -0.009969887 0.06345305 -0.016358102 -0.025544103 0.023924258 -0.029762443 -0.013089404 0.011523091 -0.029659826 0.071419165 -0.0005272201 0.07208638 0.012804561 -0.04447852 0.0391856 0.074842155 0.0103409635 -0.06699259 -0.015008982 -0.0149834445 -0.07704418 0.008131779 -0.03804837 0.041202348 -0.023660434 0.020375377 -0.059223518 0.049083244 0.043282107 -0.012892928 -0.0057538683 -0.034428027 -0.025710477 0.04809838 0.019631589 -0.0014476762 0.035749704 -0.05151718 0.05708982
497 0.026674822 -0.00020113448 0.054809406 0.011755436 -0.06521232 0.061256304 0.0069118706 -0.016787518 0.02395927 -0.021618264 0.024265094 -0.031833727 0.03484773 -0.0030240857 0.007957367 0.037076816 -0.020616822 -0.018935662 0.012314239 0.031788997 0.00611884 -0.06319441 -0.0060607414 0.07195313 -0.011649715 0.01057975 -0.09238626 0.03150776 -0.010601227 -0.06736774 -0.030019576 -0.028983358 0.020934384 0.01757657 0.04928907 -0.056464784 0.020564945 0.014755237 -0.063087344 0.04366522 -0.044364188 0.019101921 0.028771479 0.03161825 0.0110099865 0.03160804 0.05541093 -0.04998179 -0.056380168 -0.03565912 -0.010349504 -0.032980807 0.02503266 -0.025392257 -0.031123359 0.017006366 0.030163966 -0.019453313 -0.010892528 -0.0019742562 0.07207768 0.008410581 0.008831124 0.0025155316 0.03231897 0.015306294 -0.020958321 -0.051540215 0.032768793 -0.050239578 -0.011341521 0.018330917 0.057195142 -0.0063643176 0.029155618 -0.035050977 -0.0098061375 -0.051777743 -0.03147458 0.01541787 0.08363858 -0.02528076 -0.0032177153 0.017260462 -0.036319967 0.013930633 0.0113049075 0.035150196 0.017841687 -0.021819795 -0.0023196167 -0.06231728 -0.053667296 -0.048085455 0.016736478 -0.08077196 -0.030514872 0.060209285 0.041992202 -0.046971288 0.05827144 -0.027565304 0.035746567 0.014295959 0.044211213 0.019006496 -0.045940544 -0.026920026 0.0045087514 -0.0687048 0.03434842 0.024080053 0.043080453 -0.037898574 0.019159188 0.011306616 -0.026302299 0.042781744 0.03637449 0.047364976 0.056470763 0.0074871597 -0.004491956 -0.03519156 0.08039541 -0.009238973 0.08309321 -0.020687323
2173 -0.0484779 -0.075201936 -0.0579319 -0.029714206 -0.03682754 -0.020197272 -0.028670738 -0.0799928 -0.028685218 0.024616579 0.040458106 0.06349429 -0.034775257 -0.0033107821 0.008122137 -0.022182858 -0.0012887602 -0.02425262 0.023566598 -0.013573155 0.0057832818 0.017348642 -0.030241577 0.030203369 -0.050842725 0.051600948 0.017928038 -0.04890593 0.018333737 0.009911432 0.025164159 0.008335224 0.048949774 0.026767174 -0.057542633 -0.056354444 -0.06299288 0.05799047 -0.020594435 0.0029387001 -0.0027767126 0.055945497 -0.010275969 0.039687738 0.01244382 -0.069573775 -0.071814954 -0.015204302 -0.017074334 -0.0097741475 0.037195414 -0.023625592 0.052101266 -0.024749354 -0.01945526 -0.0650103 0.04108372 -0.03430739 0.045314655 -0.016255112 -0.05551567 0.012407628 0.02307872 0.009678253 -0.058847487 -0.030639328 -0.06556488 -0.016444383 0.041074857 -0.06651331 0.0055781933 -0.044452094 -0.0304352 0.0007621792 0.02181458 0.03895424 0.07083849 0.0014897027 0.014803643 -0.052469507 -0.0032366668 -0.023747316 0.011943504 0.045331985 -0.049959026 -0.024004327 -0.024090735 0.008576834 -0.0009930275 -0.042380333 -0.0061667617 -0.049100738 0.060291708 -0.007946847 0.009912539 0.040654875 0.082825966 -0.018537141 0.053319443 0.021599365 -0.03295773 0.035920538 0.014542473 0.027259065 0.037946764 -0.023403348 -0.010240187 0.034828912 -0.038592722 -0.011679036 -0.04274182 0.020277858 0.031908896 -0.00013563223 -0.03912216 -0.008183579 -0.060382504 0.009221371 -0.032524664 -0.006510882 -0.042076282 0.017258517 0.0019339554 -0.03806689 0.050478395 0.009158738 0.026643636 0.043750152
1980 0.04047162 -0.042634055 0.038734585 -0.02811334 -0.024693398 0.061021686 -0.007135674 -0.04108498 -0.009904259 -0.01666652 0.026714351 0.022732196 0.011401838 -0.01586952 -0.04174058 -0.0079780845 0.036929198 0.0027141618 -0.011402352 0.013285878 0.0090038655 -0.010846198 0.01761883 0.05529152 0.043837275 0.029162085 0.014649882 0.031513616 -0.032224208 0.008647535 0.017109083 0.008014974 0.024243852 0.0022977826 -0.029125059 -0.0164643 -0.04222405 0.047691394 -0.07480834 0.009846397 -0.043358006 -0.00068143196 -0.050917733 -0.060579788 -0.03170576 0.034447998 0.044286095 0.016737632 0.00036267986 0.04829603 0.04375928 -0.0010746644 -0.034346525 -0.0023080248 0.06540368 -0.088282846 -0.02074098 0.0064449105 -0.031115286 0.015213384 0.003931081 -0.012344926 -0.0037448376 0.056852084 0.0154721225 0.0057855346 -0.06584868 -0.011852567 -0.005060398 0.01941681 -0.047717158 0.02606831 0.021982014 0.03876717 -0.07001708 0.0043492117 0.035481192 -0.011945892 -0.014584426 0.004164733 0.041101873 0.06937022 0.036308467 0.052231085 -0.042085152 -0.045408454 0.043957096 -0.014632305 -0.018347979 -0.019283494 -0.02697419 0.051954687 0.021120686 -0.04706615 0.048870057 -0.051216904 0.0008721959 0.0025573513 0.02638146 -0.009306595 0.017745042 -0.042757135 -0.018246472 0.019576164 -0.022424033 0.030417623 0.015478816 -0.03368971 0.020110555 -0.014270075 -0.06391334 0.038362466 -0.029916126 0.045053165 0.010380068 0.022598077 0.051369384 0.05910619 -0.01327635 0.0010815937 -0.0006569625 0.07418138 0.01123538 -0.07864562 0.041525446 -0.008684094 0.036864083 0.011461598
1209 0.046580207 0.03837135 -0.016128236 -0.000873309 0.040430613 0.000115286355 -0.024847766 -0.026887996 -0.021581922 -0.011917537 0.056948397 0.050873306 -0.06626641 0.020692885 -0.063753314 0.0127606345 0.01157998 0.0029408208 -0.03566509 0.010635682 -0.012163394 9.837531e-06 -0.011315153 -0.040889867 -0.027859041 0.0025838516 -0.04084922 0.054737043 -0.053757034 0.022341143 -0.042324647 0.009860104 -0.009717833 0.067881875 0.051121216 -0.071067885 0.056788668 -0.012753979 0.050483935 -0.008163983 0.021190643 0.0029817312 -0.028658539 0.03423107 -0.021081794 0.02597917 0.034160063 0.014517185 0.0037732301 0.012731419 0.030025002 0.029324763 0.052471038 -0.006417376 0.034041777 -0.003355559 -0.039277725 0.012152711 -0.019434594 0.021683358 -0.016354786 -0.008363095 0.020888906 -0.0076071396 -0.013593087 0.040842332 -0.051162746 -0.015483697 0.058373876 0.05168405 0.020606926 0.00780773 -0.02894482 -0.013707811 -0.029954296 0.019226618 -0.00995243 -0.006211085 0.03875034 -0.009718357 0.040137682 0.00214674 -0.06204155 0.0076339557 -0.03209952 0.0426452 -0.030424736 0.0032056563 -0.01745008 -0.033464227 0.027327228 0.04360055 0.045563348 0.013988678 -0.05439668 0.00904091 -0.0068520284 0.02135912 -0.02907265 0.026684353 -0.012836662 -0.033638798 0.06539561 0.033472076 0.043896396 -0.018829726 0.038894963 -0.01811048 -0.058789674 0.027728826 -0.0052632247 0.04311221 0.009417188 0.01226487 0.016167428 -0.031054296 0.029239403 0.027500499 0.035277694 0.020578321 -0.020888442 -0.0006645943 -0.006696673 -0.0613926 0.01123767 0.0387971 -0.029330194 0.080999374
1123 -0.054164983 0.016770579 0.036684833 0.08402452 0.0327746 0.05599695 -0.037549797 -0.021418395 0.028039008 -0.01775167 0.0084229335 -0.041374348 -0.024143672 -0.016195126 -0.0021462631 -0.03197451 0.06734998 -0.039339144 0.015763523 0.07171755 -0.090137236 0.06111281 0.086975716 -0.054534312 0.026206138 0.03800337 0.024822954 -0.018505927 -0.021651562 -5.2150863e-05 -0.07210511 -0.00075798546 0.040837914 0.028113982 0.0861157 -0.06367533 0.054730672 -0.024129575 -0.037802503 0.025130903 -0.043433655 -0.026704872 0.04459488 0.010188563 -0.05946262 0.041934017 0.068099715 -0.035298146 0.023104686 0.06632863 0.011057297 0.08898958 -0.008645436 -0.051742785 0.023014694 -0.058180753 -0.034434967 0.08508662 0.009449593 -0.031403814 -0.0315838 0.04702139 -0.052536845 -0.030242888 -0.0010501592 0.008727227 -0.024877232 0.062223993 0.052456014 0.008658171 -0.043694198 -0.010840428 -0.005882873 -0.0051396256 -0.025523338 -0.028152945 0.016843066 -0.005968944 0.040538076 0.013396958 0.025805634 -1.9600058e-05 0.026563793 -0.023889417 0.037113763 -0.010371482 -0.06397579 -0.03545378 -0.041548572 -0.00589422 0.04371152 0.004399612 0.010905522 0.02441117 -0.008533088 -0.016496794 0.017888458 0.005047359 -0.01701878 -0.00936547 -0.045670725 0.039834224 0.0025719113 -0.02928581 -0.061005924 0.017279878 -0.008112247 -0.039886326 -0.009989816 0.02778523 0.030150468 0.013282563 0.005961778 0.0042637433 -0.001315924 -0.020315733 -0.00839991 0.042897835 0.028538505 0.008894379 -0.00951801 0.05979283 0.012023905 -0.0041740495 0.0133232 0.0006940351 0.018385215 0.056391437
842 0.03335458 0.03826642 -0.016933616 -0.06534545 -0.04425765 -0.0032504362 0.021375962 0.03497201 0.0269053 0.06424776 -0.031097703 -0.08371382 -0.03457207 -0.015101553 0.056138568 -0.02010986 0.042397935 -0.008670374 0.004724004 0.0053725094 0.06010402 0.012620631 -0.042944133 0.030167187 -0.04823148 0.033035196 0.078120604 -0.05911151 0.0067548896 -0.078292176 -0.052520204 0.013084682 -0.072179414 0.018709827 -0.0031825078 0.0469325 -0.07554256 -0.094032265 -0.004654841 -0.03575946 -0.03873338 0.016833024 -0.031467557 0.037718832 -0.018650893 0.023607608 0.040344827 -0.047938183 0.056006044 -0.0009424921 0.044092428 0.003908918 -0.066226736 -0.05932996 -0.043047488 0.03933953 -0.054549318 -0.038674016 -0.030450819 -0.029168628 0.069195084 -0.074226126 -0.0053446433 -0.037494697 -0.056377072 -0.008255209 0.022674229 -0.048239242 -0.03828151 -0.064611636 0.07472009 -0.041780945 -0.05202729 0.04262151 0.007829087 0.027312493 0.072392955 -0.021950124 0.03773128 -0.0046912846 0.0043399506 0.011116147 -0.008131362 0.037541464 -0.040336095 0.0055481475 -0.045178477 0.055116713 -0.021278445 0.017793864 -0.051204134 0.049624804 -0.04740517 0.009242686 -0.0032115811 -0.023442714 -0.03930371 0.014740167 -0.08389306 -0.054038998 0.0036094661 0.030730503 -0.037949573 -0.025408288 0.07266735 0.0073575173 0.027159289 0.015493533 0.04517494 0.0062849163 -0.051542 -0.05981879 -0.04250427 -0.024353733 0.017063767 0.017514301 -0.029997889 -0.0765362 -0.013680824 -0.0022151747 -0.005965317 0.054084342 0.007832983 -0.0041785594 0.02665618 -0.06294873 0.0026568654 0.023667855
2012 0.07256701 -0.023352282 0.03208087 -0.02330072 -0.04042227 0.03761383 -0.015754892 0.034478974 -0.0076561407 0.0002601251 0.0060497425 -0.03714967 0.054279003 -0.0395439 -0.0017793274 0.0024894774 0.0264992 0.011565496 0.015961511 0.055571485 0.003569678 0.007557032 0.0063748076 -0.046905458 -0.020132752 -0.0011616726 0.054939333 -0.0284194 0.03939189 -0.052984856 0.020559706 -0.028633527 -0.011728915 -0.008900613 0.055871543 -0.039818797 0.065512285 -0.0033877734 0.05011885 -0.0061907065 -0.06850576 0.022565754 -0.007474701 -0.008672498 0.05318061 0.010588131 0.0241011 -0.02985099 0.013522459 0.0027375172 0.040391374 0.015602851 -0.05630366 -0.040908612 0.014601903 0.02117199 0.05189893 0.06811552 -0.02399504 0.017454298 -0.033433225 -0.017396443 0.05029674 -0.06505617 -0.00086926983 0.015792016 0.04489366 0.017450688 -0.006739726 -0.00340727 -0.00019425497 0.056198806 -0.014255661 0.04693178 -0.014901891 0.043584354 0.040590107 -0.010796368 0.04219549 -0.000103713304 0.067753255 0.03608738 -0.029957222 0.008650689 -0.025105292 -0.006975083 -0.019457374 -0.015788123 -0.03496906 -0.014709724 -0.0080951145 -0.017072499 0.022457598 0.00086811464 -0.059537735 0.030178187 -0.05396934 -0.027081208 0.008309536 0.0026844996 -0.0073827556 -0.042977247 -0.0019940184 0.03778365 0.026331648 0.004812931 3.290562e-05 0.038436778 -0.039267305 -0.06899606 0.011666978 0.05539368 0.068610236 -0.02914242 0.025223885 -0.020624837 -0.03575904 0.040298417 -0.09805699 0.02446012 -0.037599504 0.010348806 0.008361245 0.0119096795 0.011497524 0.03875539 -0.021489965 0.0034581064
1525 0.051475737 -0.05397947 0.023145368 -0.029565217 0.022847926 0.025574947 -0.023537707 0.013103179 0.064951904 -0.021146432 0.0112772975 -0.042286236 -0.00076685427 -0.031972334 -0.03487632 -0.0036894327 -0.012103081 0.0030939288 0.0073476993 -0.031766042 0.003172906 0.0087200245 -0.0055017695 -0.029144168 0.012444198 0.036158226 -0.06982815 -0.014997058 0.033957794 0.021426106 -0.054644663 0.03332579 -0.019982371 0.044304833 -0.008434708 -0.029651098 0.023614012 -0.029843291 -0.026252871 0.023050476 0.08138167 0.010740393 -0.030428104 -0.012116232 0.027796218 -0.019532576 0.05522601 0.024348592 0.013717438 -0.020178797 -0.00300121 0.07248245 0.0053168787 -0.012211732 0.056141507 0.022241924 -0.03136194 -0.008513915 -0.021581007 -0.007924027 0.040708933 0.041173205 0.051941417 -0.008339404 0.003391575 0.0066323234 0.004506908 0.016677774 0.04495058 0.013659136 -0.00837709 0.049172807 -0.0008131229 -0.04471772 -0.00820117 0.02287253 0.03270229 -0.0041992473 -0.026808219 0.049728032 -0.017080275 -0.055630215 -0.008459993 -0.016160417 -0.024624456 -0.002891912 -0.02855203 -0.018624132 -0.00025350112 0.061517175 0.011654313 -0.040155977 -0.010983132 -0.0065029743 0.01330519 -0.012964259 0.07928011 -0.021520363 -0.03128101 0.013582955 -0.06416861 0.019489393 0.037515484 -0.061093647 -0.0067451196 0.022701243 -0.024938129 0.04213428 0.053675942 0.04077749 0.0026707798 -0.017388323 0.00790941 0.054130968 0.004441717 0.08491038 0.012583828 0.07627314 -0.06368299 0.037473246 -0.024619365 0.0046503926 0.05939559 -0.0053704623 0.001982874 0.0016083356 -0.06466862 0.024723854
1873 0.044995293 0.06429269 -0.048705492 0.03887947 0.028807336 -0.04450871 0.018360106 -0.021844732 0.041776836 -0.012458017 -0.024152115 0.0624979 0.024892708 -0.021335518 -0.02569494 0.043586936 0.005476191 0.029683167 -0.03304057 -0.05136632 -0.09504275 -0.0037275827 -0.06322652 0.022998007 0.026068766 0.008950771 -0.049030848 -0.020255568 0.019424299 0.025367133 -0.07419051 -0.02483606 0.01512343 -0.00020381832 -0.022335656 0.0119245555 0.051588517 -0.032242145 -0.0095739085 -0.0145264845 -0.046911906 -0.02602896 -0.04941716 0.03450114 0.035863407 -0.023224568 0.016764484 -0.009299326 0.041695263 -0.07677341 0.044362944 -0.04918378 -0.034962658 -0.019094516 0.0037535694 0.012177244 0.0145857595 0.046031266 -0.032613613 0.04229405 0.005804307 0.042110164 0.008791076 0.0050432202 -0.030951418 -0.0045247627 -0.024734173 0.016258148 -0.04162707 -0.043329485 0.0055173943 0.033866227 -0.02101141 -0.02545376 0.033800248 0.013786653 -0.019470576 -0.022763861 -0.005434868 -0.041162673 0.0051988857 -0.0029920537 -0.019478891 -0.02517607 -0.023056068 0.038988333 -0.0021285403 -0.058408543 -0.034190636 -0.034833394 0.020655164 -0.0051378654 0.039532542 -0.01795005 -0.047154434 0.008523703 -0.04291253 0.06502524 0.024075922 -0.012988793 0.07700865 0.03159241 0.019907847 -0.049385265 -0.023453018 -0.031443827 0.009467043 -0.012555285 -0.06638135 -0.03143461 -0.09738352 0.00074704905 -0.024641614 -0.04394087 0.03396021 -0.04086822 -0.026007168 -0.020843374 -0.017437916 0.05662287 0.078093566 -0.008607761 -0.014349672 -0.017752472 0.06752132 0.03386996 -0.075564176 -0.036325753
722 0.061826486 -0.033212297 0.066410735 -0.0064783515 -0.056186926 0.030382013 0.025968995 0.027018432 -0.014151961 -0.030293498 0.009706558 0.023059377 -0.019771213 -0.06429875 0.01237158 0.0327908 0.000607338 -0.01984304 -0.044129595 -0.06769719 -0.057045747 -0.069300584 -0.031065356 -0.025839241 -0.056879573 -0.016167661 0.017724788 -0.048993006 -0.04607548 0.027317543 0.07841642 0.0073682796 0.039626162 0.037899915 0.004782863 0.022263248 -0.06267335 0.0416659 -0.045051627 -0.040844727 0.047591057 0.030369017 0.0152029395 0.048063334 0.08243436 0.0031543532 -0.027909 -0.0284691 0.06100863 -0.025696833 -0.03336381 -0.04666046 0.07436915 -0.02056518 0.07299633 0.058933306 -0.07874435 -0.08320973 -0.02005738 0.049655505 0.07419702 0.020954052 -0.014227713 -0.029971901 -0.07638957 -0.050446365 0.03659897 0.04081378 0.014995239 0.056674622 -0.046205893 0.031119535 -0.038646616 -0.08745046 0.0006654232 0.058247056 -0.062408518 0.058668688 -0.02549218 -0.030390875 -0.034274492 0.044046126 0.025464032 -0.0053923703 0.022363326 0.013472823 0.05959348 -0.069875926 0.0289633 -0.059737846 0.07663217 0.01318107 -0.059686 0.023732886 -0.045314398 -0.01660371 -0.032792903 -0.07569499 0.08155399 0.03156895 -0.00414245 -0.0015640506 -0.021130016 -0.016125908 0.0049564037 -0.033950966 0.009359817 0.011097337 -0.020696413 0.06262511 0.044954672 0.06037387 -0.03282087 0.05195127 0.012144927 -0.012905477 0.08801093 0.033303138 0.0031819933 0.02193836 0.034769423 0.032790817 0.03141029 -0.03640623 0.03378923 0.049815845 -0.03510864 0.03135262
1560 -0.018501898 0.019017912 -0.04231133 0.041421857 0.026017379 0.0034070876 -0.0020999806 0.0045643365 -0.038312666 0.0051019904 -0.074571356 -0.027218942 -0.028001307 -0.044459052 0.029526023 -0.022884563 -0.010290505 0.02615153 0.004326207 -0.050270155 -0.05474722 0.04844738 -0.02956718 0.01411488 -0.010290428 -0.0076178247 -0.006018303 0.01670665 -0.013698795 -0.05196548 -0.03215634 0.056476712 0.03179219 0.026617374 -0.0016895677 0.045177042 -0.0413427 -0.023167353 -0.009278146 -0.026853943 -0.016194254 -0.024266997 -0.0049649123 -0.044443544 -0.01711402 -0.024038464 0.035381414 0.007888929 0.011913583 0.02145456 -0.010567168 -0.05612959 0.043446995 0.036500443 -0.00638642 -0.007200412 0.0029919762 0.0033261143 0.02846714 0.08136957 0.09717532 -0.02166015 0.05854421 0.034158602 0.009473459 -0.007425651 -0.025674224 0.0099164825 -0.034409378 -0.07769603 -0.024330001 -0.022331716 -0.0197355 0.01494877 0.025247836 -0.021322275 0.011532791 0.014819765 0.015151767 -0.02079882 -0.00855507 0.0129988035 0.026269725 0.001857633 -0.00891424 -0.054576438 0.004553637 0.0058647683 -0.038197223 0.004968314 -0.034976162 -0.006657779 -0.052743368 0.014608585 -0.053648807 -0.054082237 -0.06432519 0.025548987 -0.06931427 -0.031795863 -0.0023357212 0.06706126 -0.072532676 -0.07309677 -0.010321974 -0.023498492 -0.006287497 -0.0048072794 -0.037819773 0.026836755 -0.055945903 -0.008056046 -0.010978192 -0.05036478 0.03412161 -0.017247591 -0.043664325 -0.03395992 -0.023476673 0.00920222 -0.035075158 -0.0070434567 0.049612887 -0.0070233555 0.034178905 -0.026871247 -0.03804121 0.031700037
57 -0.052295882 0.08070543 -0.03198511 0.0376864 -0.0016356762 -0.010908349 -0.05512367 -0.034003172 -0.045288987 -0.0037836873 -0.012755139 -0.004926423 -0.03613254 -0.025571965 -0.034881957 0.025380824 0.0055516544 -0.062532306 0.031792473 -0.012078814 -0.021705791 0.01421382 0.0119706495 -0.01425476 -0.007219194 -0.0080099 0.016239949 -0.012841723 0.00026521 -0.054732442 0.03411816 0.08034048 0.01940344 0.012602738 -0.008067832 0.030024506 -0.06206201 -0.059116416 0.005822452 0.011061423 0.060520727 0.003822729 -0.018278148 -0.016584134 0.05576414 -0.05172352 -0.040472105 0.04043869 -0.049869753 -0.06286007 0.034228373 0.031935573 0.0036581517 -0.016845139 -0.019865615 -0.012529819 -0.0031097701 -0.061456855 0.013859998 0.013956792 0.048587933 0.009173401 -0.029925976 -0.0051805037 -0.061496384 -0.08940549 0.021651054 0.0066481167 -0.046982445 0.046840876 0.04406146 -0.06670796 -0.0014044618 -0.035678104 0.030026233 -0.03082247 -0.06784325 0.050284587 -0.07007358 -0.06520286 0.030553237 -0.030159144 0.015850509 0.054553904 -0.017150283 -0.046373118 0.016552059 -0.011789179 -0.0040370408 -0.008151019 -0.018887708 0.011001525 0.0361918 -0.03929512 0.01696883 0.0052434015 0.01192862 -0.04019204 -0.068529256 0.02924178 0.021383293 -0.034521714 -0.0850873 -0.0127994735 -0.031058373 -0.055520408 -0.044474002 0.048420317 -0.013629425 0.037001815 -0.008528473 -0.012044836 -0.025216715 -0.043760788 -0.024070552 0.042363334 -0.04442933 0.07297038 -0.047953695 -0.043403145 -0.03231116 0.05538284 -0.07261341 -0.08531784 0.053714972 0.05764831 -0.007550305 0.00835944
201 0.056800574 -0.031984784 0.018155571 -0.033646546 0.04732626 0.02775201 0.061963655 -0.05194372 -0.042458393 -0.061264098 -0.005656655 0.057090767 -0.042710457 -0.004821353 0.028117688 0.08846222 -0.043093357 0.018240584 0.00438627 -0.007153912 -0.017528666 0.075047486 0.030251639 -0.041573476 -0.04091323 0.04071206 -0.018531583 -0.0069470457 0.019113779 -0.052181862 -0.03758289 -0.038621645 0.0050846366 0.028707705 0.05105321 -0.054185882 0.026547525 -0.03470251 0.008328552 -0.028000169 -0.0072408314 -0.0066600936 0.032366514 0.020529443 -0.0112633705 -0.016526293 0.051969428 -0.037435062 0.002109782 -0.03960209 -0.022205025 0.030152695 0.0066098776 0.011547204 0.062470917 0.015909087 0.024328208 0.0233186 0.025363455 0.02991156 0.0008568014 -0.03101299 -0.0038921637 0.038992364 -0.06528236 -0.032968365 0.01225577 0.0056739985 0.02152381 -0.05184607 0.05031273 -0.037458014 -0.03007367 0.031909578 -0.002532678 0.015929457 0.01748357 0.02768463 0.027692651 -0.08484951 0.03352389 -0.03366122 -0.078995496 -0.0012756945 -0.022918304 0.026464416 -0.01508045 0.0779525 -0.014104503 0.050790884 0.06323035 -0.028085327 -0.041469973 -0.039498784 -0.029574485 -0.014506166 -0.040752567 -0.038732763 -0.036110032 0.017094692 -0.091748804 -0.033967774 0.012392454 0.0452338 -0.033243243 0.024666555 0.019105043 -0.015297104 -0.0044853264 0.046712946 0.05149632 -0.04618308 0.008172544 0.011238209 -0.07398043 -0.06263027 0.00763084 -0.016102506 0.08529196 -0.03900093 0.05244682 0.0066577806 -0.021498542 -0.021773936 0.01760094 -0.0021645806 -0.015002812 0.029647402
1170 0.053824224 -0.018285263 -0.033775277 -0.05215161 0.026721578 -0.0114214 0.035887573 -0.03569502 -0.04231422 -0.018337788 0.014146663 0.016897472 0.019040791 -0.016812356 0.008784946 -0.006569252 -0.04963473 0.035422154 -0.009331208 -0.044692658 0.010354773 -0.01776823 -0.05726452 -0.061428912 -0.04153308 0.045308575 -0.047666978 0.0106654735 0.06201079 -0.03405071 -0.017012173 -0.050304867 0.016089585 0.036340598 -0.024898635 -0.00051639817 0.03833364 -0.024842134 0.025535673 -0.08504839 0.0044149123 -0.023947278 0.0050645145 0.054251015 0.020862544 0.021331443 -0.04644337 -0.026394347 -0.019005006 0.027400538 0.020306643 -0.019364474 -0.05191528 -0.045631025 -0.049264386 -0.0013672692 0.065435216 -0.014253243 0.054944966 -0.014491808 -0.0011856977 -0.020559823 -0.039468694 -0.005782229 -0.04900302 -0.0026341844 0.008230424 0.011925811 0.025737949 -0.014867089 0.027057486 0.013559687 0.04576072 -0.014445541 -0.014814491 -0.052451804 -0.015540965 0.0049344283 0.048491888 -0.04435004 0.040097043 0.01840511 -0.07434622 0.009871589 0.057698112 -0.028573079 -0.034761395 0.020221151 0.0688784 -0.033970546 0.007134496 0.015980583 0.008045749 0.0293111 0.02960626 -0.033004984 -0.019087462 -0.08820682 0.016066069 -0.061830092 0.054120667 -0.0024907268 -0.02296785 0.058427013 -0.0375989 0.028054751 0.050113045 -0.076172456 0.030879932 0.016926957 0.018716812 -0.005293906 -0.080466606 -0.0098619005 0.018095179 -0.04185661 0.0051702703 0.018406179 0.016215721 -0.0004340576 0.014645234 0.0862571 -0.040323116 -0.005909377 0.009059837 0.00919175 0.027800774 -0.05742199
2092 0.023282679 0.0063139545 0.049202345 -0.055132642 -0.01765626 -0.029794965 0.06635745 0.023905288 0.010065937 0.0035494892 0.015081829 0.008112449 -0.04784139 -0.022623995 -0.04435571 -0.019670812 0.009209668 0.031295158 0.005595957 0.056300208 0.037560232 0.010102715 0.025054595 -0.020387199 0.044902872 0.0068969843 0.0020763748 0.0059457785 0.023317877 -0.023601042 -0.001381318 -0.030384585 0.019266136 0.009878725 0.02461176 0.002244017 -0.005469461 0.0076346523 -0.07413716 0.0038389768 -0.0019267853 -0.0055339574 -0.018690601 0.015727105 0.016938739 -0.017336387 0.03027765 -0.025798984 -0.030681327 0.07962134 0.030287389 -0.011047088 0.014047803 0.009445729 0.034380674 -0.048412293 0.07914541 0.030951124 0.002685993 0.029150184 0.022122579 0.015624915 -0.041320164 0.006110068 0.022203762 0.014882252 0.058168475 -0.018981837 -0.038663857 -0.027299507 0.012580182 -0.028351204 0.025951913 -0.032082286 -0.060024593 0.035502944 0.024765316 -0.017846825 0.026016194 -0.039027214 0.015987938 -0.02480303 -0.005433185 -0.014302239 0.012236562 -0.008025088 -0.01862669 0.027297601 -0.056009974 -0.059086803 -0.028012298 -0.021712575 0.0124494955 0.020905124 0.0035954737 -0.033156198 -0.002166919 -0.018139245 0.016083779 -0.034014948 0.05591153 -0.055625506 0.04316359 0.022108441 0.03605732 0.036581773 0.036686953 -0.006231814 0.02220664 -0.06258381 0.01179473 0.014513328 -0.026812123 0.08912616 0.0031453578 0.034688152 -0.05438447 0.016396603 -0.030245304 0.030974517 -0.016208986 -0.0023068686 0.0038899886 0.036120094 0.007352726 0.03822683 -0.004295283 -0.051087983
