2104 128
71 0.0074750297 -0.049739655 0.052736048 -0.027375307 0.03420719 -0.0067741736 0.03984391 0.032243907 0.020520223 0.0779071 0.052124776 -0.015618756 -0.0010489976 0.012169122 0.0075831395 0.05917157 -0.019156193 -0.00017795875 -0.007888596 -0.029376987 0.021764467 0.010051538 -0.023031391 0.025016086 0.018447913 -0.016434617 0.05494574 0.011100549 -0.0076115513 0.055033945 -0.02509672 0.04432738 0.059244357 -0.0045647514 0.0315497 0.07098142 0.039395873 0.024418535 0.02297205 0.03746304 -0.033189353 -0.045440644 -0.0528771 -0.0006722135 0.003426692 -0.023203677 -0.016789304 -0.04434047 -0.011257719 0.009156388 -0.009242149 -0.013819286 -0.00045478862 0.0013359493 0.02883094 -0.0051985593 0.011299634 -0.040201694 0.04220264 0.008626019 0.013046021 -0.024023863 -0.02919869 0.05969872 0.009926508 0.0113643175 -0.061330575 -0.04700068 -0.06152404 0.037231658 -0.05537846 0.0050934018 -0.031073568 0.010273163 -0.01860213 -0.04719016 -0.03169351 0.015612996 0.001797703 0.0063450546 0.009574093 0.014748649 -0.056642793 0.0067194276 -0.018304314 -0.030550966 0.017593984 0.03276263 0.02827669 -0.049719717 -0.023103202 -0.0038927402 0.020722847 -0.040634092 -0.0039774114 -0.05603116 -0.004286245 0.04119641 0.0026795801 -0.046790097 0.035021007 -0.018117972 -0.04815077 -0.0212054 -0.017399266 -0.0072805365 -0.06317776 -0.008777017 0.0065405467 -0.069642335 -0.057636835 -0.0016713548 0.03956738 0.015861364 0.019650804 -0.0033360282 -0.042044837 0.03580577 -0.015377754 0.023901997 -0.0057444973 0.030083952 -0.010497025 0.054913096 -0.00017462182 -0.030724475 -0.03384674 -0.01873669
634 0.054537617 -0.0332352 0.084261455 -0.07847588 -0.086451076 -0.041075505 -0.006428411 -0.005432669 0.06535549 0.0357775 0.021476403 -0.055267315 -0.05358004 0.007868925 0.08651757 0.08544125 -0.077808745 0.027564561 0.05615229 -0.052913588 0.11554419 -0.035924625 0.043381225 -0.029832326 -0.04784647 -0.04633155 -0.0042531337 0.046934985 -0.10196537 -0.019467052 0.09841131 0.00058834965 0.044371326 0.063212164 -0.043676816 0.065936446 -0.07490275 0.058248147 0.02938444 -0.07712856 0.0054049958 0.02315189 0.10323717 0.084605835 0.0540393 -0.019239781 -0.059627105 -0.0070915907 -0.08492097 0.063570604 0.031502586 0.06794596 -0.06031277 -0.11173351 0.0016678973 -0.011500022 0.026841009 -0.06564936 0.05445776 0.05014208 0.03615293 0.047518417 -0.023420772 0.03418938 -0.017297843 0.026632791 -0.022348061 0.005375931 -0.017977644 0.020961825 -0.059507377 -0.004412963 -0.0051894076 -0.00670993 -0.011202001 -0.022664597 0.028455151 0.045973435 -0.025614427 0.018278351 -0.009047559 -0.052321732 -0.03908918 -0.036948957 0.009070139 -0.04468608 -0.0064573144 0.018711286 -0.015336073 -0.020545 -0.014108022 0.053939164 0.066372 -0.043705624 -0.020197984 -0.0011414734 0.015195371 -0.001091037 0.0040488564 -0.059659183 0.027867666 -0.0053862454 0.056299943 0.033822022 0.0042959824 -0.028651342 0.03656966 0.031892467 -0.00205187 0.0016290696 0.022885585 0.024008263 -0.039844334 0.038691234 -0.05147696 0.033663165 0.0059428522 -0.031511802 -0.048129477 -0.037619658 -0.046263468 0.04111039 -0.043979976 -0.0067775953 -0.022864971 -0.020978693 -0.04526194 -0.012102712
420 -0.010079011 0.04766791 0.014039696 -0.0381594 0.012897985 -0.038825274 0.0054501523 -0.026314257 0.016461287 0.054661926 -0.04848936 0.016060036 -0.04911658 0.014110338 0.07212834 0.01659726 -0.015645195 -0.019755943 0.056450926 0.050381258 -0.003108011 0.014029377 0.005440296 0.0015753767 -0.0510608 0.0012523063 -0.06330906 -0.0161802 -0.07049053 -0.055632465 -0.024872016 -0.01237855 -0.012522786 -0.054733172 0.025189271 0.030719502 0.007814563 -0.020539781 -0.054481506 -0.04381258 0.052546218 0.047633335 0.041630708 -0.001690011 0.019471733 -0.009854346 -0.021841412 0.03808319 -0.0093486495 0.030842403 -0.024061445 0.0100642 -0.015513184 -0.04361362 0.036223084 -0.044673737 0.016601807 -0.03377446 -0.0037164243 0.04137713 -0.014252053 -0.024133269 -0.0010865687 0.01833715 0.007284253 0.015605495 0.02059997 -0.032765765 -0.0073404144 0.0074555697 -0.033044104 -0.0479364 -0.024879199 0.03810708 0.020086411 -0.045024723 0.03736051 0.017174385 -0.020608496 0.048926353 0.04939497 -0.06317561 0.012200265 -0.033636298 0.009678402 -0.02003699 0.015918553 -0.009759654 -0.09073665 0.036811303 -0.07218598 -0.030765897 -0.0042623812 0.061127227 -0.06149718 0.042144127 0.06492127 0.058341257 0.029241236 -0.017799772 0.027972426 0.034514528 0.0037744078 0.025228659 0.05041161 0.032379065 -0.0048409402 0.0059776166 -0.0009438729 0.04803089 0.03203099 -0.00726663 -0.07656518 -0.00037422415 -0.050743125 0.034156818 0.0471282 -0.035709053 0.006034289 0.0298998 -0.055769432 0.06875355 -0.016576717 0.031005125 0.023924414 -0.04365484 -0.025373481 -0.012433762
1372 0.065398194 0.01939764 -0.013168701 0.035369713 -0.021880602 0.022241833 0.04112869 -0.016459338 -0.023465782 -0.026828526 0.029319983 -0.0040484867 0.0002713459 -0.030738179 -0.07198105 0.054705996 0.039136894 0.028999256 0.008445222 -0.020783495 0.0031752866 0.015230497 0.00840701 -0.06956012 -0.009821786 -0.030107694 0.025231507 0.013784267 -0.007269388 -0.0521683 -0.049127728 -0.014280577 0.013528612 0.04493739 -0.07716525 -0.008503271 0.043624856 -0.057088956 0.0052010408 0.053443953 0.035915777 -0.007225571 0.02574937 -0.0016491835 -0.04116966 -0.019230004 -0.004446464 -0.010624198 0.026035156 0.030357497 0.013561908 0.025967773 -0.027755452 0.030209888 -0.041798975 -0.021352705 0.011964716 -0.045394547 -0.006545405 -0.05274554 -0.038454726 0.0002760893 -0.019748868 -0.004558225 0.03238054 -0.043638844 0.03580638 -0.09273584 -0.026485013 -0.00043464746 0.014601851 -0.01823533 -0.0033215857 0.0022310293 0.03980843 -0.006278273 0.01073867 -0.0015947932 -0.056488357 -0.016307097 0.0500428 -0.010269517 0.01566441 -0.017084356 -0.007979821 0.02523807 0.009102942 -0.08118183 0.036197085 -0.011902751 -0.014526744 -0.012677374 0.07642246 -0.004500416 -0.02308354 -0.036302313 -0.007283792 -0.046978362 0.005687374 0.0010426079 -0.009807209 -0.036691114 0.021863742 0.010899911 0.0031825125 -0.022938924 0.01397653 0.042286515 -0.07438615 -0.04361996 -0.026217148 0.0010042454 -0.034611825 -0.002063203 -0.064284965 0.02746315 -0.02093309 0.0061271195 -0.012305273 0.022473462 0.057572898 0.03601905 0.06523673 0.044525053 0.027080577 0.03325682 0.038489107 -0.02679433
933 0.04798636 -0.02132731 0.01697842 -0.046763603 -0.03279037 -0.03619037 0.053926554 -0.0004583581 0.009590838 0.022450235 -0.0016644266 -0.04445045 -0.021844659 -0.06270439 0.013617107 -0.017873788 0.06579686 -0.039010998 0.0064417385 -0.013084479 -0.05932097 0.034500014 0.010631423 -0.054058142 0.037537407 -0.016742544 0.016401868 -0.01418487 -0.039056156 0.016019458 0.033021674 0.011577354 -0.000546246 0.0389543 -0.02918948 -0.008040499 0.04209473 -0.013445426 -0.021295795 0.059211876 -4.253845e-05 -0.01677711 -0.010141973 0.007519608 -0.028823486 -0.04052779 0.0332299 -0.055064995 0.0006957578 0.07483319 0.0033946775 -0.04429648 0.0020014872 0.016295489 -0.016803069 -0.050260138 0.02218899 -0.047043744 -0.02041183 -0.034840822 -0.02778141 -0.03810942 0.019952385 0.0053665102 0.014217219 -0.043256175 0.006247276 -0.011368686 -0.044424407 -0.018817738 0.023844507 -0.06569545 0.042531822 0.037407223 0.024050152 -0.06789204 -0.038511164 -0.00810201 0.053838037 -0.021804433 0.012002859 0.0011129435 -0.03859775 -0.04799916 0.022407446 -0.025902202 0.03168595 -0.01626891 0.030962002 0.017279482 -0.058429535 0.013025739 0.023733096 -0.02214456 -0.043334126 -0.017474044 0.0029825093 -0.023476351 -0.036508672 -0.0021702214 -0.077262245 0.043089777 0.011111481 0.026597943 -0.07733298 -0.027321508 -0.012034886 0.016983787 -0.011811231 0.0038095051 0.012080712 0.09010854 0.01419792 0.045521148 -0.0065492704 -0.006332412 0.079794295 0.0539635 -0.041950848 -0.021972425 0.07077257 0.06668661 0.061862353 0.034263708 -0.029831152 -9.8437275e-05 0.04939653 -0.043326207
1021 0.007392399 -0.056999706 -0.035678696 -0.01419672 0.01628144 0.062231634 -0.058567498 -0.043646187 0.0035382316 -0.02292812 -0.048470445 -0.033258535 -0.006921504 0.05496064 0.077042595 -9.741487e-05 0.026022417 -0.023183553 0.010687648 -0.051828094 0.051921707 0.04825062 0.052504983 0.010775337 0.008913632 -0.009359702 0.034481127 0.02582503 0.052982617 -0.037093233 -0.042570867 -0.024414549 -0.032361314 -0.019113982 -0.0037532276 -0.0011416327 -0.024554227 -0.07133063 0.062477168 0.023859309 0.014750265 -0.036771502 0.028636694 0.016065178 -0.029535325 0.02624469 -0.011564198 0.0200818 -0.022230372 -0.072264336 0.06602682 -0.04830977 -0.01713492 -0.035335105 -0.049454603 -0.01737125 0.006198641 0.069809206 -0.0053235875 0.021665834 -0.04181917 0.06012184 -0.016212683 0.079510875 -0.02934936 -0.008154965 0.002795954 0.017595764 -0.052766748 0.046427675 -0.026010279 -0.0130966 -0.06052289 0.034654744 -0.025800074 -0.059469786 0.010166844 0.010919863 0.026516961 0.08139247 -0.0033164597 -0.03002665 0.04815834 -0.016813906 0.032752074 0.0083997045 0.008255177 -0.004353631 -0.029658608 -0.025461772 -0.045650553 -0.03778983 -0.0051626917 0.011534241 0.017936446 -0.009593572 -0.012542373 -0.056270335 0.025219962 -0.006891478 -0.055916853 -0.035138924 -0.025459263 -0.012200941 -0.06313611 0.019175626 -0.04640416 -0.041549128 -0.022954712 0.0052760695 -0.028486112 0.021749355 0.064131506 0.034673274 0.011602041 0.026691021 -0.016781049 0.034420323 -0.042971276 -0.030362386 0.04146225 0.06808235 0.01922794 -0.055973735 0.011502547 0.0074777617 -0.043432027 -0.059871662
476 0.021239687 -0.08629515 -0.02470713 -0.0051330053 0.060512874 -0.016123163 -0.09461675 0.044108607 0.067959264 0.10577104 -0.12753084 -0.049459744 -0.0467752 0.037532113 0.097940065 0.011705598 -0.030370034 -0.0678629 -0.0016302062 -0.07771268 0.042132955 0.012267395 0.00901565 -0.01363197 0.082684614 0.047668785 -0.025315607 -0.020079242 -0.01922551 -0.06985023 0.05859058 0.040012803 -0.01692444 -0.065342255 0.010284164 0.04720942 -0.029579146 0.024441538 -0.06129003 0.021708546 -0.070619464 0.030585445 -0.030291624 0.04034653 -0.025900614 0.077687524 -0.07167584 -0.06617936 -0.032944366 0.06613083 0.0406485 0.0076802163 -0.011230309 -0.039343875 -0.04202865 0.054433085 -0.0008402488 -0.0035827414 -0.018144261 0.07053155 0.0032224904 0.025463287 0.04676331 0.036043823 0.0041026464 -0.0026648638 -0.0067280186 -0.0062542455 -0.063235305 -0.005036114 0.06554199 -0.05554692 0.01445195 0.0047005853 0.026731707 0.0074353255 -0.048173387 0.03318617 -0.020900618 -0.03980224 -0.0153498575 0.06244212 -0.029537763 0.01025205 0.007391095 0.033611488 0.006891351 -0.048368603 -0.073693305 0.017180985 0.04125935 -0.012322602 0.015619906 0.0013284876 -0.057439983 0.03424212 -0.0594064 0.022375114 0.06535903 -0.0079675615 -0.03925173 -0.011846345 -0.05157199 0.021454236 -0.04655621 -0.05648218 -0.032250915 -0.06942786 0.014277262 0.04576491 -0.048779257 -0.020813348 -0.031586092 0.018704422 -0.042051665 -0.0138773825 -0.001921279 -0.0017202966 -0.011912608 0.003644528 -0.03786819 0.015217834 0.0020786745 -0.027080104 -0.013553209 0.04107006 -0.0037588992 -0.028083345
1406 0.044433333 -0.049842253 0.03556805 -0.028138982 -0.016451852 0.016398441 0.0068123327 0.020846946 0.03224804 0.04559567 -0.02599178 0.025521548 0.05098448 -0.018968746 0.008334659 -0.028811337 0.0061020628 0.0086315265 -0.05030858 -0.024127912 0.008078531 -0.029169241 0.040290527 -0.036829796 -0.0324671 0.0013191807 0.023184314 0.058562987 -0.013545908 0.058297202 -0.02307899 -0.012101779 -0.013098724 0.022889834 -0.006710729 0.010538689 0.001332973 0.0023933197 -0.020285323 -0.031513046 0.047210533 0.02653549 -0.019365018 0.03236017 0.0760959 -0.0029875142 -0.03013802 -0.00091823656 -0.07918068 0.028490692 -0.032483164 -0.032830663 0.03658033 -0.00058602716 -0.012945133 0.05533872 -0.0049869805 0.035279583 0.042089142 -0.047385972 0.043007392 -0.023463856 0.03738389 -0.0041685863 -0.03384238 0.014739302 -0.021061534 -0.018543165 0.06255356 0.08432836 0.043044448 0.004487102 0.0458412 0.008919302 -0.005477986 -0.055113796 0.05355063 0.052017566 0.0043654563 0.009890205 -0.025936194 0.017828194 -0.056805853 -0.0018387163 -0.00083516457 0.032477573 -0.015617188 -0.07006018 0.03290816 -0.06633479 0.01488592 -0.0071053235 0.037477538 0.024619494 -0.022713045 -0.01593641 -0.002760985 0.009938595 -0.03447681 -0.059526555 -0.018768826 0.04250722 0.0075464635 0.025225993 0.043214846 -0.00473641 0.0331202 -0.0040740217 0.028566327 -0.02756442 -0.031773377 0.035301425 -0.037154306 0.01631574 0.032850385 -0.050603773 -0.019569628 -0.0051352647 0.035691552 -0.026421884 -0.0077192346 -0.006859917 0.042296004 -0.0052736592 -0.0051042093 -0.0066218604 -0.05457445 -0.024499979
477 -0.004664258 0.0058563882 -0.006677741 0.029119195 0.03563597 -0.09419676 -0.0361427 -0.0028090358 -0.016018443 0.025935512 -0.0004114245 0.003470696 0.006371504 -0.04771337 0.072991654 0.011387178 -0.027847443 -0.07569986 -0.03365006 -0.050093576 0.050673172 -0.0154785095 0.073433384 -0.058274787 0.046366267 -0.00539632 -0.013230322 -0.012705943 -0.0009756093 -0.021742556 -0.06915325 0.08651387 -0.01862371 0.004548801 -0.014969579 0.050937828 -0.058085233 0.08843133 -0.05030947 0.031564854 -0.017423848 0.05587181 -0.036408372 0.10185242 0.068072654 -0.011865805 -0.014003538 0.029958043 -0.08184588 0.02848029 0.0041089244 0.028505225 0.07503199 -0.04779908 -0.031661462 0.050655548 -0.063012786 -3.4933473e-06 0.010165955 0.03958304 -0.006148168 0.034963954 0.026977172 0.007363308 -0.025168777 -0.019989727 -0.03429733 -0.06542166 0.010623271 0.020789761 0.06389885 -0.016890328 0.015811915 -0.025900438 -0.01586364 0.004261384 -0.0341559 0.08382882 -0.010211402 -0.035779104 -0.031767238 0.06297419 0.014835211 0.019643156 0.021259734 0.02969879 -0.022533398 -0.06675905 -0.0043526185 -0.057209 0.005150162 -0.028215962 0.0010221674 -0.061519183 -0.0070098517 -0.011247602 -0.017421192 0.028160226 0.028475614 0.023710161 -0.009157161 0.024551732 -0.044540428 -0.034514707 0.038842432 -0.07874815 -0.013680538 -0.030923666 0.03853581 0.016164066 -0.053380895 0.0074243164 0.018094718 -0.047666088 0.010863296 -0.03652597 -0.03533849 -0.013954426 -0.04696068 0.028109355 -0.032601316 -0.012376731 0.04553528 0.008842412 -0.049291138 0.019447593 -0.03971291 -0.05648963
1003 0.03256974 -0.025985902 -0.056307666 -0.071684584 -0.009634861 -0.034491673 -0.0049496214 -0.060875367 0.023507565 0.026757292 0.03236273 -0.03848212 -0.028644172 -0.00022708712 0.037148856 -0.06324237 0.00993401 -0.047417186 0.0015970787 -0.050717864 -0.0032606341 -0.050530147 0.046526752 -0.0071911863 -0.024605773 -0.06379151 -0.048197232 -0.023353154 -0.027733667 0.030627476 0.027497772 0.065216005 0.008163033 0.077680744 -0.004962299 0.00934839 -0.058685567 0.04965059 0.015656324 -0.003996797 7.286083e-05 -0.029388642 -0.013494284 -0.013826017 0.0009416617 -0.033181194 0.05905881 -0.03500696 0.039038528 0.046015486 -0.038699936 0.018463574 -0.055785406 -0.019374756 -0.035423886 -0.03820183 -0.020415453 0.047660775 0.04237366 -0.014129302 0.01598127 -0.05664021 0.013599574 0.009764406 -0.04270121 -0.009369818 0.068663016 0.006762467 0.057188563 -0.063830145 -0.020164602 0.0023087605 0.027195174 0.03958047 -0.030044023 -0.0832991 0.027994994 0.020769104 0.013053274 -0.019415887 0.022886345 -0.023250379 0.048844993 0.04212735 0.022367258 0.053758558 0.05261064 -0.035856683 -0.028404703 -0.009224114 -0.0075130556 -0.08039361 -0.0034695002 0.0535012 0.09440967 0.0028995203 0.056009892 -0.018687185 0.008026661 0.012458162 0.031545747 -0.0006990391 -0.05067135 -0.033054743 0.029703079 0.010426727 -0.046951927 -0.09918245 -0.06704534 0.022417646 0.056097087 0.010356641 -0.0023367559 0.056850594 0.030112736 0.0014851771 -0.028690139 0.04324618 -0.01576842 0.014288459 0.0114040105 -0.0030329397 -0.017233491 0.008600478 0.02796564 0.03410783 0.023123005 0.021783749
475 -0.02722384 -0.028851628 -0.08040589 0.021367598 -0.017069876 -0.03190925 -0.0029142627 -0.012997073 0.046852764 0.037711523 -0.029284045 -0.049421597 -0.017949034 0.05139295 0.07063954 -0.038019776 -0.0019124316 -0.06916537 -0.012918244 -0.036820374 0.024074374 0.05354591 0.08852759 0.027615588 0.008321635 0.0007553224 0.0032755062 -0.0059825107 0.018279515 -0.026624134 0.02388892 0.0804697 0.029133046 -0.038332406 -0.046643954 -0.065004155 0.022975387 0.02535151 -0.013789412 0.08996976 -0.048643358 0.020941645 -0.05252914 0.033820014 -0.018404646 -0.033267777 -0.01801458 -0.027595418 0.0099983215 0.0020791746 -0.035383336 0.0133693395 -0.033422098 0.027659712 -0.051883854 -0.030626418 0.0135222385 0.05807381 0.036042657 0.024388378 0.030035833 -0.03275539 0.025295863 0.035747286 0.05492201 0.0751519 0.032940455 -0.038095877 0.0014728266 -0.017399523 -0.028978065 0.051367152 0.0032583673 -0.0031393536 0.031768557 -0.005242066 0.0606648 0.023554133 0.030134916 -0.06090256 -0.046007082 0.000373506 0.018123783 0.029366212 0.038050372 -0.00066852657 0.029105607 -0.011698511 0.005797897 -0.017991316 0.010472752 -0.06570867 -0.0014821243 -0.029175092 0.007378031 0.004384413 -0.035010077 -0.022866193 0.00078052795 -0.018760376 -0.04346242 -0.010058793 -0.02916729 -0.08010379 0.03721121 0.010168249 -0.019599844 -0.0034243783 0.013252311 0.014695672 0.030711913 0.024039524 -0.0052639665 0.03700301 -0.009360533 0.04252897 -0.0056608682 0.030374756 -0.031202175 -0.04181571 -0.037597667 -0.0013273517 0.029615168 -0.001686318 0.04215147 0.040966306 0.02589096 0.027644234
1033 0.029443555 -0.0010524024 -0.03830973 0.055214807 0.013576274 -0.024500951 -0.018198052 -0.040247463 -0.011854087 0.024596805 0.013632149 -0.036120165 -0.022565875 -0.0029929972 0.043134615 -0.012259543 -0.012318822 -0.014965117 -0.033483323 -0.0073800473 -0.0064450745 -0.010395303 -0.03286151 0.0012708015 0.02572983 -0.064788744 -0.00296238 -0.049867325 -0.016008008 -0.02826801 -0.016095141 0.016184367 0.004991184 0.006101821 -0.035504937 -0.014264538 -0.057577312 0.0056022895 -0.045558337 -0.016534444 -0.015336497 0.010601723 -0.021457031 -0.019632472 -0.0058018747 -0.028663356 -0.045899697 0.0006505706 -0.038923923 0.0034000622 0.042540148 -0.010433815 -0.03381861 0.002850227 -0.008224462 -0.011632637 -0.009864043 -0.0058183004 0.0022130741 0.05066054 -0.017243402 -0.0018134494 0.008993782 -0.011442039 0.019961206 0.040362716 -0.06315167 0.014559138 0.026446294 0.017418824 -0.019869953 -0.035255566 0.0012940346 0.0555652 0.031821847 0.024553966 -0.048054248 0.024421766 0.03979091 0.05669546 -0.009809299 0.06742481 -0.023802748 0.018547826 -0.029714573 0.00059760304 0.0017125785 -0.049861416 -0.044470675 -0.014172698 0.0039552664 -0.003240481 -0.06119995 -0.045656797 -0.008059227 0.0030013549 0.015162667 0.04330047 0.041200593 0.025210194 0.011672855 0.0067751193 0.016666185 -0.04493625 -0.017633565 0.019791877 0.05033119 0.05718418 0.028285097 -0.0019252887 -0.020070372 -0.01026085 0.018224863 0.022773044 0.005995875 0.04934095 0.028357403 0.030379876 -0.0250625 -0.027842157 0.012775035 0.05082334 0.022975625 -0.0016155507 -0.05169712 0.03355608 -0.021448929 -0.05639928
1447 0.016041277 0.07475537 0.07082981 -0.010836489 -0.033523463 0.015534528 -0.016298877 -0.0014064043 -0.0045016934 0.05416075 -0.016968906 -0.06459528 -0.06404319 -0.023604305 -0.037240192 -0.014012891 0.016082682 -0.06325297 -0.02171842 -0.043625783 0.026409565 0.0070918095 -0.053770315 0.038807824 -0.019026853 0.005787393 0.0072485167 -0.0429755 0.028160347 -0.016395131 -0.049532812 0.050302215 -0.033193354 0.03986787 -0.034918148 -0.014235131 0.002933461 0.0016695046 -0.010484947 -0.008153366 0.007473959 0.00069046504 -0.041505482 0.007323862 -0.005704875 0.029407708 0.014829305 0.039678678 0.02239546 0.01596619 0.029788075 -0.037113223 0.039841022 0.054196883 0.019106498 0.013784871 0.056951758 -0.01686147 -0.03361186 0.035711296 -0.0019437608 0.023371836 -0.005965069 0.038711272 0.043353092 0.046559747 0.009686561 -0.027457125 0.021081578 0.022096211 0.04404753 0.014587441 0.051150758 -0.029358137 -0.039429363 0.01614784 0.028983494 -0.013079036 0.053534836 0.012964329 0.019520994 0.057279345 0.018804915 -0.011805265 0.028815394 -0.04285844 0.042719826 0.005961607 0.0024847111 0.02656523 0.042913813 -0.038398616 -0.06673921 -0.03018476 -0.037669223 -0.0024095357 0.0057339254 -0.045912743 0.019616654 0.037440374 0.024826538 -0.016642708 -0.017696008 -0.049915895 0.005878958 0.015968693 -0.0050435183 0.037080936 0.050214555 0.05075419 0.01397637 -0.040495325 0.03149989 0.01200973 0.05987335 -0.009854647 0.03408474 -0.028974358 0.011465932 0.008093179 -0.0088504 -0.041923575 -0.0058189803 0.063791856 0.021178229 0.05548163 0.047841772 0.0020443292
1635 0.006650576 -0.008791054 -0.007723744 -0.026095849 0.006021307 -0.037517432 0.0575585 -0.016213352 0.049929686 -0.010228059 -0.0027187439 -0.014945264 -0.042745743 0.03785723 0.027850995 -0.04069646 0.003930103 0.026066402 0.05743818 0.060037076 -0.04975373 0.06322544 -0.029979648 0.004954709 0.01706929 0.010846347 0.016734337 -0.07517981 0.03379447 0.059572313 -0.04736842 0.02075646 0.027741617 0.015513834 0.004400038 -0.02043128 -0.0021673804 0.0353043 0.046342418 0.0061809956 0.020218927 0.0061552194 -0.042909283 0.03579822 -0.018544607 -0.016082287 -0.01738544 -0.07264036 -0.090435214 0.064716935 0.031687878 0.017955342 -0.049854357 -0.019407691 0.031515617 0.038418863 -0.0024652635 0.015362462 0.049927875 -0.021560457 0.021656185 0.006444068 0.037015516 0.0022801163 0.06796346 0.028653935 0.037594736 0.053687982 0.055501703 0.040594086 0.054264314 -0.013781635 0.008319799 -0.043466218 0.025801072 0.009126604 0.052264206 0.05478673 -0.002454301 -0.0040136557 -0.01929212 -0.005048883 -0.030886153 -0.0067173685 0.013445194 0.025412055 -0.006423265 -0.029129783 -0.080345914 0.024680624 0.0014181319 0.014306699 -0.06596709 0.06763886 0.05176111 -0.05981846 -0.015957588 0.05830361 0.035754856 0.014571138 -0.034240283 -0.016776701 0.06897984 0.07019725 0.012792802 0.016436089 0.01642741 0.03366761 -0.007556569 0.0009317153 0.007825546 -0.08464875 0.002214452 -0.0017695343 -0.039918825 0.059839297 -0.041018993 0.05843421 -0.0015867066 -0.059261657 -0.006001912 0.021301214 0.013651699 -0.006992382 0.011682025 0.049949594 0.060272805 -0.005937038
1060 0.009842495 -0.023989988 0.017801395 0.064247094 0.0044697397 -0.03564969 0.07194897 -0.013898859 -0.0030684688 -0.021051869 -0.040948294 0.06337937 0.006709265 -0.0012933558 -0.0354483 -0.043284502 0.060264647 -0.055854827 -0.000451601 0.02700907 -0.018534841 -0.03400529 0.045718852 -0.0038228654 -0.011357023 -0.049880244 -0.034277104 -0.02908084 0.05322024 -0.034149487 -0.03848261 -0.010939408 -0.04935874 -0.07655977 -0.075576104 -0.007805657 0.0016163702 -0.0018707113 0.06568517 0.06128337 0.01814708 0.010461004 0.009140144 0.02802388 0.01616389 -0.011268184 0.0166697 -0.025719717 0.01050826 -0.0097683435 0.001457085 -0.02442397 -0.043391317 -0.025461761 -0.030135972 0.00043874283 -0.03228315 0.0080318265 -0.06456641 -0.010769428 0.07192787 -0.035381604 0.035710476 -0.00016090104 0.03182044 -0.015750878 -0.004770151 0.038600333 0.033702202 -0.013859883 0.032285832 0.0050691213 -0.042615257 -0.017719915 -0.001749095 0.025834743 0.045984354 -0.072290294 -0.052990142 -0.0149963815 -0.04255695 0.040783297 -0.035409387 0.042402286 0.061083905 -0.013105058 -0.03163543 -0.03609138 0.020215517 0.037437703 0.0034332378 -0.0071175797 -0.029938241 0.042095207 0.009020265 0.03838953 -0.036621813 0.07429542 0.059527528 -0.010733979 -0.033417985 0.0170643 -0.025136972 0.0005468157 -0.0112601295 0.0014091771 -0.022960525 -0.0017910453 -0.029420193 -0.035161316 0.0414696 -0.054802775 -0.033702314 -0.004016573 -0.08351841 0.040510602 -0.044698365 0.02976834 0.014931274 0.007447635 -0.038061004 -0.023222597 0.07399485 -0.040915325 0.014236887 -0.015225408 -0.017466748 -0.06016079
1535 0.00021922502 0.022287482 -0.03883042 -0.01666925 -0.055044327 0.040254425 -0.005470812 0.022116296 0.026659006 -0.034995947 0.04469314 -0.027838234 -0.0071749873 0.008069647 0.058093864 -0.001916732 0.075035155 0.029093206 -0.040023774 0.06195206 0.026272677 0.030118747 0.07969295 -0.037942488 -0.04768996 0.015795192 0.011869208 0.0052007264 -0.015707953 0.04011839 0.05867569 0.037335254 -0.040427025 -0.052190807 -0.04716435 -0.0806009 0.064266905 0.009720833 0.0015211187 -0.07216156 -0.011362583 0.034605436 0.059354898 0.009889298 -0.07905085 -0.03542627 -0.0046796706 0.009389236 0.010059413 0.05475673 -0.017588872 -0.024692807 -0.061615784 0.0726286 0.028918182 0.04596456 -0.015687883 0.048003346 -0.013771679 0.042635556 0.001761859 -0.015114696 0.0326388 -0.04201231 0.021692561 0.0170927 -0.009146857 -0.05271501 0.01929557 -0.049706556 0.025831088 0.043383725 0.022328848 -0.014704678 -0.005906261 0.025513481 -0.035519242 -0.016837042 0.017465193 0.02881517 -0.0024197374 -0.002068307 0.008094434 0.030190928 -0.022854505 -0.0019178812 -0.036937986 -0.08668992 -0.04927989 -0.014634176 -0.007221319 0.021228017 -0.02496242 0.05424927 -0.021273887 0.08176602 -0.0056333174 -0.027393145 0.04958038 0.009751025 -0.025315646 -0.04079516 0.01689688 0.0010909863 0.011876009 -0.058384392 0.023007372 -0.032725535 -0.004216819 0.07679136 0.034582004 -0.07559909 0.06370093 0.010032558 -0.013915542 0.011197268 -0.027860641 0.029680893 -0.01807055 0.009970528 -0.010591758 0.011373695 0.010576081 -0.039009932 0.01932266 0.0509044 -0.013438682 0.053297617
1529 0.041204557 -0.0038230845 -0.0036085567 0.034068108 -0.0070392126 -0.0074960818 0.0055572214 -0.016353004 0.053078156 0.0037265145 0.04576389 -0.07283418 -0.03537527 0.038120862 -0.016344415 -0.014012905 0.023314344 -0.0023631977 -0.01754644 0.061665583 -0.054289363 -0.06961815 -0.038459014 -0.0503825 -0.0360259 0.049357682 0.03467971 0.0145758195 0.015353927 -0.012891076 0.00027953024 -0.0018683856 -0.0398013 -0.045579717 -0.040802233 0.018778447 -0.0022911076 -0.039175894 0.015546731 -0.044723134 -0.07269534 0.04625183 -0.055488404 -0.016162798 0.02552681 0.04692154 0.014350977 0.0061040497 0.020822845 -0.0007452937 0.023990376 -0.012089267 0.0024425585 0.0751334 0.004398659 0.034788243 0.016916584 0.0032716922 -0.019507304 0.010178636 -0.035925597 -0.010869173 0.003934222 -0.018529892 -0.027342249 -0.009556853 -0.0068039587 -0.010458421 0.043000154 -0.006008852 0.045196354 -0.035171557 -0.040179387 0.006608786 0.0338645 -0.028915253 -0.009838479 -0.012463944 -0.0646724 -0.0065474273 -0.003224722 0.011774432 0.057505656 0.024248334 -0.066818655 0.006769656 -0.07353658 0.042526685 0.021331873 -0.028434169 -0.012759779 0.023569042 -0.06178578 0.00204652 0.01928303 -0.00716924 -0.050608017 0.0009740291 0.044656496 0.017403949 -0.024287906 0.039821267 -0.03929631 -0.0040127398 0.042529 0.007245993 -0.0013885204 -0.01003491 -0.015686763 0.069827035 0.020369401 0.012733065 0.007858095 -0.05328449 0.008035553 0.010094273 -0.0024908686 -0.024445249 -0.009565712 -0.028482156 -0.051584646 -0.012480654 0.0034515662 -0.05922819 -0.026833432 0.008524442 -0.023800291 0.03945018
1508 0.0070200786 0.057686318 -0.024874259 0.0113272965 -0.03257014 0.0026200754 0.018185606 -0.013266524 -0.023784447 0.027425393 -0.0631629 0.005859821 -0.058715764 -0.045488343 -0.01988525 0.0030424637 0.026123444 0.023756327 0.07603446 0.040802106 -0.017810985 0.014253768 0.06543513 0.09170623 -0.012638697 0.02785419 0.008747591 -0.013092608 -0.026450181 -0.035788212 -0.049357723 0.046728067 0.039914917 0.014955974 0.033179473 -0.041736063 -0.0023191497 0.09150883 0.031648394 -0.018335147 0.046348315 0.08347814 0.008389835 0.022087341 -0.03835661 -0.007129056 0.049451593 0.0030564556 0.022536065 -0.012614173 -0.050860673 -0.06012487 0.0063295527 -0.022026954 -0.03183297 0.02263207 0.052037332 -0.04303721 0.018433038 0.015307788 0.077099 0.0052875793 0.032659385 -0.013008094 0.04822401 0.045241527 -0.011279485 -0.06027617 0.013606805 -0.03072032 0.046852138 0.019573724 -0.0070837843 -0.037810776 -0.069932744 0.034043014 -0.0035618804 -0.0101667745 -0.05371378 -0.038104188 0.0152621055 0.033661358 0.026112875 -0.04422898 0.034900095 -0.009074453 0.0062794825 -0.014413568 0.021227095 -0.030457688 -0.023435676 -0.03077204 0.017328082 -0.07928922 -0.024722507 0.011067203 0.019784853 -0.028884351 -0.015608857 0.004523147 0.035455808 -0.00887889 0.012719328 -0.050951112 -0.0059745 -0.0692766 -0.04514917 0.020886885 0.03442288 0.012895064 -0.034811456 0.01867806 -0.011213128 -0.025130343 0.049379975 -0.014695894 -0.044414487 -0.005909768 -0.034598462 -0.027865168 0.026442122 -0.008283895 0.026809808 -0.0047631394 -0.002831083 -0.0528506 -0.04967114 -0.014356127
1578 0.013735787 0.031062812 0.034800794 0.02589101 -0.015808623 -0.038363677 -0.050283633 0.019902727 -0.058647253 0.0053037913 -0.034142975 -0.010796166 0.026845457 0.01036265 0.039858576 0.013113522 0.030298917 -0.033270385 -0.016116232 0.019510912 0.061461307 0.03252409 -0.011380897 0.0068014283 -0.011260382 -0.050431192 0.0107630845 0.025084903 -0.008049468 -0.022258544 -0.033383243 0.088612586 0.02470379 -0.009295337 0.023613932 0.018650617 0.03167947 -0.03021519 -0.058923904 0.024539566 -0.020090954 0.012411089 -0.04477519 0.021316161 -0.009435293 -0.0068168915 -0.025318092 -0.035459608 -0.053259023 -0.031009777 -0.03036488 -0.0042905104 0.045230605 -0.03354194 0.0209565 0.008474552 -0.035182938 -0.024075992 -0.015112649 0.058852643 0.013763464 0.0038722204 0.014688002 0.04187798 0.06557371 0.03453202 -0.035647675 -0.011095619 0.009600984 0.05203613 0.045972187 0.024762623 -0.039498743 -0.05176043 -0.025332395 0.032134354 0.01884324 0.06418973 -0.021292957 0.04513344 0.012680282 0.013288553 -0.002225353 -0.0060617994 0.0061056935 -0.047033183 -0.024219513 -0.036555253 -0.024421547 0.059100196 -0.039929155 -0.03863662 -0.068765216 -0.009311744 0.05367101 0.04832471 0.020628002 -0.021997847 -0.007613176 -0.026031474 -0.001495816 0.0060643614 -0.0024062474 0.028769143 -0.008184566 -0.019215835 -0.04881297 0.00849149 0.028125035 0.019782076 0.05130859 0.0011705483 0.04985178 -0.0758325 0.001401587 0.03471354 -0.0010205845 0.060529944 0.026317885 -0.020476589 -0.0069131884 -0.06132368 0.08107661 0.04057507 0.017742073 -0.058597937 0.056646932 -0.012752672
1980 0.032230783 -0.051805552 0.014132903 0.046490345 0.013115448 0.0121837985 0.04767192 -0.0075125694 -0.007202002 0.02002813 -0.009254021 0.030597402 0.066122256 -0.03473697 -0.019950835 -0.033330526 0.007708506 0.025129367 -0.0051343194 -0.03207193 -0.009265016 -0.05327571 -0.015374562 -0.06449119 -0.0009767181 -0.013047213 0.014754133 0.0407278 0.042370174 0.023923077 0.060380258 0.022680568 0.0026410883 -0.057414602 -0.021884935 -0.039920375 0.07035445 -0.035467915 -0.024327943 0.035571974 0.018014653 0.012386785 -0.042397723 0.016076908 0.01434137 -0.022920128 0.019958887 -0.05858034 0.020054793 0.0015801332 -0.018190442 0.06816685 0.05564121 -0.07003784 -0.044752866 -0.0136239175 -0.04620802 0.022419147 0.018460331 -0.016109185 0.050455336 0.010092067 0.05196473 0.049372055 0.00034732005 0.0012265512 0.010346095 -0.05229256 0.0019421153 0.034162294 0.040876158 -0.02013461 0.059797704 -0.05178334 0.0315351 0.02076978 -0.011844996 0.0047109486 0.03114421 0.043998923 0.02932108 0.029425072 0.01150691 -0.018925667 -0.038423248 0.019826552 -0.08010665 0.040984444 0.01692127 0.0065108542 0.042937193 0.035064854 0.0035259856 0.010485846 0.03676247 0.008638307 0.05560098 0.015304204 0.015202728 0.016124327 -0.03821397 0.079343416 -0.012682909 0.020738263 0.023527706 -0.013950511 0.061267156 -0.022054879 -0.031189552 -0.022022353 -0.026057284 0.037211355 -0.02638095 0.03064807 -0.0041437997 0.03738768 0.0013422245 0.0055981292 0.011206186 -0.036505148 -0.0107575115 -0.030509235 0.0026254933 -0.056154847 -0.027868563 -0.013307305 0.012123187 -0.0032325196
367 -0.012785277 -0.00057833147 0.035660718 0.03909943 0.06539674 -0.014669832 -0.032577105 0.034533184 -0.009811145 -0.020378647 0.024307858 0.08001793 0.07070861 -0.014717576 0.011702867 0.07697666 0.07753359 -0.04445702 -0.034654442 0.065273836 -0.032814745 0.011335306 -0.0934306 0.008834903 0.031056661 -0.051057465 -0.08342342 -0.01885772 -0.050188713 0.034874834 -0.012522315 0.008282585 -0.012243047 -0.037609976 0.08040424 0.020401228 0.04912914 -0.080137536 -0.09952425 -0.031126278 0.020620551 -0.002481124 -0.05751192 -0.031631567 0.009136201 -0.10057004 0.016156144 -0.011117846 -0.10216392 -0.07077471 0.052152123 0.08943449 0.013324795 0.019127479 -0.009475048 0.03446754 -0.0022656133 0.08616262 0.0924528 0.040782798 0.036539365 0.039258633 0.034415986 -0.030450206 0.03006074 0.045313448 0.017334726 0.06499983 -0.015133678 0.048824143 0.043330967 0.017667102 0.0024683077 0.007192617 0.021559108 0.024331355 0.029675126 -0.011251577 0.036534745 -0.011408969 0.03849658 -0.012929821 -0.013270866 -0.037243944 0.044445068 0.03827407 -0.07631661 0.040116567 -0.015735354 0.028287781 0.04139253 -0.05905487 0.03198082 -0.0743086 0.005227191 -0.025721835 -0.012990235 -0.004100881 -0.008882916 -0.023687387 -0.011954323 0.058739282 -0.005030633 0.028086735 -0.019810699 -0.042827494 0.043620486 0.0157153 -0.0013720446 -0.024188492 0.04092831 0.010443859 0.031249227 -0.044060666 0.0787362 0.009607994 0.012572917 0.0014224732 -0.009410231 0.06536142 -0.045418516 -0.044222537 -0.012328159 -0.056402948 0.006935883 0.0040895366 0.005666971 -0.008038855
133 0.009545651 0.043589044 -0.017339913 0.009382465 0.104208924 -0.056775928 -0.03751362 0.013333274 0.006764971 -0.029038342 0.007278872 0.031241266 0.014794934 -0.059114628 0.056347173 -0.022792801 -0.010349378 0.0056217615 -0.06586524 -0.008836582 0.0043872767 -0.04737907 -0.011654376 0.0279254 0.0114421705 0.017537272 -0.025950216 -0.047199965 0.009044197 0.038393747 0.025058296 -0.02106273 0.004297113 -0.02906183 0.0021284106 -0.032168336 0.017207894 0.018219486 0.005796228 -0.015301623 0.02065659 -0.020600142 -0.01427738 0.02589077 -0.04572316 0.010118731 0.0172302 0.1003451 0.02290409 -0.034742042 -0.028358785 -0.057967205 -0.025673378 0.013384196 -0.0021042328 0.038466644 0.063056126 -0.04071185 -0.025517786 -0.013899909 0.052891634 0.0031838529 -0.031352516 -0.006652833 0.0007238905 -0.025022639 0.0048323353 0.029257843 -0.03550694 -0.044927794 0.04190655 0.013250373 0.023984767 0.017802685 0.031798046 0.032700036 0.05041166 0.058499165 0.007403623 -0.032643106 0.023307139 0.044603646 0.004077486 -0.032220114 0.0072467485 0.0072457874 0.028102558 0.008805291 -0.022780208 -0.050035033 0.05656923 -0.0020442202 -0.002665494 -0.005341458 -0.026758553 0.066887334 0.025246931 -0.020734472 0.026663585 -0.03466036 -0.01127859 -0.01341648 -0.002126387 0.037692178 -0.031458948 0.055827275 -0.04785653 0.07948157 -0.003968578 -0.0010066989 0.04818802 -9.814583e-05 0.008646791 0.019175237 -0.028903948 -0.048109606 -0.06408023 0.014794746 0.038393002 -0.055156145 0.0062166373 -0.0039348826 -0.0603924 0.03117192 0.047405574 0.014748545 0.022352597 -0.016669301
199 0.008401573 0.05577626 0.024337778 0.014888293 0.046210937 -0.037058104 0.04160109 0.010378102 0.011031711 -0.0062894817 -0.027097601 0.030490506 -0.004578685 -0.07180283 0.013653505 -0.035362415 0.044383805 -0.07156168 -0.010867474 -0.004480746 -0.0021913392 -0.0636662 -0.040299386 0.016406745 -0.044668764 0.015017512 0.05184339 0.00951739 -0.04322937 -0.034905996 0.034383427 0.0064675896 -0.03453604 -0.023897745 -0.01071966 0.003408962 -0.012048928 -0.030080045 -0.026339974 -0.05817111 0.024991073 0.0005379969 -0.035940327 -0.018274011 -0.0067211776 -0.0049839932 0.026376983 0.05112931 0.029610606 0.022806903 0.0067768744 -0.05391323 -0.010826465 -0.015514813 0.008294251 0.0413189 0.0036733893 -0.009639682 0.068050474 -0.022233833 -0.003041144 0.00288605 -0.019856418 -0.01591125 0.018328825 0.013387409 -0.019011497 0.02799842 -0.061522797 -0.06044213 0.012512896 0.0014788758 -0.04162619 -0.0037256288 0.04298184 0.07106271 0.0036016619 -0.012778038 0.0053695235 0.047668807 0.029141791 -0.0037678545 -0.07492519 -0.035158157 0.03424483 0.04668101 0.015965154 0.041857604 0.012108899 0.005477751 -0.042738423 0.014475419 -0.03635283 -0.00362167 0.027101355 -0.018912455 -0.020622918 -0.038073115 0.00525326 0.06268133 -0.0091847405 0.002807647 -0.014194248 -0.023295712 -0.02690876 -0.034384 -0.028536763 0.04546297 -0.04703592 -0.0086776065 -0.026904609 0.06262677 -0.041723516 -0.07006074 0.0016572378 -0.008195826 -0.031929642 -0.032456867 0.004180586 0.07540818 0.02522199 0.025139296 0.06640797 1.850805e-05 -0.010737353 -0.01802819 -0.021379584 0.026014943
925 0.00019242932 -0.015736314 0.022166768 0.011261975 -0.0414178 0.0010100739 0.027218811 0.025455507 -0.01421958 -0.010405151 -0.07946164 0.06291031 0.0022558777 -0.01209688 -0.011850404 0.05364438 0.037669163 0.05007243 0.049304117 -0.0018747413 0.0051032673 0.021795325 -0.08114437 0.02939011 -0.014989949 0.0015512076 -0.01022804 -0.028186643 -0.009761069 -0.009735076 0.04069176 -0.016259775 0.02283144 0.07018066 -0.042588532 -0.042549096 0.0035605715 -0.047757093 0.05965467 -0.0037018394 0.006398151 -0.008052336 0.001149644 0.038471468 -0.0020703182 0.03647696 0.04181282 0.031103838 0.00920531 0.030919887 -0.03233592 -0.033591084 -0.032454718 0.020321859 0.008219269 -0.030247303 0.038852453 0.017828776 0.011943254 -0.0065401853 0.025961308 0.0075205215 0.026221577 -0.050416857 0.040909458 0.028826475 0.015492244 -0.00089172885 0.015115626 -0.053475782 0.007362815 -0.010535943 -0.002254507 0.03988852 0.029884567 -0.032013424 0.042263687 0.013844289 -0.0035798894 -0.030983105 0.02867903 0.021665836 -0.025677796 -0.032568526 -0.026583921 -0.017044729 0.0045558037 -0.016976228 0.031182176 0.014275979 -0.04036432 -0.009530703 -0.04641506 -0.012440718 0.0042850845 -0.047302008 -0.012529199 -0.028420988 0.038506098 -0.028801467 0.04365726 -0.024854476 -0.03355164 0.04216055 0.0010924137 0.003393454 -0.023753611 0.01602866 -0.07102576 -0.034903854 -0.016715657 0.045595493 0.01220114 0.036374915 0.020778775 -0.049836867 -0.017092409 0.050392646 -0.08528856 -0.02580165 -0.015801385 -0.020336231 -0.023381865 -0.0037879301 0.03514504 0.019772805 0.06668807 0.05277658
1342 0.005636106 0.03609035 -0.010941596 -0.004403408 -0.037344597 0.031675696 -0.033230726 0.036472443 0.04489443 0.044728175 -0.005203696 -0.01112219 0.0014014582 0.007554551 -0.0149227595 -0.014225798 0.03577725 0.008781967 0.05369085 0.054740515 0.05173358 0.032769594 0.004304755 0.06941544 0.0055637793 0.054031216 -0.014222297 -0.0015459287 0.026481386 0.016937329 -0.020127269 0.024376329 0.03005201 0.033571765 0.008959577 0.058489993 -0.0003248113 -0.07937204 0.055502675 0.0075238026 0.030779248 0.031219883 -0.0029724292 0.013363144 -0.020098146 0.029987404 0.017196493 0.039113753 0.0056945453 0.031189939 -0.0062088217 0.025692534 -0.0038960422 -0.018147714 -0.050565217 -0.030557293 -0.00307235 0.042118985 -0.04161456 0.048278008 -0.003766124 -0.031125907 -0.0029859622 0.012282075 0.01675781 -0.04634207 -0.012193069 -0.07244332 -0.025785973 0.041333053 -0.017357783 0.0052588764 0.024340888 0.06829799 0.005733859 0.0010902489 0.006126048 0.049698286 -0.011046416 0.010920978 0.0100191515 -0.0057468326 0.03189093 -0.004113968 0.05161173 -0.06585315 0.04505015 -0.023467975 0.01109 0.026275262 -0.04009032 -0.019803943 -0.0040975036 -0.027318632 -0.03413549 -0.04017481 -0.052296326 -0.03713351 0.027658194 0.066862926 0.023973618 -0.0051736566 0.06044701 0.016160667 -0.024268892 -0.023716377 -0.03481903 -0.02447115 -0.035675753 -0.013845471 0.028047051 -0.009030027 -0.032597765 -0.012059983 -0.018140694 -0.010442916 -0.06438291 -0.017316112 -0.04661867 -0.055710096 0.012394656 -0.021970225 0.012271084 0.008176569 -0.05337932 -0.0070866407 -0.048021875 0.026122425
1705 -0.010824499 0.0148858 0.0055876076 -0.05375184 -0.05232116 0.009736487 -0.0033436792 0.02648767 -0.03012841 0.02909729 -0.048263475 0.03969047 0.0067221154 0.045952626 -0.05364617 0.00761254 -0.006942431 0.03763817 -0.033798892 -0.016195081 0.012500345 -0.0465287 0.031675033 0.008906488 -0.017743586 -0.011759631 -0.058868732 0.021813307 0.029420251 0.024717294 0.032531243 -0.003988207 -0.05163728 0.014057421 0.007847863 -0.013504332 -0.009764267 0.029472012 -0.013655917 -0.019157473 -0.0035117273 0.019191526 -0.05599256 -0.030170519 -0.013493278 -0.029093962 -0.012038169 0.008854452 0.0005503319 -0.033402946 0.028305572 -0.036684077 0.02294787 0.015867477 0.005591939 0.025510196 -0.014614215 -0.05411771 0.0040072836 -0.009978299 -0.010237659 -0.044751804 -0.014894068 0.02071166 -0.0069594774 -0.028403865 -0.013067932 0.018253265 -0.01885031 0.026299922 -0.0085180085 -0.018520916 0.045635827 -0.02359882 -0.00414989 0.06136917 -0.012950015 -0.057447594 -0.06760047 -0.033722945 -0.0039097387 0.0021168857 -0.039261933 0.07539591 0.011174076 -0.021795698 -0.007179568 8.570454e-06 -0.05142716 -0.027965251 0.0477745 -0.086050995 -0.010943407 -0.0038097315 -0.05464766 0.031050054 0.0053979526 0.0025925958 -0.037614796 -0.060489956 0.002020548 -0.053072475 0.040282052 -0.0019540752 0.053387307 -0.027892018 0.00470526 -0.043657172 0.010218191 -0.015764982 -0.015089356 0.011902374 -0.0073909345 -0.116025254 -0.020209022 -0.03234702 -0.00028907065 0.070679896 0.02166854 -0.016283117 0.057161856 0.04291765 -0.0020525693 -0.0031760603 0.010913086 -0.0070889886 -0.0013208117 0.06262369
1828 -0.04259717 -0.031738132 -0.035373665 -0.002077274 -0.036274835 -0.001349957 0.01307142 0.0951622 -0.08958668 0.04564993 0.048968475 -0.030976623 -0.0021550509 0.049861304 0.014202537 -0.07291449 -0.02476604 -0.064637244 0.016212672 -0.05163125 0.051807817 0.08709993 0.008145854 0.030608479 0.0077517275 -0.043519452 0.018450074 0.040594988 0.031932592 -0.037281957 -0.0018125023 0.07152186 -0.0837146 -0.014008354 0.058169257 -0.07724884 0.058348857 0.051373906 -0.00095954724 0.016922206 -0.024161424 0.007132456 0.056997687 0.0041603586 -0.037272297 -0.03188681 0.015045425 0.028287122 -0.061514836 -0.04898456 -0.017974166 0.017529609 0.07398403 0.0028847666 0.06849121 0.044930648 0.015443461 -0.01370954 0.031588446 -0.023801731 0.049420502 -0.022811195 -0.053413384 0.01608608 0.0065290155 -0.050018527 0.03822039 0.006732341 -0.06898185 0.03309557 -0.0018131422 0.031554513 0.033758238 -0.03712105 0.07066209 -0.008805656 0.030381264 0.003315614 -0.027686492 -0.040914774 -0.002646859 -0.048700415 -0.05769459 0.04842177 -0.005152537 -0.057321887 0.031168332 0.07014068 -0.028253118 -0.018458726 0.035155836 -0.005669406 -0.085039206 0.07648193 -0.015836198 -0.06374501 0.03093008 0.0019342155 -0.0009905378 -0.013153532 0.0073137814 0.030059563 0.03661192 0.03200995 -0.045157857 -0.0009393089 0.03990085 -0.006134938 0.018443191 -0.02336331 -0.003207793 -0.07433079 0.030370237 -0.047270298 0.030030705 -0.037123073 0.05745016 0.03917796 -0.0066489754 0.0058385683 0.018954268 -0.011917741 -0.048989363 -0.111645825 0.07297972 0.056052923 0.02571335 0.023264147
1684 0.0039015703 -0.0016190475 -0.07561518 0.039180648 0.04050971 0.02127996 -0.009040295 -0.043695092 -0.00952965 -0.020311244 0.058584258 -0.029071504 0.016198983 -0.037860908 -0.003911521 0.0018279048 -0.0041302894 -0.042107187 0.0028225612 0.009881822 -0.016616078 -0.005221535 -0.014248211 0.0071881227 0.03233797 -0.004769079 0.040481627 0.022007888 -0.0045409533 0.015440583 -0.002745138 0.070110045 -0.022299482 -0.045800388 0.060334276 0.034834668 0.0039020202 -0.010397787 -0.029041456 -0.033146318 0.034185123 -0.023248143 -0.013088261 0.020933261 -0.016247636 0.0065859426 -0.011298165 0.028472379 -0.038593154 0.0071154335 -0.06813835 -0.00012056623 -0.034574583 0.03942575 -0.031054808 -0.0029983965 -0.029584585 -0.005450905 -0.005366454 0.026503112 -0.03121528 0.032613974 -0.04722061 -0.0013999209 -0.002564842 -0.022732845 -0.08058409 -0.020623544 0.039586842 0.007251076 -0.032089166 0.019307157 -0.024723455 -0.012808401 -0.010762337 -0.045547165 0.026222244 -0.031306412 -0.023471018 -0.050794654 0.021077694 -0.031574473 -0.024309257 0.04630903 0.04746031 -0.0091946 0.04033144 -0.00021509908 -0.02795515 -0.009046848 -0.079191916 0.036009822 -0.018735187 -0.025642496 -0.029787308 -0.0017352845 -0.030169254 0.016988434 0.0035609016 0.003674321 -0.007673714 0.020891499 -0.0034043752 -0.0726709 0.008764224 -0.019240975 -0.0457397 -0.018745502 -0.01636429 -0.043947157 -0.036373213 0.03250859 0.039615575 0.062160596 -0.046821922 0.038586922 0.028058775 0.0067573385 -0.019228049 -0.04845686 -0.017373025 0.009307032 -0.029711127 0.037211407 0.015185917 0.004113442 0.022972282 0.055292685
1984 0.007935554 0.027343275 -0.023809424 0.07123297 0.0105553605 -0.059529442 0.041479215 -0.037620053 0.00090408174 0.0031241826 0.027838718 -0.026525842 -0.003799667 -0.04848447 -0.012233359 0.026013298 0.023250636 -0.028315391 0.025245076 0.048325494 0.029590044 -0.035931125 0.01472846 -0.038906414 0.0277404 0.032832704 -0.008295379 -0.040168654 0.026533062 0.03943749 0.08833692 0.040046226 -0.019512082 -0.026543867 0.011988383 0.009186952 0.044320732 -0.0118025085 -0.042775407 0.0756127 -0.009408823 0.06614089 -0.023661926 -0.008435985 0.04070083 -0.009770194 0.017072082 0.04420672 0.015316104 0.01511496 -0.049212433 0.0043006535 -0.016298912 -0.0029078808 -0.043839756 -0.031544212 -0.0066484674 0.0048555327 0.007987976 0.0060816985 -0.00378036 0.0072882036 -0.050978415 0.0038061573 0.0066189803 -0.03760758 -0.055991374 0.0258867 0.001246175 0.02754924 -0.05719062 -0.041329358 0.08103818 0.009322619 -0.012324314 -0.019750537 0.007914723 -0.08707184 -0.009487666 -0.021617588 -0.03267505 0.004742856 0.0075546177 0.0070686173 0.006096117 -0.0036695444 -0.019203357 0.01770886 -0.048168924 0.03405872 -0.011246672 -0.0018468845 -0.0064335573 -0.01929738 0.028876945 0.029201414 0.07644364 -0.030478485 -0.0012995363 0.04260037 -0.048696805 0.03699563 -0.054834794 -0.030937659 0.0028251936 0.03380052 0.05782261 -0.018461967 0.0017746732 -0.009501894 -0.03585783 0.021826515 0.04252148 0.042287044 -0.022877606 -0.010631151 -0.028185813 0.014641355 0.04758649 -0.02705735 0.016607653 -0.033493508 -0.03940899 0.06581208 0.04136326 0.08140096 -0.04728567 0.012963875
1275 0.042117387 -0.016319277 -0.068570636 -0.06666172 -0.048023675 -0.015552815 0.019302905 0.016473062 0.057411533 -0.012893065 -0.018249549 0.07334758 0.020538293 -0.042754736 0.041563585 -0.055895872 0.025803912 -0.041680068 0.078506984 -0.020070605 0.06984773 -0.011122389 -0.030375116 -0.038516913 -0.024479866 -0.051463567 -0.0155583145 -0.014995713 -0.039078273 0.011673007 0.025767626 0.038945653 0.04158216 0.0076257805 -0.009553116 0.0040983763 0.039816763 -0.00058243907 0.03155138 -0.042972427 -0.07141546 -0.03902758 -0.02396364 0.039870214 -0.027333442 0.023220053 -0.037544668 -0.06961442 0.052239552 0.039421022 0.027506053 0.013452864 0.03996631 0.008950541 -0.038868625 0.05330656 -0.013376178 0.0031156833 0.0011160917 0.0410408 0.036280278 0.011702524 -0.0022455752 0.0023011605 0.015458368 -0.04134961 -0.043577656 -0.051710643 -0.012720978 0.002036313 0.055052612 0.0048616584 -0.01858082 0.012798362 0.03772993 0.020126313 -0.044908267 -0.007020001 0.013083575 0.028904071 -0.020647602 0.043598942 -0.025481455 -0.024478508 0.057328563 0.002420871 0.07185435 0.010351312 -0.044185277 0.032141082 -0.052368253 -0.021276165 -0.01674732 0.054420333 -0.016048789 -0.012117376 -0.027254831 0.04707467 -0.014794047 0.03975445 0.024215898 -0.020367995 -0.0028080132 -0.02118804 -0.044438723 0.033807907 0.021099707 0.047703 0.00018890548 -0.017984988 -0.03231073 0.044096507 -0.0038513672 -0.022509651 0.02932951 0.043430943 0.03250528 -0.0007361085 -0.051938146 0.051284533 -0.045092475 0.02200135 -0.016732449 0.030439537 0.00719928 0.037433315 -0.046802506 -0.021476734
942 0.0021103472 -0.051666263 -0.03503534 -0.01270237 -0.018212056 -0.03101975 0.025296843 -0.0030341288 -0.002404741 -0.0205498 0.051313855 0.0020046905 -0.075239524 -0.018316086 0.0013577526 0.0423371 0.008282837 -0.0065099094 0.0021546213 0.0143504515 0.040182643 -0.0035620213 0.026806654 0.041996773 -0.005854956 -0.055080496 -0.05860374 0.018669028 -0.021255057 0.047007713 -0.03313499 0.04004649 -4.644104e-05 0.017303657 0.00048230332 -0.0015061196 0.098794244 -0.022271406 -0.00061776186 0.033461202 0.011953851 -0.03708909 -0.026513683 0.025651574 0.04665033 0.08055967 -0.022121886 -0.011993128 -0.039284177 -0.045145705 0.014301364 0.045734752 0.04805823 0.0024770382 0.025055265 -0.012243095 0.0010100937 -0.020392856 -0.051983457 -0.018433202 0.042826694 -0.060900103 -0.027572341 0.042143106 0.0871576 0.004511981 -0.021455111 -0.0264413 -0.039361775 -0.043055646 0.02148467 -0.050744075 0.0109687885 -0.045750163 0.0011452003 -0.023421908 -0.013411367 -0.055586275 0.01252193 0.0014968439 0.020408968 -0.008245637 -0.036414016 -0.04647006 0.07039233 -0.024102727 0.03956787 -0.040054277 0.096615456 -0.005273239 -0.019766647 0.021668069 0.019097582 0.059180543 0.01979945 0.053353194 -0.03166886 0.058651026 -0.0039941124 0.017660355 0.062853 0.0007353519 -0.0064660185 -0.040940758 0.022157377 -0.03446799 -0.000594137 0.085948266 0.039290283 -0.04751075 0.018998766 0.01942964 -0.02548488 -0.07603779 0.028758897 -0.039542243 0.043436788 -0.053203497 0.023103038 -0.048491284 -0.09603317 0.031968452 -0.00089473487 0.022226272 0.040924996 -0.022264624 0.0047521847 -0.035971045
813 -0.049111374 -0.04280885 -0.025569767 0.05103554 0.08615936 -0.04374275 0.009926687 -0.0042559477 0.02678047 0.02123979 -0.016470125 -0.02228806 -0.005160961 0.003000733 -0.039182335 0.024390087 -0.053352803 0.02496262 0.007952637 0.0089496095 -0.00658508 -0.09995759 -0.035115607 -0.06600902 0.04690287 0.032426354 -0.058786497 -0.02805555 -0.052482616 -0.04620907 -0.058271315 0.072842754 -0.021096557 0.014367359 -0.03940982 -0.001724222 -0.036508635 0.04204522 -0.04267366 -0.050668832 0.034170695 -0.061523322 -0.04141866 -0.032020103 0.04205719 0.06677788 -0.0054760193 -0.050640453 0.02025267 0.015854448 0.00015138404 -0.0784563 0.0007383307 0.031329133 -0.017501084 -0.018100599 0.0509243 0.044385295 0.018257422 -0.003920761 0.016625483 -0.03574985 0.006966753 0.053591296 0.045129407 -0.017936243 -0.051827833 -0.039161243 -0.042587 -0.01622103 0.03546743 0.05241413 0.04004256 -0.044011075 0.018809386 0.055031713 0.043182943 -0.003640533 0.02728803 0.00017445393 0.022358991 -0.00529412 -0.0057820864 0.020900674 0.01694451 -0.0044083497 0.017111596 -0.020163909 0.008147653 -0.045533765 0.022783753 0.029126272 0.06086664 0.04428912 -0.0704138 -0.013800197 -0.02298165 -0.028142722 -0.031153888 0.0061581256 0.02478223 -0.009433762 0.03964693 -0.008583522 -0.05256947 0.083335645 -0.011412712 0.04297451 -0.08075557 0.06231895 0.032045316 -0.005858124 0.0049874005 0.0403811 -0.018464169 -0.022289576 -0.06104503 -0.022256492 -0.06519318 0.057666793 -0.0012089333 -0.060246367 -0.0055212067 -0.013110255 -0.01933019 -0.005772901 0.0117903855 0.023443846
93 -0.016871033 0.002549044 -0.0059045414 0.038334765 0.013993114 0.012754456 -0.030527882 0.08891282 0.07643991 0.04609176 0.02388261 0.02311604 0.052149173 0.008704283 0.03475556 0.01817677 -0.020791829 0.046698704 -0.036017586 -0.06934383 -0.05043395 -0.035124075 0.0051127505 -0.044605453 0.03887376 -0.019047046 -0.0001456819 0.012589623 0.035258163 -0.03455833 0.018462483 0.01802802 -0.011799373 0.06065019 0.006575014 0.0057216957 -0.019736746 0.008172605 0.007054368 0.054186236 0.098013125 0.032141637 0.016499143 -0.04369473 -0.05595259 0.05951599 0.064212166 -0.0146829 0.020643858 -0.02182057 -0.041540157 0.002802106 0.011540432 0.020625807 0.04734923 -0.0049328464 -0.015063902 0.017380508 0.02393748 0.036436606 -0.019367501 -0.01842819 -0.040318068 0.020284384 0.034455918 -0.012661133 -0.040381413 0.0057279654 -0.07542816 0.00054819934 0.08904077 -0.04069557 -0.021149065 -0.016583487 -0.029979568 0.023277208 -0.03479808 -0.049949273 -0.03672459 -0.003208442 0.013025869 -0.00479103 -0.021545928 -0.03795879 0.011991153 0.045879018 -0.0598613 -0.033696074 0.0006476091 0.020551892 -0.009546443 0.0455389 0.0270377 0.011347822 -0.027294826 0.055494342 -0.014727748 -0.034342382 0.021260956 -0.04501143 -0.07598487 0.016480042 0.005321752 0.040354874 0.005047603 0.01032625 -0.012624746 -0.004465819 -0.017833952 0.037221983 -0.022932068 0.015663862 0.007962261 0.055546314 0.03795274 -0.022208612 -0.040023416 -0.02392849 0.006142645 0.037001148 0.008935279 0.02934255 -0.0243118 0.026921725 0.041070458 0.033551548 -0.016530074 -0.05417878
880 0.038738575 -0.057841387 0.028606758 0.0053334143 -0.020356387 0.030135257 0.05811845 0.0061490647 0.022322927 -0.055743404 -0.037153617 0.01127974 -0.032086812 -0.025559828 -7.618265e-05 0.0052294587 -0.05956046 0.016348744 0.023423914 -0.006547052 0.02391056 0.029851101 0.015041345 0.016704425 -0.005684705 0.032766342 0.041585512 -0.01804326 -0.029962437 -0.00329932 -0.02758119 -0.040164664 0.002096983 -0.015797418 -0.030418439 -0.04472828 0.051256303 0.019285941 0.03597088 -0.0076075075 0.019449804 -0.0016746434 0.008866235 -0.024218095 0.03350978 -0.018375073 0.039266285 -0.034446713 -0.04180092 -0.048499383 0.010356682 -0.03100061 -0.055096492 0.0108472565 -0.048474208 0.04010613 0.00454137 0.022270277 0.033155624 -0.007370142 -0.06971261 -0.016844893 0.0125173265 0.014854001 0.00255925 -0.086435415 0.014886112 -0.05437794 -0.0066208346 -0.04195564 0.03186807 0.026522504 -0.065478705 -0.050272286 0.04664398 0.059039425 -0.027689008 0.021809522 0.04750182 0.044388525 0.015781108 0.085891165 0.018165184 0.0032770648 0.05205711 0.051752254 -0.04660537 -0.054361623 -0.058466528 -0.045453154 -0.0131510375 -0.036951225 -0.055240665 0.044729035 -0.012380652 0.06089662 -0.018671144 -0.05154477 -0.037446477 0.06847863 -0.023267776 0.0104075 -0.009010169 0.0010791619 -0.01617492 0.02054805 -0.028915606 0.011480046 0.07661209 0.026460541 0.028962689 -0.026492339 -0.017082702 0.05515757 -0.028782759 -0.06053579 -0.010434166 -0.04989025 -0.01992438 0.020290662 -0.023027265 0.07123212 -0.051946625 -0.03185667 -0.026855556 0.011616417 0.030887265 0.025618363
881 0.065589406 -0.024100788 0.09352802 0.026478156 0.027396932 0.012645531 0.049448237 0.06761759 0.069093645 0.017604874 -0.007545923 0.052961178 0.0046359664 0.007322491 -0.0019090084 -0.0231363 -0.074132316 0.036187977 0.037546583 0.020350624 0.011517066 0.04542266 0.0745574 0.055429686 -0.029169653 0.017517019 0.025919054 -0.07360548 -0.04665041 -0.021481076 -0.067793444 -0.095083214 0.0011760569 -0.009334528 -0.045416273 -0.07680782 -0.0070490716 -0.04242978 -0.020006614 -0.0061607095 0.021015199 -0.006200662 -0.027048223 -0.033723466 0.049424425 -0.05707424 -0.03596595 -0.016224502 0.041290186 -0.007546064 -0.007570292 -0.0053078006 0.008047182 -0.02541243 -0.077873066 0.009285121 -0.0060123536 -0.008594043 0.058213983 -0.01346591 -0.023661692 -0.003192659 0.051906455 -0.035880312 -0.014277501 -0.049432244 0.006041292 0.0035596935 -0.023300257 0.00652858 -0.01944363 -0.040141977 0.0045543653 -0.05553999 0.0030460337 0.025189994 0.007063707 0.019222809 0.005094193 -0.019527927 0.019432327 0.012762981 0.014021796 0.0077267797 0.042770445 -0.031593483 0.017828543 -0.024487885 -0.022091785 0.018104224 0.0191538 0.030031195 -0.06250464 -0.001168354 0.04293729 -0.008736244 0.012861999 -0.0586837 0.04637835 0.026628006 -0.0019679666 -0.017287105 0.00907651 0.023860956 -0.019735051 0.050038822 -0.047938388 -0.024181712 0.008062433 0.032965366 -0.013258134 -0.034556676 -0.024148159 0.035933774 -0.031945694 -0.028388007 -0.029061168 -0.04930081 0.04623016 0.0057471953 -0.016457587 0.03465787 -0.014122587 -0.055942483 0.015670994 0.03734852 0.03280825 -0.034227263
1825 0.07293714 0.012895167 0.041700065 -0.07899557 -0.054643594 -0.043578636 0.071971275 -0.03685187 0.01981283 -0.0370071 0.019827727 -0.047133032 -0.064627446 -0.023751466 -0.0007508622 -0.072455086 -0.012090789 0.009806053 -0.02019492 -0.07140988 0.038908016 0.007160437 0.0332576 0.0025459612 -0.067188255 -0.048472814 -0.09737099 0.025436433 0.0048679803 -0.030312708 0.010176996 0.038445342 -0.043816324 0.07777591 0.017694807 0.044897277 0.016177205 -0.004906292 0.035799876 -0.013186812 -0.008607438 -0.050940562 0.006918364 0.03469548 -0.02362457 -0.037811525 0.034541603 -0.029228482 0.06363785 -0.0054484913 -0.07585566 0.049648076 -0.0072501735 0.031622052 -0.039370272 -0.0352886 0.023229854 -0.022975858 0.05694728 -0.012936225 -0.0063361404 0.011030563 0.010254048 0.045445867 -0.035005335 0.036105912 -0.016998708 0.034645993 -0.048625316 0.021680491 0.0075292657 0.038737085 0.034935232 -0.013851153 0.052210364 0.0072749616 0.0041751727 0.07096809 -0.0074444395 -0.0014710128 0.036712736 -0.00392849 0.037547532 -0.041531075 -0.005493696 0.012580722 0.00954572 -0.03456905 0.057936188 0.033358127 0.01957608 0.022460653 0.051461745 -0.048343934 0.09038173 -0.03770163 0.020911269 -0.0226851 0.0063644745 -0.002268981 -0.0004946033 -0.04304254 0.02471833 0.025218043 -0.043799575 0.003433245 -0.026162187 -0.051038112 0.052619297 0.04985457 0.023309918 -0.022939792 0.06825867 -0.00091750605 0.042937897 3.7061363e-05 0.010659891 0.009231184 0.061422117 -0.008065401 -0.051827263 0.0059118513 -0.058183108 -0.0447879 -0.024576569 0.032615293 0.07253454 0.012653895
1672 0.03547303 0.03301704 -0.030216286 -0.07058732 0.07122284 -0.0031383135 0.0025683946 -0.0011094175 -0.034558877 -0.05612788 0.027806006 0.06084949 -0.032626674 -0.017373359 0.039860953 0.024229448 0.0006947802 -0.02445923 -0.017059084 -0.037153102 0.010205478 -0.017969718 0.05271395 -0.007874288 0.012934699 0.019912453 -0.07278934 0.015387116 0.0018070325 -0.04802252 0.027081775 0.028231565 0.0644147 -0.0067086793 -0.057396904 -0.035914626 -0.047667705 -0.035247028 -0.02547758 0.02239791 0.08032859 0.007172551 0.052594166 0.013325153 0.03568332 -0.028812855 0.083273284 0.013870213 -0.0013303305 -0.01253683 -0.049174253 -0.007966232 0.059225082 0.0003163893 -0.07035488 -0.03140472 -0.044841558 -0.031253677 -0.048260566 0.034393024 0.015150694 0.009963251 0.044899732 0.0237364 0.007276818 -0.009189455 -0.0013608772 -0.024587318 0.026360417 -0.027398948 -0.013366438 0.017135061 -0.0061237067 0.0530359 0.009997274 0.07060231 0.04220925 0.005571452 -0.053409413 -0.016766297 0.0684123 0.046850536 0.013773755 -0.028145397 0.026529444 0.031892393 -0.01262447 0.027827883 0.047193598 -0.015523054 0.02108311 -0.047421068 0.017461792 -0.035686497 0.03445947 -0.01726715 0.06102258 -0.01097219 0.05622278 -0.040826518 -0.007927014 -0.04133046 0.06838546 -0.03074385 -0.015348474 0.0140074305 0.0071605565 0.039211873 -0.005206582 0.020441169 -0.026756456 -0.0028272977 -0.031296827 -0.04101834 0.0028721993 -0.037497923 0.025049837 -0.071348414 0.05045384 0.017538078 0.028325079 0.00257803 0.015087634 -0.016617022 -0.006866218 0.012993367 -0.004736526 -0.011050056
18 -0.008208989 -2.6940048e-05 0.012022293 0.0008593889 -0.026016217 0.047803786 -0.001896252 0.03798162 0.052414715 -0.06786178 0.036107477 0.030435279 0.025619281 0.02598117 -0.014484493 0.039095003 0.036178533 0.050905976 0.0041431594 0.017258367 0.013013105 0.05662449 -0.0482932 0.037364256 0.06533615 -0.01355942 0.090488546 -0.0076805265 0.03314286 -0.07204701 -0.02055571 0.054902636 0.027261363 0.0009575553 -0.02446531 -0.026483243 0.039799765 0.0420098 0.020968929 -0.030695818 0.06315654 -0.00552631 0.013819012 -0.011390415 0.015312607 0.020237437 0.03557987 -0.061836522 0.038876083 -0.020529963 0.026642572 -0.012835938 0.010212682 0.005917601 -0.011024776 0.0296733 -0.016336415 0.025594702 0.012382963 -0.03921002 -0.06885093 -0.02417946 0.03727604 0.039777916 0.04531033 0.054003473 -0.05452161 -0.027505271 0.013704304 -0.0392924 0.009559301 0.030786565 -0.009926624 0.03921444 0.028538179 -0.019435175 -0.011004082 0.016354345 0.011333855 0.040575873 0.049335364 0.009936463 0.008080711 0.004379061 0.022014057 0.04716594 -0.027098589 -0.030150628 0.0062669916 -0.0017176921 -0.040316463 0.027892854 -0.016654808 0.02350967 -0.017225636 -0.043373585 0.0014759108 -0.013886448 0.03178646 -0.006716291 -0.03319097 0.011673905 0.03546401 -0.011446337 0.002319958 0.03851956 0.008400416 -0.065577894 0.0143294735 -0.0020012374 -0.03081834 -0.041711327 0.026768833 0.060786396 -0.039659988 0.026219962 0.03371573 0.06628545 -0.06601415 -0.026910799 0.02792047 -0.065204054 0.02161192 0.045140907 0.0120938495 -0.028224641 -0.043865595 0.0063537275
537 -0.0029043816 0.037602015 -0.035293285 0.059388604 0.07972958 0.028225776 0.01689008 -0.013814373 -0.052443773 -0.023899522 0.012828312 0.06675341 0.033858918 -0.023254946 -0.06622882 0.007963788 0.10740595 0.029400341 -0.028318595 -0.052015077 0.03809522 0.024715692 0.011887725 -0.016488958 0.014229942 0.0108228475 0.042118505 -0.027713606 0.030011764 -0.037355185 -0.016542543 0.041879315 0.014625811 0.07922146 0.048347156 0.008524586 -0.09187511 0.004624508 -0.037700243 0.023924163 0.07414071 0.021817198 -0.0063949768 0.06686839 -0.052553073 -0.033113435 0.085572645 0.027262095 0.0040367 0.061319683 0.027117064 -0.058563266 -0.03379429 0.013202618 0.045328487 -0.042941503 -0.05157914 -0.023722224 0.012951885 0.031159392 -0.057270557 -0.06337908 -0.040522214 0.08029309 -0.032472774 -0.011980193 -0.041200504 0.047680166 -0.00028201166 0.03642294 0.05110882 -0.08207311 -0.032370657 -0.013458984 0.010119627 0.043067183 0.010137977 -0.014159176 -0.05660977 0.015074553 -0.011429376 -0.01198026 -0.019683106 -0.028430007 0.024092987 0.051805466 -0.055474 -0.06491035 0.047459353 -0.050886787 0.015007779 0.04106098 -0.01933685 -0.019198615 -0.03721631 -0.0023629998 0.013095463 -0.016386181 0.052968107 0.010697546 -0.043629315 0.01919557 -0.02973081 0.08608788 0.016698696 0.017213602 -0.016775012 -0.021853523 -0.04500577 0.049052626 -0.031324845 -0.039141163 0.011573467 0.083922476 -0.02342522 -0.018836334 0.020967692 0.010983715 -0.013547049 0.040013 0.0010642207 0.040433064 -0.025415346 0.04760079 -0.028235517 -0.06380679 0.0697147 -0.0349988
1338 0.056851905 -0.09568903 0.022246694 -0.029513178 0.039688803 0.03103018 0.028671859 -0.025148826 0.016090708 -0.081387386 0.053501338 -0.008319478 0.0672858 -0.06753496 -0.035239723 0.055775277 -0.008591723 -0.036570355 0.003902704 -0.019122142 -0.0024981461 -0.013787458 -0.051639725 -0.020789463 0.020465454 -0.013494435 -0.030161807 0.0031888676 0.021916104 -0.03164697 -0.0078067565 -0.0012307949 0.048160132 -0.044093937 0.070319004 -0.04935021 -0.0038265227 -0.027860146 0.05351066 0.032201774 0.07842694 -0.04899274 0.003743988 0.020382473 0.0079251295 0.03711189 -0.05049692 0.03772208 -0.035000227 -0.06011111 0.059411917 -0.048778877 0.0027365815 -0.014667283 -0.037250284 0.011168278 0.02196801 -0.010415065 0.006438571 0.030434638 -0.017188193 -0.008164139 0.018517584 -0.0010619486 0.015095228 -0.039258823 0.050001644 -0.05883714 0.06393115 0.03237691 0.037593115 -0.009267099 -0.054432023 0.0077048247 0.011569469 -0.051141992 0.02657372 0.003718957 -0.022420777 -0.002600888 0.016361631 -0.014484398 0.0920882 0.015149934 0.016577153 -0.04188332 -0.041624237 0.04708109 0.011726554 0.0032734408 -0.029606996 0.0007317083 0.028937537 -0.0034025924 0.009490212 0.008578995 0.06990414 -0.0029145116 0.04645705 0.04847648 0.065782115 -0.0018861165 0.016096508 0.011764072 0.00604146 0.028557956 0.001189395 0.00058778137 -0.044831015 -0.043324064 0.0018646759 -0.017636439 -0.031027386 0.053154673 -0.0042516314 0.024066513 0.00753026 0.05636841 -0.011860581 0.049975492 -0.0036286348 0.004543736 -0.018927652 0.034921132 0.017939301 0.073430344 0.0008797292 -0.018062333
940 0.0032875068 -0.056531128 -0.008139676 -0.016112687 -0.01772033 0.031473096 -0.017279545 -0.023063703 0.07518507 -0.039767336 0.005632244 0.04611049 0.08794237 -0.027133554 0.006643763 0.07364925 0.019533295 0.028363595 0.02087933 -0.03040499 0.032360394 0.0068043126 0.045750704 7.742636e-05 0.0020817195 -0.012840581 -0.019195462 -0.0048547653 0.04054707 -0.06982918 -0.070991136 0.008464236 -0.019068394 -0.05632663 0.07108846 -0.02723785 0.0043954733 -0.039591193 0.07104815 0.035568316 0.047225658 0.016371462 -0.0014066244 0.04629813 -0.020202238 0.0054362537 0.009922046 0.042305436 -0.0460217 -0.032650985 0.072890505 -0.020432359 -0.032976255 -0.029615762 0.005837624 -0.0453215 0.005921759 0.043875698 -0.04529199 0.0001866877 -0.04428707 -0.03780826 0.011372534 0.0019186875 0.03454711 0.01235692 0.020669704 -0.045162138 0.0029946084 -0.005364118 0.027925765 -0.054546326 -0.017340725 0.065418504 -0.05579779 0.017634619 0.026866868 0.010441122 0.019422222 0.06885527 -0.057190668 0.025867281 0.009611701 0.023502897 0.03580776 -0.05308817 0.0071792216 0.0030572854 0.04678875 -0.007898542 -0.004148394 -0.0007428559 0.009803912 -0.011794396 0.012265598 -0.0092882095 -0.0023968494 0.016857231 0.012332888 0.008949196 0.027280822 0.006952224 0.006174934 -0.03681256 -0.023784092 -0.023590058 -0.020794839 -0.022646878 -0.0267843 0.016739927 -0.04635186 -0.017316943 0.011338259 -0.00697878 -0.028350376 -0.004124188 -0.021934548 -0.017462628 -0.0075456724 -0.04466871 -0.020663774 0.06878992 0.022813046 0.046349633 0.030244885 0.049579214 0.016560126 0.011907516
689 -0.02035149 0.010554599 0.041527387 0.05995328 0.080891505 0.019699799 -0.06664112 0.002506753 -0.04446309 0.023174442 0.04589547 0.022615174 0.022654463 0.025633527 -0.020400813 0.05195572 0.0024806182 -0.004450066 0.065445974 -0.005105734 0.017553438 -0.005645648 0.09783985 -0.014190249 0.06425713 -0.028862815 0.07198625 -0.094292365 -0.03937611 -0.029512689 0.010314981 0.0155202625 0.012054177 -0.04938049 0.061985675 -0.021000493 -0.038794786 -0.012271699 -0.033050194 0.009640757 -0.03671919 -0.07458927 -0.05334641 -0.010005951 -0.03709583 0.051279902 0.03854226 0.0011209827 -0.061786946 0.045543432 -0.088293254 0.023699263 0.030596677 0.03998691 -0.045847856 -0.06777033 0.027363447 -0.007963192 -0.08580829 0.007011959 -0.0105977645 0.013323631 -0.015393182 0.013605304 0.039860982 0.056029055 0.017789945 0.016770355 -0.004941929 -0.044292156 -0.02166445 0.04051768 0.029931892 0.038523417 -0.0375699 -0.034039997 0.038832147 0.017499195 -0.009502137 0.032553457 -0.024666008 0.026185315 0.07155162 -0.003746585 0.024420949 0.0736598 -0.015433195 -0.026691185 -0.019086754 0.02511177 -0.03622238 -0.0054404065 0.050813552 -0.014496212 0.027972458 -0.04720304 -0.06415225 -0.015827587 0.020002339 0.07352193 -0.011092006 -0.00096392306 0.037689425 -0.053437848 -0.035516758 -0.012590886 -0.017386183 0.022044333 -0.026065677 -0.0046550506 0.05923202 0.038449734 0.05826907 -0.044744246 -4.8435322e-05 -0.03577365 -0.010452878 0.060034845 0.024386186 -0.010754312 -0.042599507 -0.008569242 -0.060591 -0.043172967 -0.035714045 0.009838925 0.037317112 0.046091024
684 -0.023949957 0.052797824 0.08999862 0.020133112 0.049462795 0.06060147 0.013386682 0.011973023 -0.04240283 -0.05552042 0.07152667 0.0059321886 0.004274657 0.04008241 -0.060980782 0.015357854 -0.022369377 0.015280373 0.029507482 0.04379637 -0.00087889255 0.0012086448 0.053622443 -0.061790824 -0.0019473109 -0.08078113 0.00736482 -0.10657839 -0.03412677 -0.020576281 0.016302101 0.029626371 -0.04192644 0.019727081 0.001140026 -0.009577111 -0.05697002 0.0014627925 -0.07784323 0.05559048 0.0128245065 -0.06791837 0.036719266 -0.013627244 -0.07157459 0.053176854 0.0922544 -0.05674533 0.041819192 0.011169463 -0.08508783 0.012569807 0.016940728 -0.025083588 -0.044811007 -0.0094610425 0.015143385 0.029411912 -0.004797361 0.0025695816 -0.031192988 0.011943458 -0.0054151425 0.051378544 0.0685751 0.06932023 0.019121332 0.06596143 0.038908374 -0.026943209 0.026965346 0.018253295 0.018218432 -0.014447033 -0.045801334 -0.033415888 0.021265859 -0.03309384 -0.017953336 -0.018456196 0.044038374 0.044172656 0.0652818 -0.0585617 -0.03615035 0.04106175 0.055922847 -0.045015987 0.04785112 0.007103938 -0.02624898 -0.020913927 -0.038565464 -0.014255473 0.0004494287 -0.006231226 0.009496128 0.07049081 0.051286228 0.03452519 0.023213265 -0.003633082 -0.030632934 -0.039826076 -0.028432926 -0.014735975 0.02568747 -0.0037679733 -0.046917897 0.026353363 -0.024949301 0.020355355 0.047774974 0.009876282 -0.020586789 -0.015493001 -0.019252764 -0.030992988 0.041739233 0.020951575 -0.07149821 -0.022279518 -0.034382246 0.0069352887 0.03393392 0.054400455 0.0073733255 -0.05825562
2181 -0.012128086 -0.0114635015 -0.060743712 -0.05789441 0.06432207 -0.0073667984 0.0131920595 0.035116833 -0.022418143 0.016890585 0.0071168947 0.046723686 -0.008279247 -0.059786223 -0.02741358 0.02220366 -0.016382596 0.02235864 -0.012834526 0.035076413 -0.011724178 -0.00048753465 -0.03502897 -0.026125912 -0.044741098 -0.04827785 0.024922367 0.0043647443 -0.08403665 0.02603575 -0.036912683 0.043960217 -0.041859217 0.05448007 -0.00054686767 -0.05558514 -0.026271414 -0.0007040463 -0.0050292336 0.048420392 0.03232174 0.024784401 -0.06623771 0.040079117 -0.0052875546 -0.052348197 -0.01047262 -0.012952282 0.06397119 0.054338183 0.014741411 -0.04192568 0.00853825 -0.008274234 0.024798566 -0.004723462 0.0127547085 0.0542285 -0.0046689683 -0.04140642 0.05008055 -0.0449051 -0.07379009 0.04709401 -0.017769167 0.057847988 0.03129297 -0.052702338 0.039447147 -0.018059183 -0.053064182 0.031677164 -0.070204936 -0.0037007614 -0.03995827 0.02478224 0.016193043 0.039760083 -0.006507147 0.055287812 -0.0434244 0.0039978884 0.0741183 -0.011634151 -0.046539877 -0.07446819 -0.057239242 -0.032384146 0.022797279 0.013847451 0.021744944 0.03847765 0.0009939164 -0.016203716 0.03324178 -0.028101666 -0.0440515 0.005467621 0.01860659 -0.059390005 0.00037726667 0.019447109 -0.02220993 -0.020905912 0.00910622 0.044664714 0.03064725 0.0049378187 -0.03232642 0.009608527 -0.0135413315 -0.030627852 0.021672737 0.011750586 -0.056929246 0.07062153 -0.041599356 -0.0066202683 -0.031252652 -0.055685636 -0.0016227397 -0.020321608 0.04922997 -0.037854712 0.0025311706 -0.024865108 -0.0015916107 0.04733266
2179 -0.023282863 -0.03795331 0.010215603 -0.027632894 0.026576394 -0.0055675413 -0.00901099 0.044635355 -0.034552407 -0.015602914 0.06509707 0.01662968 -0.036741983 -0.059680454 0.022611942 0.019947011 0.039625987 0.049680285 0.06548803 0.02814136 0.0602 -0.010589018 -0.012445013 0.034187153 -0.05273031 0.029582173 -0.012929343 -0.010890889 -0.017410675 0.010716539 0.023199555 0.022711769 -0.087537706 0.028782325 0.01848193 0.04205012 0.0036076102 -0.034874976 -0.0008998843 -0.011794935 0.0068633975 -0.034634497 -0.04458429 -0.017455079 -0.03345949 0.0022728262 0.035955697 0.0070457757 0.022069614 0.03371763 0.054269552 0.03919622 0.032760467 -0.023400271 0.094848275 -0.015139563 0.044583246 0.016640736 0.042871993 -0.029934311 0.015596626 0.0063883704 -0.019465424 -0.010600921 -0.041036714 0.062162194 0.0659707 0.002776738 0.026410865 -0.021321328 0.043448772 0.0026277492 -0.07501047 -0.0010900251 -0.020980854 0.077654995 -0.0132749975 -0.021536894 -0.008128426 0.0027575528 -0.027982427 0.013591773 -0.0101809995 -0.010413878 -0.04127481 -0.00771184 -0.023542317 -0.014223408 -0.05279506 0.027274363 -0.0092283655 -0.009037552 0.0107567655 -0.014169354 -0.0054281587 0.015814507 -0.016972946 0.02245568 0.059633445 -0.0007638292 -0.033291902 -0.04103939 -0.022496728 0.031649183 -0.026539242 0.0124999825 0.024149163 0.014130085 0.016656583 0.005344198 0.0040256768 -0.004772901 -0.06860157 0.0074125025 -0.029550891 -0.07131441 -0.046360686 0.028788317 -0.0803677 -0.067979045 0.022677107 0.030835938 -0.0059556616 0.046001635 -0.06871505 -0.041694727 0.061352063 -0.020035509
2140 0.0053396714 0.004730734 0.03661363 -0.0048148483 -0.011091236 -0.038457382 -0.0458891 0.0012192412 0.032174215 0.0012846481 0.025007524 -0.024857555 0.033211906 -0.052092504 0.039053675 0.068089254 0.04781215 0.0059410846 0.029026104 0.044796903 -0.014506505 -0.014885813 0.017750628 -0.01950328 0.011607943 -0.0019299483 -0.010027939 -0.02036939 -0.019276578 0.0014713544 -0.0100567015 0.03897167 -0.01178936 -0.008963429 -0.0020438356 -0.019322021 0.06622038 0.007773839 0.051167447 -0.05274274 -0.07310825 -0.014203533 0.038689848 0.028363004 -0.0019234328 0.015313855 -0.012203559 0.030425517 -0.06204507 0.022115454 -0.05632786 -0.031110339 0.0231739 0.0013904737 -0.02042154 -0.06285615 -0.003739906 0.03902182 -0.01154061 -0.006905724 -0.06322543 -0.020605024 -0.01197841 -0.074330196 0.011698917 0.034597643 -0.01849468 0.018614288 0.00046605978 0.021604089 -0.029844526 -0.050164096 -0.023278946 -0.020747589 0.023668032 -0.046965074 -0.01803269 -0.030778179 -0.001359095 0.029815003 0.031994835 -0.0122321425 0.034613978 0.06244015 -0.0076222243 -0.086439714 -0.026648404 -0.008218195 -0.010660461 0.014249046 -0.028681558 -0.006765531 -0.00466052 -0.038521886 0.05152272 -0.03553194 0.021447761 0.027241927 0.010231093 -0.07159576 -0.0023442297 0.0472333 0.0077859024 0.055504475 0.020604875 -0.010325784 0.009388351 0.008798057 0.01782264 -0.000697448 0.065985195 0.030788723 0.03464824 -0.027455559 -0.031004673 -0.08073908 -0.023491811 0.027555982 -0.020686384 -0.022294747 -0.00039041333 -0.013735987 -0.027667584 -0.006648484 0.030477282 -0.071755014 -0.010414888 -0.012251858
64 -0.03973009 -0.028129227 -0.03511507 -0.00857444 -0.07792907 -0.01719016 -0.081551716 -0.028444724 -0.020268692 0.052037045 -0.032500964 -0.051261734 0.050765295 -0.06793154 0.032818493 -0.006329148 -0.06186505 -0.004670808 0.023212668 -0.033355974 -0.040229503 0.00803505 -0.017071186 -0.088140346 0.036247555 -0.032141846 0.053134426 -0.05704426 0.01905958 -0.019629478 -0.010007491 -0.049868435 -0.05134921 0.086001486 0.0067241564 -0.040671084 0.034654368 -0.021234207 0.054800164 0.0395718 0.0024189153 -0.037758287 0.04123706 -0.02603104 0.031319834 -0.041465312 0.054679092 -0.084195 0.03638717 0.04283151 -0.020323927 -0.044739824 -0.012981523 0.03880536 -0.062441036 -0.0453012 9.300181e-05 0.044357046 -0.08634475 -0.011846395 0.026401544 0.049405944 0.009256297 0.044440992 -0.048927642 0.01089994 0.008232806 0.026953038 0.023446128 -0.005515318 0.017129365 -0.02249424 0.046196103 0.013991522 0.02956161 0.04764155 -0.06118863 0.0007009217 0.03296003 0.015572019 0.064457715 0.019461226 0.01014496 -0.03505903 0.03467973 -0.023192814 -0.014993405 -0.05525762 0.032327067 -0.009740983 0.05050076 -0.0103904735 -0.039119553 0.01550787 -0.018675907 -0.056950506 -0.006187737 0.005762876 0.039321717 -0.04529042 -0.055540375 0.052423492 -0.025576599 -0.03206063 0.017451087 -0.047510613 -0.00812625 0.00803252 -0.01368017 0.013127119 -0.0117002055 -0.004778931 0.02863708 -0.0024776177 -0.010793468 -0.04325638 0.015406359 0.0125844 0.010105065 0.011635883 -0.010149469 -0.012967531 0.006348683 -0.014090732 0.03423547 0.052782867 0.03208207 0.032510146
187 0.015557591 0.0024730298 0.020557905 -0.009903071 -0.039006554 -0.0029877387 0.028640235 -0.057027698 0.00917126 -0.025570627 0.013001756 0.032115657 0.07627469 -0.046501733 -0.03279857 -0.012534705 0.015802424 -0.026099356 0.021365294 -0.002408113 -0.0030993493 -0.06039439 0.0063916715 -0.026497014 -0.057117246 0.030759117 -0.06342883 0.008396262 0.00661573 -0.046585377 -0.027254928 -0.02782976 0.015054807 0.051150374 -0.045999292 -0.031964898 -0.0001216582 -0.031208951 0.010907165 -0.00485659 0.028479952 -0.022117577 0.031419814 -0.02871298 -0.07924066 0.008550831 -0.052739598 -0.021679252 -0.050023686 -0.02864119 0.054776594 -0.0021548436 -0.080100454 0.022540644 -0.004333638 0.0037496018 0.035733193 0.037209805 0.070408985 0.055145722 0.021654231 0.044289462 0.010617087 -0.03876604 0.03896193 -0.012888045 -0.03356529 -0.003514142 0.0059779626 0.0030826163 0.017322036 0.06412851 -0.037669543 -0.04613487 0.02855154 -0.011991177 0.038142666 0.00048663368 0.0065689813 0.051121064 0.041063223 0.009745104 0.047192503 -0.02814346 0.032349646 0.008039493 -0.027143933 0.0034081885 0.07427278 0.031786278 0.049523078 -0.025558379 -0.017787991 0.005907517 -0.0450365 -0.024181034 -0.01628387 -0.0518776 0.028546266 0.01689429 0.06169591 0.029518265 -0.03036051 0.05959814 0.051609162 -0.0008154696 -0.046131592 0.001557576 -0.006000494 -0.056399185 0.022738136 -0.011890521 0.05163438 -0.02705671 0.025056234 -0.048975974 0.062151853 0.031856555 -0.012966054 0.057243057 -0.04959469 -0.036306556 0.041736808 -0.0056124823 0.0023236438 0.031161249 -0.045351226 0.04386999
579 0.024325976 -0.013337585 0.01473401 0.060469225 -0.045158662 0.045804616 -0.016502557 0.026690317 0.04916436 -0.033206917 0.034347776 0.008833553 0.053409223 -0.00538839 0.00436137 0.047937937 -0.006161406 -0.04627712 -0.020329116 -0.006143989 0.0002682277 -0.030829115 -0.037639488 0.039777737 -0.013126754 -0.020057369 -0.08638067 0.028574621 -0.0273243 -0.032777492 -0.0061932122 -0.0011938625 0.015913207 -0.01477157 0.05465806 -0.057816815 0.013533796 -0.0026361842 -0.0803981 0.018686136 -0.015232862 0.0018810765 -0.0035815043 0.03195864 0.012532093 0.0019219043 0.07407348 0.018971404 -0.049492247 -0.018623019 0.01967558 -0.037947506 0.017794449 0.001874879 -0.037908874 -0.017840259 0.053692397 -0.002390246 0.015191244 0.034172285 0.054756396 0.014973488 0.034952383 0.0066493563 0.02888594 0.058732465 -0.024753736 -0.0113804415 0.037825517 -0.0031677673 -0.014080828 0.024262646 0.08806534 -0.017767016 0.005445493 -0.033498093 -0.015988799 -0.04165542 -0.023891682 0.014031602 0.08871591 -0.025987249 0.00974475 -0.023170535 -0.037448972 0.03392452 0.0033538796 0.034668174 0.05160269 -0.023491414 -0.0070216246 -0.04483678 -0.048007246 -0.035287157 0.027902847 -0.0907792 -0.029876528 0.014699443 0.031689707 -0.057411008 0.009710453 0.013344286 0.019815164 0.0006878844 0.025160614 0.04188147 -0.056048494 -0.011879376 0.005389975 -0.03559962 0.022117281 0.043255802 0.043761894 -0.041559327 0.010851843 0.00050624687 -0.00893335 0.022982178 0.013903003 0.05065314 0.058625694 -0.015336443 -0.020628482 -0.045488387 0.06797531 -0.033230875 0.051788483 -0.021569803
1957 -0.058205515 -0.054398227 -0.035103146 -0.042733718 -0.042534407 -0.021310812 -0.039302986 -0.0705769 -0.0314131 0.027038762 0.07430779 0.067316644 -0.049244948 0.024367245 0.021169988 -0.011249966 0.008333059 -0.021176156 0.014191739 -0.008011509 0.027641257 0.008053242 -0.021622736 0.010526292 -0.03274933 0.049716607 0.017711 -0.036992222 0.0037418993 0.013947743 0.040799778 0.03186298 0.052166313 0.02106419 -0.06417305 -0.035510626 -0.06933561 0.06371304 -0.035449903 0.018920876 0.0045424025 0.07787421 -0.019713618 0.06045199 -0.016044104 -0.044585697 -0.05117931 -0.0178686 -0.00068258366 0.00642004 0.04031187 -0.022579484 0.03782364 -0.027066683 -0.005570925 -0.07933879 0.036996484 -0.031526346 0.027221924 -0.008666709 -0.03845094 -0.010572404 0.019390969 -0.008363927 -0.031022726 -0.027815282 -0.052107625 -0.024839606 0.07014918 -0.058520395 0.020751175 -0.05075709 -0.030214397 0.02466604 0.006553202 0.015021991 0.068393804 -0.025963757 0.0009820813 -0.05248919 0.0029758539 -0.011557854 0.03283483 0.046572592 -0.06428011 -0.040515553 -0.058980584 0.024706706 -0.031141227 -0.06409678 -0.013074734 -0.035880785 0.036592036 -0.0050093606 0.0068288683 0.022584794 0.04620738 -0.03564358 0.05185523 0.014590567 -0.047085777 0.04739857 0.0060948017 0.022118267 0.044232942 -0.015776608 -0.019970264 0.055824377 -0.05187551 -0.05039608 -0.04713492 0.038338877 0.011421487 0.01590053 -0.034054976 -0.025641026 -0.04447382 0.024342278 -0.02450176 -0.0030332236 -0.0068033994 0.034063593 -0.0034066297 -0.015312454 0.03930668 -0.011588881 0.033982147 0.05272152
1857 -0.010806739 -0.0622669 0.003435058 -0.04181728 -0.059028342 0.045385323 -0.033176396 -0.048406456 -0.026216773 0.022799842 0.06509652 0.04501035 -0.016951289 0.009810115 -0.026692046 -0.013393754 -0.0030601334 -0.04274984 0.017364489 0.0021765314 0.012315428 0.007255254 -0.018385153 0.08249015 -0.002831847 0.051038317 0.026634132 0.028510967 0.0018494072 0.010769108 0.045331333 0.037350204 0.025718965 -0.007360584 -0.05490435 -0.00510315 -0.047064826 0.057097178 -0.07069549 0.03995526 0.009582878 0.007802138 -0.062141337 -0.039723266 -0.026760353 -0.00755621 0.007183323 -0.013684318 -0.044505272 0.004057306 0.045613468 -0.0028332612 -0.002679825 -0.025246138 0.025729485 -0.08358988 0.008073012 -0.019531362 0.013701102 0.009271156 -0.011447243 -0.023710174 0.01851094 0.024911137 0.0015099241 -0.012114616 -0.04548722 0.006895582 -0.008830878 0.003715042 -0.039919563 0.0065417807 0.009947959 0.017884774 -0.03944339 -0.022353996 0.044046424 -0.020248987 -0.0065578204 -0.001702361 0.009193214 0.04806561 0.040068176 0.03440377 -0.025293754 -0.043879095 0.050237786 0.014033116 -0.00079184823 -0.0101070255 -0.02565531 0.02996861 0.016054578 -0.056787413 0.020305233 -0.0349758 0.019413596 -0.0051114094 -0.0025910025 -0.006565602 0.013698451 -0.025618853 -0.025970545 0.00952794 -0.038585033 0.022834877 -0.011556966 0.0060867635 0.012659584 -0.039922234 -0.051417273 0.015345094 -0.035392113 0.022209926 -0.004174589 0.040549714 0.038501397 0.04586956 -0.02544518 -0.0010029521 0.011572355 0.047051862 -0.010366659 -0.048152216 0.01699188 0.0067576515 0.057376184 0.03244204
2088 0.071228646 0.041704983 0.0038940955 -0.0036698491 0.03422251 -0.02808208 -0.0068991156 -0.031459242 -0.012776994 -0.015207681 0.049579628 0.070837095 -0.022652972 -0.026666747 -0.06275491 -0.008761408 -0.006945941 0.025138024 -0.07056543 0.0065457253 0.0011063922 -0.004864295 0.019913957 -0.058831286 -0.04075958 -0.02623219 -0.055710576 0.055371005 -0.074512154 -0.0028940572 -0.016540324 -0.002174872 0.012997801 0.055674564 0.056532107 -0.01606433 0.044927534 -0.037164405 0.034038775 -0.001752488 0.01543797 -0.009495936 -0.02331436 0.0017012912 -0.016450368 0.035802945 0.047562737 0.020617327 -0.0231539 -0.039171495 0.036545005 0.049851675 0.035248782 -0.023541456 0.030178007 -0.009436309 -0.057177704 -0.030876419 -0.050851528 0.074534506 -0.059927095 0.021630432 0.01225781 -0.010379175 -0.028253993 0.06624475 -0.048360106 -0.0017664254 0.05352989 0.02807821 0.020595076 -0.00086395064 0.00856178 -0.03197923 -0.023936525 0.013855087 0.008157429 0.0028495342 0.06368564 0.009941551 0.019145107 -0.00080445164 -0.051669203 0.033165354 -0.025441585 0.03087203 -0.004981633 -0.008802663 -0.022406686 0.011788465 0.045668215 0.021692745 0.041911695 -0.0053560655 -0.060524914 0.012704725 0.021371871 6.063121e-05 -0.047277335 0.05939953 0.0022454467 -0.036434468 0.06764838 0.042170726 0.026008086 0.033311505 0.026381202 0.0050507756 -0.036815263 0.01773642 -0.016120516 0.026332602 0.017210271 0.026460463 0.015596778 -0.018368242 0.01577197 0.03263786 0.053610828 -0.002040294 -0.0405444 -0.011486633 -0.015307508 -0.040899053 0.037293825 0.021268627 -0.019665081 0.0783146
1117 -0.041600123 0.037673697 -0.0039661 0.07715289 0.04540449 0.056374315 -0.053507622 -0.02785951 0.011899307 -0.023950206 0.05545167 -0.030388102 -0.030864732 0.030366287 0.017723355 0.004560542 -0.013149059 0.020868912 0.038283948 0.06215166 -0.073736705 -0.005521507 0.108714715 -0.096020274 -0.00037157646 0.00023066562 0.0048585553 -0.027370501 -0.060528364 -0.03011806 -1.3200515e-05 0.01794064 0.056742314 0.008349061 0.08450801 -0.0665569 0.02722432 -0.023330806 -0.061263416 0.028328657 0.011336072 -0.0064435136 0.014299936 -0.006587104 -0.09743457 0.049012925 0.06004553 -0.073467575 0.04380265 0.036922477 -0.056255896 0.053805687 -0.017837537 0.024126349 -0.011080439 -0.07213936 -0.0064600413 0.07131814 -0.0042783576 -0.03322889 -0.05296841 0.03701619 -0.004515795 0.010759651 -0.00103528 0.008603575 -0.024524756 0.061342366 0.051712785 0.008535496 -0.04307511 -0.010686834 -0.0057995208 -0.005066804 -0.025161706 -0.027754055 0.016604422 -0.0058843726 0.039963707 0.013207141 0.025440004 -1.9322351e-05 0.02618742 -0.023550935 0.036587913 -0.010224531 -0.063069336 -0.03495145 -0.040959887 -0.005810707 0.043092187 0.004337276 0.010751006 0.024065295 -0.008412185 -0.016263058 0.017635003 0.004975845 -0.016777646 -0.009232773 -0.045023635 0.039269824 0.0025354708 -0.028870871 -0.060141552 0.017035045 -0.007997308 -0.039321188 -0.009848273 0.027391551 0.029723275 0.0130943665 0.005877308 0.004203332 -0.0012972791 -0.020027885 -0.008280895 0.042290032 0.028134154 0.008768358 -0.009383152 0.05894565 0.011853542 -0.004114909 0.013134428 0.00068420154 0.01812472 0.055592444
113 0.02439524 0.0072769397 -0.021275287 -0.07857072 -0.016246943 -0.022145096 0.026708147 0.046754096 0.035385143 0.041654952 0.010021442 -0.054851595 0.017597057 0.014684236 0.055122767 -0.025292693 0.015336494 -0.0033567585 0.008138144 0.03460158 0.05340811 0.00131222 -0.02583618 0.053136908 -0.01457098 0.018331293 0.07458219 -0.018694099 0.0023534885 -0.06262694 -0.037987612 0.0074997107 -0.08803756 0.0013981478 0.017136397 0.034157038 -0.0640038 -0.03555583 0.021234758 -0.009104394 -0.046930052 0.03130206 -0.035161737 0.0075353365 -0.028595155 0.006847245 0.019824503 -0.036556434 0.054573853 -0.005583821 0.019544128 -0.015489309 -0.058943063 -0.021048542 -0.013346057 0.04092648 -0.031256292 -0.008755922 -0.002493456 -0.036429342 0.04204332 -0.078022115 0.0030197399 -0.0035574888 -0.050324477 0.0053177457 0.0110666705 -0.042458672 -0.027233656 -0.053021688 0.09048345 -0.0032231584 -0.056462258 0.051787093 -0.029511327 0.028746841 0.06209485 -0.008088197 0.010941133 -0.012323995 0.0047052423 0.03406673 -0.022444021 0.04713401 -0.035475213 0.023113817 -0.053539686 0.05973148 -0.013243993 -0.0025732678 -0.05496517 0.04595903 -0.034996025 -0.055024203 -0.013362991 -0.005748288 -0.045275744 0.0040809214 -0.0581222 -0.055120874 -0.0070818784 0.050740622 -0.07277575 -0.019643856 0.028261686 0.009919297 0.02472304 0.04619299 0.023740197 0.00036319342 -0.038674567 -0.035481468 -0.010201574 -0.0025297482 0.0015858632 0.008916352 -0.03771006 -0.01973331 -0.038368136 -0.016195405 -0.018071095 0.058419384 -0.0020572625 0.0052521266 0.027725244 -0.064009756 0.013817644 0.007893405
1812 0.058355283 -0.0391003 0.0027054136 -0.056800347 -0.04096121 0.00043855642 0.015878875 0.07182135 0.009161178 0.005767583 0.062118817 -0.04058006 0.049908444 -0.015117789 0.019711193 -0.012234989 0.03885342 0.033339433 0.013778875 0.057501577 0.053842373 -0.014515786 0.011379928 -0.014028973 -0.034103803 -0.002745504 0.069371514 -0.04483516 -0.010449066 -0.06862002 0.040294033 -0.012579477 -0.0657717 0.026481193 0.096921764 0.0109844785 0.030188188 -7.94273e-05 0.07670334 -0.027808873 -0.0540044 0.02608198 -0.061927192 -0.02832797 0.0013160879 0.04039259 0.03849294 -0.052894134 0.02637432 -0.010838443 0.06779058 0.04769327 -0.06657098 -0.025097938 0.017344737 0.032573253 0.055203095 0.042242706 0.023631496 -0.019453755 -0.025318881 -0.016061671 0.05802372 -0.07561781 0.016075024 -0.0008963134 0.050462976 0.003584717 0.005882698 -0.0049976613 -0.008208702 0.05489297 -0.020318648 0.05158181 -0.019404141 0.019738708 0.018373255 -0.0011869258 0.04327791 0.0066927425 0.054509792 0.028406655 -0.015182683 0.02703725 -0.005834427 -0.008358263 -0.025739823 0.008092956 -0.047947112 -0.022344071 -0.025951607 -0.006640876 0.037275713 -0.006145516 -0.044762284 0.049429756 -0.063652664 -0.016914666 -0.0002161117 0.005521035 0.0060648625 -0.035078384 -0.015548139 0.022666382 0.015179621 0.012594259 0.015478291 0.018672416 -0.04407642 -0.06373219 -0.011139288 0.040439297 0.0539057 -0.016851999 0.019761737 -0.009798845 -0.012037447 0.017345887 -0.06609972 0.0021324828 -0.026848078 -0.00024338823 -0.002322359 -0.0019632732 0.014185602 0.013897878 -0.0327529 -0.0005340664
469 0.030620001 -0.032072466 -0.019863226 -0.0068694404 0.05036841 0.016718276 -0.023648912 0.016375145 0.061573297 -0.0128456745 0.01027064 -0.029153826 0.0045207646 -0.04072985 -0.052629445 0.020460311 -0.0047450922 0.03053419 -0.0072350167 -0.015690329 -0.028480211 0.039622203 -0.020728381 -0.04855211 0.016428782 0.06457164 -0.04317051 -0.0022561154 0.039564725 0.016625538 -0.06687959 0.054032013 -0.039025024 0.0070653176 -0.008459655 -0.005615319 0.020101668 -0.046394255 -0.030467246 -0.004113084 0.05257791 0.016950672 -0.038842347 -0.0014063014 0.05707917 -0.060844008 0.059754774 0.010811336 0.011458958 -0.04409125 0.009744751 0.06050035 0.023964697 -0.0023687573 0.056053475 -0.009701329 -0.02890829 -0.032112423 -0.0004059109 0.030986 0.073257476 0.018057697 0.062464107 0.0047857007 0.012729957 -0.00883574 -0.0024705448 -0.019458162 0.03577808 0.011928805 0.02458918 0.062086344 0.0046530804 -0.030666914 -0.00022066607 0.0139137395 0.024922304 0.0017693228 0.02243855 0.021345882 0.0044549117 -0.054324504 -0.038339753 -0.004450643 -0.018787464 0.0052014706 -0.045960203 -0.04282051 -0.020797083 0.0564699 -0.020424776 -0.010975867 -0.008689636 0.0006472312 0.0173905 -0.013706987 0.0508329 -0.021163624 -0.016375054 0.026655149 -0.07037693 0.026276859 0.054690465 -0.04356268 -0.025570862 -0.015162535 0.0041973414 0.039692543 0.010856443 -0.008514168 -0.034008544 -0.02427103 0.049643297 0.048111647 0.0058410647 0.048896402 -0.0074890875 0.06301538 -0.053437784 0.04357995 -0.01659373 0.03517174 0.060303997 0.03182182 0.0025195812 0.009539079 -0.07027963 0.047926724
1995 0.03265244 0.0737279 -0.04820258 0.021236962 0.01745294 -0.020433698 -0.017912531 0.035257 0.048890296 -0.027532063 -0.04713309 0.055871874 0.017818814 -0.033802144 0.010491047 0.06640326 0.01202569 -0.0014374142 -0.03872685 -0.044054795 -0.07707005 0.0034183718 -0.041602094 -0.034994923 0.035281118 0.009480729 -0.033438507 -0.022194363 0.0215202 0.03344815 -0.0936413 0.0017347599 -0.012052888 -0.007277679 -0.034288622 -0.008219707 0.04913665 -0.05421831 0.0021472222 -0.024692746 -0.0057164836 0.021976478 -0.0682362 0.070557185 0.0773267 -0.0255033 0.057381842 -0.017961727 0.059749108 -0.09812278 0.059205405 -0.006759182 0.0031494573 0.022985114 -0.025676057 -0.03751418 2.4356996e-06 0.022861924 -0.0002842017 0.0472581 0.021179108 0.056835044 0.04628508 -0.007848316 -0.040779676 0.0121051455 -0.011077851 -0.018496167 -0.04619086 -0.016916825 0.02788443 0.024390131 0.013319626 0.0059381304 0.015293968 -0.010602065 -0.007070501 -0.031939197 0.032706883 -0.019248836 0.029397089 -0.004020458 -0.02172053 -0.016134325 -0.060869414 0.029865036 0.0010602603 -0.056880523 0.010053879 -0.0415373 0.022424443 -0.008426893 0.020398607 0.007104117 0.0030732797 0.0021121139 -0.034944218 0.061755814 0.04242537 -0.02949141 0.03487584 0.059982803 0.01660283 -0.06812972 -0.02031585 -0.0539046 -0.016792977 0.031431977 -0.056080602 -0.015503549 -0.059806604 -0.021346748 -0.024762547 -0.01973083 0.05420077 -0.04236437 -0.027168833 -0.043562293 -0.007231627 0.023413863 0.07320728 -0.028316043 -0.01894739 -0.009214668 0.07226811 0.005826289 -0.039800793 -0.04190092
1822 0.03942498 -0.01781052 0.05594087 -0.0016485407 -0.046159826 0.055083524 0.020926395 0.0025802827 -0.011318336 -0.022361606 0.033408 -0.004373692 -0.009628197 -0.039581 0.017453408 0.0067176837 -0.028840823 -0.034265153 -0.0074839615 -0.04643959 -0.032614864 -0.05521266 -0.03752407 -0.04118722 -0.07155554 -0.022717264 0.0076746535 -0.046917718 -0.03565061 0.021908375 0.07944502 0.0061317403 0.021730887 0.026335115 -0.002424025 0.011966767 -0.054934815 0.02618965 -0.046730172 -0.035069473 0.02828699 0.010347137 -0.0030545369 0.024983846 0.036377218 0.034926143 0.0066884905 -0.009870488 0.03060993 0.0035114302 -0.04002732 -0.031556897 0.06794601 0.002412842 0.052159205 0.046690267 -0.05076687 -0.0672389 0.029220412 0.05409536 0.07104992 -0.010934354 0.00045436472 -0.03190166 -0.052745294 -0.031805325 0.00055031205 0.027556546 0.0059971856 0.041039027 -0.039840225 0.04748307 -0.045382734 -0.051370226 -0.00022496776 0.056213383 -0.058281608 0.055465378 -0.030078206 -0.030268548 -0.02837095 0.021910094 -0.011546228 0.009727098 -0.022939747 0.00860425 0.05577163 -0.049940705 0.012418576 -0.06057385 0.05909573 -0.009125792 -0.04585127 0.014131004 -0.018559622 -0.007592617 -0.033670057 -0.058854252 0.06577097 0.026499623 -0.026700541 -0.0042935396 -0.024963709 -0.02724245 -0.0035824054 -0.021574447 0.017801495 0.00079146074 -0.029182134 0.029090317 0.035172276 0.06319314 -0.0067957337 0.02620256 -0.009353994 -0.0050537037 0.044676036 0.023017362 -0.016333096 0.002366589 0.005998498 0.0066040065 0.025135076 -0.03579815 0.03810039 0.03202205 -0.016667906 0.027767627
1622 -0.006245398 0.009293982 -0.029716553 0.037288997 0.04010302 0.06332729 0.039375853 -0.022132788 -0.03088987 -0.016924381 -0.050964214 0.010467001 -0.007102141 -0.021822779 0.038118597 -0.06221553 -0.04526498 0.007822527 0.017127963 -0.0641945 -0.023825958 0.024129305 -0.05247084 -0.011182292 -0.0183292 -0.01813046 0.051474985 0.006454928 -0.0023627444 -0.042059284 -0.03347222 0.0070520784 0.06765158 0.06581403 0.014182919 0.044095468 -0.034144737 -0.019656839 -0.031687308 -0.052502267 -0.010673227 -0.016356388 0.029897632 -0.009872572 -0.028927337 0.022412056 0.07542136 -0.020282691 0.013360519 0.03324388 -0.0067175496 -0.065452695 0.037159514 0.040977143 0.020329343 -0.05381928 0.008949877 -0.00058196794 0.010810491 0.06733703 0.099595 -0.0119587155 0.012973432 0.056538895 0.02312012 0.02835263 -0.06820305 -0.006735655 -0.053153973 -0.07233307 -0.014194546 0.015289298 -0.050095253 0.00916155 0.01470965 -0.01132708 -0.0008234437 -0.010922329 0.02433678 0.03876793 -0.013444723 0.0101217 -0.010154603 -0.040847186 0.016752146 -0.01508449 3.7865502e-05 -0.01609108 -0.04661192 0.0010677518 -0.0649562 0.0016379422 -0.07410069 0.030113649 -0.0499307 -0.034035463 -0.028158106 0.012533414 -0.06858293 -0.0091412915 -0.033777557 0.0831066 -0.060801286 -0.021699145 -0.02779847 -0.0016733562 0.005489759 0.00012046416 -0.025001217 -0.028498001 -0.05626697 -0.048851717 0.009613334 -0.015520775 0.032446258 -0.044178266 -0.0151655935 -0.055358317 -0.035534654 -0.021675525 -0.07359966 -0.0046282928 0.043008413 0.00088094396 0.04396029 -0.048936654 -0.005610226 0.029717118
799 -0.04994591 0.06338718 -0.011209238 -0.00071874505 0.015886545 -0.027567951 0.018369822 -0.06209851 -0.011843939 -0.0060653565 0.0038304057 0.025028441 -0.036929134 -0.0036664975 -0.053126387 0.048855186 0.023900744 -0.07541493 0.021546002 -0.0029204767 0.007237369 0.007046926 0.009144666 -0.036840886 -0.021291226 0.0045522996 0.021359986 -0.009540375 0.004210081 -0.030921096 0.018185638 0.06466761 0.0065580956 -0.017540948 -0.019172028 -0.0046328777 -0.02715859 -0.030974273 -7.533369e-05 0.016683858 0.031749044 0.0289358 -0.0021075022 -0.0043641874 0.025896646 -0.021119863 -0.03859895 0.051614035 -0.044824623 -0.04143686 -0.013035007 0.05322138 0.038125217 0.012804427 -0.0019952753 0.004755365 -0.007618254 -0.024403132 0.007626782 0.0018116817 0.07490912 0.0060944287 -0.06889064 0.014626754 -0.046942618 -0.07610662 0.035590243 -0.0027332958 -0.05546645 0.025139196 0.04694703 -0.04619101 -0.007040209 -0.02030101 0.04015127 -0.017772075 -0.039721563 0.05313543 -0.04239219 -0.075439356 0.0036757907 -0.056808386 0.0013748754 0.037938837 -0.026914122 -0.018831924 0.017988907 0.018160356 0.005263429 0.027049724 0.010545719 -0.0053331754 0.030662904 -0.050386954 -0.010466772 -0.0052717915 0.004953661 -0.041950297 -0.052343547 0.059689205 0.017037474 -0.029771883 -0.05709746 0.004875894 -0.07304479 -0.038813643 -0.060309622 0.08626827 -0.011658929 0.03054875 -0.040622853 -0.060638055 -0.007869578 -0.025245724 -0.04494256 0.034394372 -0.025429577 0.032532442 -0.030583924 -0.06470362 -0.027083391 0.079033755 -0.01802638 -0.043045234 0.0691708 0.056295544 -0.030140918 -0.007940816
1082 0.037828997 -0.024682257 0.047025025 -0.023949848 0.0808441 -0.0036306086 0.09596262 -0.071905985 -0.008947215 -0.0417091 0.028237287 0.07105639 -0.07898035 -0.017996985 0.0072095897 0.12325688 -0.047984775 -0.012815014 0.00047684673 0.00661654 0.018559257 0.09886286 0.027516486 -0.017513279 -0.03924212 0.062045563 -0.017516581 -0.03671735 0.038391653 -0.008811356 -0.007872872 -0.04756416 0.00916821 -0.02678478 0.05894795 -0.030171784 -0.0031099322 -0.027182924 -0.013863036 -0.017002042 0.029064143 -0.023679096 0.037732217 -0.035191372 0.009500308 0.01253486 0.06401923 -0.023145227 0.028566997 -0.0362111 -0.009232046 0.02463098 0.015606691 -0.019496478 0.07331585 0.019156413 0.020873403 0.005282032 0.026409883 -0.008895998 0.03390391 -0.022764107 -0.039104015 0.041054204 -0.054511193 -0.037348583 0.00966051 -0.013943113 0.0050419 -0.022345565 0.018383548 -0.058531232 -0.012581515 0.011159682 0.021459535 0.04843006 0.027492015 -0.023632187 0.03462557 -0.089728184 0.002401071 0.01029381 -0.04732516 0.014042793 -0.046199948 0.03002619 -0.01710675 0.065133855 -0.024373874 0.05500059 0.053076748 -0.020723904 -0.021124931 -0.054776546 -0.072641075 -0.01614768 -0.048917748 0.002537273 -0.009183134 0.025652902 -0.07003791 -0.018349648 -0.01311797 0.045230795 -0.030108513 0.0135415355 0.04353985 0.013602361 -0.0016112932 0.047097083 0.039904382 -0.015421802 0.020583242 -0.0021661203 -0.08448221 -0.046347395 -0.035860438 -0.046704922 0.05531472 -0.054038286 0.052867126 -0.0045968313 -0.011633129 -0.036991756 0.032356553 -0.016028931 -0.00787396 0.040766887
1561 0.05938266 0.010676849 -0.023018392 -0.049446836 0.015226547 -0.028196648 0.04301928 -0.031178385 0.0062523326 -0.029960206 -0.0063604736 -0.008598503 -0.022810057 -0.0303556 -0.008646966 -0.018812297 -0.04703819 0.05540954 -0.014799744 -0.02050661 0.031056281 -0.04166997 -0.07231766 -0.06168108 -0.04174853 0.058220282 -0.024751924 0.026645076 0.04373284 -0.04096044 0.021327026 -0.018307758 -0.00077727216 -0.011826427 -0.001666033 0.012375275 0.018280206 -0.012442156 -0.017732691 -0.078811884 -0.010138682 -0.033996858 0.009177659 0.034808036 0.029660335 -0.0060247066 -0.039965853 -0.02117819 -0.0540746 0.031035434 0.033152584 -0.012925632 -0.043911338 0.023400402 -0.029060774 -0.011362588 0.066037886 0.018258857 0.02725836 0.022609865 -0.003973651 -0.04403692 -0.05679259 0.00628528 -0.0118499305 0.02004766 0.013495189 -0.014682983 -0.011147841 -0.040961023 0.026625773 0.0038139494 0.030815832 0.00086922024 -0.07331282 -0.059764445 0.02886032 0.03055455 0.03270923 -0.032523133 0.0327056 0.0057953 -0.054334927 0.0053561376 0.05630337 -0.035468202 -0.022211393 0.0008542326 0.07029987 -0.06193329 -0.032049365 0.0007595365 0.04122448 0.049725182 0.012008913 -0.053576495 -0.016565263 -0.0789644 0.007070132 -0.061080888 0.04690052 -0.0030956469 -0.0010962994 0.04042145 -0.04881251 0.050979175 0.044720735 -0.05869683 0.02576935 0.013531887 0.027106827 0.0009996674 -0.030416887 0.033331882 0.004287753 -0.0051658247 -0.026047304 0.013862254 0.014360598 0.041305598 -0.019958459 0.06840616 -0.0034147021 -0.02998219 0.029502466 0.025248043 0.029823394 -0.06645408
582 -0.0040895063 0.01636904 0.026205067 -0.040451717 0.03376772 -0.024049163 0.068143815 -0.024126848 0.034467246 -0.0009111094 -0.0004969355 -0.019313734 -0.06569959 -0.011356406 -0.026860604 0.009707248 -0.0078209005 0.03837071 0.027432067 0.06297067 0.012738163 -0.0065164794 -0.043413237 -0.05403994 0.044544473 0.03272301 0.02341637 -0.01050468 0.013885472 -0.054310706 -0.0060136598 0.0043052905 0.015067019 0.002687562 -0.026966289 0.04053091 -0.03562436 -0.0038894645 -0.07265146 -0.019827347 -0.0016095967 -0.05109928 -0.058285773 0.017207393 0.035940263 0.013315633 0.013913613 -0.041860912 -0.042497516 0.08716523 0.014365204 -0.020950994 -0.002404113 0.027451884 0.0024654935 -0.07223499 0.06944239 0.0408212 0.0314237 0.022683201 0.02365596 0.008839797 -0.06482741 0.032612536 0.013188223 0.028514273 0.038477488 -0.0023270706 -0.056849904 -0.062234744 0.013469179 0.013112497 0.030105766 -0.038294494 -0.038073547 0.048127215 0.050203837 0.0059003136 0.0013387746 -0.011618975 0.003422307 0.009266473 0.026446436 -0.021576025 0.01929532 -0.008535194 0.01011484 0.0018673269 -0.034969684 -0.05488146 -0.014553191 0.008955007 0.051622905 0.030688556 0.01423527 -0.041618578 0.0018205671 -0.032101326 -0.026773179 0.0060416865 0.08422609 -0.06495752 0.04325802 -0.029164903 0.015750796 0.04807193 0.025386598 -0.009077533 -0.009967409 -0.026243191 0.027808478 0.032319162 -0.009836083 0.06965301 -0.035160363 -0.0010641771 -0.06453583 -0.008602127 -0.0057366462 0.05701138 -0.019580858 -0.029916532 0.003748514 0.015852747 -0.0037097929 0.019132745 -0.016577177 -0.012774318
