1455 128
599 0.025357474 -0.04638665 0.0721234 -0.03172167 -0.0038266697 -0.01923243 0.07887038 0.028843915 0.024422614 0.07311526 0.07533366 -0.011623717 -0.020566823 -0.013714445 0.004132079 0.046538375 -0.031385753 3.9583672e-05 -0.0076638553 -0.016076531 0.005409252 -0.017909378 -0.03015553 0.045827735 0.028657181 -0.011503548 0.059478614 0.029788392 -0.0036026475 0.03869232 -0.029953053 0.030060388 0.025737256 0.01961572 0.0014301029 0.07377418 0.041599482 0.0041768597 0.0092691975 0.023089048 -0.027658945 -0.043609917 -0.07131522 -0.032713998 0.01707895 -0.0011757935 0.0019554477 -0.039760154 -0.03280265 0.02413342 0.002256538 -0.0074461554 -0.015009549 0.012172043 0.05144324 0.023163298 0.011327188 -0.042478964 0.031713266 0.012840178 0.051904403 -0.029701028 -0.008911035 0.051419422 0.0160177 0.020172633 -0.07269815 -0.07522496 -0.057883143 0.05336617 -0.06302501 0.0026391747 -0.029708173 5.325269e-05 -0.026704611 -0.039929032 -0.04776845 0.027883109 0.011116125 0.00872285 0.0043176245 -0.008776945 -0.059064668 0.02622708 -0.022989696 -0.06860704 0.02585993 0.029550696 0.045089368 -0.07008868 -0.012281961 -0.014484273 0.02232514 -0.022126982 0.021303385 -0.06229914 -0.005218232 0.034771703 -0.0066146557 -0.060066722 0.041016337 -0.04164368 -0.06832256 -0.04977697 -0.022233369 -0.019397726 -0.07500965 0.0048343483 0.012266678 -0.073811576 -0.03537697 0.0004326539 0.04869592 -0.0011477758 0.037110243 -0.011884554 -0.037940662 0.054422375 -0.011073521 0.03620204 -0.0037943237 0.035811253 0.008262716 0.074216425 -0.012850186 -0.056000527 -0.042702176 -0.019369124
932 0.058416422 -0.018161286 0.02157668 -0.029842202 -0.070303984 -0.016804049 -0.010413861 0.00026545013 0.06858498 -0.0036835417 0.053829797 -0.052584797 -0.006610978 0.011299163 0.046874557 0.0687192 -0.06783868 -0.014092883 0.033477828 -0.015891341 0.057344772 -0.013426093 0.017706702 -0.0373459 0.04076207 -0.070124164 -0.008663984 0.05487012 -0.07496805 0.021257259 0.057473555 -0.018484581 0.029954256 0.059820987 -0.039882038 0.045945022 -0.055065654 0.02140562 0.013396809 -0.030104315 0.031662945 0.019123323 0.065248646 0.05296802 0.029772416 -0.026384056 -0.06207232 -0.018848505 -0.0791623 0.034813743 0.03208548 0.079273544 -0.05704786 -0.048111755 0.009454004 -0.0049066907 0.051378757 -0.059807383 0.04477512 0.017694524 0.023908017 0.0071913754 -0.009720231 0.012724051 -0.010008209 0.043077257 -0.027027993 -0.015358698 -0.028106138 0.033402417 -0.07460247 -0.010310232 -0.0039698724 -0.0040507577 0.009112762 -0.01604444 0.022852216 0.0503446 -0.028822532 0.0034926534 -0.017667446 -0.040096615 -0.048679046 -0.05581509 0.011139042 -0.049941696 -0.013465674 0.022464555 -0.017492287 -0.032536346 -0.022610078 0.05904674 0.08056991 -0.046133198 -0.013382602 -0.004661662 0.01324688 -0.004886125 0.0056377733 -0.07335597 0.027029881 0.008020071 0.0722733 0.038389206 0.012927091 -0.02843422 0.05543069 0.028416479 -0.011861895 0.010432247 0.039760146 0.029110165 -0.0615303 0.026966367 -0.044550486 0.04090371 0.0064507895 -0.020831866 -0.055765055 -0.03511482 -0.06294688 0.054353073 -0.04905835 0.00054206804 -0.024390435 -0.023367396 -0.049266238 -0.0028445346
1030 0.002073968 0.05510232 -0.011329359 -0.028259892 -0.030134909 -0.0016622936 0.006795304 -0.040205803 0.010215779 0.07916357 -0.051611032 0.02233369 -0.03664604 0.0027957223 0.06542496 -0.0073712114 -0.005538674 -0.041861396 0.04461423 0.07180117 -0.029945267 0.021704325 0.0074153137 -0.0020580422 -0.049394462 0.012797671 -0.05795775 0.00037769118 -0.05654974 -0.08561388 -0.039544415 -0.008205188 -0.004559995 -0.08991052 0.010410184 0.026853746 0.022641448 -0.042319365 -0.0733846 -0.022932006 0.046185024 0.0153088095 0.054998595 -0.0163046 -0.035618514 -0.012112441 -0.016630076 0.045491185 0.0069933664 0.03842573 0.00091344304 0.004731294 -0.05986254 -0.020279035 0.027898038 -0.044344876 0.03987352 -0.02800807 0.00659733 0.02264321 -0.048285298 -0.04128786 0.020654881 0.029887848 -0.012927942 -0.00024242987 0.06611705 -0.06896896 -0.0180831 0.010078706 -0.0140021 -0.024180975 -0.013936139 0.027449558 0.04139703 -0.023348145 0.051762853 -0.0099395765 -0.05351297 0.04696121 0.04834965 -0.07267472 0.021173507 -0.006404942 0.03376748 0.01605449 0.04332134 -0.030762319 -0.073955335 0.036647007 -0.07557226 -0.057328198 0.009741348 0.06454839 -0.08345527 0.015378329 0.04496686 0.037374444 0.027947197 -0.012284552 0.0064616646 0.04048603 -0.03344052 0.018012509 0.050220877 0.033047326 -0.0016807463 0.0031385955 -0.015801037 0.024561057 0.04998865 -0.015499183 -0.10027611 -0.0006672997 -0.078549325 0.01941203 0.058492627 -0.02169756 0.007361909 0.062552325 -0.040832166 0.044991937 0.0031738272 0.036241382 0.077076614 -0.025039855 0.0024865586 -0.010166085
1127 0.047191445 0.01626345 -0.025243409 0.035297036 -0.022253055 0.03395061 0.046594758 -0.015438783 -0.048081335 -0.06789001 0.06302413 0.019424044 0.0625526 0.009631391 -0.082582556 0.06308527 -0.009917508 0.016918791 0.020153362 -0.016655358 -0.027687592 0.037801646 0.030462587 -0.078717224 -0.04115299 -0.032991428 0.021189408 0.011074305 0.005339154 -0.05625552 -0.070392706 -0.036611546 0.032962162 0.012315936 -0.09363052 -0.0074300664 0.035023667 -0.069433905 0.0034923123 0.0032508837 0.027130092 -0.034476653 0.037914 0.036040418 -0.055880845 -0.015930237 -0.014342859 -0.0059877643 0.02066707 0.030286407 0.036580916 0.051458284 -0.04509714 0.050779726 -0.042607464 -0.020871775 0.017429622 -0.080040604 -0.022924203 0.0035918227 -0.037097223 0.023760559 -0.04546038 -0.016787872 0.05226493 -0.016062157 0.05565384 -0.09818204 -0.024299797 -0.016507652 0.02064723 -0.020369356 -0.043227654 0.03602732 0.038684472 -0.007400624 0.042302795 0.00071613834 -0.079074234 -0.0052123377 0.019999802 -0.02682335 0.03628182 -0.009774728 -0.010012099 0.05838036 0.005235481 -0.072496064 -0.0116630625 -0.032025382 -0.011126347 -0.015964162 0.084268734 0.0011482589 0.0126713365 -0.036964614 0.029582651 -0.054305762 0.033557866 -0.059036415 -0.0010384005 -0.058961302 0.031023286 0.015417915 0.029107338 -0.030685961 0.025708975 0.045177806 -0.082633905 -0.045793634 -0.038282294 -0.021688055 -0.031839628 -0.03645212 -0.085939415 0.049763322 -0.03480277 -0.013182599 0.018151408 0.04721062 0.052301276 0.03972636 0.060360797 0.086818755 0.05404782 0.040721655 0.03523252 0.009708191
1815 0.06292992 -0.03799963 0.0040029166 -0.05419201 -0.028921686 0.0060106483 0.05901663 -0.0023337246 0.0011211489 -0.0053764046 -0.013860928 -0.023853173 -0.010044038 -0.034640644 0.06450243 0.014495818 0.055335686 -0.025905434 0.009947173 -0.012508356 -0.04858188 0.050089017 -0.005358536 -0.03563916 0.07817687 -0.026574152 -0.00029532824 0.0024715378 -0.051234875 0.011225384 0.013072228 -0.016880073 -0.03479724 0.020998431 -0.0068089925 0.015096455 0.023426065 -0.025282793 -0.00034831476 0.04719645 -0.030815221 -0.027744997 -0.0012455297 0.009899125 -0.06138249 -0.015230558 -0.0016638683 -0.04071626 0.004053499 0.016065516 0.029065361 -0.058933273 0.0113839675 0.017881913 -0.029140675 -0.067061625 0.030743793 -0.015982851 -0.04999447 -0.06863325 -0.017578514 0.003565487 0.008027103 -0.0041201245 0.022601675 -0.040867552 -0.0032316505 -0.0045996523 -0.02980049 0.012473886 0.0066368827 -0.061058454 0.029738506 0.029722512 -0.012087136 -0.07825038 -0.0636963 -0.0041669067 0.06560166 0.011118931 0.003907286 -0.044052485 -0.059350234 -0.06530276 0.043741796 0.00247949 0.016852856 -0.023271384 0.029512083 -0.006094095 -0.067408115 0.0055866796 -0.011804994 0.024178658 -0.05257783 -0.055407118 -0.020425964 -0.026514461 -0.00966127 -0.014803132 -0.08154602 0.021647466 -0.0035526953 0.036595743 -0.08306014 0.024206566 -0.0412992 0.006033093 0.012091464 0.016932482 -0.001140328 0.09505559 0.036951493 0.099578366 0.026584662 0.012709526 0.0801023 0.03527331 -0.014956025 -0.027209805 0.04980801 0.027914286 0.02413331 0.026071183 -0.026930492 -0.0033015977 0.037510958 -0.056858145
1469 0.026681475 -0.079919994 -0.033533953 -0.031700943 -0.0058780843 0.062295433 -0.04555782 -0.056006312 -0.034089856 -0.024204886 -0.07484453 -0.0051258537 -0.015741752 0.07135625 0.09806874 -0.0075057102 0.033014093 -0.03326405 0.0056895814 -0.019721996 0.049990848 0.08710749 0.04934127 -0.00061768165 0.04052724 0.0023853176 0.015339241 0.038648758 0.01987211 -0.014613616 -0.050518326 -0.022730717 -0.07379687 0.004639446 0.002137224 -0.017641466 0.007558004 -0.06668917 0.043230876 0.048804156 0.0021444394 -0.05571625 0.0028101301 0.05095858 -0.05888726 0.009943939 -0.027420813 -0.00029158182 -0.026484003 -0.094866365 0.0707313 -0.071867645 -0.009233536 -0.025473053 -0.06345543 -0.03507871 0.029930426 0.0785319 -0.03454061 -0.0217762 -0.07932615 0.02500951 -0.03622725 0.08971166 -0.05154691 -0.024829233 0.0040906677 0.01650007 -0.037879776 0.050132748 -0.034450974 0.0063905627 -0.048412796 0.025545139 -0.05773584 -0.074299306 0.031292222 0.010111973 0.023427553 0.06581157 -0.014395117 -0.040560633 0.06446758 -0.02295494 0.027036384 0.0103761945 -0.0015486327 0.009322016 -0.015317031 -0.031371042 -0.045652647 -0.028748697 0.0021113951 0.021413183 0.025760863 -0.008154657 -0.0094858715 -0.07331377 0.0068815113 -0.008475115 -0.060506113 -0.0622499 -0.0028360242 -0.008351181 -0.050788287 0.03157932 -0.045822997 -0.040200748 -0.02340582 -0.0052455114 -0.010610785 0.037220113 0.06814565 0.0418584 0.033556364 0.026333665 -0.020083394 0.014087389 -0.03303296 -0.014509486 0.02597329 0.059505645 0.010871294 -0.04036273 0.019055832 -0.0024267137 -0.036448456 -0.059630066
1221 0.001035718 -0.04141794 -0.015302358 -0.04677834 0.0579344 -0.00727205 -0.08452608 0.06286254 0.08989169 0.0694454 -0.09333166 -0.025344392 -0.050020054 0.057587057 0.06498884 0.009775853 -0.03567678 -0.04082634 -0.03225664 -0.035263117 0.0312367 0.008654057 0.016052574 -0.0061657815 0.063373245 0.07368882 -0.013390378 -0.029418806 -0.039081775 -0.03562973 0.071035005 0.0008666294 0.00077203463 -0.034906443 -0.022607146 0.041324493 -0.0048046936 -0.0037262202 -0.03672843 0.00732274 -0.058594797 0.032521203 -0.012607513 0.026223414 0.006616532 0.04717604 -0.028219573 -0.033800054 -0.0021003652 0.08186733 0.02730806 0.005816223 -0.034234542 0.0016990539 0.0032186713 0.06454298 -0.0011243552 -0.00067420816 -0.021239886 0.036122404 0.0052958513 0.021764442 0.03445104 0.017247131 -0.0033630969 0.00038508355 -0.010499178 -0.014029081 -0.044774987 0.011753898 0.082490556 -0.062405754 0.02280289 0.0063677924 0.028582623 0.02678201 -0.0078764735 0.028114866 -0.047787875 -0.019118696 -0.005106133 0.05271422 -0.03618427 0.0009226821 0.024305532 0.029150046 0.022002103 -0.05866702 -0.04027506 0.038379148 0.027262677 -0.012917411 0.022129582 -0.0047728946 -0.043192796 0.057308305 -0.05106604 0.02642048 0.020750193 -0.01269845 -0.043665178 -0.023601737 -0.063460544 0.026374262 -0.012229819 -0.055661704 -0.013591233 -0.067206725 -0.030533876 0.044770043 -0.05160839 -0.0251669 -0.007925518 -0.009216086 -0.06645092 -0.037431613 0.026417976 0.0146281095 -0.054324165 -0.0056528854 -0.015305372 0.02522296 0.0011363574 -0.03249834 0.0021121663 0.015661662 -0.014591359 -0.037721094
476 0.018268095 -0.046604842 0.020716917 0.0073992363 -0.0319417 0.03240334 -0.013388205 0.047204766 0.042388737 0.049861588 0.0132591445 0.035712488 0.10047285 0.0205287 -0.010841328 -0.020334976 0.021747552 0.0012177187 -0.02660949 -0.049198516 -0.040850967 -0.06504897 0.04284762 -0.05869591 -0.06031674 0.00085330615 0.020786613 0.025853734 -0.016557207 0.08772439 -0.003966628 -0.046953645 0.03011732 0.012220386 0.0020982958 0.03845337 0.039087508 0.0047695525 0.022291388 -0.0077159405 0.06867568 0.020319141 0.0045153885 0.028823353 0.07726633 -0.018851697 -0.047329176 0.00848488 -0.084772 0.054358806 -0.018784799 -0.06441351 0.032217097 0.0149297975 0.009555732 0.077131346 0.008999521 0.03313531 0.022997545 -0.048612695 0.07915027 -0.056341052 0.06978906 -0.0062333066 -0.020718843 -0.00534206 -0.014257204 0.009050928 0.035843555 0.062622406 0.03464865 -0.0017600687 0.059874203 0.028093383 0.014353798 -0.04371349 0.030789793 0.032004498 0.016080815 0.001463302 -0.0005516201 -0.0084958 -0.052359033 -0.020765632 0.023974454 0.047815297 0.026427248 -0.051267695 0.034372386 -0.06569097 0.015375721 0.007233134 0.020534031 0.052189693 -0.028226636 0.011028014 -0.0070155472 -0.007264489 -0.05030822 -0.058076344 -0.015152426 0.032349084 0.027843064 0.04027173 0.040535294 0.021410536 0.0196337 0.017699419 0.00878916 -0.05677705 -0.01289699 0.021669127 -0.040445805 0.042521603 0.049055982 -0.05600224 -0.020397553 0.015346858 0.05571524 -0.049148824 0.0131505905 0.02530342 0.035730585 -0.014455878 0.0057725664 0.002557644 -0.04248125 -0.026341308
1125 0.006421711 -0.014411298 -0.010260595 0.07537817 0.0028288222 -0.060377628 -0.01620666 -0.013490441 -0.008971424 -0.02153727 0.020364767 0.0057707885 0.0146387415 -0.021859387 0.044534557 0.019384688 -0.019215507 -0.03876628 -0.011974662 -0.039465982 0.06675693 -0.004405846 0.070343874 -0.061812527 0.067566335 -0.04140677 -0.014648916 0.0054382063 0.04577199 -0.01552398 -0.06500988 0.07041026 -0.020824328 0.03458002 -0.033414897 0.042439945 -0.02107584 0.047175676 -0.059273776 -0.0058073457 0.005540674 0.069599904 -0.018491441 0.058071986 0.049462277 -0.03376339 -0.015066408 0.036795367 -0.061173204 0.0033937325 0.0214764 0.021014106 0.05561238 -0.028479021 -0.047169723 0.033454236 -0.049459863 -0.0035523558 0.030678516 0.01879931 0.01407404 -0.002539163 0.02494796 0.026349714 -0.026173968 -0.003698631 -0.015119901 -0.0566413 0.044292007 -0.004015439 -0.0017343647 -0.010997368 0.04714895 -0.0541621 -0.014798628 -0.0018837575 0.008196305 0.07119704 0.03685454 -0.015340069 -0.021399377 0.07442514 0.032759465 0.038889796 0.0075820186 0.006470923 -0.016743517 -0.01853597 -0.0024150233 -0.06991212 -0.007926058 -0.047190268 0.0026520996 -0.017106118 0.02771399 -0.004647298 0.02397312 0.05021632 0.03766779 0.036886778 0.03255663 0.024484769 -0.033076152 -0.06340722 0.043318424 -0.066637084 -0.005384994 -0.03358944 0.0476059 0.057084568 -0.057283618 0.043189276 0.009477161 -0.077420786 0.049580846 -0.042692013 -0.005706301 0.0037838458 -0.0806908 0.037177425 -0.011859855 0.00020452072 0.022960497 0.030829748 -0.042379867 0.011850303 -0.056586515 0.0029672051
979 0.06780818 -0.024859538 -0.068631895 -0.03399862 0.041145705 -0.044139292 -0.033252303 -0.080192275 0.03405152 -0.008531705 0.032571096 0.0058839475 -0.017328935 0.016344095 0.044747755 -0.0126667125 -0.0137608815 -0.08786226 0.041377995 -0.067901924 0.022630751 -0.07339541 0.041912355 -0.014319226 -0.009646303 -0.060611278 -0.047416765 -0.020232143 0.019181535 0.019631678 0.023123993 0.08826116 -0.013686085 0.05715633 -0.0065664826 0.020756548 -0.076769665 0.05003822 -0.019350195 0.015982842 0.019336255 0.0046901945 -0.0091347955 0.006393578 -0.0077206856 -0.04125648 0.06268505 -0.026905654 0.002175103 0.05562777 -0.016381586 0.0392427 -0.061531853 -0.048679087 -0.066022635 -0.037835933 -0.06545634 0.034498807 0.040971436 -0.008704727 -0.016610712 -0.053339545 -0.008631738 0.0033256416 -0.024116822 -0.035462238 0.06255205 0.046548236 0.07526762 -0.06915712 -0.042639926 0.0009359043 0.03281753 0.046996746 -0.020243552 -0.08068674 0.0010536241 0.027923152 -0.0071677743 -0.018028805 0.023172852 -0.03074209 0.04675441 0.038753357 0.030809889 0.030312555 0.05045904 -0.0024729017 -0.037271705 -0.02250226 0.007002505 -0.068257816 -0.0142978225 0.06564755 0.07664153 0.013708562 0.06811079 0.0071453652 0.01697757 0.013658682 0.0116791325 0.0018995479 -0.050697755 -0.04448657 0.047908437 0.0061813006 -0.056167915 -0.08162489 -0.04953582 0.01972203 0.029498773 0.040272307 -0.034789655 0.035196923 0.008356248 -0.012935979 -0.03605944 0.06738581 -0.034427825 0.014180939 0.018854098 -0.0078015844 0.014363701 0.023157438 0.01956084 0.039410885 -0.0013926944 0.07239721
2002 -0.019765176 0.037842594 -0.057340316 0.04778341 -0.023383772 -0.026512774 -0.0051348186 -0.019348808 0.020405667 0.026774904 -0.03898439 -0.03840259 -0.009835493 0.07782272 0.04912631 -0.018089533 0.011210788 -0.07603479 0.032265842 -0.0139541635 0.017032366 0.06366889 0.06360403 0.017640134 0.0065170405 -0.022391345 0.0415779 0.0016888538 0.026998589 -0.033532985 0.021459065 0.07322826 0.021931967 -0.04101172 -0.046754356 -0.071745045 0.057925556 0.008890001 -0.014604383 0.09092165 -0.06791061 -0.0036764168 -0.023797642 0.037081044 -0.006773206 -0.060731817 -0.057458766 0.023123693 0.02035868 -0.007831058 -0.035920907 0.025332643 -0.018690713 0.06477019 -0.01475661 -0.06583373 0.017921245 0.018013416 0.02540746 0.0017631743 0.009566849 -0.020067006 0.02815477 0.03526502 0.03554951 0.06313827 0.06424933 -0.0017426573 0.019578697 -0.038979203 -0.040073507 0.045648623 0.03715387 -0.024825683 0.0010690873 0.010872658 0.070284456 0.019005144 0.07364362 -0.061959334 -0.016665855 -0.018204898 0.024423921 0.056180377 0.038887627 -0.03680455 0.029565617 0.02220618 0.05861928 -0.03360638 0.013306793 -0.071460254 -0.03574107 0.00973805 0.016856696 0.002553245 0.011121072 -0.009299388 -0.018989963 -0.008227795 -0.059290677 -0.007882539 -0.025361454 -0.09509487 0.051652726 0.019843383 -0.012927392 0.014901412 0.02347222 0.0049874885 0.028549537 0.032117896 0.0015968417 0.030813582 0.029350845 0.040170576 0.017701332 0.021207087 -0.034893367 -0.027126197 0.0004723588 -0.006164458 0.015658697 0.0019753433 0.061317023 0.0024412435 0.057597395 0.039102793
367 0.0095421225 -0.04480725 -0.057578675 0.09255142 -0.011030821 -0.03164772 0.010040438 -0.07787432 -0.0002518442 0.018187787 0.010144404 -0.043312296 -0.033596497 0.010710416 0.04220562 5.4347474e-06 -0.0017397169 -0.035093438 -0.024366066 0.00044132923 0.030748526 -0.018328248 0.0075465706 -0.0069756685 0.024944207 -0.085277565 -0.009030843 -0.014981831 0.018354248 -0.00293568 0.012655366 0.04564041 0.016110783 0.021157134 -0.016773377 -0.046571705 -0.03471262 -0.016202772 -0.031077178 -0.009400015 -0.023809558 0.048146144 0.005811683 0.013169994 -0.03281919 -0.055300057 -0.07984185 -0.00419513 -0.048481744 -0.02247999 0.025195625 -0.015194794 -0.063285045 -0.013489209 -0.03351334 -0.010399935 -0.047653142 -0.017368412 0.041239418 0.06888923 -0.0080370875 0.0101929335 0.015360059 -0.03102055 0.01577644 0.032529525 -0.060644638 0.02243452 0.03838704 0.018278135 -0.030503562 -0.06915609 0.0062942547 0.07056909 0.030101849 0.021376096 -0.049224343 0.022867586 0.03316754 0.056262344 -0.030471416 0.0636263 -0.032504734 0.01353101 -0.03193922 0.013955444 0.017057471 -0.04611862 -0.045185715 -0.013639008 -0.009296625 0.026832711 -0.06528 -0.032489497 0.006917061 0.00068305526 0.041062113 0.030233199 0.02841099 0.029169416 -0.010043776 0.022218503 0.038719684 -0.06064481 -0.016521871 0.0064278715 0.061745185 0.047951102 0.021862892 -0.013898474 -0.023258653 0.0040000556 0.014265522 0.03504559 0.020414587 0.04710054 0.058242075 0.009896315 -0.05152845 -0.04177193 0.0014107124 0.0341818 -0.003040614 0.002134644 -0.07205897 0.044534106 -0.03336813 -0.056259654
596 0.01964549 0.06556729 0.0663573 -0.059605416 -0.011166122 0.03385101 -0.008103153 0.006890207 0.006539158 0.058378436 -0.003802179 -0.045248833 -0.074350104 -0.015696501 -0.050487936 -0.023818783 0.029302536 -0.06932555 0.0015281432 -0.036849845 0.04309628 0.001973147 -0.04720805 0.041140664 -0.038187284 0.0006883992 -0.004916915 -0.046416815 0.01173985 -0.028470786 -0.07445888 0.0460465 -0.033695925 0.025487201 -0.030565968 0.0028146994 -0.030485984 0.010788383 -0.020662777 -0.010818767 0.017231267 0.0073844763 -0.019055571 0.02661291 -0.015558088 0.0492035 0.024005732 0.018692328 0.007893171 0.052340012 0.06779652 -0.05720959 0.025309525 0.05895704 0.02441062 0.019494552 0.09287688 -0.0402419 -0.031432893 0.050851747 0.024979195 0.04633138 -0.03403557 0.046168793 0.040240478 0.04853865 -0.013146229 -0.055535432 0.03608212 0.019456213 0.05629392 0.01836189 0.052075975 -0.028242119 -0.012028868 0.033112276 0.058261216 -0.023484409 0.06738872 -0.015120451 0.024892293 0.041316904 0.0349541 0.02303855 0.0022242342 -0.052245002 0.026670134 0.0069706556 0.027073015 0.0078584505 0.024160454 -0.072344385 -0.051463716 -0.03126612 -0.054050647 -0.011902089 -0.03897746 -0.05346925 0.013935228 0.048899554 -0.0027444456 -0.023438407 -0.008216383 -0.046186246 -0.0205393 0.0028540955 -0.0060038012 0.01787365 0.047454994 0.06021453 0.022235459 -0.05102098 0.03117926 0.013431671 0.030305315 0.0044986894 0.04181984 -0.026895078 -0.0057062795 0.002559707 -0.0030641765 0.008235781 -0.020527078 0.06962026 -0.045825947 0.057051256 0.026361927 0.016926832
539 -0.0026111735 0.010876443 0.024931574 -0.027478645 0.037345633 -0.033129018 0.022408476 0.011974086 0.054666642 0.0042584 -0.02637443 -0.00452981 -0.04802998 0.06788479 0.0001773625 -0.042789485 0.009589598 0.036773007 0.05121819 0.06203263 -0.054064896 0.062801674 -0.02862695 0.009110337 -0.012813522 0.02435268 0.009246317 -0.043513037 -0.012417147 0.044603825 -0.04638605 0.009791443 0.022524204 0.037282877 -0.010748006 -0.006690771 0.0034128395 0.034059353 0.016584858 0.02127542 0.03492496 0.015391191 -0.05956781 0.043595802 -0.03519949 -0.011434541 -0.022566855 -0.08036128 -0.08679513 0.081199385 0.0057322886 0.013350827 -0.023107093 -0.023094105 0.027140046 0.05325809 -0.0017144199 0.0027742852 0.078638986 0.013203991 0.03434708 0.014000204 -0.012997074 -0.0087297065 0.055535648 0.029105743 -0.0037098841 0.041253097 0.059994444 0.024361104 0.020615697 -0.010431596 0.06088732 -0.021865798 0.026975159 -0.0032538439 0.03216876 0.03437431 0.014330137 -0.0019559495 -0.032560922 0.003736704 -0.017614478 -0.014289308 -0.0019918964 0.010373965 -0.007952045 -0.031925034 -0.06888055 0.00072180445 0.023909174 0.03882061 -0.06487285 0.03574275 0.063727915 -0.046532698 0.028890196 0.048906226 0.02296156 0.017242119 -0.05405989 -0.007863322 0.09978137 0.04334092 0.013018251 0.013155196 0.02373964 0.03385076 0.0053239875 -0.002817265 0.012666091 -0.060864344 0.0049351687 -0.037460174 0.0032785549 0.06508942 -0.010873007 0.038091425 -0.04140476 -0.040475447 0.0008270736 0.038204525 0.022567961 -0.007892367 0.044079266 0.0580775 0.031451184 -0.027341692
2239 0.027355047 0.0066026254 0.0154123865 0.03679411 0.0016070411 -0.04317391 0.08208635 0.015279036 -0.005657921 -0.025800645 -0.052688394 0.06155206 0.0011454237 0.021844858 -0.012721326 -0.06828565 0.06874116 -0.039457537 -0.007857914 0.05895239 -0.029390704 -0.029241119 0.014210231 -0.0072704726 0.0010365357 -0.046306197 -0.015106241 -0.034031667 0.02689731 -0.013572476 -0.044653796 -0.03426836 -0.048299924 -0.06292082 -0.09580138 0.006978806 0.02130616 -0.008335664 0.06596924 0.06401555 -0.023732506 -0.00070604123 0.0077209314 0.018835606 0.030883737 -0.009954234 0.037763238 0.021513756 -0.012936644 -0.00010473952 0.04412568 0.0010259579 -0.0482624 -0.045142487 -0.024670407 -0.02500749 0.0011104585 0.003195578 -0.06791957 -0.000504697 0.0675479 -0.033270583 0.049976315 -0.037592098 0.038615253 0.0013529941 0.012835864 0.0134339435 0.024868634 -0.03266891 0.026217159 0.0506398 -0.0384548 -0.0149386525 0.019625554 0.02882702 0.021195218 -0.07385865 -0.032310504 -0.02084611 -0.05737579 0.005569018 -0.010019893 0.05733167 0.07191096 -0.0057382113 -0.0718679 -0.012085305 -0.0021083895 0.068978176 0.011472792 0.00884332 -0.043742046 0.080556504 0.03460304 0.070987634 -0.05701871 0.0823009 0.067540385 0.00994739 -0.071063 -0.0064885034 -0.020606859 -0.005008501 -0.009411087 -0.01905177 -0.0055723875 0.009849223 -0.015777811 -0.0432072 0.03074206 -0.051810738 -0.03855403 -0.016264478 -0.07558883 0.031654596 -0.032585584 0.029441396 0.025544312 0.00095929735 -0.0435012 -0.003740641 0.060815696 -0.047219418 0.02638705 -0.022094863 0.0024091676 -0.061085127
412 -0.009834632 0.011737964 -0.014063809 -0.023586435 -0.042052705 -0.0033651893 -0.00029568828 0.008975918 0.033626225 -0.04591907 0.011092899 -0.02002572 0.037005924 0.029216604 0.061511345 0.0017700024 0.070914455 0.031028697 0.013518413 0.07998384 -0.007597498 0.025720878 0.06873827 -0.008325073 -0.043986544 -0.011103325 0.028042426 0.015642026 -0.026929839 0.030692387 0.050125774 0.011414311 -0.008317133 -0.032922085 -0.071748205 -0.08546016 0.06249818 0.017105937 -0.012196851 -0.054289516 0.028592974 0.033492226 0.060417823 0.011976928 -0.06837978 -0.034447435 -0.013785326 -0.015567519 -0.01199568 0.055500526 -0.023500629 0.0006912715 -0.047529813 0.08663041 0.0021251345 0.069281586 -0.017459175 0.0722113 -0.023419388 0.037744492 0.010562328 -0.009734763 0.04788347 -0.039418805 0.0046926467 0.020601267 -0.016092243 -0.04616365 0.0064964797 -0.0073771235 0.010347777 0.02098978 0.031193212 -0.026825717 -0.0041857883 0.009085357 -0.012962376 -0.003474488 0.012752538 0.017983286 -0.009179428 -0.0022058624 -0.043444682 0.006140146 0.015498268 0.012500511 -0.012238567 -0.056995425 -0.0507603 -0.020537477 -0.005526464 0.03908959 0.0156082595 0.10167275 0.0030040762 0.052935954 0.022016505 -0.031148605 0.0070335246 0.013131121 -0.014454462 -0.04532808 0.023589225 0.012000732 -0.01924409 -0.062695995 0.031951696 -0.024354972 -0.0012146817 0.08161481 -0.0036652095 -0.08404089 0.018212289 -0.001178422 0.003394479 0.006405423 0.009523349 0.055429943 -0.01381952 -0.014658784 0.00045149447 0.049571298 0.00086579716 -0.06237127 0.032094207 0.050352488 -0.023717424 0.024202438
1756 0.04825444 0.013502591 -0.015190762 0.03678221 0.007729558 -0.0146805085 -0.00451299 -0.040709134 0.016359618 0.037539594 0.06107668 -0.062978044 -0.026012708 0.055928156 -0.038864393 -0.012563178 0.018427791 -0.031030664 0.01954476 0.059351835 -0.07694581 -0.08201725 -0.05358722 -0.051156033 -0.030587265 0.046949692 0.001509168 0.017412063 -0.020358503 -0.012339966 -0.0077798166 -0.015580104 -0.014900446 -0.011323873 -0.029687678 0.043619376 -0.015675114 -0.02770124 0.068619736 -0.040742327 -0.045173116 0.048534058 -0.049300153 -0.018008428 0.057896085 0.05940096 0.0008037963 0.021472719 0.038115382 -0.04677075 0.013062697 -0.00035351532 0.013204828 0.06396901 -0.006466009 0.02533274 0.03787913 0.013964529 -0.0064864103 -0.015198078 -0.02604512 -0.010485677 0.0046307105 -0.00019820037 -0.022449378 0.024462732 0.015270335 0.0051861275 0.033359926 0.030667312 0.046414945 -0.057401456 -0.055297814 -0.027115364 0.013615692 -0.05248328 0.012292178 -0.011788023 -0.04235043 0.011118899 -0.019739907 0.038117167 0.057460923 -0.015349229 -0.03713733 -0.022282645 -0.07362783 0.051454347 0.039209917 -0.056512885 -0.01836192 0.030216364 -0.031802267 0.022997407 0.015068182 0.00027031667 -0.058685638 0.0076783164 0.07738637 -0.00921138 -0.025768332 0.035519224 -0.037750725 -0.036724243 0.059625752 -0.015804786 0.025241464 -0.020305881 -0.002830216 0.05714664 0.028488634 -0.01005368 0.029021243 -0.052937843 -0.00835104 -0.004321696 -0.024705715 0.0017628558 0.0062695793 -0.029242141 -0.01065855 -0.025388353 0.00046417332 -0.032844428 -0.036090333 -0.040067706 -0.02661178 0.01786598
925 0.05400751 0.036329463 0.008061686 0.02877247 0.01209957 0.033830505 0.009375801 -0.0071642282 -0.004020028 0.036305543 -0.04067168 -0.028045895 -0.06822782 -0.04579728 -0.057016138 -0.02932239 0.069670245 0.0053063864 0.082816154 0.07576485 -0.017341822 -0.017220551 0.052554313 0.07627757 -0.024991596 0.05737608 0.0015249747 -0.011186717 -0.007827955 -0.035950746 -0.06355795 0.00065225305 0.056004476 0.025352985 0.022981044 -0.050940834 -0.048035834 0.043346558 0.054109797 -0.06177497 0.038174942 0.0819384 0.0020680143 -0.004297092 -0.017485524 0.004306911 0.056119256 -0.011580925 0.049039852 -0.0067146323 -0.06232393 -0.06342323 -0.015217399 0.0020836343 -0.03945715 0.04374088 0.033429544 -0.061466955 -0.03300967 -0.030437967 0.05222597 0.0082178395 0.001838174 -0.013240212 0.03322533 0.0411918 0.015110925 -0.05320595 0.030072514 -0.04921171 0.034881137 0.02199804 -0.0059074457 -0.063648164 -0.061117627 0.04329405 0.010701431 -0.0043168887 -0.071771 -0.065377414 0.0263257 0.021176714 0.026500294 -0.03459518 0.045246862 -0.016103163 0.014362202 -0.007954295 0.047322284 -0.049070645 -0.024415629 0.013286589 0.011266296 -0.06770777 -0.036883894 -0.0047542388 0.02582209 -0.03146517 -0.0013148031 0.014770596 0.046369188 -0.026553094 -0.0013596569 -0.054043017 -0.020343091 -0.078535564 -0.04579197 0.041937724 0.040378056 -0.016756117 -0.039483797 0.017071512 -0.012832192 -0.018284563 0.056355998 -0.0064904955 -0.044359017 -0.0051422752 -0.008020003 -0.019909613 0.039255638 -0.005291643 0.02482238 -0.008640222 -0.007629722 -0.07123166 -0.060246974 -0.019326922
1091 0.003934418 0.027484512 0.038810316 0.024249675 -0.02501167 -0.07311075 -0.010145278 -0.0072018304 -0.07860905 0.03938699 -0.034800973 0.02733494 0.059091955 0.020316962 0.035638127 0.009884032 0.037802625 -0.010034417 -0.00037551674 0.051323883 0.08055365 0.019683585 -0.025481224 -0.033227596 0.00780789 -0.07351576 0.035657242 0.009952481 0.010516988 -0.012991146 0.0039491663 0.06076036 0.034187146 -0.01612603 -0.006050504 0.0103551 0.06877695 -0.06312456 -0.048819356 0.032783277 -0.01925899 0.007759853 -0.046989147 -0.015690846 0.0012796097 0.010609327 -0.0029498627 -0.057192437 -0.007840055 -0.033469167 -0.041359402 0.023129018 0.04522257 -0.039864626 0.018689346 -0.009724415 -0.027232217 -0.030191895 -0.011556481 0.029741993 0.029133143 -0.00022387848 0.01078494 0.033640232 0.06070923 0.017922405 -0.053522654 -0.00636231 -0.021225777 0.07597432 0.04992972 0.027240736 -0.017316295 -0.03838066 -0.053723983 0.01511189 0.017617373 0.04536346 -0.03587995 0.07877856 0.028183581 -0.026282256 -0.00060730166 -0.004117821 0.008296741 -0.059068426 -0.04647489 0.0026186479 0.006740638 0.026624877 -0.050179917 -0.023041395 -0.07744771 -0.008452898 0.10026656 0.03542644 0.038959444 -0.047892496 0.008470205 -0.03644149 0.009161865 0.03382523 0.001278733 0.04902781 -0.010241072 0.022949822 -0.05209795 0.03096502 -0.003698137 0.042995445 0.06141491 0.013620179 0.06705173 -0.03874211 0.028713755 0.039108936 -0.015264741 0.09073253 0.050024226 -0.017439555 -0.026041076 -0.0476893 0.06838652 0.043189786 0.017341102 -0.060541682 0.059146676 -0.013273485
1322 0.042194884 -0.047040004 0.0013768141 0.05980829 -0.010332196 -0.0269385 0.030498814 -0.007368017 -0.007678899 0.039712347 -0.0122804 0.05704524 0.07481357 -0.017027449 0.023546059 -0.003553382 0.010157074 0.000804649 -0.0011222643 -0.0036954368 0.016427688 -0.019335756 -0.061502073 -0.08238419 0.0270279 -0.02862625 0.037170477 0.031498946 0.06573914 0.013339706 0.022438327 0.030147236 0.028549314 -0.07797355 -0.036332995 -0.012293223 0.07585435 -0.04267308 0.0022435347 0.031124922 -0.02299338 0.057546016 -0.04882859 -0.010413834 0.0112785455 -0.0049452167 0.0018413414 -0.08580947 0.041718293 -0.012857427 -0.06433873 0.066183 0.09712419 -0.088750534 -0.025038607 -0.010257651 -0.08006347 -0.02235186 -0.012061743 -0.0053908955 0.04192265 0.014609325 0.059757184 0.089601606 -0.01404836 0.012953147 0.031056901 -0.05663559 -0.03528103 0.0301879 0.012854297 -0.026058767 0.07629858 -0.025088433 0.009369406 0.021028664 -0.026530078 0.009640816 -0.011475146 0.073380165 0.008044226 -0.009466845 0.044341244 -0.02406709 -0.06556121 0.03382013 -0.04892897 0.05804155 0.038799938 0.0010431814 0.02455894 0.033366676 0.026883809 0.009474464 0.027091766 0.038363986 0.040128283 0.010813917 0.004765525 0.023673285 -0.0039050407 0.06845538 0.008781624 0.0047004907 0.027248846 -0.005396181 0.028170608 -0.025525326 -0.02122675 -0.027449356 -0.040877793 0.049462475 -0.021308996 0.038491797 0.017562905 0.009483203 -0.013255111 0.0098456275 0.021394003 -0.036756173 -0.01715338 0.000901705 0.024321567 -0.06681714 -0.01915597 -0.041392673 0.02996314 -0.024132753
1691 -0.012150889 0.0041188523 -0.020212157 0.030091263 0.053791992 -0.06451204 -0.022840824 -0.012564659 -0.017648013 -0.046347212 -0.0040428312 0.05819832 0.071047366 -0.009769893 0.006957449 0.064470015 0.045034662 -0.03892258 -0.04189589 0.054381747 -0.0030498153 0.02851438 -0.08599682 -0.014295581 0.026344711 -0.0060342117 -0.04542529 -0.035277702 -0.050983906 0.051113557 0.015251403 -0.0071423925 0.012921022 -0.041301906 0.06318392 0.060525782 0.030914018 -0.057452694 -0.06717082 -0.0191469 -0.008483904 -0.018057564 -0.04466016 0.007253917 5.1076117e-05 -0.058078025 0.0075491057 0.012935872 -0.07073687 -0.08077804 0.021725679 0.040108226 0.009216629 -0.012118879 -0.00080122415 0.036277838 0.011401864 0.053117264 0.07124472 0.009966696 0.0058186855 0.030674018 0.06332598 -0.026527597 0.0041950806 0.026959173 0.010660333 0.08923671 0.012879486 0.07113843 0.05864343 0.0375194 0.009980634 0.013843068 0.022687735 0.05918981 0.02057821 -0.0037360564 0.022903021 -0.028723339 0.016951717 0.015098205 0.0021664274 -0.04427698 0.040914547 0.05107317 -0.038987067 0.0395374 -0.022689177 0.02855559 0.070954636 -0.035529044 0.05311792 -0.032577224 -0.0006072919 0.02539225 0.02259792 -0.00092159514 -0.008543049 -0.013171599 -0.0015716671 0.045170862 0.025624663 0.029848944 -0.013085618 -0.05855518 0.022456592 0.039669555 -0.0035614737 0.013462526 0.04119602 0.028294675 0.055073567 -0.015659096 0.042520177 0.017470228 0.007842352 0.008641997 0.013221575 0.064540535 -0.035104893 -0.026195277 -0.009704267 -0.035994455 -0.026261205 -0.007782078 -0.022527212 -0.028055793
364 0.016518181 -0.0147208655 -0.00091664825 -0.0077690873 0.089670345 -0.05632098 -0.059207637 -0.0020199192 -0.0043182494 -0.040570915 0.010639218 0.06594898 0.012067473 -0.042608652 0.06753732 -0.025308568 0.009958711 0.0066722566 -0.06628435 -0.017167961 0.02815911 0.031082252 -0.05266345 0.022804402 -0.018394466 0.017965775 -0.015272613 -0.05232841 0.0127448 0.04874851 0.015588391 -0.0530717 0.036673445 -0.015478627 0.017925894 0.0033339474 0.023288459 0.015656566 0.0077722454 -0.030696286 0.01969862 -0.029682135 -0.029135909 0.0039882543 -0.027887655 0.008865488 0.024140697 0.09144683 0.03297269 -0.042210225 -0.034439236 -0.04578586 -0.033530608 -0.01610716 0.036730334 0.0525189 0.05817111 -0.015015058 0.020821193 0.0033559413 0.063699655 0.0170275 -0.0012722319 0.027721597 0.041501608 0.0051665828 0.03699029 0.033516265 -0.016969914 -0.050043046 0.06400762 -0.002855686 0.033606693 -0.008176982 0.026143648 -0.006728111 0.021936638 0.085157126 -0.012309179 -0.03676081 -0.0020425871 0.06922771 0.024822827 -0.03846875 0.041382734 -0.0075238035 0.042401418 0.011790855 -0.019278705 -0.056231618 0.027906917 0.01525529 -0.015664855 -0.00767628 -0.037144687 0.08941832 0.044343717 -0.02412399 0.02367759 -0.04913375 0.004570961 -0.04063298 0.05708434 0.053612098 -0.02576256 0.04962702 -0.040894676 0.0769669 0.017728895 0.022744067 0.048042558 -0.0054792883 0.02314093 0.064126775 -0.015228824 -0.048508894 -0.047847718 0.0074457834 0.022005623 -0.05672034 -0.0059262146 -0.028001279 -0.02306151 0.009493427 0.02953878 0.00041669942 -0.011190991 -0.009287581
342 0.034957193 0.07206291 0.01487838 0.0030794935 0.07397621 -0.03318394 0.031328853 0.019724518 0.040857043 -0.016142203 -0.05883536 0.036332957 -0.041814223 -0.065085515 -0.015952587 -0.031419437 0.029909192 -0.066139184 0.0028677993 -0.024614781 -0.04693263 -0.079569235 -0.06684705 -0.022933379 -0.041575983 -0.010720141 0.049322903 0.01697103 -0.022893872 -0.070224695 0.042983 -0.0063255522 -0.054132324 -0.030647011 -0.047496215 -0.025859905 -0.025759105 -0.041829064 -0.029171744 -0.08796413 0.04154887 0.028911924 -0.025271691 -0.021423483 -0.019165482 0.018564278 0.047521513 0.02910123 0.08041992 0.03917027 0.012463652 -0.090186335 -0.0016725808 0.0122036915 0.01904746 0.037940197 -0.028295934 -0.049835924 0.062314313 -0.03650074 -0.012638367 -0.013319157 -0.030603595 -0.042119008 0.00031488176 0.016419506 -0.02160569 0.01768492 -0.06560655 -0.04707663 -0.006704597 -0.004550465 -0.05535531 0.012830345 -0.0069305785 0.07010226 0.017113348 -0.0049389927 -0.015301242 0.03911983 0.024149315 -0.026997047 -0.08273272 -0.042117923 0.007898076 0.04456422 0.014813216 0.012823888 0.02986254 -0.030111082 -0.04867118 0.008265362 -0.037003696 0.019467276 0.066594265 -0.017905902 -0.064088285 -0.0691224 0.030068198 0.07266709 -0.006721425 -0.018785901 -0.0052633267 -0.025137216 -0.010810187 -0.0035878576 -0.041297138 0.042843133 -0.085883506 -0.009194871 -0.047314323 0.03818467 -0.041836817 -0.06447903 0.0071322336 -0.032615073 -0.085491605 -0.058850832 -0.0051660836 0.087230474 0.025473433 0.0689864 0.060746096 0.032234892 0.020363798 -0.028866885 -0.026658751 0.033944286
1952 0.011282463 -0.030527944 0.036058716 0.0042535546 -0.009192648 -0.03552201 0.015840037 -0.0030208328 -0.009373623 -0.0038833583 -0.06480819 0.045711234 0.01220631 -0.01122635 0.0024951997 0.036256336 0.027680062 0.010158488 0.00692016 -0.011016753 -0.013588248 0.03241774 -0.07283711 0.0015185609 -0.05856587 -0.026440628 0.00097999 -0.01808526 -0.010831174 -0.03484967 0.05941142 -0.029613234 0.046587586 0.06193396 -0.05812731 -0.037273683 0.012382134 -0.06190256 0.02053259 -1.3365789e-06 0.0037270966 0.007662104 0.010734982 0.043374658 -0.012955181 0.037522286 0.052040238 0.029286167 0.022029238 0.017675515 -0.066147804 -0.060967132 -0.05235859 0.042652793 -0.010808049 0.008317133 0.043078095 -0.022676626 0.003875338 0.0023489099 0.027349437 0.018674834 0.005868612 -0.04191835 0.050355185 0.0668359 0.014178565 0.029580401 -0.0083479695 -0.031941105 0.015198166 -0.034723796 -0.012394339 0.055874515 0.032889917 -0.010780052 0.025340574 0.01487678 -0.016818864 -0.04565509 0.044370808 0.015141306 -0.030740336 -0.059464555 -0.019110441 -0.009699492 -0.017646978 -0.016591927 0.014288658 0.0068069687 -0.057706024 0.010623001 -0.04421226 -0.016904445 0.03013148 -0.044447947 -0.012771706 -0.015057007 0.032561287 -0.05830324 0.05968217 -0.030636687 -0.0248378 0.04813079 0.018155059 -0.005298104 -0.009487924 0.010698719 -0.06984672 -0.028882906 -0.057719227 0.0426283 0.007943717 0.019012576 0.032725967 -0.048176415 -0.00849709 0.072933 -0.06981701 0.010177532 0.0023219336 -0.004534441 -0.021468969 0.011755112 0.07729369 0.007299262 0.0727408 0.045605842
717 -0.001179083 0.052230872 -0.024478521 -0.0046456405 -0.052423917 0.007061893 -0.035755645 0.008690786 0.025726216 0.051816404 -0.02889539 -0.01814321 0.003476707 -0.01210808 -0.016870584 -0.013560356 0.055547193 0.025009796 0.011812948 0.049861286 0.022472648 0.0023273975 0.0099125635 0.05092917 0.01516222 0.05789475 -0.0056007747 0.01594253 0.015352813 0.03869949 -0.010973661 0.034336276 0.004425509 0.04291181 0.014880025 0.06356376 -0.019703384 -0.04980134 0.056623593 0.009250769 0.04661025 -0.0001024105 -0.007014919 -0.0041835867 -0.021911955 0.026388075 0.02692411 0.02831632 0.020814028 0.017732061 0.003765618 -0.0019228754 -0.013251142 -0.01714894 -0.043069888 -0.007572783 0.005672775 0.014576781 -0.068684995 0.028229645 0.00468005 -0.050111696 0.012660099 0.030336803 0.025024414 -0.047299925 0.0032451958 -0.056546334 0.011654258 0.04342518 -0.028611634 -0.005512349 0.050765153 0.052280735 0.021743277 0.011189467 -0.004060856 0.023438092 -0.03158984 0.00648526 0.04123566 0.006325316 0.03824934 0.002719527 0.01983248 -0.06259752 0.04483892 -0.0060250033 0.01479335 0.032248437 -0.02158608 -0.01597652 -0.007832429 -0.039495274 -0.024081301 -0.04092275 -0.053142745 -0.049990185 -0.024409132 0.050379 0.0053052767 -0.010130045 0.07059307 -0.016619619 -0.0052198493 -0.006654242 -0.00957135 -0.014008751 0.0067816726 -0.007213002 0.050703805 -0.0043227775 -0.026036637 -0.00028897694 -0.046130348 0.0057320166 -0.060487732 0.005015585 -0.046258032 -0.019553589 0.027395027 -0.035999827 0.03400318 -0.00952804 -0.05418287 0.0072398586 -0.017445518 0.030676266
664 -0.017216124 0.030341892 0.0015646655 -0.06672304 -0.058196634 0.007713631 -0.023207344 0.014630522 -0.009831946 0.07437634 -0.051299542 0.024710791 0.026281992 0.07267044 -0.034107286 0.014590182 -0.0018865103 0.021602146 -0.037735328 0.0021867077 0.006270393 -0.07860256 0.024231477 0.020081922 -0.019033028 0.019103635 -0.0513195 0.013309437 0.013744031 0.053885363 0.0352178 -0.024837552 -0.048005283 0.03010501 0.03028326 -0.019891249 -0.044373523 0.009510791 -0.0064211334 -0.020343168 0.026220586 0.011461579 -0.051319346 -0.04600847 -0.0054398626 -0.03062559 -0.019349782 0.0010247775 0.032594353 -0.036802262 0.051224012 -0.058959186 0.014997209 0.014958814 -0.03619791 0.03435826 -0.009657126 -0.039467447 -0.03228046 -0.017552033 -0.014638819 -0.036974486 -0.0025679583 0.01203934 -0.020711655 0.0011983747 -0.009007196 0.031287283 0.010133707 0.03953591 -0.03280525 -0.029442906 0.05848665 -0.005323625 -0.032088764 0.036195327 -0.0462734 -0.02399345 -0.08217268 -0.0041292305 0.030832507 0.02562794 -0.03410889 0.06162136 0.0058284984 -0.007898044 -0.009826036 -0.0072236788 -0.025512816 -0.0070450287 0.048853353 -0.07182814 0.0026099621 -0.044040613 -0.048615675 0.081042334 -0.027385276 0.038553122 -0.032493945 -0.061097745 0.004644771 -0.062025152 0.025092151 -0.039262455 0.089576155 -0.035200503 -0.02351812 -0.06551502 0.04041241 -0.014297955 -0.032427806 -0.021048106 -0.015894208 -0.10355925 -0.022290137 -0.024370104 -0.01012638 0.074855685 0.07130004 0.012818384 0.048760645 0.0068413476 0.03050684 0.03359527 -0.005705833 0.00018125093 0.015092661 0.02147012
1811 -0.049363755 -0.016416268 -0.0010782293 0.01074791 -0.021066077 0.04175757 0.014728794 0.093488045 -0.0744921 0.026267318 0.01690823 -0.042912718 -0.0024267277 0.05180523 0.016701529 -0.054689676 -0.020708978 -0.06782655 0.014628447 -0.067944504 0.061394688 0.08662118 0.0073579233 -0.0030482141 0.021946521 -0.06458151 -0.019494744 0.05905949 0.018709226 -0.023940766 -0.0142343 0.076029725 -0.07866644 -0.022382688 0.019004723 -0.062129747 0.07762718 0.03802665 0.025254823 -0.031286415 -0.030802993 0.0057612946 0.041739915 -0.009348562 0.009797936 -0.034085948 -0.0020840627 0.046405744 -0.03949117 -0.030266792 -0.025570739 0.006675034 0.0896937 -0.0015593455 0.06483126 0.025323596 0.055465683 -0.0062226704 0.014901995 -0.022546332 -0.012143515 -0.024019638 -0.0379856 -0.00068019045 -0.009623804 -0.078571066 0.04436617 -0.00021031495 -0.08219221 -0.016886406 -0.0073690913 0.02431232 0.0114243515 -0.035942193 0.057890873 0.019553768 0.025531054 -0.012239098 -0.040705673 -0.061356563 -0.004141956 -0.05128324 -0.044595618 0.04632957 0.0024809528 -0.059432745 0.023973012 0.05389094 -0.051202517 -0.013192549 0.030699441 -0.04167662 -0.08035124 0.085218765 -0.030688714 -0.053266563 0.007820445 -0.008984971 -0.0067128157 -0.01239901 -0.007838501 -0.010970862 0.073504046 0.021776835 -0.05013679 0.012662408 0.033385266 -0.025000958 0.010701064 -0.035939284 -0.019237718 -0.05604474 -0.011153197 -0.060402256 0.024037251 -0.013778572 0.080346495 0.054618686 0.028100215 0.024814725 0.009709846 0.026496183 -0.03189779 -0.100076966 0.048898134 0.04401407 0.026800698 0.024327083
1246 0.03332831 -0.017828124 -0.08481166 0.064519964 0.06785381 0.07439851 -0.042403784 -0.062353965 0.005567053 -0.05020795 0.072962 -0.04609861 0.04315106 -0.04741303 -0.012166071 -0.010257521 -0.00019838588 -0.061576374 -0.02323466 -0.05664412 -0.058502752 0.018475408 -0.03768328 -0.028195448 0.06518167 -0.04645222 0.055753306 0.045630503 0.008371436 0.026337864 -0.04335348 0.051372908 -0.055327937 -0.05164504 0.0787875 0.05084639 -0.045755494 -0.038770624 -0.03831536 -0.06518774 0.08053091 -0.038453124 -0.0131189935 -0.0034360471 -0.07323244 0.040597573 -0.033941958 0.01298995 -0.04528927 0.0061020693 -0.0731634 -0.028710585 -0.035473667 0.058651958 -0.028244361 -0.020335931 -0.01589498 -0.00058868283 -0.035597928 0.040786974 -0.045713674 0.032512914 -0.039175365 -0.02452777 0.0031330516 -0.041438404 -0.062150974 -0.011401049 0.041409723 0.019562773 0.0068624644 0.028097773 -0.03882627 -0.011006412 -0.024463728 -0.044123534 0.018368715 -0.027376756 -0.05160574 -0.05812838 0.067096666 -0.05485676 -0.042725034 0.05643138 0.056112118 -0.013116571 0.07033392 0.021967059 -0.02003155 0.012615944 -0.08913159 0.03819523 -0.05566594 -0.01735473 -0.058773406 -0.0051920884 -0.05567276 0.04057768 0.022817118 -0.015996573 0.035554998 0.014423823 0.012207666 -0.0812312 0.020512365 -0.038405605 -0.048455585 0.0034464481 -0.0005122991 -0.041429877 -0.046449084 0.06739807 0.041140977 0.056669075 -0.085027665 0.08102023 0.053273078 -0.053051334 -0.022845885 -0.062256664 -0.032372847 0.018781628 -0.051615953 0.021044604 -0.0017233739 0.0025882737 0.026471863 0.08984056
1385 0.006014052 0.029918004 -0.03616681 0.07142741 0.026610825 -0.03438006 0.040890437 -0.023746094 0.008011675 0.008085645 0.018766187 -0.022510557 0.023778005 -0.047060225 -0.0031152086 0.03972498 0.007197521 -0.048647247 0.032339253 0.029666087 0.032142755 -0.07560377 0.023018558 -0.07923047 0.038413275 0.0044678706 -0.035029225 -0.084374346 0.03968201 0.04703484 0.0736605 0.05729178 0.005544252 -0.019154992 0.041945916 0.026203739 0.03247746 -0.0071135145 -0.045864854 0.09030594 0.0022133954 0.060522832 -0.036003046 0.017179247 0.028346334 -0.026199289 0.0077126324 0.057925742 0.053571552 -0.0029857405 -0.05207104 0.006209784 -0.00912756 -0.0049024476 -0.033278562 -0.037258856 -0.061433114 0.025919927 -0.0016319237 -0.026849 -0.007968824 -0.017990528 -0.030514669 -0.01318053 -0.020144619 -0.039867986 -0.03831311 0.024839781 0.006305567 0.0026117659 -0.05772453 -0.035289295 0.075536676 0.01733109 -0.012037053 -0.027362451 -0.012408233 -0.054276917 0.0005574266 -0.05966126 -0.047838856 0.00518601 0.019528115 0.05223971 0.02511691 -0.0026290868 0.0033611006 -0.0052893073 -0.019786343 -0.0044119726 -0.0042293807 0.04013199 -0.01788329 -0.019732878 0.042097 0.061219003 0.068170734 -0.0023278187 0.022036966 0.037629157 -0.06486738 0.042524096 -0.066144116 -0.040703394 -0.018476266 0.05207855 0.0644897 -0.038454942 -0.034289148 0.0037317271 -0.055470724 -0.0038898648 0.011708188 0.03168337 -0.006139224 -0.018311081 -0.021036658 0.015843157 0.037701152 -0.0266927 0.049611993 -0.0023702749 -0.030587504 0.073819056 0.03314282 0.093612015 -0.038464908 -0.007973833
739 0.020643583 -0.013117814 -0.049683306 -0.047176268 -0.06933251 -0.02370755 -0.008954372 0.015114796 0.03507093 -0.010755324 -0.021918904 0.051886 0.021345064 -0.019064784 0.048929255 -0.027653659 0.023428818 -0.05114349 0.0650861 -0.039803285 0.075387016 -0.00069542014 -0.014727863 -0.030798651 -0.06693059 -0.03120892 -0.021115912 -0.053215116 -0.034513798 0.03157809 0.032129493 0.023854565 0.045070384 -0.010794832 0.006989725 0.016792554 0.07824659 0.0030763831 -0.008519174 -0.03795418 -0.04077701 -0.016466286 -0.062028766 0.03668039 -0.0015555193 0.042867083 -0.04631294 -0.05468821 0.022750434 0.0037152593 0.027753131 0.0057763364 0.025177475 -0.001939012 -0.053353395 0.047971614 0.0005071956 -0.01161269 0.01702702 0.046220776 0.01924562 -0.017069638 0.040686175 -0.004024316 0.0057294113 -0.03469268 -0.027405748 -0.064121634 -0.008555739 0.013446503 0.07611555 0.025279762 -0.028355991 0.0018130064 0.032183204 -0.0012544142 -0.06719992 0.008960241 0.01240086 0.042098798 -0.009836913 0.07298709 -0.0019912762 -0.054953616 0.055845127 0.020359742 0.06332544 0.0028678763 -0.059521187 0.046585288 -0.051689077 -0.027776347 -0.024695557 0.040121317 -0.01215413 -0.014910641 -0.012373349 0.04240006 -0.0036431286 0.031779658 0.007033756 -0.030079607 0.00511777 -0.015364799 -0.01868837 0.032411866 0.022634339 0.07617845 0.013684648 -0.026545225 -0.029296499 0.06118468 0.0072992784 -0.007784375 0.061449837 0.04656186 0.029725702 0.024817692 -0.046999034 0.06452385 -0.0408954 -0.00083564024 -0.019106498 0.02431134 -0.0016596991 0.019060412 -0.05294349 -0.014400059
1295 0.029471062 -0.07135237 -0.007426824 -0.038573537 0.0002839873 -0.06904941 0.047306463 -0.019135688 -0.003354101 -0.019228961 0.040412858 0.0011905996 -0.04752211 -0.037988067 0.009404735 0.030663347 -0.019294182 0.008045249 0.009284546 -0.021376122 0.04939491 -0.016767198 0.06481128 0.010942158 0.007998817 -0.04792496 -0.074834615 -0.006150421 -0.049615573 0.06656309 -0.029001797 0.031694613 -0.049596198 -0.008628801 0.021179821 -0.0074413936 0.080409445 -0.05206291 0.0037198216 0.0078083295 0.013755192 -0.05326843 0.001146007 -0.0134801455 0.018324723 0.05324038 -0.03960141 -0.007484477 -0.03339061 -0.07416581 0.04504315 0.067622535 0.044983357 0.010847579 -0.0008838315 0.004564885 0.022568569 0.0071781976 -0.06564603 0.016395802 0.05406762 -0.045333296 0.03279655 0.06402393 0.08200138 -0.014718224 -0.029765163 -0.021819199 -0.03523313 -0.06557895 0.006864254 -0.04590022 0.0064591737 -0.030789597 -0.0038918683 -0.006308799 -0.025842868 -0.056396663 0.03982078 -0.012488266 0.007820171 -0.030267393 -0.018054092 -0.050831027 0.049956806 -0.009348272 0.05246231 -0.021156281 0.08190485 0.0115342755 -0.02023824 0.032258287 0.036600143 0.07456143 0.059232336 0.041062374 -0.05063476 0.048787273 0.019945804 0.028056672 0.04161769 -0.0024438074 -0.020848336 -0.040126473 0.00045961808 -0.008327324 -0.026922181 0.0683834 0.030913757 -0.034287307 -0.016541382 0.012941363 -0.0058327946 -0.0555486 -0.0020627938 -0.056293905 0.057483096 -0.047224466 -0.020953504 -0.04006045 -0.07603535 0.021994775 0.013271731 0.028255904 0.048433695 -0.017519437 0.02981492 -0.027598131
1916 -0.07334199 -0.100303 0.008012636 0.09046457 0.086613424 -0.046870872 0.03799749 -0.07661131 0.016930427 0.006182099 -0.025267212 -0.03732635 -0.018386004 -0.010895653 -0.031606264 0.036848787 -0.05506429 -0.0028596707 -0.008522181 0.019902019 -0.023576641 -0.08529799 -0.040338326 -0.09048358 0.004210138 0.003782968 -0.045569535 -0.047129158 -0.06882307 -0.047245212 -0.07810366 0.0863238 -0.01706685 0.006803892 -0.05468618 -0.008729996 -0.054276068 0.06375451 -0.07485136 -0.030728096 0.018277463 -0.04609627 -0.02993697 -0.035068344 0.04077353 0.012094314 -0.028959645 -0.08187813 0.03722922 0.02724298 0.008054589 -0.096013635 -0.0050735385 -0.016554303 -0.06693306 -0.032107767 0.045960538 0.03449836 0.02318317 -0.03905726 0.0049935654 -0.004346716 0.031505518 0.060578365 0.04946754 -0.0076488894 -0.07333575 -0.031255927 -0.04252461 -0.02749364 0.030346712 0.09157312 0.066867895 -0.069084115 0.039903305 0.068090014 0.10161084 0.024568377 0.02801251 0.03871282 0.028469153 0.023415914 -0.0024156165 0.06001522 0.030621227 -0.050409067 0.033443276 0.0064 0.018784717 -0.070357785 0.025430702 0.021625472 0.049202964 0.051910535 -0.06585745 -0.053408116 -0.028609423 -0.03568062 -0.015212781 0.020470709 0.0605082 -0.015644973 0.041895494 -0.009171683 -0.064976275 0.09121671 -0.0050107148 0.05641662 -0.10105967 0.06986401 0.041789487 -0.0019224668 0.007098027 0.041103635 -0.049169708 -0.0367508 -0.065874584 -0.021787183 -0.06513741 0.06511352 0.015448383 -0.0781806 -0.007634416 -0.0058563645 -0.041300885 -0.026049327 0.019281289 0.08708019
1614 -0.029144863 -0.0046935417 0.00036299514 0.025050236 -0.01699507 -0.03121386 -0.0643855 0.07878064 0.0795373 0.03769723 0.033981156 0.006967577 0.034463435 0.0096134115 0.040593747 0.024439353 -0.026318789 0.06242175 -0.025654865 -0.062322013 -0.050882403 -9.5948635e-05 -0.014934703 -0.038095795 0.045224134 -0.03256587 -0.02392779 -0.0193604 0.008279019 -0.020254701 0.026341038 0.027503407 -0.0067684026 0.049904276 0.0010801726 0.0062041087 0.008319169 0.03229919 0.05455957 0.055603847 0.078960285 0.03910872 0.012739985 -0.048897006 -0.04646582 0.052198883 0.064200975 -0.03598269 0.0072884336 -0.001573404 -0.0650359 0.016983543 -0.00083982316 0.042374887 0.04905167 -0.008872691 -0.043958448 0.03648042 0.0012964584 0.012925303 -0.0038559726 -0.00939196 -0.027918484 0.0017817128 0.055885118 -0.0106222 0.0003249917 -0.01853686 -0.058385003 -0.023707068 0.091140755 -0.0064026434 -0.027386522 0.00020063721 -0.054362897 0.047877926 -0.054565318 -0.044924743 0.0044435672 -0.010094976 0.019620022 0.010977006 -0.0076139364 -0.033961445 0.0058916397 0.061327003 -0.06492642 -0.03289314 -0.029557193 0.020371785 -0.008991799 0.01996541 0.03382328 0.02373187 -0.033343833 0.06677504 -0.01205864 -0.024084222 -0.01614722 -0.042401563 -0.08193667 -0.005867864 0.019911593 0.02625036 0.00947235 0.008671725 -0.014460648 0.029501094 0.0063835983 0.04351315 -0.028244387 0.02777622 0.009546544 0.0473742 0.049169034 -0.02719733 -0.04724439 -0.016494349 -0.007625468 0.03213789 -0.007833322 0.019130161 -0.0103842 0.02135998 0.05685143 0.042782605 -0.019831154 -0.03461619
2051 0.007353419 -0.056484107 0.0013716093 0.021247245 -0.026127856 -0.00016035588 0.06271243 -0.008565702 0.026417455 -0.05500633 -0.030887876 -0.0056031966 -0.049209125 -0.05380865 -0.0054563982 0.0209486 -0.034456387 0.018464306 0.022278737 -0.010669271 0.054064024 0.036155008 0.019740552 0.011838408 0.027113069 0.029161876 0.04584599 -0.032339003 -0.012555165 -0.016102009 0.00017956746 -0.022795742 -0.014311115 -0.019399645 -0.044217266 -0.031114426 0.05273233 0.021593193 0.06082088 -0.0034413051 0.041547325 0.026737137 0.019179216 -0.023166822 0.0306583 0.007464754 0.04547237 -0.045016933 -0.036894314 -0.03813593 -0.0017928085 -0.033141173 -0.07869207 -0.0037028082 -0.010053032 0.05505843 -0.02741578 0.032662384 0.023945855 -0.019304067 -0.06418771 -0.031775925 0.042164642 0.016319208 0.03744624 -0.07890379 0.0044954177 -0.028082097 0.009763131 -0.083364315 0.04178512 0.02154937 -0.048474763 -0.03110173 0.018449536 0.03154355 -0.06674621 0.033755813 0.045318566 0.045574594 0.025365604 0.05897559 0.0042400584 -0.0036511999 0.06245864 0.067856245 -0.036002167 -0.057664376 -0.037984405 -0.06672324 -0.016445505 -0.032186866 -0.04811188 0.07922359 -0.039132435 0.092030846 -0.01645701 -0.054967374 -0.07089875 0.063790895 0.0027617512 0.011231588 -0.014946073 -0.012021933 -0.037268825 0.019561969 -0.025323331 0.01750926 0.07973933 0.029347636 0.027983818 -0.012111546 0.008015303 0.069598 -0.021882987 -0.041857358 0.01093984 -0.031602234 -0.028778465 0.02941623 -0.018016217 0.050460093 -0.06685636 -0.023812711 -0.039481647 -0.0120097 0.006595183 0.05925054
1510 0.057912067 0.017870378 0.067648746 0.045342393 0.01875652 -0.02107816 0.069891855 0.018940372 0.0647673 0.013855175 0.031021582 0.017336756 0.05089766 0.011382597 0.0047157346 -0.023263583 -0.042129133 -0.017056078 -0.0119089475 0.050858986 -0.025028618 0.045808658 0.046687055 0.02537064 -0.015413089 -0.03390447 -0.030761557 -0.055682816 -0.02981562 -0.04118883 -0.06990587 -0.05008778 -0.014298254 -0.018346159 -0.009543203 -0.050974395 -0.023297375 -0.07546566 -0.03663209 0.012959341 -0.03237708 0.014327274 -0.007850369 -0.003131333 0.041114435 -0.07734554 -0.036162775 -0.008378325 0.09125785 -0.015054306 -0.038197346 0.04072595 0.024656303 -0.039026782 -0.07803853 -0.032993365 0.02130643 -0.0041961647 0.07095599 -0.031872205 -0.003878547 0.0015585549 0.043088753 -0.0035192312 -0.035333194 -0.044823572 0.0031562313 0.011732061 -0.037817437 4.6814814e-05 -0.025236836 -0.049541634 -0.00039747427 -0.059685722 0.01023147 0.025988484 0.0106382435 0.029892009 0.0071221655 -0.027588733 0.026658524 0.02425296 0.031593326 0.013042151 0.052328832 -0.032697055 0.01164447 -0.030477772 -0.013248899 0.032479696 0.019625753 0.04632904 -0.06937019 -0.009701286 0.06654163 -0.016483195 0.018446077 -0.06986957 0.052236915 0.03225486 0.003572729 -0.029221194 0.013618492 0.03521806 -0.030424304 0.055670843 -0.065617785 -0.038150325 0.027946241 0.05020155 -0.012136238 -0.056406856 -0.011294961 0.038969148 -0.036427934 -0.034551866 -0.03075597 -0.048094127 0.07179625 0.0105185015 -0.012821528 0.03817155 -0.014574276 -0.08477045 0.011141154 0.052412663 0.05037176 -0.03143007
1450 0.06652886 0.0194257 0.0674202 -0.05271169 -0.018559158 -0.0722797 0.09573023 -0.0152594345 0.04213959 -0.054172207 -0.01048581 -0.036125872 -0.061781406 -0.026661204 -0.05314172 -0.056001194 -0.030523079 -0.014089849 -0.032297183 -0.03085721 0.036451496 0.034550883 0.03252224 0.020275 -0.0912151 -0.06785582 -0.09694966 0.0030203734 0.006668447 -0.011539594 -0.03363377 0.028869685 -0.08699508 0.05641311 -0.0050981347 0.06103314 0.004162727 -0.03139214 0.02373488 0.002375366 -0.04489052 -0.0315811 0.005793348 0.038293183 0.005969352 0.0008373178 0.0021769286 0.0005492226 0.06260164 0.019439206 -0.09389483 0.06812874 0.003134926 0.02710972 -0.0456348 -0.03948666 0.058236375 -0.0165639 0.08699098 -0.020684937 -0.018511126 -0.010117186 -0.0077273925 0.059100512 -0.016457744 0.041205548 -0.028245185 0.027043922 -0.022009382 0.02926163 0.011134686 0.04804258 0.017586457 -0.0006561497 0.05309337 -0.021891473 -0.0058663646 0.06961622 -0.029216016 -0.000860505 0.022479873 -0.02127503 0.041100513 -0.032398105 0.019308902 0.0557283 0.0143558895 -0.05607041 0.06482397 0.0628307 0.0039640893 0.029486852 0.052093845 -0.035849236 0.07978279 -0.036435466 -0.0050508203 -0.016800927 -0.0018882871 -0.0041410266 0.051087987 -0.037103575 -0.014268686 0.025123 -0.059881065 -0.030128201 -0.051320456 -0.029720902 0.051614814 0.041380893 0.036540378 -0.008743545 0.031897977 0.008581506 0.057418406 -0.025876598 -0.028018458 0.024604186 0.06484355 -0.027710196 -0.052193124 0.0016591449 -0.02670207 -0.07739888 -0.049299177 0.03324459 0.05702105 -0.017069658
1634 -0.010963728 0.046610873 -0.05938976 -0.054661836 0.055098273 -0.024873052 0.039359946 0.0008188436 -0.05402863 -0.038787838 0.030785846 0.09051524 -0.038469423 -0.033087786 0.08018367 0.03364907 0.07476125 -0.039256983 -0.017864233 -0.03327009 0.01405637 -0.004426573 0.022419473 0.012953257 -0.013537832 0.036156744 -0.046523593 -0.041265808 0.0040027513 -0.063290626 0.061761763 -0.046893377 0.04787056 -0.015334722 -0.05358019 -0.05551617 -0.040113676 -0.045484062 -0.014689035 0.022289779 0.06411808 0.03116979 0.052642643 -0.0022663847 0.04466464 0.0291006 0.09080273 0.019362109 -0.030714754 0.019060194 -0.041925795 -0.040593665 0.06521965 -0.018209577 -0.036530834 -0.0036301143 -0.04448139 -0.04098783 -0.060304806 0.033530205 0.028616926 0.006699459 0.054845616 0.038609214 0.036549788 -0.016974133 0.017033821 0.004998089 0.028311027 -0.037679784 -0.00062794687 0.015273827 -0.00012185509 0.07744418 0.00483376 0.07346348 0.05617611 0.004607701 -0.07402848 -0.012686566 0.07831419 0.06696733 0.030390197 -0.050047666 0.039267298 0.06982705 0.0003312864 0.04306853 0.05368063 -0.005124253 0.011387468 -0.06289739 -0.0008575972 -0.03662642 0.010372148 -0.016691163 0.061590813 0.020345699 0.07451323 -0.056805115 -0.0048989495 -0.038751446 0.07250731 -0.061456367 -0.019258965 0.03080771 -0.024936374 0.06489702 -0.013064339 0.035773125 -0.036561202 -0.0047381907 -0.044182926 -0.040045187 -0.0112441 -0.05198663 0.037664503 -0.08305983 0.06767071 0.04726998 0.051885426 -0.006156004 0.045438394 -0.026509104 -0.029401613 -0.015558575 -0.0006630429 -0.004596787
1578 0.0015186439 0.00039716103 0.039038345 -0.013701136 -0.07056765 0.039671116 0.027867272 0.04986856 0.014596529 -0.07938382 0.014803156 0.0044162585 0.008955223 0.05294271 -0.028937064 0.068383574 0.04099245 0.07037454 0.0147166755 0.0074017076 -0.026416153 0.054661676 -0.04056253 0.04569314 0.067083776 -0.02564982 0.096831806 0.012162289 0.015661722 -0.06614164 -0.016444543 0.05403232 0.018427059 -0.024004675 -0.035098996 -0.010863092 0.07141508 0.04044097 0.00873547 0.0021879484 0.04647484 0.04295329 0.028804334 -0.028975574 0.045044392 0.027830351 0.031997673 -0.042934958 0.038505692 -0.040838465 0.059724435 -0.031810526 0.008347882 -0.04089818 -0.0063571576 0.0036287922 -0.008797315 0.072114125 0.019781418 -0.027039938 -0.042770915 0.023265181 0.030172061 0.031722885 0.04769976 0.070842765 -0.051674772 -0.045517396 0.02405938 -0.031181747 0.0074082576 0.040639143 -0.040629037 -0.022679826 0.05504789 -0.051068723 -0.022728933 -0.014269602 0.007240198 0.07614853 0.054709185 0.0130611835 0.0022300107 0.041153375 0.052450564 0.023864146 -0.012028943 -0.022552319 -0.016789142 -0.010070066 -0.06273272 0.0056966795 -0.012816348 0.021521227 -0.046426587 -0.020794801 0.030488787 -0.008466033 0.018578319 -0.011821531 -0.045090318 0.024723336 0.031568874 -0.036512185 -0.021529578 0.021443918 0.016467085 -0.04481359 0.004030239 -0.023711136 -0.014252424 -0.047829404 0.018768327 0.063040234 -0.063606344 0.049547512 0.035760153 0.07099022 -0.05861311 -0.006443867 -0.0036740322 -0.062194686 -0.013153853 0.05723902 0.056810178 -0.026755027 -0.05181581 -0.018989146
297 0.007816793 0.02118516 -0.013823949 0.0079373345 0.03550255 0.02216326 0.055635802 -0.016502906 -0.04000987 -0.046513487 0.011602254 0.066430405 0.019051272 -0.014446577 -0.08610308 0.01871186 0.099252604 0.040282544 -0.016565267 -0.005672398 0.0060003754 0.047575068 0.010838539 -0.018162875 0.0064860913 -0.0016490687 0.043274388 -0.008206884 0.03236221 -0.0347057 -0.061544556 0.05781959 0.014322433 0.027518323 0.008272193 0.013782431 -0.034153495 0.01773252 -0.013313311 0.042553306 0.07988659 0.010248968 0.022822198 0.017456448 -0.024308933 -0.010142953 0.093189105 -2.8707786e-05 -0.009040917 0.015203689 0.056444306 -0.070199355 0.0014442299 -0.031019062 0.031236287 -0.019689823 -0.040228 0.01815622 0.02407856 -0.0045836237 -0.06596971 -0.0070047406 -0.00470281 0.06638424 -0.032695718 -0.015936647 -0.02784342 0.016323823 0.0044702822 0.03939492 0.039794505 -0.08082121 -0.027459307 -0.010318668 0.013470506 0.023186853 0.019616468 -0.004734076 -0.05271044 0.010280404 -0.020490916 -0.0022910328 -0.023129484 -0.0051644496 0.0063957893 0.033862114 -0.053910702 -0.04989095 0.052717138 -0.049744736 -0.000821275 0.030995356 -0.020578636 -0.016745338 -0.04073803 -0.005128502 -0.0020992928 -0.028842445 0.04957778 0.028946996 -0.04134498 0.0042001125 -0.020329457 0.0730905 0.01735061 0.020030247 -0.027579501 -0.0043908833 -0.03205926 0.03570037 -0.011044575 -0.02559708 0.027112175 0.0675129 -0.033653498 -0.02798368 0.024249181 0.0130315265 0.006159998 0.04414987 0.009500405 0.021761823 -0.02725343 0.018978523 -0.048531853 -0.040952627 0.06457225 -0.024852112
1463 0.027220283 -0.080854505 0.017182883 -0.031461935 0.04334004 0.028427923 0.014289328 -0.026750607 0.014993895 -0.08545155 0.057214852 -0.00092272286 0.049527425 -0.066072084 -0.044757683 0.035841674 -0.006469298 -0.023350602 0.008511384 -0.011848421 -0.022247583 -0.00042454628 -0.070157215 -0.031749625 -0.009130307 -0.033101883 -0.03155435 -0.014641642 -0.01790327 -0.017813303 0.002748253 0.0052610226 0.04816303 -0.038223438 0.06326501 -0.046975743 -0.008740005 -0.0337728 0.072409935 0.0336009 0.0651694 -0.052580774 0.016630232 0.0036704375 0.024654523 0.031223696 -0.046926856 0.038141146 -0.008322689 -0.04992832 0.05180597 -0.060824282 0.019151028 -0.04287434 -0.02648089 0.018567262 0.01743798 0.0056980243 0.017152552 0.016566843 -0.0022571527 -0.0034932545 -0.01510217 0.006978723 0.031086855 -0.05404661 0.039898884 -0.07015416 0.053020407 0.04637224 0.02085296 -0.0068436824 -0.049718164 0.0110150715 0.017145816 -0.008689181 0.014812746 0.045883838 -0.01254787 0.005892035 -0.0021476645 0.004043279 0.07674045 0.013622059 -0.014103043 -0.03923185 -0.00988414 0.016756257 0.025034899 0.0035362395 -0.030209022 -0.02164741 0.025821527 0.0070450357 -0.021546287 -0.00071669917 0.048864823 0.015752727 0.008967597 0.058545973 0.0803997 0.023339927 0.029142011 -0.005039093 0.023990115 0.032456394 0.0013563214 0.010806064 -0.013430421 -0.029396145 0.0023942834 -0.0064704586 -0.068323635 0.01717912 -0.0036063313 0.008627782 0.010460283 0.015082081 -0.030430892 0.031774633 -0.016480274 -0.012135872 -0.0010258914 0.039013434 0.00027716166 0.074431404 -0.008794622 -0.042244855
389 -0.03664328 -0.061133478 -0.029854167 0.009170532 -0.035997182 0.0312447 -0.06463144 0.033994608 0.069636635 -0.018672619 -0.023337632 0.028517287 0.07301517 -0.010972185 0.043827415 0.059757814 0.041819938 0.08375224 0.01844095 -0.01529784 0.00015225401 0.0024420053 0.07903305 0.042000942 0.021033278 -0.03186059 0.018651908 -0.02820331 0.042169683 -0.06505274 -0.08732309 -0.02863197 -0.037459634 -0.053385697 0.051585797 -0.026530083 0.027731068 -0.026188018 0.09565978 0.037118405 0.041923497 0.049166694 0.009068859 0.039942477 0.012920076 0.01408372 0.035364646 0.002235473 -0.024746256 0.0018615676 0.042998977 -0.02541045 -0.029528085 -0.014820518 0.035136104 -0.010790562 -0.010155255 0.057702053 -0.045849998 -0.020061485 -0.082830526 -0.07106413 0.009440277 0.036127415 0.027454583 0.022606686 0.025589276 -0.060301453 0.006994856 -0.026637515 0.058325887 -0.050824165 -0.0372457 0.06170728 -0.08459246 0.019864053 0.04411522 0.004342084 0.011440658 0.091587104 -0.06425646 0.028184073 -0.0009365066 0.021963337 0.05352155 -0.05512748 0.0017214476 0.009642701 0.059373684 -0.0140673155 -0.0068910476 0.009857706 0.021673268 -0.02325622 0.041143704 -0.011922939 -0.019999623 0.02621218 0.005607279 0.00739228 0.039722703 0.014696848 0.0051000332 -0.050786622 -0.006039321 -0.014146471 -0.03834295 -0.04281846 -0.032086227 0.025113562 -0.055169906 -0.031708393 0.030940512 -0.010932028 -0.03436568 -0.0058362987 -0.034039535 -0.03489163 0.01301755 -0.044298057 -0.0057719736 0.090164125 0.013945323 0.07165295 0.049125586 0.056283854 0.022565773 0.019715227
1868 -0.014562333 0.031076819 0.068878606 0.043103572 0.04918132 0.010275524 -0.036567513 0.0017574029 -0.07131523 0.042035725 0.06959812 0.038613673 0.0027350795 0.030376958 -0.039083507 0.054294985 0.02634253 0.008625939 0.063867666 -0.032065183 0.0316901 0.016112803 0.082075454 0.01696005 0.045035064 0.003299452 0.0720781 -0.079572216 -0.015233365 -0.009590112 0.016600702 -0.0022999854 -0.013917728 -0.03608521 0.03871293 -0.0096191 -0.03590375 -0.052257955 -0.028403645 -0.020615455 -0.049954154 -0.07647079 -0.043843146 0.011964344 -0.03369025 0.059268124 0.027151648 0.015058903 -0.06590602 0.049329665 -0.05346492 0.04822147 0.032472994 0.026063439 -0.030981803 -0.063797206 0.042663302 -0.018781452 -0.072815076 0.037320275 0.01548477 0.012820047 -0.057853337 0.06004337 0.039367404 0.044958215 0.031598262 0.006239456 -0.016701467 -0.046463255 -0.03276322 0.03464714 0.03734211 0.041338306 -0.006804856 -0.047939394 0.022665853 0.0010780595 -0.006751904 0.03894668 -0.027384087 0.019031953 0.071486175 0.004212706 0.00038711794 0.07423411 -0.007777338 -0.0126254745 -0.036853842 0.042445138 -0.05613769 0.024594154 0.053952627 0.012099309 0.055151895 -0.036012076 -0.04758283 -0.032919016 0.04847825 0.07733244 0.023804419 0.016898269 0.052505795 -0.055140574 -0.026074603 -0.022784514 -0.031186132 0.06203878 -0.050805777 -0.01062186 0.039604787 0.056236506 0.069183856 -0.035687543 0.01586048 -0.043076195 0.01415253 0.045267962 0.015152626 -0.011244001 -0.03550252 -0.00076246273 -0.022641718 -0.01878675 -0.031028876 -0.011595864 0.0034178216 0.048840027
1892 -0.0077102487 0.053904857 0.09007325 -0.0025827177 0.04387817 0.082980834 0.01643215 0.021518951 -0.071566634 -0.016747251 0.053411227 0.008989828 0.04589367 0.07083645 -0.040389583 0.03782601 0.032588094 0.014014172 0.032462306 0.027033929 0.024045402 -0.00074049947 0.039640658 -0.025954112 -0.0031458861 -0.06161383 -0.00078709406 -0.092441335 -0.0049260445 -0.008967563 0.042861648 0.026982956 -0.047990203 -0.0015443021 0.014902796 -0.010751043 -0.043689124 -0.020417012 -0.04987174 0.032955088 0.007712673 -0.06359895 0.011809739 -0.006208615 -0.05635158 0.0352912 0.0831207 -0.04464103 0.055945978 0.033197816 -0.060451448 0.03538051 0.03866501 -0.04807543 -0.06549667 -0.014297783 0.008734989 -0.025408259 -0.037795812 -0.006739031 0.03449855 0.013625209 -0.01839166 0.06930453 0.06855218 0.07622303 -0.0009526353 0.060178224 0.035584483 -0.03381523 0.030217819 0.006293914 0.008257668 -0.017956845 -0.050261606 -0.057346836 -0.0025684885 -0.05099734 -0.029524092 0.0018070891 0.06786278 0.052386068 0.030720063 -0.06555261 -0.048785806 0.04262659 0.060705222 -0.05214019 0.04695047 0.037862036 -0.030870508 0.009705823 -0.01879633 0.008415416 0.028427102 -0.016551241 0.024985917 0.05748447 0.04865604 0.004678043 0.028660646 0.014958704 -0.043723464 -0.03705862 -0.039790936 -0.01981531 0.015190593 0.025986921 -0.07387932 0.015830811 -0.025164774 0.013449017 0.04986824 0.02892085 -0.004788221 0.0031689496 0.0046121203 -0.0412907 0.049136303 0.0075592287 -0.07367766 -0.047497854 0.002825901 0.020791959 0.037193574 0.03825821 0.008612387 -0.062357288
370 -0.025850719 0.005809091 -0.063743025 -0.07032566 0.060411856 -0.0021573978 0.013961507 0.056127284 -0.07269574 0.047948666 -0.052282963 0.022595255 -0.0068516247 -0.079969786 -0.0470153 0.044916343 -0.038422707 -0.001543914 -0.01331912 0.022853868 -0.012407832 -0.039627105 -0.03348124 -0.031251475 -0.018969657 -0.035794035 0.0051097567 -0.01724453 -0.07888895 0.036658913 -0.049444165 0.065367624 -0.02305657 0.09547755 -0.018367218 -0.07258357 -0.04492963 0.0009425258 0.011832693 0.079675645 0.045425143 0.013374244 -0.053880993 0.07785982 -0.007521964 -0.04751047 -0.021475624 -0.014213867 0.076938 0.06876423 0.0137321055 -0.039427362 0.019504875 -0.030026708 0.0007101787 0.0036995173 0.03938377 0.053311627 -0.055985823 -0.06336107 0.061237607 -0.08183426 -0.07662092 0.095036894 -0.049412806 0.063661925 0.0555441 -0.07310432 0.010997946 0.007207313 -0.09417508 -0.009362005 -0.06855348 0.04779727 -0.061139435 -0.023373876 -0.0023568487 0.037756093 -0.03136629 0.066733874 -0.013683518 0.0058148894 0.06931543 0.011553258 -0.026037175 -0.07132269 -0.06535825 -0.027587093 0.08617714 0.027639879 0.040823303 0.040361054 0.0053837793 -0.017702553 0.015098891 -0.06550469 -0.047929525 0.042644564 0.0038707808 -0.06476066 0.03822507 0.076300345 -0.046351716 -0.026777774 0.05598307 0.025907353 0.026998673 -0.025335612 -0.032046605 0.03426251 -0.021676552 -0.046308275 -0.0064649503 0.003907691 -0.046119545 0.083809406 -0.03555694 0.013567509 -0.02807717 -0.066102035 0.033260025 -0.039530482 0.034606684 -0.082865186 0.016507212 -0.040990215 0.0010059507 0.060653746
1635 -0.017977694 -0.033844363 0.03433229 -0.017973054 0.054517843 -0.019972252 0.019648382 0.03768458 -0.046838697 -0.0056738034 0.05233161 0.0104650175 -0.04906899 -0.056378584 0.03472534 -0.008415762 0.020782743 0.03298988 0.07089737 -0.004904713 0.06062573 0.0044806167 -0.006273593 0.042187627 -0.05555973 0.045090392 -0.02629921 0.023743575 -0.05144119 0.03359729 0.008894576 0.034869403 -0.05871792 0.028520357 -0.00850988 0.042675093 -0.002197796 -0.010784077 -0.025481207 -0.048627038 0.0019927896 -0.04853813 -0.03919407 -0.04387581 0.002975282 0.011957584 0.03960572 -0.01564716 -0.028268985 0.030826846 0.040558606 0.0125231 0.049163185 -0.026858686 0.09817633 -0.0072938493 0.038176134 0.004955182 0.059739552 -0.03170297 -0.008666656 0.0059591522 -0.02563084 -0.040864524 -0.03567671 0.053353272 0.055442363 0.033850484 0.015527622 -0.02711312 0.03141326 -0.0065445197 -0.06265315 0.0119935535 -0.03213226 0.07035301 -0.042833515 -0.025883885 -0.04304633 0.013976594 -0.038947057 -0.0013749185 0.033914894 -0.008311784 -0.012945358 -0.030030658 0.0056157056 -0.037101008 -0.02483663 0.019207956 0.017427664 -0.010904575 0.0030619684 -0.0077666477 0.046656057 0.025960555 -0.03418927 0.042074464 0.061900888 -0.0241957 -0.039151914 -0.05202823 -0.01382846 0.049686756 -0.023112953 0.039655928 -0.0024464917 0.036230285 0.03271175 0.01784271 0.027729675 0.025137339 -0.067401744 -0.0027987012 -0.034401193 -0.07913698 -0.05009555 0.03295039 -0.0631259 -0.09763602 0.03523258 0.04753642 0.00657854 0.03460767 -0.06467375 -0.056936152 0.07732471 -0.007699848
200 -0.017183814 -0.030540213 0.046359513 -0.019085163 0.020350635 -0.050473876 -0.009019848 0.0062329066 -0.0015656473 -0.037531685 0.06937709 0.017886514 0.02763541 -0.06204632 0.05651753 0.046038337 0.061324313 0.03737673 0.03917614 0.0549751 0.018751599 -0.022133848 0.0068686954 0.020098172 -0.003272816 0.013384407 -0.059967007 0.016199455 -0.034131773 0.029750386 0.008741903 0.060034536 -0.02464844 -0.0030593497 -0.02129304 0.02665893 0.07545539 -0.006554916 0.012833159 -0.081691645 -0.059413433 0.0042164763 0.013342317 0.014632229 -0.021865876 0.05191273 -0.000723639 0.028674167 -0.083008386 0.0578625 -0.034587886 0.03260325 0.029925853 -0.029917443 -0.01576148 -0.06924863 -0.0010306262 0.058843005 0.042353638 -0.023137813 -0.073771276 -0.013481444 -0.038397662 -0.0963198 -0.0013931243 -0.0047238613 -0.02889264 0.036784295 -0.015452476 0.04013261 -0.018604837 -0.017835349 -0.027537458 -0.024742002 0.01045428 -0.059053224 0.0015963264 -0.03458248 -0.020389771 0.023059227 0.022129888 -0.024270516 0.05240565 0.060880203 -0.006163687 -0.068564825 -0.018862758 0.0048702294 -0.012633412 0.04194987 -0.019849248 0.014925844 0.011310978 -0.041059785 0.06024474 -0.038025524 0.023924368 0.01645323 0.012424315 -0.08014096 0.011190033 0.027279854 0.013814347 0.07666035 0.037705194 0.005102344 -0.010286475 -0.00668474 -0.007635193 0.0066158427 0.076525465 0.041695137 0.04143942 -0.005616736 -0.0605956 -0.07741057 -0.032114323 0.024356574 -0.03344276 -0.007854002 0.011728329 -0.021531543 -0.02300793 -0.00045704734 0.0063973023 -0.08218761 -0.021013146 -0.03143896
1990 -0.052676745 -0.038438525 -0.0098363375 -0.04251196 -0.052027155 -0.024164224 -0.030123085 -0.04928065 -0.029452616 0.060370542 -0.03530378 -0.048015263 0.01896803 -0.028271832 -0.03109654 -0.03599097 -0.012193468 0.0006632553 0.014094571 -0.03504326 -0.029994853 0.008456446 0.030767366 -0.09055143 -0.018024255 0.004638421 0.047447585 -0.02325446 0.043188788 -0.03266048 -0.01660502 -0.028661605 -0.07373058 0.06416837 0.023284672 -0.027282147 0.002647621 0.00012862078 0.053700063 0.0070951935 0.07884259 -0.047853414 0.003091148 -0.009530086 -0.018332569 -0.016689459 0.05397876 -0.06418021 0.027366018 -0.023222692 -0.047076713 -0.018228553 -0.04394619 -0.0031204482 -0.07072723 -0.0666632 0.008716582 0.039776426 -0.030994285 -0.0005141753 0.0025976952 0.038726706 -0.02441671 0.049592942 -0.05562442 0.0009065353 -0.0040404643 0.034103915 0.035164807 -0.01401448 0.034987647 -0.013348289 0.05024147 -0.0006323258 0.042767968 0.038200296 -0.06957777 0.015835425 0.0426506 0.016657615 0.100299925 0.021309847 0.017192438 -0.051265784 0.03668575 -0.024586368 -0.018945266 -0.07005691 0.055160303 -0.0070239417 0.07231276 -0.013110502 -0.06483179 0.0128920935 -0.021075524 -0.06545033 -0.012110349 -0.0084063085 0.05278653 -0.054733153 -0.05648632 0.07383968 -0.048491657 -0.022836102 0.042864785 -0.049911164 -0.020726793 0.012367791 -0.008923534 0.0015420411 0.00021594006 -0.009063918 0.05023064 -0.0059350007 -0.013727239 -0.06984189 0.036345433 0.022436412 0.0015216692 0.020828148 -0.01156205 -0.023937559 0.0143691385 -0.01579562 0.03895674 0.06668399 0.024032509 0.043438114
1973 -0.0049675447 0.0030658392 0.006142116 -0.040130023 -0.054140367 -0.00066634885 0.027742328 -0.07715334 0.01700934 0.0073893867 -0.003647009 0.012770211 0.07564867 -0.052205898 -0.054021906 -0.042761598 0.0025910288 -0.007066366 -0.00055939646 -0.021521501 0.000523363 -0.05386527 0.027661303 -0.03441506 -0.078905426 0.04121552 -0.0593008 -0.010646098 0.03160801 -0.053417567 -0.034683976 -0.026272677 -0.020004425 0.071823865 -0.058064383 -0.039213795 -0.012421008 -0.03408522 0.061645564 -0.0033178523 0.07064198 -0.038428698 0.05016293 -0.04511234 -0.097484745 0.04204405 -0.0694976 -0.0437407 -0.022305451 -0.048746273 0.038091138 0.0049034227 -0.09390371 0.01717836 -0.01378082 -0.023189936 0.029606383 0.032195926 0.055953052 0.060879044 0.02077206 0.062380414 0.014333267 -0.022839747 0.018330522 -0.01507227 -0.048706472 -0.011867958 0.0060461634 0.012738729 -0.0027186465 0.02045327 -0.051822755 -0.035343777 -0.012068017 -0.015063186 0.04420449 0.0398646 0.04329125 0.06538984 0.007858334 0.027926764 0.03705908 -0.016816728 0.02724025 0.010345986 -0.007872658 -0.026283156 0.07228814 0.01628815 0.08491687 -0.017256211 -0.0005268183 0.036466666 -0.032144424 0.017617568 -2.8187537e-06 -0.053103864 0.05210854 0.028248085 0.05644891 0.008256787 -0.0007938952 0.035288043 0.06826529 -0.004273787 -0.06774354 0.001868974 -0.032023527 -0.07240902 0.017432962 -0.045909453 0.06927673 -0.015507287 0.0337513 -0.07674452 0.060804166 0.04095322 0.00016240394 0.010413073 -0.067890055 -0.039744366 0.05467735 0.021080974 -0.021100223 0.042102754 -0.048948932 0.073758416
632 0.037115797 -0.007175889 0.048122756 0.014230533 -0.08248764 0.043081712 -0.022515474 0.017398935 0.020907039 -0.0129188625 0.043233488 -0.030170925 0.048268653 0.022440858 0.042449377 0.044123262 -0.015896698 -0.0013572362 0.00030215853 0.013184741 0.02730513 -0.03682563 -0.010583693 0.056123026 -0.02410483 0.0034965454 -0.0657313 0.0070897397 -0.016444005 -0.0394973 -0.0036010677 0.004680697 -0.0067706937 0.03336622 0.03282489 -0.0778725 0.0073261578 0.020862846 -0.086164884 0.020110024 -0.02664897 0.013701124 0.00030830776 0.06333144 0.056347687 0.038319558 0.060441308 -0.03424866 -0.008098156 -0.037752565 -0.02453098 -0.053452693 0.029420316 -0.024230435 -0.032451663 0.0007023933 0.040587466 0.02436654 0.0050819484 0.014265664 0.043883752 0.012615815 -0.0023109708 -0.008341853 0.013452235 0.042863287 -0.05656365 -0.034044232 0.0500398 -0.05829552 -0.019390857 0.0004387158 0.06592287 0.0029759717 0.04884696 -0.04977666 -0.01277409 -0.04196205 -0.04333894 0.05840673 0.083052635 -0.037272107 0.0027222943 0.005036834 -0.038011648 0.017963126 -0.0073430175 0.0600813 0.04638841 -0.025203465 0.010212888 -0.058934793 -0.07800904 -0.045459997 0.024779037 -0.064357325 -0.05116423 0.038396094 0.03939675 -0.044420633 0.02479749 0.0104797 -0.0047636526 0.01137067 0.012862311 0.033922013 -0.06018788 -0.00046542124 -0.0101240035 -0.06739697 0.034387503 0.032532047 0.044381294 -0.021539178 -0.0052975393 -0.010395414 -0.042963408 0.043525893 0.025022341 0.061375212 0.077272564 -0.025017954 -0.03033842 -0.041081984 0.08554282 0.0067588 0.076749265 -0.019898098
1611 -0.04394957 -0.0726131 -0.061053507 -0.029157003 -0.03326001 -0.031792738 -0.07260744 -0.072290026 -0.048279937 0.051209807 0.089000575 0.06089037 -0.054861322 0.050991524 0.063680835 -0.015075106 -0.021845799 -0.01208263 0.004367137 0.0032852981 0.042111624 0.02933376 -0.039616928 0.024465809 -0.053567916 0.024899531 -0.015912779 -0.066326454 0.013511155 -0.02150964 0.03777268 0.015122207 0.070605285 0.050233148 -0.05880366 -0.057525415 -0.049223725 0.054756317 -0.04018303 0.028844994 -0.0028060079 0.10268302 0.0034081915 0.086452484 0.026502313 -0.063190855 -0.06298924 -0.046833124 -0.025849486 -0.041881528 0.00065638457 -0.02251053 0.06265461 -0.053263526 -0.06185679 -0.08027291 0.06788095 -0.009530168 0.025795845 -0.027583122 -0.028663803 0.01821991 0.02251846 0.008125487 -0.03855896 -0.030739658 -0.047948044 -0.018761514 0.07058688 -0.056729853 0.022310998 -0.05325082 -0.025528338 0.010529122 0.02335538 0.045944113 0.06631132 -0.001450891 0.0075316965 -0.064819485 0.003181709 -0.050203413 0.023992648 0.037748203 -0.042151693 -0.0120440405 -0.069424205 -0.0008355854 -0.020748328 -0.03699162 0.0033689938 -0.04961947 0.0515775 -0.0024145402 -0.007788202 0.037811983 0.059962053 -0.019710502 0.042774443 0.023736784 -0.044221725 0.046343517 0.015963556 0.013888829 0.06600421 -0.036366794 -0.01887316 0.04341941 -0.05391012 -0.012357956 -0.037381444 0.03375948 0.043029346 0.0036598493 -0.039162375 -0.03918509 -0.06833672 0.018373784 -0.0031122265 -0.0018265927 -0.044830516 0.013035046 0.0044155666 -0.015635781 0.041141305 -0.0038202964 0.041187916 0.031381708
1873 0.021296412 -0.044616926 0.020676313 -0.036218125 -0.022560272 0.0933718 -0.005704935 -0.028624028 -0.0060815886 0.02416789 0.06315337 0.04477638 -0.010350999 -0.01618563 -0.056266077 0.008123505 0.0047242763 -0.03600502 -0.0036024111 0.025159778 0.0028558837 -0.02878231 0.0040687956 0.05162065 0.018239237 0.019278795 0.013029102 0.07512675 -0.03157173 -0.007072573 0.007674022 0.00968401 0.0035328441 -0.027153017 -0.028749522 0.011682638 -0.03350443 0.022144487 -0.038448535 0.031213114 -0.003719753 -0.01882087 -0.049496986 -0.06183818 -0.050358646 0.032441188 0.03084174 0.022005284 -0.0313891 0.022573449 0.009556001 0.022427509 -0.030790232 0.0092469575 0.056346208 -0.07148308 -0.028809596 0.019582912 -0.003427905 0.03401089 0.027619073 0.0062497235 0.0045687268 0.045560468 -0.0008856857 -0.010836844 -0.04342516 0.013841411 -0.018648148 0.02107299 -0.03129055 -0.0011101003 0.018376762 0.021785365 -0.051818024 -0.018042449 0.05169169 -0.032942295 -0.0071299337 -0.01682618 0.029847661 0.07392456 0.034392502 0.047975272 -0.019665813 -0.032673217 0.047683056 0.013031408 0.009406843 -0.014137153 -0.010734373 0.021702511 0.04169587 -0.052000858 0.010496053 -0.045140028 0.028377814 0.026884455 -0.022200817 -0.0076111006 0.004657161 -0.039035723 -0.039604127 0.008909076 -0.037548687 0.03708702 0.012324665 0.016326215 0.013964738 -0.059727892 -0.07237108 0.031395555 -0.039991613 0.045104183 -0.005958825 0.047205493 0.038755927 0.06788724 -0.031471062 0.00994882 0.02867682 0.052461497 -0.027280044 -0.06335961 0.010400608 0.0122590205 0.06836801 0.057279345
1088 0.06875989 0.0375024 -0.0026806984 -0.008469978 0.03932849 -0.046249453 -0.0053172526 -0.024579069 -0.04444702 -0.010402099 0.07361259 0.08624085 -0.04335352 -0.0076138554 -0.08809439 -0.008819145 -0.014745146 0.018713102 -0.03416965 -0.00690954 -0.0072852727 -0.023066547 -0.0021092603 -0.04308653 -0.06300693 -0.039015155 -0.0631544 0.09591703 -0.052474968 0.0066848476 -0.018754138 0.023165496 -0.0030557192 0.07699745 0.04906285 -0.026899895 0.06383027 -0.027922675 0.0889672 -0.03606764 0.022022288 -0.029528977 -0.027832894 0.019770369 -0.0069188345 0.060677804 0.02501147 0.039038736 -0.009029869 -0.0016051919 0.012078731 0.024130495 0.02951762 -0.034934603 0.040171914 0.011962934 -0.055501502 -0.0022535375 -0.025895342 0.06592362 -0.041665006 -0.013378305 0.01832855 0.00811956 -0.044795424 0.056018658 -0.033088576 -0.03554077 0.072608285 0.04032423 0.048903048 0.02839303 0.013407185 -0.01721554 -0.018450497 0.04151667 0.00089980906 -0.007308322 0.05088314 -0.01695525 0.021696258 -0.004762086 -0.04730102 0.012558951 -0.0413318 0.040753614 -0.023279816 0.012234635 0.0010805171 0.008426976 0.03289278 0.049725186 0.06375286 -0.009255094 -0.055178914 0.025750637 -0.021229591 0.016221182 -0.01976507 0.06904838 -0.013479982 -0.04312347 0.053483944 0.045035154 0.07554852 0.0033060345 0.050444886 0.015505529 -0.038494244 0.013967282 -0.011137743 0.032805055 0.01746664 0.03980097 -0.0002646674 -0.029982079 0.025324177 0.024795404 0.019479837 0.0010395502 -0.014716053 -0.028661137 -0.031620502 -0.06957495 0.034889482 0.059638992 -0.032879453 0.079452105
372 -0.057295207 0.030639296 0.001998303 0.043207247 0.01831216 0.053064067 -0.042344194 0.008586329 0.037604902 0.029940166 0.0067262226 -0.06899839 0.0059618056 -0.011638655 0.053029127 -0.01711479 0.030196564 -0.0129311 -0.0033768397 0.08695923 -0.086120926 0.05217384 0.05624413 -0.049280994 0.033440515 0.010997308 -0.0141891595 -0.041426476 -0.009507784 -0.004307173 -0.028936898 0.028351858 0.025193512 -0.0058702645 0.08244466 -0.042761225 0.024613328 0.008638539 -0.054339115 0.04575344 -0.022487547 0.029978316 0.019177765 0.001344289 -0.07797056 0.024900613 0.03191218 -0.07760008 0.059638575 0.023688696 -0.01611225 0.07002483 -0.046548523 -0.0076125874 -0.025210092 -0.030961176 -0.016209682 0.058334585 0.0007888277 -0.06231657 -0.01931433 0.016876519 -0.036790982 0.005504535 -0.013298448 0.01739003 -0.035376932 0.06174979 0.068236575 0.0011091108 -0.052277133 -0.025309205 -0.012921689 -0.023351673 -0.038576055 -0.026787268 0.033716332 -0.0030897537 0.052601974 0.026354572 0.04341611 0.0076728016 0.024344314 -0.024014402 0.047503725 -0.01695607 -0.08101334 -0.0525759 -0.049241766 0.0041140555 0.042901438 0.01528634 0.039981812 0.025213763 -0.015603565 -0.02587267 0.025116645 0.011652236 -0.029100938 -0.008486815 -0.051328067 0.05576172 -0.019050127 -0.043147724 -0.06743896 0.017980067 -0.0073697898 -0.06274089 0.0019233465 0.029954437 0.030244494 0.005841302 -0.012244346 0.019243713 0.028299533 -0.03442722 -0.00434777 0.049659338 0.042369965 0.009390601 -0.009217889 0.07624957 0.021125322 0.0101763 0.010096108 0.0014328534 0.005501657 0.07075477
0 0.019585153 9.6644784e-05 -0.025409356 -0.062414806 -0.025643429 -0.008028514 0.019552283 0.030586665 0.020663997 0.04683856 -0.010995671 -0.056953695 0.0043838746 -0.006785994 0.060368486 -0.025792068 0.03502977 0.00018850205 -0.04708144 0.04466503 0.036594905 0.029426003 -0.027498089 0.07844622 -0.028472023 0.011341555 0.07429659 -0.040086184 0.024185315 -0.042339843 -0.05560661 0.03646819 -0.066818185 0.0057613123 0.0055718604 0.019673502 -0.07278858 -0.06033325 -0.01248978 -0.02768043 -0.03313195 0.04033079 -0.033378933 0.016300773 -0.014853627 0.020523235 0.024606382 -0.051993407 0.058067724 -0.021107242 0.00032118883 0.015389177 -0.06945631 -0.06735025 -0.028484596 0.04124148 -0.037738014 -0.038372684 -0.014803529 -0.033446074 0.032720372 -0.06620812 0.0011274139 -0.0008003291 -0.048371293 0.024400916 0.010770632 -0.038559485 -0.013910732 -0.057684205 0.075765766 -0.042838562 -0.046165925 0.011342562 -0.012673822 0.041908413 0.0798175 0.013833949 0.015566954 -0.029550202 0.0009305894 0.027028123 -0.029295515 0.024578255 -0.052803487 0.027827758 -0.059304144 0.057883374 0.009492905 -0.008724681 -0.047029816 0.030317605 -0.029156853 -0.010154153 -0.021001136 -0.030636592 -0.0065097716 0.031554844 -0.09431676 -0.044700015 -0.009603917 0.043593045 -0.04769482 -0.049982075 0.049905058 0.006430637 0.028986841 0.0072111664 0.05190654 0.00012843616 -0.04585663 -0.073688865 -0.047104813 0.012673875 -0.013758104 0.03297055 -0.04183179 -0.06447834 -0.021032909 0.00426842 0.015022139 0.058531962 -0.006919187 0.008144814 0.0073487726 -0.030686677 -0.028119456 0.017800279
1345 0.065511726 -0.025270078 0.025068719 -0.048752416 -0.07400868 0.039039847 -0.02936812 0.073958755 -0.005474835 -0.0063635306 0.051358633 -0.056387093 0.060797453 -0.03198791 -0.008810143 0.010155464 0.029515421 0.013362771 0.002350911 0.034034904 0.031460017 -0.00085947476 0.05591092 -0.051170677 -0.036800813 -0.015295901 0.053012557 -0.024791801 0.016527299 -0.07312888 0.042832676 -0.03124441 -0.035471074 -0.0448715 0.090433896 -0.033592295 0.068409674 0.0140707735 0.085040525 0.025359856 -0.057961438 0.011977699 -0.05869715 0.0049929856 0.06983942 0.016174167 0.0031665354 -0.059186637 0.041516025 -0.0025447996 0.057910208 0.048004612 -0.07914719 0.0038180195 0.01080398 0.026201054 0.06931432 0.087284975 -0.02598549 0.010952324 -0.031212425 0.0032307734 0.082460426 -0.06773923 0.020343099 0.009220143 0.07190064 0.018815164 0.016513417 0.006435086 0.008676632 0.071357645 -0.02065441 0.062626146 -0.023588719 0.046989597 0.042876422 0.0016154397 0.07874026 0.0060358755 0.06687465 0.02585378 -0.01976228 0.027178051 0.016159972 -0.011271223 -0.049070816 0.0013276563 -0.06965813 -0.020250266 -0.052927263 0.0043210927 0.070068456 0.0041581425 -0.08204895 0.06088599 -0.084869325 -0.010718704 -0.011886835 0.011587586 -0.001775525 -0.03976932 -0.01970166 0.03111621 0.012266662 0.03856063 0.012603901 0.033921022 -0.04455663 -0.092362806 -0.025680099 0.037530363 0.06129892 -0.021309627 0.021026425 -0.0037046054 0.005256415 0.03762126 -0.10036889 0.0115826335 -0.045948476 -0.007913086 0.0046911086 0.0021718289 0.021840645 0.0033151645 -0.0469198 -7.7881945e-05
2220 0.038313672 -0.04689196 -0.0165567 -0.010017357 0.04699274 0.047732092 -0.011915083 0.00029392174 0.07161209 -0.004540924 0.041264422 -0.045071498 0.004367019 -0.044392463 -0.07448869 0.02862043 -0.019392712 0.014020281 -0.0012970626 -0.016811403 0.0028233936 0.038059916 0.012109782 -0.04152542 0.014876908 0.08814291 -0.02678931 -0.004740559 0.057150416 0.013461938 -0.03606396 0.04425958 -0.04399641 0.026794542 0.020902455 -0.016102359 0.019635238 -0.05467459 -0.045123413 0.01119594 0.07274305 0.024037747 -0.007465066 -0.031217301 0.04211264 -0.0382649 0.06537716 0.023195272 -0.010122463 -0.026620688 0.009431756 0.06171315 0.0076970374 -0.03211707 0.082179375 -0.014854307 -0.01506864 -0.02749277 -0.023036815 0.012805913 0.06223173 0.0140969185 0.07159232 0.012676126 -0.012247043 -0.002714637 0.0034360941 -0.0060937195 0.051926974 0.0040079467 0.008149103 0.037205618 -0.002300348 -0.03951339 -0.0241229 0.025099125 0.023118285 0.012083375 -0.03437038 0.03314574 -0.02104207 -0.055486076 -0.025761371 0.00635676 -0.008721112 -0.018732779 -0.044152014 -0.048169836 0.0019681682 0.07400626 0.0007133065 -0.035907514 -0.015000401 0.010088893 0.002044377 -0.014803728 0.0726975 -0.052391406 -0.03167567 0.0004397825 -0.080232784 0.018646078 0.056783225 -0.09769456 -0.00509251 -0.007396355 -0.0019873031 0.05432555 0.041479353 0.019706892 -0.030350111 -0.02454721 0.030838381 0.06423939 0.008927619 0.07467496 0.027399046 0.07537782 -0.05172517 0.02564387 -0.03484622 0.02578415 0.038908068 0.01568521 -0.020634757 0.023238637 -0.066702686 0.04825942
892 0.046114575 0.0714207 -0.023650652 0.03651642 0.01050764 -0.032501284 -0.0011446244 -0.01945755 0.059522882 -0.045971222 -0.003375883 0.07231372 0.02545862 -0.03767357 0.002722867 0.049906198 5.525927e-05 0.026172267 -0.05018278 -0.050639708 -0.070586346 -0.00873575 -0.07438125 -0.0058628963 0.0143795805 0.015459665 -0.044161152 -0.0446006 0.032617442 0.02634997 -0.041250974 -0.004583016 0.0020472265 0.0017618313 -0.021656195 0.014603269 0.04958667 -0.015784089 -0.024039347 -0.033784546 -0.033169013 -0.012725034 -0.046277948 0.058605023 0.06395047 -0.020236902 0.02865036 -0.020994678 0.03822475 -0.06541639 0.031351518 -0.05651846 -0.010514835 -0.03865329 0.003689875 0.00048603065 0.015256812 0.057906326 -0.03582888 0.06513828 0.029724544 0.019060172 -0.0027836112 0.009130168 -0.040068045 -0.0028383583 -0.018820953 -0.0017719679 -0.034565408 -0.012445961 -0.018417172 0.020824296 -0.031209953 -0.012292615 0.039132416 0.010758148 -0.017512534 -0.03264022 0.02083761 -0.037508342 0.003659643 0.01480653 -0.024190718 -0.027606104 -0.033002343 0.04958316 0.023473172 -0.04931179 -0.010817554 -0.03484577 0.041891824 -0.024498386 0.037270643 0.0033888032 -0.008058185 0.012085349 -0.04886835 0.051094063 0.040770266 -0.0117366025 0.062091984 0.053159222 -0.0053016134 -0.058911927 -0.026534317 -0.070311956 0.0070040366 -0.0036390051 -0.08521908 -0.004023804 -0.06562069 -0.011023688 -0.030787187 -0.040809147 0.075197615 -0.047509223 -0.034914225 -0.013723498 -0.01885069 0.04592429 0.08757592 -0.040244296 -0.006168866 -0.00080570055 0.07831851 -7.484759e-05 -0.06620173 -0.034747597
32 0.053419366 -0.008545159 0.043491464 -0.034194198 -0.051984973 0.028528603 0.016163336 0.0070284107 -0.012356999 -0.044086028 0.026252264 0.035688255 -0.030290553 -0.060262207 0.032153133 0.030156909 -0.028264748 -0.034400243 -0.026621055 -0.02515658 -0.053370018 -0.07855583 -0.031090312 -0.025097761 -0.049424563 -0.017372789 0.0060649468 -0.07185466 -0.020907262 0.034893014 0.04819708 0.02103972 0.019164663 0.03840317 -0.010390356 -0.0074273543 -0.04773053 0.056999557 -0.036093764 -0.0070073735 0.034563866 0.029350944 -0.0032469777 0.037667334 0.071660616 0.02364694 0.00068206835 -0.036614675 0.068908386 -0.0063640955 -0.076272205 -0.0653113 0.08075564 -0.025189554 0.075340636 0.07318413 -0.071995184 -0.05989548 0.00545993 0.035230245 0.061793655 0.017253261 -0.02234949 -0.03514836 -0.06428916 -0.04412939 0.025354968 0.01922145 0.001547293 0.050086834 -0.049020857 0.03829523 -0.03840405 -0.07883954 0.014045222 0.07703752 -0.06701297 0.060262803 -0.031217322 -0.013757173 -0.02566668 0.029299382 0.0028612134 -0.015700942 0.021874923 0.018816374 0.06050572 -0.0514475 0.030460337 -0.06425257 0.07148832 0.016421955 -0.056702916 0.025405012 -0.050845634 -0.01562102 -0.030692928 -0.059899382 0.06324899 0.024950335 -0.00898231 -0.0078104567 -0.030648232 -0.036335606 -0.028804822 -0.008137062 0.011393842 -0.01954587 -0.012369485 0.03326149 0.033078212 0.06355513 -0.03576179 0.04461808 0.0041700285 -0.0060500265 0.071140744 0.024359187 0.003651942 0.0065133013 0.039510105 0.014417959 0.027725542 -0.06082825 0.034063764 0.063130505 -0.007691142 0.044521995
502 -0.038521424 0.014111138 -0.059583988 0.052642286 0.03201367 0.023285124 0.022609424 0.010817595 -0.034370832 -0.011072742 -0.08393005 -0.012991063 -0.027083214 -0.027725475 0.034147497 -0.022687586 -0.041824147 0.038627878 -0.0016226184 -0.040894184 -0.03583252 0.029869298 -0.05710571 0.0061060744 -0.008839936 -0.006907485 0.0021214893 0.035588462 -0.008888722 -0.0699512 -0.029234147 0.025971504 0.037226956 0.02961984 0.009629588 0.043953877 -0.024557443 -0.06856984 -0.0022730145 -0.026703926 -0.02722343 -0.04006186 8.1823935e-05 -0.06467518 -0.020300966 -0.025257682 0.053486306 -0.00223255 0.015433115 0.027116898 0.0014658095 -0.04764921 0.033770595 0.025807504 -0.001982609 -0.03269397 0.0077503673 -0.0017549011 0.021974565 0.0823457 0.082287766 -0.025272386 0.048130546 0.046190973 0.027850835 0.004616758 -0.056386743 -0.008764544 -0.040143684 -0.090888284 -0.029207671 0.01983733 -0.052206505 -0.0049835304 0.032379966 -0.009248386 0.024783896 -0.0060354937 0.012157722 0.005134971 0.0032432897 0.027144205 0.032794338 -0.02364316 0.0032829382 -0.041984845 0.0303537 -0.010950064 -0.05115327 0.023101632 -0.07145801 -0.007250324 -0.05578043 0.017394422 -0.064600945 -0.03829919 -0.06673002 0.024478957 -0.09990789 -0.029814625 -0.0076643014 0.07051093 -0.05368223 -0.050231885 -0.014186253 -0.017636962 -0.015961055 0.012116538 -0.026371717 0.010780435 -0.07984715 -0.015461424 -0.013905543 -0.046245106 0.036456894 -0.016836455 -0.021557339 -0.027483135 -0.044101246 -0.021406129 -0.04279849 -0.01542249 0.090140104 -0.0032998647 0.050928056 -0.036902897 -0.034809507 0.027035803
256 -0.060842533 0.08709609 -0.010574798 0.033296853 0.013995476 -0.0010168937 -0.014202665 -0.0659398 -0.019405074 -0.021699334 -0.022322353 0.0128467865 -0.059025403 -0.0063915723 -0.026596487 0.033417813 0.029030923 -0.07438294 0.05982162 -0.011151029 -0.00052596617 0.025104282 0.025191022 -0.017211592 -0.014275822 0.011085394 0.042393286 -0.032551672 -0.009956193 -0.033498257 0.017144118 0.08008656 0.030877687 0.017142413 -0.026535347 0.015700119 -0.046029985 -0.042965334 0.010011551 0.011525074 0.04986418 0.022589179 0.0047573834 -0.022888107 0.048558094 -0.033089332 -0.063020885 0.047034435 -0.033308897 -0.057438456 0.02303126 0.05221174 0.020196788 -0.037196167 -0.024175337 -0.026288435 -0.00902543 -0.074621655 -0.005260997 0.00028885226 0.0619824 0.03662586 -0.044172935 0.022708878 -0.05948925 -0.07215282 0.030470805 -0.02021371 -0.04376674 0.051026132 0.034588154 -0.046682533 -0.031184483 -0.024555942 0.046382025 -0.026815582 -0.08781769 0.066244565 -0.08255741 -0.043433063 0.027031627 -0.035828657 0.025493281 0.020782636 -0.00079695834 -0.05026269 -0.0005469129 0.0027016227 0.018374067 0.022581322 -0.0014100936 0.025150215 0.030350614 -0.04584499 0.011499714 0.017080477 0.0073422906 -0.053416196 -0.033206105 0.040735498 0.04021593 -0.02366274 -0.0872114 -0.029349985 -0.03280236 -0.03997996 -0.05666455 0.06104066 -0.021121636 0.014957015 -0.02005723 -0.069475114 -0.016789813 -0.037781358 -0.034705665 0.07243102 -0.056354508 0.06893886 -0.05514203 -0.053205736 -0.015626311 0.027505103 -0.04208201 -0.08321251 0.06758776 0.036750548 -0.011459538 0.001973399
1476 0.08384049 -0.05503994 0.032134842 -0.050882224 0.08101357 0.013766039 0.083670564 -0.066442 -0.038238056 -0.05769803 0.0077163195 0.046007268 -0.07883491 -0.039306853 0.018892745 0.075747326 -0.045625437 0.04606133 -0.010397355 0.001597915 -0.0067895562 0.07318577 0.0008837109 -0.040071294 -0.05547352 0.07726606 0.003194971 0.008222596 0.002652227 -0.073587365 -0.04823744 -0.08189775 0.0075223255 0.0022535205 0.046793602 -0.03431185 -0.011191625 -0.022209993 0.014631854 -0.03215058 -0.007947291 -0.039119065 -0.0037774132 0.006532185 -0.011626073 0.0058564562 0.07300335 -0.06518682 0.011580975 -0.019023342 -0.018313453 0.018376881 -0.010932099 -0.019412955 0.04718446 0.022784939 0.008681423 0.043540303 0.04204299 0.018697754 0.004882458 -0.03308042 -0.03220267 0.060319837 -0.05937455 -0.027258934 -0.0122147305 0.0072932993 0.041367635 -0.043212272 0.026933072 -0.06987382 -0.0038521572 -0.0051855217 0.0049267593 0.044993225 0.00536434 0.021894902 0.042699363 -0.08560935 0.04276491 -0.017644232 -0.051652394 -0.009470116 -0.03163858 0.05611059 -0.017573755 0.07215362 -0.010955099 0.075105995 0.07860484 -0.025762906 -0.021922657 -0.07734437 -0.04876361 -0.0119551215 -0.061145883 -0.026509685 -0.055382673 0.020597696 -0.06691744 -0.032426722 0.006566528 0.040761553 -0.025420316 0.00091415853 0.03237899 0.008187296 0.002681478 0.0544923 0.052165505 -0.046870686 0.013845057 0.026798092 -0.08343174 -0.050814103 -0.022293184 -0.028094163 0.100645766 -0.024659138 0.04760569 0.0027305803 0.0061868923 -0.020584395 0.015055635 -0.013074726 0.0037876603 0.07446758
1341 0.064836845 -0.023325384 -0.027263138 -0.06888092 0.03666954 -0.0547647 0.034486547 -0.018509636 -0.030271687 -0.0152012035 -0.0038172114 0.0028942158 -0.015425767 -0.04208175 -0.011345595 0.009710148 -0.05225759 0.07385351 -0.03997719 -0.031314667 0.03484589 0.0012342508 -0.05558261 -0.08366626 -0.054354805 0.06132003 -0.030986344 0.012690195 0.01535342 -0.059435856 -0.018973935 -0.04435198 0.018714672 -0.034729846 0.0054720673 -0.022262322 0.059182014 -0.02211195 0.018982425 -0.09246488 -0.010056829 -0.063377246 -0.025630185 0.077367194 0.041864943 -0.026207356 -0.05711722 -0.057486035 -0.068557516 0.007898468 0.028513625 0.01083228 -0.05461497 0.011290946 -0.04630688 0.021085424 0.040301558 0.03397673 0.025855627 0.013721088 0.0064703343 -0.062318586 -0.05879 0.0009458193 -0.027774917 0.0057185492 -0.00047046365 -0.0032345592 0.0037411735 -0.017068742 0.01998069 0.02010457 0.033185642 0.0073422403 -0.059085533 -0.046444684 0.015870817 0.01994527 0.032127358 -0.042228404 0.042978946 0.0245194 -0.06672432 -0.0024076216 0.038368892 -0.040010817 -0.037482895 0.017816566 0.079316154 -0.03200448 -0.013851799 -0.0034228945 0.013909628 0.03871165 0.015683925 -0.047404364 -0.007525033 -0.07128267 -0.012357326 -0.06431062 0.053565737 0.010022275 -0.00013121503 0.061169114 -0.04757979 0.047223825 0.046594676 -0.053125873 0.02643516 0.022023126 0.02623362 -0.012663782 -0.06391591 -0.0029574172 0.012462713 -0.02113712 -0.012355134 0.013536857 0.0017925795 0.043053325 0.0031493641 0.08085569 -0.035908636 -0.029599987 0.026360555 0.012641183 0.032935936 -0.044534095
321 0.005107585 0.026582899 0.06949041 -0.06321101 0.0032529624 -0.014388763 0.060843073 -0.0020064851 0.042724073 0.023568695 5.112063e-05 0.014760099 -0.07755109 -0.0060908976 -0.048384316 -0.023590129 0.021172605 0.052009355 0.010642766 0.0410529 0.010048336 0.012764368 0.0004629304 -0.02185237 0.04073815 0.03312761 0.02015754 0.0005932542 0.025147734 -0.02126802 -0.012567172 -0.0037506267 0.020093702 0.021378217 -0.008417499 0.017953623 -0.044680804 0.005679912 -0.05013893 0.023075162 0.0055442215 0.008443329 -0.041940216 0.0076996554 0.010213299 -0.0105833225 0.029270446 -0.009581857 -0.03935501 0.0817011 0.027562927 -0.042391054 0.013716466 0.030419428 0.023761686 -0.040067922 0.08028423 0.040917117 0.0055050845 0.04716759 0.017154528 0.023945868 -0.033060398 0.036123805 0.015759567 0.05282612 0.0626991 -0.029885791 -0.040898636 -0.07731599 0.006602096 -0.0022417738 0.030471342 -0.04728248 -0.061751716 0.026416501 0.047340866 -0.017984219 0.013220834 -0.026060885 0.023958586 -0.0018459 0.023524338 -0.045256317 0.003312415 -0.013021675 0.008022823 0.005339836 -0.038234588 -0.05409428 -0.036985856 -0.010543569 0.027636914 0.007104328 0.012226537 -0.03520085 0.0054212213 -0.032434966 -0.005476022 -0.012563997 0.07202309 -0.06911384 0.03110586 -0.015780434 0.021508358 0.040451936 0.033934418 0.0040134867 0.017661646 -0.053108905 0.013386861 0.01918309 -0.010193095 0.09933771 -0.010751673 0.016462978 -0.0406992 0.0299248 -0.0031710155 0.07019444 -0.01712271 -0.01284792 0.021732768 0.024429293 0.020615054 0.041116647 0.00048564994 -0.031919256
