1635 128
61 0.01433916 -0.031660326 0.084397055 -0.0102488035 0.028708875 -0.03614256 0.049778815 0.024239235 0.023502104 0.090987645 0.048482936 -0.026916303 0.003703875 0.00015002355 0.009046162 0.033533543 -0.029689314 -0.010004708 0.00826727 -0.016539117 0.019619618 -0.012113322 -0.018980682 0.044342015 0.043311436 -0.015652321 0.048749615 0.02452213 -0.0031943345 0.045930848 -0.026660996 0.04827043 0.04007921 0.033827927 0.026365982 0.07113534 0.031306706 0.026314829 0.016289324 0.03497329 -0.028919175 -0.031531442 -0.052272752 -0.0023558168 0.014998592 0.027317962 0.0018707862 -0.028860971 -0.01846503 0.014979039 -0.022562139 -0.0063313385 -0.005323762 0.027479975 0.04803717 0.025802843 0.02042222 -0.06473429 0.03384773 0.0067873443 0.015632903 -0.025443824 -0.030565007 0.049333043 0.010278518 -0.00039999263 -0.08821217 -0.059210103 -0.089812316 0.051022634 -0.07124799 -0.0029690405 -0.021182058 -0.0010276563 -0.016424475 -0.05911577 -0.03258941 0.039697412 -0.0013831279 0.024401119 -0.005342048 -0.0018573976 -0.065813236 0.0061894506 -0.024728468 -0.05122659 0.022945786 0.03950035 0.042063553 -0.05652271 -0.021070307 -0.008471414 0.03495128 -0.028597862 -0.011130937 -0.056907862 0.0058009843 0.052831605 0.0059906677 -0.06905256 0.039440848 -0.027141456 -0.04962622 -0.02183544 -0.027081259 0.0008941522 -0.05859562 0.012586865 0.0006601997 -0.062478803 -0.03321759 0.0070776264 0.025601229 0.019716766 0.032368038 0.0054410854 -0.041968573 0.04152034 -0.03813619 0.04477457 -0.024296826 0.035971504 -0.019251678 0.047656924 -0.021891693 -0.061568595 -0.041124586 -0.027622119
634 0.08234989 3.450671e-05 0.030037908 -0.075130224 -0.06418339 -0.016305894 -0.003636538 0.0379182 0.054125555 -0.03632235 0.07806906 -0.036367044 -0.0030203145 -0.007971923 0.065353416 0.083366685 -0.059838425 -0.011157595 0.051837485 -0.06256853 0.08980243 -0.031652097 0.05174713 -0.07676603 0.043290887 -0.071912326 -0.012391092 0.054572597 -0.09631878 -0.013536535 0.0831951 0.01532703 0.046678185 0.07880796 -0.001164438 0.054479383 -0.08017347 0.04757453 0.0064821574 -0.015025905 0.023433873 0.010124166 0.08527748 0.059377287 0.05779941 -0.017233081 -0.041025102 0.0010027428 -0.07824406 0.039307468 0.051794972 0.07549578 -0.030280422 -0.07644901 0.025500406 -0.0090470705 0.01885929 -0.046038084 0.043944508 0.037728425 0.024344971 -0.008662416 -0.027709885 0.025413837 -0.019540017 0.030084975 -0.02524485 0.0060727675 -0.020307932 0.023678929 -0.067220815 -0.004984978 -0.0058620665 -0.0075796815 -0.012654021 -0.025602417 0.03214355 0.051932584 -0.02893461 0.020647619 -0.010220318 -0.059103753 -0.04415598 -0.04173834 0.010245824 -0.050478358 -0.007294321 0.021136673 -0.017323958 -0.023208074 -0.015936725 0.06093084 0.07497524 -0.049370814 -0.022816079 -0.001289433 0.017165018 -0.0012324587 0.0045736753 -0.0673923 0.031479914 -0.006084419 0.06359763 0.038206086 0.004852834 -0.032365173 0.041309875 0.03602642 -0.0023178367 0.001840232 0.02585205 0.02712025 -0.045009017 0.04370645 -0.058149483 0.03802664 0.006713174 -0.035596408 -0.054368094 -0.042495973 -0.05226021 0.046439182 -0.04968073 -0.007656118 -0.025828764 -0.023697983 -0.051128864 -0.013671484
372 0.015426917 0.049704626 -0.00014031754 -0.029665502 -0.01220754 -0.0046257707 -0.0001314161 -0.050634254 0.027411263 0.056658745 -0.06892754 0.015217208 -0.04350617 -0.017109392 0.07546495 0.0068188305 -0.020501843 -0.027280668 0.0522206 0.053265456 -0.036585286 0.02308764 0.0010389348 0.0018518763 -0.05240001 0.009096175 -0.05007714 0.008497253 -0.03689717 -0.076333284 -0.033600416 -0.021637395 -0.023451013 -0.07306812 0.0064599817 0.028280087 0.019633358 -0.055263076 -0.07335169 -0.02935917 0.050074507 0.0047171214 0.052929483 -0.015539756 -0.03637064 -0.007882027 -0.01669754 0.025989931 0.01580134 0.032598738 0.000985341 0.005673522 -0.04735819 -0.025685776 0.015007625 -0.047747057 0.03711023 -0.052922465 0.0017876516 0.026185742 -0.059892822 -0.022596348 0.013622556 0.024382459 -0.02899986 -0.00012860144 0.052965365 -0.06566298 0.0009092219 -0.0039668228 -0.0014457342 0.0048829457 -0.01949188 0.021077758 0.051508423 -0.036595404 0.042298947 0.018496886 -0.060095485 0.032663256 0.044848166 -0.074942626 0.006972329 -0.017668957 0.016069995 0.012515803 0.0489823 -0.040642615 -0.08277829 0.04445946 -0.06384016 -0.05771637 -0.0014700482 0.06115685 -0.074259646 0.02622806 0.037170224 0.05239961 0.04019672 -0.0051746573 0.019944165 0.015853703 -0.038569756 0.00870172 0.041631684 0.029506069 -0.00697633 0.007986437 -0.0184611 0.03111386 0.05640556 -0.012247236 -0.10636028 0.0002775123 -0.07678349 0.032791782 0.06721044 -0.01653746 0.0029923853 0.04325905 -0.024550363 0.05008792 0.016305037 0.032571692 0.053573843 -0.029708551 0.014967133 -0.003987817
219 0.058959905 0.035123557 -0.04113106 0.04447387 -0.04552653 0.05439919 0.018896183 0.0040810527 -0.053092342 -0.03838544 0.016912654 0.0055119656 0.062013224 0.028704505 -0.05807879 0.06564315 -0.022183051 0.03003958 0.028911723 0.007762117 -0.010751636 0.04124129 -0.004754863 -0.032592602 -0.0618186 -0.042853106 0.014237949 -0.007644841 0.041042574 -0.05676653 -0.05823334 0.0019096618 0.045184765 -0.013967482 -0.10515038 0.00684554 0.055816274 -0.035484504 -0.017567705 -0.0030394609 0.046292037 -0.0013408547 0.035609666 0.018995117 -0.051382743 -0.0033848523 -0.032305587 0.029789595 0.041490495 0.031298455 0.044488143 0.030696345 -0.056268584 0.014265545 -0.06955533 -0.018713046 0.029017126 -0.06985223 -0.03903547 0.016680647 -0.042990774 -0.001915865 -0.024912806 0.013524463 0.03418376 -0.014961163 0.04446492 -0.07573914 -0.025938768 -0.014673651 0.015581059 -0.014479979 -0.0291375 0.03085101 0.031067105 -0.007410387 0.048004493 -0.004929316 -0.059691396 -0.0037872996 0.023069661 -0.019713141 0.028806884 -0.0062156557 -0.021837208 0.044341024 0.0036893017 -0.062364925 -0.011696265 -0.028240632 -0.006878312 -0.016781747 0.06583464 -0.0011529126 0.0058814976 -0.030236585 0.012969287 -0.055382412 0.035113413 -0.039817575 -0.003408813 -0.048290677 0.018047882 0.006461295 0.017460281 -0.021817138 0.027031928 0.039492786 -0.05563768 -0.039207682 -0.028837437 -0.01908732 -0.024754668 -0.016105542 -0.065458335 0.039846204 -0.0195074 -0.005873699 0.004135378 0.03230824 0.042707 0.02806877 0.047095332 0.07272692 0.034859706 0.018636344 0.038398534 0.0016835828
201 0.06085782 -0.034906697 0.0051031024 -0.059090104 -0.007595834 0.004132205 0.050761886 0.005266312 0.009543221 -0.0013519522 -0.033480436 -0.025910579 0.0007023285 -0.0450695 0.058828644 -0.0058200774 0.056652714 -0.043646317 0.011507622 -0.012137026 -0.056875978 0.029837545 0.0070997397 -0.035569254 0.08462084 -0.019732438 -0.0065118605 0.021781528 -0.047771525 0.010166328 0.006639535 0.0025326225 -0.015934896 -8.3397266e-05 -0.010793664 0.007614597 -0.002340317 -0.0062964894 0.021089531 0.057275742 -0.030588476 -0.026474122 0.0030499673 -0.0068776174 -0.05461957 -0.026389405 0.005833915 -0.033100273 0.0035729504 0.01274595 0.032226887 -0.05461055 0.004596651 0.012260919 -0.012493777 -0.07657487 0.029947605 -0.020358084 -0.031531613 -0.050626814 -0.03453844 -0.010377063 0.011007004 -0.02374887 0.010797172 -0.052261904 -0.0006492154 0.0037787238 -0.01566252 0.028128233 0.011792474 -0.04542972 0.018452553 0.030931387 0.0060520517 -0.092201754 -0.057910655 0.014926013 0.05816455 -0.004045959 -0.0019155702 -0.036969677 -0.04738562 -0.036054734 0.047775332 -0.0039364533 0.028389895 -0.01393929 0.02656296 -0.00907482 -0.044705097 0.019767001 0.015490968 0.013723359 -0.06557139 -0.034821857 -0.011000892 -0.035146408 -0.010918589 -0.02065669 -0.08839516 0.011365729 -0.024995448 0.039434157 -0.08255127 0.004511696 -0.04278469 -0.009708448 0.038307417 0.005487867 0.02184142 0.077946015 0.042788584 0.08130106 -0.0022606698 0.00014852177 0.08451249 0.045833435 -0.005896344 -0.02562495 0.04989651 0.010462633 0.03622179 0.044020467 -0.03935712 0.013587835 0.042639457 -0.052952096
476 0.025222193 -0.040751502 -0.034179915 -0.015497483 0.016507532 0.078054465 -0.042698544 -0.035064314 -0.044470675 -0.062624976 -0.038929306 -0.028600832 -0.0014167273 0.04651622 0.09534303 -0.0042326762 0.056475606 -0.016528258 0.009284849 -0.04665798 0.02925275 0.056656033 0.05067386 -0.022362374 0.031686217 0.03138376 0.005681115 0.015664697 0.025051551 -0.04363609 -0.07496195 -0.0038777424 -0.026003987 0.011785018 -0.02404809 -0.019742953 -0.037390333 -0.06270822 0.063853584 0.057963256 0.015790083 -0.05209676 0.0096188905 0.061125625 -0.026476312 -0.003152135 0.008499095 -0.013402771 -0.008750355 -0.11680266 0.05534642 -0.043229073 -0.011746674 -0.05277352 -0.031869456 -0.03389275 0.009473632 0.08884727 -0.018093685 -0.0063630096 -0.05307974 0.041082628 -0.04062152 0.07476381 -0.04873992 -0.023477158 0.0038679107 0.0156015605 -0.035817035 0.04740277 -0.032574948 0.0060425648 -0.04577648 0.02415408 -0.05459184 -0.07025334 0.029588208 0.009561325 0.022151807 0.062227804 -0.013611231 -0.038351905 0.060957 -0.021704929 0.025564117 0.009811159 -0.001464302 0.008814386 -0.014482942 -0.029662734 -0.043166634 -0.027183186 0.0019964192 0.02024713 0.024358055 -0.0077105947 -0.008969319 -0.069321476 0.0065067788 -0.008013602 -0.057211254 -0.058860082 -0.0026815885 -0.007896418 -0.048022613 0.02985967 -0.043327704 -0.038011618 -0.022131257 -0.0049598673 -0.010032975 0.03519329 0.06443478 0.039579 0.031729054 0.024899667 -0.018989753 0.013320261 -0.03123415 -0.013719372 0.024558917 0.056265265 0.010279298 -0.03816478 0.018018149 -0.002294567 -0.034463655 -0.056382913
1251 -0.0022455591 -0.046440963 -0.022496397 -0.037064567 0.055358037 0.0030557252 -0.077119276 0.063920915 0.09748696 0.05371192 -0.077142924 -0.038564242 -0.04170774 0.06594489 0.064347394 0.017946808 -0.039495885 -0.032584764 -0.037220024 -0.028635964 0.025974592 0.0026572328 0.019986104 -0.011123792 0.053331964 0.054730855 -0.019962436 -0.020394621 -0.038611475 -0.03560803 0.042539798 -0.0010227454 -0.010769293 -0.0047194725 -0.005026126 0.048067335 -0.009135559 0.00427241 -0.035948467 -0.010248487 -0.056408387 0.025417669 -0.016459253 0.012756891 -0.0033444175 0.0462672 -0.031601623 -0.022273649 0.014634854 0.07472387 0.0325155 -0.0030974797 -0.03112504 0.005589409 0.0036078682 0.04811853 0.009143243 -0.00867918 -0.03217567 0.036352362 -0.0033949984 0.019397179 0.037052814 0.02118767 0.013587741 -0.015229891 0.019407867 -0.0016558403 -0.047553733 0.0028213111 0.06619198 -0.07896304 0.023291944 0.0069290223 0.039440025 0.02332104 -0.002993238 0.03960047 -0.026361628 -0.016789569 0.009112736 0.041025724 -0.040253382 0.017689206 0.049211852 0.03215599 0.009194692 -0.038908187 -0.059915166 0.025410686 0.039349325 -0.012119222 0.03303364 -0.009281401 -0.037483864 0.058549903 -0.046127148 0.024983773 0.04513277 -0.014909042 -0.030628562 -0.027344683 -0.051937856 0.018616302 -0.007337272 -0.056376178 -0.0060500302 -0.0577303 0.0032774431 0.04420555 -0.054066066 -0.027699202 -0.00862734 0.0030198095 -0.06800471 -0.03872011 0.014389137 -0.0030226037 -0.04483292 -0.03292317 -0.03715087 0.011537439 0.012102051 -0.03057731 -0.004894952 0.0030792283 0.0034266226 -0.009379171
1082 0.032619342 -0.062431503 0.003785519 0.0023574634 0.0037193513 0.03944911 0.006829439 0.035998926 0.03259443 0.0356104 -0.02435312 0.024851419 0.06837828 0.01835472 -0.0075508542 -0.022698924 0.01501752 0.0005356866 -0.044699114 -0.0066880193 0.00055242673 -0.046469055 0.046722837 -0.03787594 -0.046811607 -0.01746014 0.00014351618 0.030208822 -0.0151789775 0.077368304 -0.020582788 -0.049227316 0.022164082 -0.014189803 0.0051883464 0.018464426 0.01362092 0.0022348214 0.020540556 -0.021270785 0.030661061 0.009940619 -0.0119904205 0.038685814 0.059965678 -0.018856067 -0.04740326 0.0016806441 -0.06758225 0.033331156 -0.04094342 -0.078176856 0.0010779563 0.018669039 -0.025146423 0.07475583 0.023772633 0.0198846 0.033845704 -0.03360527 0.039329592 -0.02615784 0.048872303 -0.008735112 -0.038871843 -0.028957425 -0.009970557 -0.02529955 0.026171984 0.07171853 0.049078267 0.00021635047 0.076770045 0.019946251 0.013261562 -0.040614385 0.023297058 0.049695734 -0.0036917129 0.030211192 0.004773987 -0.0037785512 -0.036085885 -0.013708865 0.01733538 0.04725507 0.052538864 -0.039044835 0.056410473 -0.0665712 0.018703338 0.0016164733 -0.0018428644 0.045491192 -0.0037300126 0.019786049 -0.017316794 0.0076417676 -0.05812954 -0.068657696 -0.013006397 0.0044813943 0.040317643 0.01595838 0.03836012 0.03225787 0.017769326 0.005957105 0.0005769836 -0.041540995 0.001768706 0.014624536 -0.028208345 0.042593352 0.022592183 -0.05030693 -0.0046902755 0.02011295 0.03950278 -0.041905075 0.026691636 0.02621479 0.04432374 -0.015641948 0.006194959 3.2985878e-05 -0.050820988 -0.05269106
1075 0.009537864 -0.024903294 -0.023645382 0.07658335 -0.026278617 -0.048875805 -0.01776088 -0.009585617 -0.0008646841 -0.0033342307 0.02508097 -0.009720024 0.021157218 -0.032971125 0.03526132 0.027695347 -0.015491231 -0.04357212 -0.00041900272 -0.044363283 0.079914555 -0.003711844 0.06571187 -0.04600973 0.06509 -0.032667354 -0.02116263 0.014865014 0.03388215 -0.0056444043 -0.06025173 0.06850094 -0.032075986 0.022470983 -0.027622765 0.048761096 0.0031694078 0.033630304 -0.05782553 -0.008404039 0.0034306662 0.079712346 -0.019937022 0.050204374 0.07586935 -0.032917384 -0.0155559 0.022776427 -0.04462808 0.008348689 0.022521134 0.024819637 0.050045483 -0.021017428 -0.040414583 0.042942055 -0.020904016 0.012255868 0.034155346 0.00939594 -0.011814895 -0.0050569335 0.017767604 0.011069192 -0.016286677 0.014808532 -0.012107368 -0.05086503 0.033302214 0.0038618727 0.00044431485 -0.028717939 0.048337158 -0.07178214 -0.0334186 -0.021254461 -0.024082012 0.068782486 0.012509743 -0.02243031 -0.018408267 0.06367103 0.04424286 0.04658371 -0.017147493 -0.003435366 0.00075213326 -0.022366026 -0.027752992 -0.09600982 0.0023316115 -0.04111463 0.0042373673 -0.02324687 0.018875085 -0.015993299 0.023393285 0.035295963 0.029504418 0.0255865 -0.0060259984 0.006337014 -0.058155924 -0.052576046 0.047570206 -0.053171188 -0.011214582 -0.03759456 0.07598457 0.04068529 -0.06412954 0.008940184 -0.005205934 -0.09349371 0.043853607 -0.018873315 0.011258589 -0.024865773 -0.066172585 0.04408136 -0.024553703 -0.016428353 0.0077866213 0.027930012 -0.048098087 0.025657523 -0.048647206 -0.002980615
700 0.022004358 -0.056664884 -0.039838176 -0.03817755 5.132299e-05 -0.04445772 -0.03341829 -0.070366904 0.019065477 0.023222445 0.0586893 -0.039412502 0.00021366886 -0.021328326 0.029617336 -0.049292974 0.004820498 -0.08845478 0.022342741 -0.053781565 0.038232107 -0.048306085 0.04700431 -0.024482142 -0.0040042303 -0.07557981 0.0025621415 -0.025112892 0.022817854 0.016844753 0.019801602 0.08437839 0.030261103 0.08169388 -0.012032889 0.046454128 -0.06988316 0.02799851 -0.025235342 -0.023530414 0.05580628 0.008973048 -0.042180363 -0.0077636037 -0.015524251 -0.036242034 0.09447416 -0.054819442 -0.01821304 0.04269469 -0.061066233 0.04569731 -0.045810048 -0.06248887 -0.06494891 -0.01800566 -0.020624334 0.065243535 0.011955028 -0.0077359704 0.017160911 -0.05177306 -0.02419319 -0.002887427 -0.022803541 -0.033531144 0.05914578 0.044013456 0.07116892 -0.065391175 -0.040317968 0.0008849396 0.031030452 0.044437543 -0.01914119 -0.07629295 0.000996249 0.026402596 -0.0067774532 -0.017047046 0.021910975 -0.02906803 0.044208396 0.036643043 0.029132135 0.028661886 0.047711294 -0.00233824 -0.035242073 -0.0212769 0.006621184 -0.06454083 -0.013519235 0.062072713 0.07246802 0.012962063 0.06440181 0.0067562647 0.016053056 0.012914899 0.011043145 0.0017961081 -0.04793701 -0.042064056 0.045299582 0.005844698 -0.053109292 -0.077180006 -0.046838347 0.018648067 0.027892418 0.038079277 -0.032895185 0.033280276 0.0079012085 -0.012231551 -0.034095824 0.063716315 -0.032553058 0.013408716 0.0178274 -0.007376749 0.0135815265 0.021896401 0.018495655 0.037264764 -0.0013168553 0.068454824
2235 -0.046658766 0.023545068 -0.0728527 0.020795105 -0.030301131 -0.026106097 -0.0013034185 -0.03019922 0.027547566 0.033780485 -0.015164198 -0.018320957 -0.018604882 0.07583993 0.056110278 -0.010379799 0.029284578 -0.044072084 0.015983643 -0.0014973143 0.019618819 0.06335304 0.057774797 -0.0018403922 -0.019633975 -0.009948042 0.029987106 0.01848006 0.015707882 -0.022885147 0.013488741 0.07454885 0.004545546 -0.020888632 -0.055328183 -0.07755134 0.049863312 0.0073221037 -0.021107128 0.063578196 -0.061174832 0.023992147 -0.034069546 0.051079877 -0.02128295 -0.06154993 -0.06799735 -0.016950028 0.009224057 -0.013046584 -0.040114257 -0.004408275 -0.003659163 0.044419423 0.0029095968 -0.055708323 0.019586945 0.037331864 0.015242716 -0.004748836 0.03582271 -0.018155413 0.042733416 0.0342092 0.040826686 0.07101679 0.04125821 -0.007248179 0.04520241 -0.04454087 -0.039554223 0.024813596 0.015393784 -0.004008513 0.013178675 -0.008569271 0.067517675 0.0059789508 0.065761544 -0.04056157 -0.040827446 -0.0036701232 0.032577198 0.04025076 0.041979708 -0.0021741188 0.048710134 0.0123112155 0.041950405 -0.043268256 0.0033568153 -0.04493527 -0.05038775 -0.02211349 0.0024043247 -0.00076832145 0.0049699848 -0.020198055 -0.014916253 -0.0004413829 -0.050230958 -0.0005597739 -0.026433034 -0.09670166 0.049670003 0.033078462 -0.01371695 0.034782458 0.014387428 0.011665652 0.048555497 0.045901336 0.008274909 0.05511991 0.025813714 0.054715 0.016193988 0.025953677 -0.062612414 -0.05324622 -0.01634597 0.008823665 -0.0015829619 0.037348233 0.053618766 0.016990341 0.03316476 0.021944059
63 0.024250574 0.012794497 -0.06183589 0.053290907 0.0035418225 -0.040603925 0.012073289 -0.053921588 -0.008552003 0.028950261 0.013890799 -0.0049604583 -0.024108648 0.017321816 0.028055571 -0.0070453286 0.0155839175 -0.036125414 0.0048978855 0.009839741 0.0213812 -0.005420577 -0.027028145 0.018913379 0.010145719 -0.07859185 -0.014526349 -0.011061602 -0.02020248 0.0057545914 0.022036398 0.020788632 -0.010212677 0.029667968 -0.0147287855 -0.049338575 -0.06906102 -0.02129982 -0.06677507 0.0009945135 0.003218633 0.025423404 -0.01818518 0.0066349464 -0.027867867 -0.045064166 -0.035230804 -0.010785596 -0.015022168 0.025531625 0.05484726 -0.0072950046 -0.03296553 -0.035291504 -0.010245714 -0.020070218 -0.027207082 -0.032371882 0.026449999 0.048422687 -0.004376893 -0.012615132 0.021791685 0.011021932 0.02611527 0.012200373 -0.048325434 0.027345411 0.030310664 0.03119667 -0.035276454 -0.066293545 0.00013414636 0.05465461 0.015580685 0.024220876 -0.06511893 0.022780268 0.022381943 0.043378513 -0.0115994625 0.04102255 -0.035636056 -0.008387688 -0.043738253 0.019674623 0.027601473 -0.06145352 -0.03301112 -0.011451838 0.0030725126 0.021320853 -0.059743583 -0.022052996 0.017678976 0.0047785267 0.043576572 0.027052931 0.01567856 0.0408228 0.011109956 0.023566335 0.031389244 -0.04601056 -0.012258984 0.0177023 0.0547459 0.034297314 0.019118467 -0.0038512293 -0.017426277 -0.012124816 0.002758747 0.03342954 0.021696404 0.032879103 0.035101168 -0.008744313 -0.04470804 -0.046284247 -0.006283111 0.029156268 -0.01892535 0.0073751975 -0.0739603 0.052270554 -0.04027808 -0.061350565
2194 0.021917881 0.0729996 0.050593674 -0.030781806 -0.000913197 0.025225474 -0.004331887 0.0067401314 0.029603796 0.049619805 -0.0055075632 -0.026582135 -0.083905965 -0.027676212 -0.032295372 -0.028381476 0.05417497 -0.071231425 -0.024652977 -0.02469929 0.026631264 0.027860466 -0.056225117 0.033568982 -0.040074363 0.00072297367 -0.0054321527 -0.05064591 0.011718586 -0.01627118 -0.07016884 0.06111185 -0.032493845 0.038255576 -0.050619368 -0.029877767 -0.033558957 0.02480386 -0.009472609 -0.015503244 0.008722356 0.016642231 -0.030739913 0.020527998 -0.022044502 0.05516216 0.0010024286 0.018837659 0.0120280655 0.05051811 0.04056698 -0.05898539 0.023068273 0.035504993 0.029193638 0.02663621 0.077364594 -0.039735433 -0.00721849 0.044388384 0.018079227 0.036302123 -0.009859078 0.040935803 0.052875537 0.051336292 0.011193617 -0.029225053 0.022201741 0.024419373 0.04746041 0.037945688 0.055809904 -0.014873875 -0.037741795 0.018005617 0.04662282 -0.0177139 0.047434796 -0.020174213 0.035405148 0.031636633 0.02847423 0.020226596 0.008063628 -0.030946251 0.040127892 -0.0027455427 0.010597685 0.014357826 0.031450972 -0.06173487 -0.059014436 -0.030240048 -0.0244948 -0.024834974 -0.048985098 -0.06274771 0.014374493 0.055533506 0.0066639762 -0.033255775 -0.0058396594 -0.041759815 -0.014877847 -0.003178698 -0.0075948853 0.033965576 0.038562644 0.07899012 0.036139928 -0.058572095 0.03683147 0.016555605 0.036471825 0.015152254 0.02483973 -0.0042678164 0.016799156 -0.026303675 -0.013905142 0.006745662 -0.0105323335 0.06486351 -0.024402855 0.054582704 0.020090355 0.014309613
2217 0.018965771 0.014654446 0.030155882 -0.031664502 0.008984465 -0.025692228 0.02556037 0.024304146 0.063502274 0.009467304 -0.033677366 -0.023193728 -0.05679248 0.03147 -0.0037305146 -0.063348815 0.034740724 0.021366017 0.014273045 0.05123146 -0.03446617 0.0679637 -0.044541404 0.023425931 -0.013287168 0.008683489 0.0058737216 -0.06913135 0.03237088 0.021831976 -0.057367735 0.029977644 0.001190135 0.044304166 -0.017443186 -0.022198943 -0.016917 0.04123581 0.01406353 -0.007898455 0.038280867 0.038555026 -0.06610794 0.06022765 -0.059059065 0.005941264 -0.010430789 -0.058251243 -0.054610375 0.081177935 0.02203445 0.005313331 -0.006802357 0.0036328984 0.0497148 0.07272242 0.017853692 -0.0066909986 0.0577859 0.024184309 0.030036626 0.025127454 -0.022682562 0.0063784206 0.05743276 0.027917476 0.011883975 0.029164085 0.07615543 0.009793637 0.03246798 -0.0065755933 0.03543888 -0.02335182 0.0115708355 0.007883936 0.03702242 0.035668027 0.009878722 -0.00508592 -0.023329929 -0.0010565436 -0.008291015 -0.0032891468 0.0035754002 0.024673022 -0.013544956 -0.015510644 -0.05615363 0.0090209665 0.020676803 0.025147324 -0.063098125 0.033378713 0.04795991 -0.055049542 0.012814295 0.05015916 0.022181181 0.0184917 -0.037823197 -0.02460218 0.07402322 0.05856968 -0.0023117727 0.02955661 0.023845647 0.049978316 0.012745635 -0.0073885154 0.018762184 -0.06791115 0.0155229755 -0.030441808 -0.017536674 0.051206496 -0.020379305 0.030859625 -0.03007103 -0.04582529 0.0012407533 0.027449815 0.016464317 -0.023285609 0.031196015 0.045036588 0.03307357 -0.010888349
318 -0.016614212 0.0077588465 0.015398596 0.04579679 -0.009144343 -0.029155646 0.07090837 -0.0046912003 -0.0047104587 -0.019430064 -0.041007858 0.05154739 0.016836492 0.025294308 0.0025315122 -0.06747123 0.080574036 -0.051910363 -0.01344986 0.076326296 -0.029218547 -0.019071545 0.02504584 0.001832307 -0.012128362 -0.05935832 -0.01554621 -0.011770397 0.031638663 -0.008735411 -0.025518375 -0.0311372 -0.05814233 -0.07925566 -0.07861626 0.016046721 0.027304277 0.0055628875 0.052899145 0.065421745 -0.024122424 -0.009837473 0.024664665 0.026722528 0.013862659 -0.01570666 0.024253208 -0.00048682862 -0.00070485496 0.004756901 0.033757456 -0.004937969 -0.05955436 -0.0019824032 -0.01310719 -0.009607524 -0.0014923151 0.006219438 -0.06605919 -0.014337952 0.05866554 -0.026134614 0.04809017 -0.030041875 0.03790781 -0.014784287 0.013492661 0.025042934 0.03080192 -0.039967924 0.016093325 0.035086233 -0.040845953 -0.020902066 0.008610562 0.02547584 0.013073165 -0.0715842 -0.03529765 -0.009954902 -0.044353377 -0.0049756523 -0.016649047 0.050163407 0.059286755 -0.013465788 -0.049870916 -0.008769873 -0.0015319916 0.054800544 0.013088343 0.014836919 -0.035792995 0.07050407 0.04220471 0.05190468 -0.053777013 0.06934827 0.07369124 -0.011372679 -0.07768337 -0.0014799736 -0.025657058 0.0055524698 -0.0046780156 -0.011462084 -6.181913e-05 0.029831413 -0.024139952 -0.046504714 0.020991402 -0.044622 -0.033765752 -0.003655798 -0.06678434 0.041286044 -0.03296278 0.029657105 0.0100311125 0.0026214886 -0.036546443 -0.011844784 0.063878916 -0.047919918 0.008048226 -0.021816336 -0.008400256 -0.050197866
73 0.00045960126 0.03850661 -0.0077329627 -0.00700012 -0.023465602 -0.01529822 0.0237485 0.030679448 -0.0017037191 -0.029190686 0.0033961656 0.002485191 0.0019205703 -0.0032989439 0.03454397 -0.02470224 0.059026655 0.0019109934 -0.035424653 0.091233775 -0.01731932 0.058194995 0.086013265 -0.02416262 -0.058534555 -0.024695972 0.039880913 0.038134627 -0.016033651 0.05567021 0.07403648 0.002723574 -0.03889911 -0.047622576 -0.073391624 -0.058018778 0.066741094 0.021283118 -0.0004990398 -0.036887858 0.03958773 0.005824726 0.078041956 0.032931108 -0.07578675 -0.04710393 0.006047256 0.019380733 -0.020583646 0.066147044 -0.006205854 -0.01276136 -0.07852566 0.06398459 0.03084013 0.0456051 -0.053485703 0.07557863 -0.04116244 0.05480308 0.017040836 0.007037327 0.054591164 -0.066120066 0.013944589 0.00023105706 -0.016964266 -0.053688865 0.0032348481 -0.025147067 0.002957964 0.027704151 0.019612176 -0.026098583 -0.0030255916 0.022052834 -0.02710129 -0.026839042 0.0131904045 0.024998168 -0.010846176 -0.013444283 -0.01781751 0.022285907 0.0036719032 0.005309056 -0.008209328 -0.0584674 -0.056996316 -0.011765711 -0.0060061617 0.032043844 -0.010707663 0.0758384 -0.007659775 0.06566174 0.009068729 -0.027769515 0.027196797 0.006960909 -0.013315741 -0.049617168 0.020653382 0.0006048058 -0.017494675 -0.055821538 0.030180827 -0.021656042 -0.008347488 0.07660995 0.0040813857 -0.07404022 0.02654401 0.0058010723 -0.01954928 0.020489167 -0.0017008119 0.04139375 -0.00541262 0.0033965216 0.009631642 0.030256266 -0.008418935 -0.05572644 0.033768423 0.05378227 0.0008495483 0.023515986
1186 0.040752072 0.023199052 -0.029651698 0.04031963 0.01502532 -0.0017998875 0.0101994425 -0.033028822 0.0229798 0.024847213 0.03465655 -0.046462946 -0.03650141 0.049230408 -0.05936497 -0.01689165 0.032937378 -0.020678319 0.032271918 0.060822606 -0.060629066 -0.055383842 -0.046510506 -0.018212544 -0.012472999 0.04767539 -0.0018291557 -0.0016940156 0.0044520004 -0.015029934 -0.03018654 0.00010002391 -0.015191949 -0.0018631765 -0.013954226 0.03312763 -0.01807304 -0.023262277 0.062374543 -0.03676182 -0.048489906 0.056226727 -0.05757564 -0.036093775 0.04444689 0.05862983 0.022283135 0.01688761 0.046175085 -0.012249658 0.013038695 0.011070624 0.014266545 0.055055533 0.010410803 0.038813952 0.038946316 -0.004813151 -0.01924418 -0.010841649 -0.015027313 -0.023573376 -0.0057386667 -0.0065545705 -0.009368142 0.0190374 0.00729853 -0.014486123 0.029531535 0.030284172 0.041476008 -0.051110547 -0.044679046 -0.008524339 0.0020477036 -0.014782291 0.0052490304 -0.0075756097 -0.059174564 -0.027816763 0.0020109026 0.038156614 0.066005126 -0.034339327 -0.041969933 -0.018800054 -0.08497664 0.034070138 0.04304196 -0.03489116 -0.019546183 0.013384014 -0.048620135 -0.0051726513 -0.00307661 0.010034232 -0.043760777 -0.011470663 0.050045807 0.0076668584 -0.04027721 0.007877566 -0.025716403 -0.035196226 0.06284164 -0.034423936 -0.0033492967 -0.029378427 0.015582236 0.047602635 0.023392621 0.002505533 0.026522975 -0.03213066 0.008778448 -0.0060652234 -0.010543482 -0.019974181 0.0033425528 -0.018106928 -0.018579029 -0.014838707 0.01054642 -0.06325767 -0.03381318 -0.036722776 -0.000917127 0.031563457
813 0.043312065 0.05354835 0.014417705 0.005438921 -0.012639161 0.029599518 0.013678539 0.00036517755 -0.033733908 0.039505687 -0.02167956 -0.021274095 -0.06051994 -0.06562211 -0.05568803 -0.031718846 0.05361616 0.02259737 0.05720408 0.06503247 -0.016634934 -0.020783294 0.08915756 0.06345637 -0.017018052 0.062985495 -0.008096407 -0.043771394 -0.029846022 -0.029638467 -0.06129731 0.02701772 0.020837039 0.046860117 -0.005770663 -0.032646805 -0.034235794 0.050787095 0.04646716 -0.07699529 0.040416423 0.0684997 -0.015937373 0.025551543 -0.042903792 -0.0017955563 0.028548075 0.0007550515 0.024409965 -0.000102965045 -0.086379215 -0.05155703 -0.016214233 -0.004264927 -0.032032795 0.04663294 0.038035873 -0.024091642 -0.0006894567 -0.03708551 0.05732579 0.0146529935 -0.011359289 -0.01014992 0.047405917 0.039812744 0.017683467 -0.027367596 0.03704921 -0.0668589 0.018069541 0.0034834105 -0.00026016159 -0.07076211 -0.05412116 0.05259295 -0.013728332 -0.0035885505 -0.07822213 -0.07477418 0.022670181 0.040314157 0.012769073 -0.0319693 0.042524494 -0.028802522 0.013445848 -0.01916541 0.04212824 -0.028772598 -0.022067044 0.0032672891 0.0051586037 -0.060756072 -0.02304001 -0.00056264416 0.046399873 -0.022967076 0.02105621 0.0077145626 0.049494173 -0.032572195 0.0066971476 -0.06208564 -0.011302732 -0.091303036 -0.051696863 0.031626925 0.02992499 -0.011308561 -0.039058942 0.0036090012 -0.009716905 0.009480712 0.055525362 -0.00031154376 -0.053140327 0.009254839 0.011139214 -0.007917931 0.033522286 -0.017571809 0.03889399 0.0067130253 -0.012113733 -0.05701304 -0.049355995 -0.0310988
136 0.011350448 0.011913958 0.045632143 0.010336694 -0.020660255 -0.058799792 0.006606409 -0.024540631 -0.058613956 0.02165148 -0.017437646 -0.0052024163 0.05446071 0.011173974 0.040115446 0.019570533 0.023720434 0.015725357 -6.523379e-05 0.043365058 0.057330146 0.033218753 -0.017498571 -0.028984379 -0.016025431 -0.07635608 0.050949637 -0.0057373513 -0.015114649 -0.035860978 0.0063031614 0.056863625 0.030518185 -0.029541004 0.009485006 0.008581541 0.05467502 -0.06775578 -0.0287775 0.037162084 -0.030994345 0.017645305 -0.038216695 -0.01969044 -0.019853791 0.0074594365 -0.0072068516 -0.05684006 0.004492335 -0.021951037 -0.030699033 0.03965549 0.05103825 -0.025837205 0.004416853 0.0058120294 -0.021279918 -0.008784581 -0.01911645 0.043663003 0.03855948 0.02017222 0.009870052 0.0151925525 0.053280916 0.02742167 -0.041691996 -0.00051756063 -0.018378126 0.067377545 0.057290804 0.031949434 -0.013758772 -0.045221798 -0.04258812 0.034743868 0.013821296 0.0572124 -0.031059558 0.06899474 0.019116009 -0.019973733 0.007130651 0.006411727 0.011074585 -0.058966275 -0.036246948 -0.0029017553 0.018181428 0.046364278 -0.0439252 -0.02267274 -0.064483814 -0.016228909 0.09507033 0.043425154 0.030836977 -0.043649502 0.005616402 -0.031873442 0.016841246 0.038698915 0.0121896155 0.036435567 -0.019643005 0.016847927 -0.05080575 0.039746694 -0.0012661013 0.04616939 0.049920507 0.008618925 0.05919971 -0.028591616 0.011920812 0.033179983 -0.00069460826 0.09016475 0.048337676 -0.012777301 -0.014074316 -0.055360604 0.061638005 0.052531514 0.01451719 -0.05347286 0.064533904 -0.0028310441
115 0.023249088 -0.05289082 -0.012699986 0.055397093 0.007917975 -0.030187339 0.03067522 -0.0033858789 0.007123587 0.0009160277 -0.014143663 0.04424629 0.045669448 -0.02382872 0.036247466 -0.005479172 -0.012606536 0.029837174 -0.03218317 -0.004123881 0.012323097 -0.025389096 -0.047669355 -0.07563158 0.015240763 -0.005820776 0.025184268 0.014737579 0.033194654 0.021269515 0.032068357 0.0076312763 0.022295624 -0.07705883 -0.05490749 -0.00415368 0.051700544 -0.038254797 -0.003121098 0.011171719 -0.02482946 0.029282382 -0.04552133 -0.014239332 0.01648673 -0.007585548 0.007465686 -0.05936054 0.035064794 -0.0051303655 -0.042953014 0.045077194 0.086241916 -0.05821705 -0.04163314 0.011158035 -0.06512459 -0.017646581 -0.0053240824 -0.033098146 0.021628998 0.0040479843 0.062170792 0.07065075 0.0043720887 -0.0031012248 0.023681533 -0.06867429 -0.03283865 0.02632854 0.014174895 -0.023657534 0.08190015 -0.033398125 -0.0040938654 0.043448735 -0.00084303744 0.00342406 -0.016707843 0.050733283 -0.011614865 -0.003828823 0.038879354 -0.033331707 -0.06148851 0.045077145 -0.044308327 0.04008864 0.022391008 0.019697879 0.019118201 0.023362603 0.02980722 0.006060309 0.028379356 0.045612704 0.04116768 0.03737707 0.026454195 -0.009312372 -0.00079446903 0.061718497 -0.010872464 0.02686483 0.003118111 -0.0063114064 0.03407879 -0.033007976 -0.021809714 -0.03874188 -0.046133254 0.04317743 -0.025633555 0.01576854 0.01085658 -0.0022065442 0.007884277 0.0028595394 0.0011687354 -0.059476648 -0.008663701 -0.016758991 0.03295249 -0.055899933 -0.03952165 -0.043035112 0.023466665 -0.016295664
1192 -0.008921174 -0.011019241 -0.01840095 0.024797643 0.035139907 -0.038966995 -0.020712376 -0.014018607 -0.021738041 -0.038591266 -0.026304422 0.031448796 0.057749204 0.016712565 0.0039181598 0.065174304 0.05591783 -0.043876354 -0.018544687 0.04735225 -0.0007761512 0.028959954 -0.05992312 -0.031331126 0.031004472 -0.0061627296 -0.04742855 -0.019969195 -0.037648745 0.034928482 0.010134482 0.0033798667 0.014221065 -0.01924813 0.058717698 0.022313626 0.01064786 -0.063654624 -0.05515736 -0.0096013015 0.0050044274 -0.016176196 -0.055633046 -0.004417169 -0.00014436542 -0.063248515 0.0035020406 0.000985896 -0.07432744 -0.0922367 0.036890358 0.030869823 0.020786958 0.016903348 -0.0132070035 0.028729044 0.00434671 0.06885749 0.059512023 0.004043522 -0.006410427 0.04427224 0.028880272 0.0024953 -0.0032715949 0.0038569528 0.0073498655 0.08354086 -0.0022457836 0.08195529 0.038109995 0.02709419 0.006131433 0.022086257 0.012027097 0.037725903 0.041468266 -0.0015099295 0.029941062 -0.013630419 0.008569569 -0.00705163 0.016853184 -0.05163119 0.052410465 0.055186015 -0.059481654 0.013204258 -0.0149352765 0.022859389 0.03982707 -0.04448567 0.034200445 -0.025636703 0.0075451788 0.008891286 0.018389098 -0.02599231 0.004153881 -0.010347218 0.013705314 0.039168373 -0.0016612124 0.006940821 -0.018504493 -0.052935474 0.012145754 0.027596151 0.0021831964 -0.0051449677 0.001903721 0.050263796 0.05990844 -0.0135034 0.06759329 0.048011202 0.027740708 -0.0025587678 0.014506513 0.07814113 -0.012863871 -0.032080103 0.024027985 -0.046744496 -0.006886115 -0.00030018727 -0.0368564 -0.0458247
158 0.0016220827 0.007868553 0.014906062 -0.012383787 0.08495785 -0.055881687 -0.039461233 0.025091974 0.004303584 -0.04366738 -0.003653204 0.047404677 0.010393392 -0.06989838 0.02692269 -0.039877716 0.0015498674 0.028600974 -0.0645182 -0.014327142 0.031185227 -0.0074115614 -0.040155448 0.020930935 -0.0074877706 0.0230131 -0.03410305 -0.05523838 0.0030021383 0.035399377 0.032616783 -0.06505895 0.00011040727 -0.031750627 -7.097822e-05 -0.0036467859 0.034390084 0.021324033 0.021910628 -0.013681459 0.04894867 -0.012080861 0.006519273 0.002490077 -0.008860945 0.01696018 0.026547365 0.071770296 0.027243746 -0.047618285 -0.04485815 -0.029752247 -0.013777028 -0.021628885 0.02013514 0.035945494 0.043963134 -0.04169379 -0.005764152 0.00090404245 0.04602837 -0.009942041 0.014559655 0.007406206 0.041155916 -0.015573527 0.018769521 0.051443737 -0.025525315 -0.032130994 0.063719526 0.008101979 0.009705946 -0.016368195 0.008616225 0.027270867 0.029294647 0.08382259 -0.00956887 -0.04884128 0.018645493 0.07370533 0.017814359 -0.049695183 0.039397698 -0.028373186 0.02025849 -0.004254611 -0.021417221 -0.0543909 -0.0006634576 0.024322862 -0.01085757 -0.0134592485 -0.018318763 0.068325736 0.024805821 -0.024892284 0.007545484 -0.041418355 0.019367268 -0.03182017 0.03323896 0.04918985 -0.03074205 0.03699711 -0.043990955 0.07017811 0.023735588 0.0024266478 0.06255652 0.012456193 0.018723978 0.033938248 -0.020711796 -0.010595747 -0.06340598 -0.005510149 0.03366497 -0.03370956 -0.005476284 -0.009418264 -0.012497454 0.0054251575 0.026323818 -0.007065996 -0.011323562 -0.038174406
277 0.019625945 0.07107932 0.009577723 0.01570305 0.084610745 -0.04029998 0.038560867 0.041227125 0.044272512 -0.017365314 -0.05291362 0.019412206 -0.043598253 -0.07988009 2.9740564e-05 -0.02542209 0.047553793 -0.06028344 -0.00523075 -0.055819176 -0.052851304 -0.084259704 -0.07248176 -0.033096403 -0.06454678 0.00028759756 0.042824093 0.025607288 -0.04716622 -0.07058238 0.047282383 0.006505727 -0.04203021 -0.03694746 -0.040897235 -0.017619895 -0.032252356 -0.030847214 -0.033838566 -0.08475586 0.037552603 0.02108625 -0.022678368 -0.014682318 -0.02268314 0.014984889 0.0629753 0.04752972 0.09930983 -0.0027879835 0.030493971 -0.09273951 0.014729308 -0.014946561 0.03218397 0.05199891 -0.024118815 -0.06414785 0.049578696 -0.0361907 -0.014074496 -0.014430355 -0.025571972 -0.035912585 0.018491048 -0.00095150445 -0.026309572 0.0052482923 -0.046581764 -0.049096167 -0.0029087092 -0.017858189 -0.036993187 0.015756568 0.005108223 0.06557603 0.009370726 0.0037427798 -0.028667241 0.053775653 0.015531305 0.00801384 -0.06522555 -0.040666148 0.022178283 0.04190846 -0.010265551 0.006684986 0.02029819 -0.029114993 -0.066732764 0.001896553 -0.033431582 0.032598224 0.019211307 -0.024773598 -0.060435664 -0.09176125 0.025092307 0.05924933 -0.0029307562 0.0054186527 -0.026924225 -0.035784326 -0.021546518 -0.030937608 -0.036349814 0.03253207 -0.0504585 -0.0008091241 -0.023637764 0.044795882 -0.051259413 -0.033191502 0.0011374912 -0.020028107 -0.08293347 -0.057762325 0.0011143587 0.0766738 0.031121297 0.0459752 0.054509193 -0.0012972102 0.009003448 -0.00811207 -0.03992751 0.012509773
1068 -0.00936665 -0.04417185 0.025179883 0.009280364 -0.021249356 -0.028175795 -0.0012159526 0.00999005 -0.018166004 -0.0219819 -0.077526845 0.05809508 0.03244631 -0.010130633 -0.0051596942 0.035869744 0.045505345 0.04182593 0.020186592 0.014441174 -0.018377207 0.043363288 -0.06004362 0.017262394 -0.023851698 -0.031848453 -0.0040972787 -0.021030076 -0.009892284 -0.03271695 0.06815636 -0.04057228 0.06882274 0.07659854 -0.042551313 -0.039398473 0.011580897 -0.053089872 0.051830262 0.01312111 -0.009499266 -0.0008081502 0.0021352028 0.087805934 -0.011042113 0.04814468 0.057997722 0.02853041 -0.00174252 0.00042410742 -0.06483005 -0.05026397 -0.0686333 0.028673565 -0.009496881 -0.03479187 0.043904837 0.0009282049 -0.014455537 -0.008831385 0.034035232 -0.007822936 0.0044850567 -0.030004712 0.04961095 0.058490597 0.021950752 0.017882753 0.02369992 -0.051939514 0.013699678 -0.0023211206 -0.019249499 0.049007602 0.026291685 -0.0048502334 0.036603395 0.009721936 -0.01833261 -0.048407838 0.042330664 0.023206767 -0.04818437 -0.05250902 -0.02272153 -0.024803555 -0.012501768 0.00039496942 0.0504791 0.0061312895 -0.058790743 0.01692115 -0.07725008 0.00788735 0.0228728 -0.06627028 -0.040303763 -0.035331544 0.053842794 -0.032368656 0.061797693 -0.046783034 -0.02367535 0.03849043 0.020764481 0.00894582 -0.01461328 0.022642994 -0.08017332 -0.035297472 -0.052166723 0.061873302 0.021896148 0.035916384 0.016616073 -0.05395428 -0.03317513 0.06913132 -0.08708773 -0.009216568 -0.01933406 -0.04519493 -0.040445466 0.025708014 0.049477577 0.0366072 0.075579256 0.05987168
1475 -0.023757821 0.015981877 -0.010499385 0.02753665 -0.05430637 -0.0110588195 -0.017382152 0.006658777 0.01811172 0.018701147 -0.04372294 -0.003716705 0.021872595 -0.029029874 -0.02484532 0.009436028 0.07046184 0.039548554 0.045845635 0.06662202 0.007114538 0.045339156 -0.01621401 0.07525171 -0.012713119 0.02852966 -0.013455165 -0.009930975 -0.004880569 0.003029516 0.005120014 0.024472285 0.03790226 0.051875878 -0.016497547 0.028660221 0.010284199 -0.07038225 0.07341173 0.037035443 0.013679856 -0.0152448565 0.025074335 0.024587413 -0.04355187 0.04613831 0.045928504 0.052783877 0.013043909 0.03518704 -0.013080659 0.00078124873 -0.034121983 -0.0059288265 -0.05981208 -0.039907623 0.024198066 0.009815858 -0.08465088 0.016678842 0.025639862 -0.043742843 0.015874417 0.007124698 0.025703749 -0.049163196 -0.0082203075 -0.051124766 -0.00037880847 0.03734161 -0.01933889 0.003927336 0.040696975 0.058130763 0.025074927 -0.0002000462 0.0017876624 0.024827288 -0.02502042 0.012486633 0.025828904 -0.009374619 0.03189442 -0.009334609 0.03108958 -0.06107618 0.052072726 -0.011079887 0.024187066 0.036967028 -0.028990826 -0.01426725 -0.005464439 -0.017888255 -0.018302433 -0.054452498 -0.04470648 -0.054038864 -0.0016124452 0.06098414 0.011459459 -0.008298826 0.050124463 -0.009863988 -0.020759739 -0.005393796 -0.014771601 -0.007609976 -0.0052431864 -3.6355144e-05 0.043429997 -0.009845927 -0.024440465 0.00982871 -0.03015934 0.012549906 -0.060221635 -0.007931612 -0.053996436 -0.02261361 0.012350076 -0.04119321 0.031079259 -0.0056686113 -0.05747489 -0.0010851108 -0.02353231 0.02148619
924 -0.0355701 0.005115086 -0.00069250254 -0.033967074 -0.023850085 0.028976198 -0.023738526 0.032126784 -0.045571215 0.061435446 -0.026089266 0.022778846 0.0119102085 0.06024903 -0.04144363 0.012200462 -0.024035228 0.0045805983 -0.037223622 -0.012171659 0.0041393247 -0.06119699 0.018925324 0.018773217 -0.008881796 -0.008762908 -0.053753346 0.032080747 0.020571528 0.01579373 0.018734746 -0.01976702 -0.052274223 0.014127059 0.006873725 -0.024399277 -0.021061433 0.006792006 -0.012646532 -0.028941223 0.013015402 0.019171216 -0.060409825 -0.04361513 -0.019172404 -0.038092967 -0.0009031634 -0.006640383 0.024008632 -0.027465286 0.03614841 -0.04910909 0.020152207 -0.00019109271 -0.011587349 0.009599836 -0.031124342 -0.06779181 -0.028380862 -0.035464898 -0.036409788 -0.03921591 -0.025948111 0.029790973 -0.007149363 -0.021896457 0.023281282 0.00036567054 -0.015776256 0.024935469 -0.042219862 -0.009215618 0.07189637 -0.02389495 -0.006761336 0.049588896 -0.045415998 -0.021374939 -0.07380148 -0.025686001 4.5988654e-05 -0.0072235973 -0.03988753 0.07296917 -0.00010656376 -0.008333802 -0.028039353 0.008788938 -0.06226859 -0.018002281 0.064349376 -0.0648181 -0.0053509898 -0.02994613 -0.055318385 0.054554295 -0.014753056 0.021723958 -0.048321147 -0.04752542 0.0037634787 -0.03342364 0.03571302 -0.008695384 0.06870784 -0.0290091 0.0018126015 -0.027076822 0.028296102 -0.022456825 -0.022540703 -0.018187238 -0.011546976 -0.07905875 -0.041376833 -0.035604663 -0.006140272 0.07848002 0.058676753 0.015846388 0.03237828 0.03838248 0.013834735 0.020345021 -0.0011331716 -0.026217228 0.010551767 0.05933748
1123 -0.03487035 0.0024608935 -0.033492368 0.008507794 -0.01923574 0.040543932 0.014999165 0.1128895 -0.05407031 0.012460947 0.01217457 -0.023588154 0.028297294 0.027825532 -0.0031104663 -0.050626878 -0.025752792 -0.051196124 -0.028075859 -0.040747795 0.04864783 0.08421286 0.0067187604 0.00799186 0.022249645 -0.042515434 -0.020514753 0.034097847 0.03646417 -0.003656749 -0.029082745 0.026596364 -0.06921874 0.0033545205 0.03654829 -0.027701383 0.07273708 0.04300903 0.0016913735 -0.011332592 -0.017885774 0.023120051 0.032649297 0.014077159 -9.6959935e-05 -0.041761566 -0.026445083 0.016762402 -0.040003683 -0.031233981 -0.031102074 0.007344773 0.05844667 -0.00480947 0.061711024 0.04144622 0.039255753 -0.007862309 0.003229341 -0.040930003 -0.0080033885 -0.02893723 -0.031841937 -0.01807953 -0.0012329939 -0.05699192 0.012400898 -0.008685568 -0.061222512 0.008179663 -0.020394279 0.011972283 0.026557043 -0.030136496 0.026460178 0.012698588 0.020184185 -0.028036028 -0.023685664 -0.054199412 -0.00950813 -0.026709102 -0.04239365 0.03980455 0.0072015673 -0.07248669 0.043705024 0.032882363 -0.060219776 0.0027326322 0.027364835 -0.019340886 -0.04826454 0.03066845 -0.030752964 -0.060959365 0.03459036 -0.022861436 0.0005166127 -0.0050092475 0.0035300106 -0.013131215 0.06855563 0.0021426585 -0.03551663 -0.017743396 0.044804845 -0.01372584 0.009347505 -0.032888506 -0.0146702165 -0.028555397 0.013848532 -0.03505088 0.010880957 0.00013019968 0.07584991 0.038889106 0.039566156 0.009768142 0.016755097 0.0021505344 -0.030505106 -0.073650174 0.043198846 0.06467636 0.007692351 0.039509017
1962 0.018445436 -0.0049997144 -0.064186245 0.042356245 0.052190166 0.044310782 -0.055707272 -0.04748378 0.0012417656 -0.0055849524 0.042919144 -0.034151137 0.037414495 -0.03897835 -0.0009056691 -0.006613332 -0.0010082453 -0.051543284 -0.0041532144 -0.008844543 -0.037807744 0.001721177 -0.037819937 -0.027014524 0.05891041 -0.019038143 0.036315408 0.03277131 0.009873042 0.032199588 -0.020144602 0.041607957 -0.031086242 -0.019546477 0.06933728 0.054238275 -0.023018444 -0.020719541 -0.008259899 -0.038106296 0.050386325 -0.00519677 -0.0044233846 0.007942029 -0.05125947 0.035945132 -0.017377092 0.00029706006 -0.02956668 -0.007167774 -0.059157316 -0.021869173 -0.0023345922 0.05367273 -0.025721144 -0.0035090507 -0.014974221 0.006480471 -0.027642174 0.026281685 -0.02424316 0.02287145 -0.020380761 -0.027259445 -0.021283135 -0.035471696 -0.07219752 -0.013658708 0.025548434 0.012047835 -0.015543503 -0.008117478 -0.016219752 0.014426399 -0.010857953 -0.049440708 0.0024770345 -0.0291274 -0.040259123 -0.06283282 0.040647812 -0.047764316 -0.046713866 0.05686841 0.056599915 -0.014107207 0.03553927 0.022308372 -0.025817625 0.01493548 -0.074758224 0.047527567 -0.029900063 -0.03268086 -0.031736564 0.013909027 -0.02735009 0.034430515 0.016862363 0.008259943 0.010262843 0.03316122 -0.004273236 -0.06569727 0.022083044 -0.019030338 -0.037516054 -0.010385271 0.005802237 -0.032633126 -0.04074267 0.06255802 0.039313816 0.048265185 -0.067068525 0.05508307 0.03595818 -0.026706561 -0.010391762 -0.043671716 -0.0070477184 0.02004714 -0.060728163 0.015268231 -0.0053018746 0.0077326717 0.0114918575 0.07481892
1809 -0.0006379776 0.033806205 -0.015084974 0.052837536 0.015354513 -0.03501198 0.03622429 -0.01538102 0.004034978 0.015075864 0.0129304705 -0.045124877 0.016071342 -0.041065548 -0.009138417 0.048149724 -0.0089403335 -0.05073078 0.019888297 0.041227475 0.022385785 -0.053187627 0.016447576 -0.052694038 0.02701308 0.02415838 -0.0149471015 -0.0817335 0.031355567 0.026214022 0.070956446 0.059589054 0.007847469 -0.01028247 0.034448486 0.030580347 0.049117852 -0.017673051 -0.048503153 0.06803158 0.00652152 0.058459952 -0.022797268 0.009407927 0.01980687 -0.0019950808 0.04012772 0.027409745 0.037787683 -0.003486084 -0.04730983 0.019570226 0.01052463 -0.0053465026 -0.046220776 -0.035306443 -0.051561743 0.029420016 0.0065951673 -0.003015628 0.009954494 -0.009879651 -0.023901267 -0.021645684 -0.00777426 -0.024647508 -0.041730687 0.052543648 0.011376272 0.022293039 -0.072170146 -0.04840199 0.088968724 0.0038410656 -0.029438369 -0.0398756 -0.002141645 -0.08644362 -0.010550115 -0.02681498 -0.034435816 0.008845619 0.027707627 0.006751952 0.010525125 -0.001332609 0.020823963 -0.0141848065 -0.044497292 0.036456086 0.008122744 0.06195005 -0.0034265302 0.00029690997 0.056363773 0.046454962 0.08840042 -0.02773855 0.004527011 0.06894424 -0.064725384 0.04114235 -0.08565374 -0.04325 -0.006994824 0.052735683 0.054932915 -0.035580635 -0.0049578063 0.009048786 -0.030587241 0.005268918 0.011251518 0.020815197 0.0040817577 -0.015665138 -0.028544147 0.00425043 0.021907432 -0.007916194 0.014379891 -0.0131570455 -0.02121044 0.07395138 0.016555697 0.09910708 -0.05643672 -0.007874537
2158 0.037779935 -0.02085527 -0.051007677 -0.043088228 -0.061902247 -0.039343998 -0.005498615 0.0045051007 0.043013718 -0.0025322484 -0.023294315 0.038629416 0.034390688 -0.022252744 0.036141563 -0.043162648 0.035339855 -0.057324104 0.064353764 -0.01630196 0.07173527 0.003179734 -0.017785896 -0.050095245 -0.07300056 -0.025376432 -0.043175958 -0.040370043 -0.013837733 0.04304415 0.029300027 0.015495336 0.048091725 -0.0015331052 -0.0052994075 0.0047258264 0.07324176 -0.00063179596 -0.009076891 -0.041214842 -0.053755265 -0.013881668 -0.037620757 0.037395112 -0.012776909 0.029040491 -0.049107637 -0.06384214 0.010612054 0.0038468412 0.023036039 0.03569593 0.05061853 -0.009542238 -0.024483522 0.047804713 0.009773762 -0.013328355 -0.00925048 0.038355626 0.009015952 -0.020883434 0.02662435 0.00039482105 0.010780512 -0.050690144 -0.036319893 -0.046425477 0.0036749323 0.013477198 0.086122274 0.034751266 -0.04790899 0.004428258 0.030517576 0.014197043 -0.06426601 0.011692421 -0.0041123 0.030938677 -0.027598301 0.0476078 -0.02956677 -0.05981233 0.03497792 0.010256301 0.07763737 0.0020853921 -0.04795632 0.02449861 -0.05056545 -0.02944704 -0.04253833 0.042504694 -0.009632673 -0.013022296 -0.019316582 0.043873906 -0.016029164 0.021430973 -0.004761537 -0.03524326 0.01888821 -0.044483226 -0.019486232 0.057149023 0.025676005 0.08735831 0.028950993 -0.020114774 -0.053770438 0.058818016 0.0021854956 -0.007264686 0.04583513 0.05965269 0.02565334 0.010700515 -0.061363887 0.06960009 -0.04373902 -0.0148092415 -0.014426016 0.045858596 0.00971736 0.020086996 -0.052674938 -0.013831217
45 0.0052721137 -0.084601514 -0.020919915 -0.028490214 0.011873783 -0.055476587 -0.010790341 -0.001055711 0.0038882673 0.009301783 0.032215845 0.0037105507 -0.039846744 -0.047204107 0.01840495 0.02179788 -0.019928923 0.009909641 0.029509617 0.0033771961 0.05124013 -0.017634809 0.06053156 0.029147329 -0.025377803 -0.012971267 -0.053677965 -0.008353154 -0.019143058 0.05878477 -0.024570102 0.025157254 -0.014956322 -0.025015742 0.011387095 -0.03030887 0.09270313 -0.01602874 0.019472213 0.0034112036 0.0036134797 -0.057910778 -0.02670085 -0.014943906 -0.0013608111 0.075684056 -0.029306352 0.0071566803 -0.03311998 -0.044010863 0.04366686 0.04021333 0.037249338 0.002541651 -0.00014140944 0.0044575473 -0.010059453 0.0028186215 -0.046999 0.017700668 0.022482935 -0.091388665 0.03482656 0.0756423 0.07434314 0.0045675095 -0.03824881 -0.024588391 -0.049530305 -0.053701743 0.010034402 -0.052010395 0.007850594 -0.027899073 -0.0009026853 -0.010313373 -0.01017631 -0.035565786 0.041959304 -0.018865362 0.013315847 -0.03055308 -0.010597867 -0.03931526 0.049757045 -0.009631584 0.044369638 -0.036179062 0.0631112 0.03175319 -0.013240241 0.029419411 0.051849503 0.08900675 0.055525236 0.035328064 -0.055691086 0.043893535 0.016131269 0.013321643 0.0514841 0.007880565 -0.029701093 -0.031493057 0.0060440605 -0.0024166082 -0.006475135 0.047112543 0.0051898356 -0.025246548 -0.025728894 0.02499581 -0.008244877 -0.06869841 -0.010818256 -0.04184994 0.060590144 -0.0531535 0.00051849085 -0.048038438 -0.064501025 0.026711665 0.0019420221 0.029779136 0.032347973 -0.0024159846 0.029422777 -0.03732731
57 -0.04632535 -0.07624831 0.0007610748 0.072065435 0.0931257 -0.041848924 0.015892794 -0.0396599 0.037857253 0.014993967 -1.2609322e-05 0.0047486075 0.004574967 -0.0008300172 -0.014232476 0.013149641 -0.054101784 -0.0128329955 -0.0063297153 -0.0008687869 -0.011792699 -0.061302017 -0.06849631 -0.07363261 0.006001708 0.013170633 -0.027231826 -0.04718852 -0.05602789 -0.03549519 -0.06840722 0.081419796 -0.029344184 0.011247952 -0.033092976 -0.025069034 -0.027219769 0.034287672 -0.06336396 -0.015656354 0.043735947 -0.05773675 -0.05355607 -0.035121147 0.02153879 0.016844273 -0.002647964 -0.07579529 0.026560439 0.0070543047 0.012577991 -0.040425897 0.018301236 0.026398014 -0.04788375 -0.013043092 0.030592125 0.047356125 0.018317997 -0.029168405 0.026797948 0.007468792 0.01978111 0.07110159 0.042381283 3.284998e-05 -0.05941362 -0.014025644 -0.05087336 -0.008608722 0.03129006 0.084721304 0.058934163 -0.06228281 0.0221991 0.04408456 0.09335168 -0.003707456 0.024154115 0.040907737 0.013746995 0.028576212 0.0194986 0.046912067 0.014519314 -0.043454558 0.02567509 0.020028226 0.00044517167 -0.050114755 0.0038908585 0.037060965 0.07398022 0.056842126 -0.06323942 -0.047939584 -0.011134664 -0.028074022 -0.02700852 -0.0016946332 0.044768076 -0.005302164 0.054417655 -0.017990856 -0.040371664 0.06712586 0.014639809 0.039590925 -0.09498511 0.051245615 0.05217372 -0.0011300846 -0.009938103 0.023596464 -0.026283698 -0.029576018 -0.063087754 -0.024681306 -0.025005033 0.045040313 0.03426673 -0.06626822 0.00014954293 0.003108783 -0.02551255 0.0026975947 0.0045307963 0.030157905
824 -0.037810143 -0.0077440618 -0.0034567157 0.04498751 -0.014922337 -0.051370773 -0.05725568 0.05236451 0.057793748 0.052274402 0.02656261 0.015599227 0.049764417 0.001717065 0.0498561 0.028199993 -0.038200103 0.038754158 -0.022266462 -0.05923144 -0.024046144 0.007883238 -0.038792808 -0.029762385 0.045670565 -0.01695688 -0.013846447 -0.020635346 0.021006491 -0.016127707 0.0028791009 0.0404 -0.031627484 0.022529798 -0.009058433 0.019927703 -0.0052913157 0.02043442 0.04793465 0.084254645 0.07371764 0.023667406 0.004877975 -0.07095887 -0.040397093 0.042624168 0.053372618 -0.054896265 -0.01189231 -0.020073041 -0.05970993 0.008654428 0.01504025 0.034257215 0.051213846 -0.014113793 -0.018896438 0.04141084 0.018982083 0.003627013 0.01023213 -0.0016844042 -0.029047318 0.009157457 0.05117951 0.019019518 0.0018591533 -0.02057843 -0.062826276 -0.019739456 0.06895532 -0.023235463 -0.0041989377 0.0007674402 -0.029148202 0.047035206 -0.038048487 -0.05799904 -0.005459989 -0.00755661 0.00073658046 0.01059598 -0.002561105 -0.02215439 -0.009462896 0.03601159 -0.057293124 -0.019410057 -0.010887239 0.040810645 -0.019878112 0.01444528 0.015619955 0.004027914 -0.024248058 0.032555073 0.01285981 -0.012798143 -0.028357105 -0.055071678 -0.049498655 0.010985014 0.022632735 -0.0024221991 -0.015107085 0.005561084 -0.011989452 0.04658135 -0.015393474 0.05176254 -0.025042776 0.025067208 0.026139004 0.041017175 0.059164964 -0.015472929 -0.04106005 -0.029671794 -0.0026330308 0.026350897 0.004560979 0.01616747 0.005837372 0.048679993 0.063808456 0.0327553 0.0049985666 -0.03102878
750 0.012519441 -0.047272693 0.018148042 -0.005698242 -0.03277611 0.002763735 0.038698882 0.013139011 0.04869735 -0.038445167 -0.04079275 -0.00060358923 -0.04569046 -0.052066855 0.022483567 0.0121494 -0.03612202 0.019811835 0.042285096 0.01071258 0.035022553 0.025749458 -0.01379927 0.029411696 0.005528586 0.037676483 0.040290166 -0.03422213 -0.015541221 0.018864153 -0.014767149 -0.046384934 -0.0011780085 -0.034839172 -0.046040457 -0.02019961 0.05454445 0.024688477 0.041391473 -0.017154433 0.03338086 0.0055531133 -0.008197455 -0.02364822 0.031453356 0.013102174 0.044604074 -0.015247806 -0.052339166 -0.044716883 -0.0008795757 -0.015791364 -0.03726664 0.0033325795 -0.02001353 0.053296905 -0.017067699 0.048117112 0.026943067 -0.00698449 -0.06318823 -0.016872391 0.04393165 0.027023688 0.042925254 -0.081666 0.059034843 -0.068071164 0.008535894 -0.06411003 0.03824343 0.024937958 -0.046570316 -0.030163487 0.016623463 0.025361344 -0.061428707 0.021448221 0.04134131 0.029930895 0.017631188 0.0429072 0.01731984 -0.024216235 0.06390509 0.055859003 -0.055946007 -0.021061527 -0.055333987 -0.07012699 -0.009716364 -0.031356655 -0.04282661 0.06616909 -0.04746905 0.091242515 0.012300973 -0.03574499 -0.07259781 0.058423825 0.022806155 -0.02964616 -0.002470612 0.0068481527 -0.030739874 -0.014392323 -0.03127234 0.013062167 0.063144535 0.047973096 0.017390823 -0.017408727 0.012782118 0.051347457 -0.009722349 -0.05791655 -0.013636889 -0.030742882 -0.03235936 0.034434803 -0.028463349 0.06382925 -0.07561011 -0.011152674 -0.04647658 0.009394644 0.037067153 0.037563987
1118 0.019508826 0.04019897 0.080648825 0.06993445 0.015572627 -0.02757272 0.06842293 0.051763896 0.06645096 0.02767868 0.0649459 0.040259346 0.068344064 -0.0023914597 0.011265478 -0.044082947 -0.042895094 -0.003535546 0.008963591 0.060505874 -0.02977072 0.07032 0.084450416 0.052726828 0.00019130284 -0.01918726 0.012882604 -0.057500787 -0.059715826 -0.011950594 -0.03808186 -0.071713604 -0.04117479 -0.060896166 0.006509892 -0.052674297 0.007813537 -0.08122755 -0.025115341 0.010744028 -0.032592546 0.028534045 -0.019354831 0.0012543855 0.054365844 -0.054113403 -0.053028353 -0.0013680363 0.07105236 -0.013448711 -0.033772323 0.03296657 0.0077540847 -0.022611797 -0.050665524 -0.03770892 0.04038731 0.005418229 0.08323 -0.012574152 -0.00032073702 -0.0009982316 0.032582294 -0.036916018 -0.032509968 -0.04779706 -0.011544818 0.00053291215 -0.023643915 -0.00694003 -0.030619975 -0.047192793 0.01520668 -0.057330873 -0.009189175 0.00886863 0.015546788 0.028313657 -0.004512402 -0.044310506 0.020729078 0.024895515 0.010121915 0.013387337 0.059028585 -0.028437596 0.0023394786 -0.018883564 -0.032682296 0.016192367 0.04099759 0.055808555 -0.056295164 0.011530509 0.0429106 -0.00079283456 0.027164757 -0.0882196 0.057450987 0.04151345 -0.008432574 -0.03338802 0.022339216 0.026995802 -0.0035272979 0.04207762 -0.04652779 -0.024402894 0.01084745 0.023227163 -0.008524202 -0.044638388 -0.03411841 0.025473377 -0.04285547 -0.007871802 -0.039898824 -0.08270705 0.052115615 -0.0016987467 -0.019899353 0.027052294 -0.02746526 -0.07291188 0.015308676 0.044552572 0.04234858 -0.052213535
1035 0.049590535 0.017795095 0.036137786 -0.052137535 -0.011526268 -0.055658445 0.063578784 -0.022372384 0.016890984 -0.021165086 -0.008645967 -0.053232655 -0.07049003 -0.02796652 -0.034768157 -0.04830655 0.0034802246 -0.004703648 -0.016273005 -0.04305592 0.04053789 0.014451482 0.0062644854 -0.006883424 -0.06489892 -0.04747326 -0.088816985 0.01533558 0.016860418 -0.033260275 -0.006580162 0.038710207 -0.057903983 0.05928592 -0.0036259193 0.047764417 -0.0033901231 -0.008290813 0.05272899 0.010682815 -0.022235274 -0.022756865 -0.009901937 0.03484477 -0.009064433 0.0049266056 0.03985491 0.020581858 0.037278146 0.013536549 -0.07039793 0.043315202 0.01642847 0.03640478 -0.042165544 -0.016776105 0.04830343 -0.02630905 0.06357498 0.006176168 0.019114783 -0.01379804 0.006264266 0.05962685 -0.0070179375 0.029180925 -0.03457983 0.02665648 -0.018309673 0.032815445 0.008608958 0.04592512 0.0058879494 0.0040845266 0.04821663 -0.010915067 -0.0036856222 0.063435666 -0.039072424 0.00011895535 0.033660304 -0.024210125 0.040545795 -0.033803634 0.030498894 0.05787467 0.020606704 -0.056575824 0.06388821 0.06059812 0.010654366 0.020020148 0.060279448 -0.03909178 0.084281325 -0.0427981 -0.0040349183 -0.005617016 0.0068617323 -0.011622688 0.036616378 -0.04099469 -0.009827331 0.014556259 -0.061723705 -0.02705068 -0.050592665 -0.026336096 0.052177828 0.03564832 0.031297367 0.00015137283 0.029972466 0.00820803 0.05756717 -0.035558805 -0.021135166 0.025014164 0.07451298 -0.02303442 -0.040854152 0.006497675 -0.019600743 -0.06881115 -0.05735227 0.020377785 0.06383372 -0.02590243
1036 0.004261126 0.03666245 -0.0283145 -0.054736022 0.023829533 -0.035577297 0.024535526 0.007811199 -0.05744547 -0.024023775 0.03828913 0.06409264 -0.04392849 -0.0132462075 0.07577729 0.020988662 0.050003693 -0.016628034 0.0002949409 -0.021151727 0.0026222717 0.01753891 0.01530904 0.018910114 -0.013556294 0.03763563 -0.054379888 -0.03329763 0.015236595 -0.047898617 0.047501054 -0.027487783 0.035174023 -0.018032765 -0.022369005 -0.052812904 -0.012534162 -0.03374494 0.011990004 0.0020787367 0.065044984 0.006074028 0.012024354 0.0132076265 0.06087738 0.019603947 0.07974898 0.034779176 -0.011265877 -0.0007328653 -0.03171903 -0.017400423 0.040825535 0.012406846 -0.033666525 -0.010435598 -0.025766172 -0.031365886 -0.050299425 0.04445444 0.029988842 0.010483646 0.071166575 0.038723838 0.03473814 -0.015109088 0.012703375 0.009217967 0.010009548 -0.0071614883 -0.00561974 -0.0042257537 -0.0135103995 0.054890852 0.0010168419 0.043502167 0.038786694 -0.00055497163 -0.07121814 -0.009115214 0.07191499 0.060818404 0.02999995 -0.021668954 0.05589865 0.0482167 -0.0020822347 0.010278114 0.035113405 0.0005724947 0.017819164 -0.048341367 -0.009052512 -0.03597033 0.008155682 -0.018687967 0.059344664 -0.006450804 0.05345106 -0.051969837 0.0004993681 -0.024008702 0.07056734 -0.034737796 -0.047198284 0.0189849 -0.019283244 0.045018632 -0.0074433074 0.02397907 -0.01033707 -0.005959276 -0.030964037 -0.0268983 -0.033271804 -0.05337783 0.01606666 -0.059337683 0.067473955 0.045253817 0.048520766 0.0015412583 0.030853672 -0.00010141678 -0.052459452 -0.006428076 0.0009841588 -0.025684599
908 -0.011347793 -0.03398379 0.057698604 0.0048663206 -0.07228723 0.03757224 -0.011997315 0.050825894 0.0053177737 -0.054497 0.04344517 0.009586147 0.014428743 0.04844774 -0.009988581 0.06086069 0.016167955 0.07585961 0.030712444 0.016435722 -0.023127647 0.06838947 -0.025348049 0.05763084 0.07934083 -0.024586448 0.10668248 -0.0027287751 0.029859535 -0.07296233 -0.019773344 0.08992272 -0.0020333324 -0.02316321 -0.040429104 -0.0073227314 0.06535579 0.052529667 0.002161959 0.004955232 0.041746818 0.05044041 0.034156952 -0.055651262 0.05906166 0.01387625 0.023777505 -0.040658966 0.071528725 -0.05597842 0.06765065 -0.04072611 -0.010313765 -0.05085492 -0.015765231 -0.0109335575 0.019356715 0.06481873 0.00093618204 -0.058402546 -0.05368621 0.015293888 0.04361779 0.038960174 0.048366852 0.06420859 -0.04085269 -0.033962592 0.039388653 -0.037625566 0.027562808 0.06901851 -0.018845057 -0.002953872 0.03464813 -0.025535598 -0.010545604 -0.005633039 0.014023616 0.062290896 0.095909424 0.0092262225 -0.013425948 0.047642466 0.04889836 0.039517898 -0.0029600677 -0.028201088 -0.0019791021 0.014630891 -0.056730174 -0.00857491 0.013491552 0.040995847 -0.015576412 -0.019790396 0.015308127 0.004607416 0.019641278 -0.013948851 -0.055297066 0.04682828 0.016683964 -0.04946785 -0.029526416 0.030952748 0.009967303 -0.061081957 0.00871542 -0.04104725 -0.02992791 -0.05025483 -0.016452914 0.06555545 -0.08710577 0.024994263 0.050239082 0.06913512 -0.06727503 -0.00907516 -0.018980445 -0.09173885 -0.013031021 0.065329544 0.044799022 -0.057970256 -0.08141833 -0.017150676
1950 -0.008055007 0.031672828 -0.032773167 0.024921082 0.06039725 -0.006764464 0.036504 -0.040604807 -0.03994881 -0.03757803 -0.0028944265 0.046235837 0.01052316 -0.026780652 -0.06524422 -0.0056539294 0.08498894 0.020525083 -0.03626478 -0.007410504 0.02421959 0.024918362 0.025543489 -0.051479936 -0.010454852 0.005802086 0.014392606 -0.023545744 0.010709473 -0.007291958 -0.03650048 0.04409467 0.0005101081 0.040249504 0.023307545 0.031463277 -0.05520362 0.00090708677 -0.027373007 0.049246237 0.062200703 -0.031422943 0.00427551 0.032497913 -0.027604828 -0.02194731 0.06887801 0.02208516 -0.024114154 0.029135589 0.04071091 -0.05972411 -0.004303727 -0.016013758 0.052138854 -0.03576854 -0.037574753 -0.00495185 -0.004069388 0.012429327 -0.03564868 -0.03105504 -0.023172515 0.049242217 -0.017188396 -0.032014422 -0.018850751 0.0038913926 0.019970313 0.05584543 0.047232788 -0.08581311 -0.043469008 -0.011154829 0.010682451 0.015263561 0.017467767 0.00021090332 -0.060214654 0.023018299 -0.008275001 -0.005137074 -0.0087660365 -0.019952653 0.012182805 0.02433608 -0.070103556 -0.038966432 0.05251618 -0.068266444 -0.0067102616 0.019822652 -0.024171963 -0.021411998 -0.012351248 0.01079643 0.01938364 -0.024529349 0.060143914 0.044622686 -0.02022494 0.01002314 -0.0018006157 0.07125094 0.041892286 0.03588994 -0.012848759 0.013751442 -0.039324984 0.054274168 -0.013739549 -0.033669326 0.013620591 0.07638034 -0.03369247 -0.023966882 0.029214961 0.017473666 -0.016942391 0.052066915 0.004939374 0.041356593 -0.039916843 0.022199601 -0.043001868 -0.035456475 0.07174271 -0.018335441
1749 0.024777258 -0.052832097 0.021812944 -0.019594813 0.046120256 0.01809512 0.03418968 -0.03425933 0.005100077 -0.08323354 0.049088962 0.0018100594 0.0455177 -0.05887837 -0.050548557 0.01978446 0.00066778174 -0.024184845 -0.0020409825 -0.01546358 0.0014454864 0.0068111755 -0.061192013 -0.031723432 -0.01592125 -0.021192176 -0.016145665 -0.022743478 -0.0037788956 -0.0264624 0.005252296 0.02595865 0.05479757 -0.030716032 0.059756197 -0.03857815 -0.020125503 -0.034912672 0.052374315 0.038153548 0.06809868 -0.065484926 0.006847087 0.015928965 0.021634737 0.020704607 -0.040121198 0.032235898 -0.017300094 -0.04819654 0.05329863 -0.06327103 0.0025043103 -0.032543387 -0.02052286 0.022681817 0.0053339237 -0.0107472055 -0.00029778108 0.0345247 -0.0034120628 -0.000229657 -0.012216356 0.017340766 0.023726923 -0.050184943 0.033380814 -0.04966643 0.048988894 0.041886955 0.013241874 0.0028948726 -0.04610762 0.0020712698 0.023079103 -0.024572803 0.0067571383 0.037153404 -0.01798086 0.002438556 0.015328942 -0.0038279183 0.07158899 0.0042094323 -0.017470038 -0.023264688 -0.024404218 0.015781201 0.018730251 0.0009810469 -0.022179674 -0.011087756 0.019099671 0.013315251 -0.018128606 -0.004745914 0.049025055 -0.003657141 0.015947409 0.044907056 0.06243857 0.0152234975 0.015267518 -0.0022848519 0.023634879 0.0420014 0.008747143 0.01085668 0.0006600844 -0.014654755 0.017244738 -0.003853242 -0.05753907 0.021585144 0.0067743817 0.0069736415 0.018417375 0.027265104 -0.019535698 0.044836227 -0.0046630898 -0.012006761 -0.013217614 0.028267909 -0.0071011065 0.05195817 -0.011343073 -0.04096605
2185 -0.03349524 -0.03307377 -0.03303558 0.031165086 -0.02136931 0.014495006 -0.05388518 -0.011171113 0.064040914 0.0029835568 -0.028334653 0.041586988 0.07495875 0.0012606195 0.04774131 0.05908384 0.058431573 0.053218026 0.014710113 -0.01410232 -0.013983042 0.010360133 0.09372824 0.046890184 0.042322163 -0.021539722 0.044321347 -0.048166864 0.0042231665 -0.046481192 -0.05374408 0.0032916688 -0.02982715 -0.037827756 0.061909374 -0.019763505 0.00744714 -0.0150957955 0.06388866 0.03955491 0.019972445 0.057051625 0.024180349 0.03191204 -0.032126684 0.007844063 0.050543938 0.039469387 -0.023876227 0.002426391 0.048430733 -0.002810573 -0.019865826 -0.014880281 0.01315654 -0.046910644 -0.019241529 0.07306589 -0.03516466 -0.006933035 -0.07982719 -0.030374585 0.04661513 0.005101618 0.040163677 0.021173691 0.043284968 -0.053485263 0.0058464366 -0.0036086298 0.030754458 -0.062112857 -0.023364294 0.090345316 -0.047382437 0.013162307 0.03131604 0.013198936 -0.0006363662 0.0824699 -0.06145441 0.055151097 0.033840597 0.029191853 0.051340993 -0.051912937 0.018461173 -0.021295002 0.03974803 -0.0017021307 -0.009794958 -0.00087848486 0.014615395 0.011598671 -0.003971927 -0.040789954 -0.01746261 0.03159782 0.030096097 0.022026299 0.031754427 0.013532907 0.02862271 -0.07194635 -0.03756095 -0.041281205 -0.025116641 -0.011876457 -0.035305828 0.0034339938 -0.044613134 -0.0060589123 0.035559367 -0.0081426725 -0.04313287 0.0056297425 -0.0055213505 -0.01026745 0.0037196674 -0.06788027 -0.033786792 0.059962645 0.014380191 0.05753963 0.0114139095 0.054023657 0.016177557 0.031656142
1805 -0.015265308 0.028973911 0.06933379 0.056863 0.037404016 0.024210544 -0.03561556 -0.03743756 -0.0634599 0.05451853 0.064086124 0.05108562 -0.017593276 0.02446966 -0.04550197 0.07380724 0.043860428 0.01763435 0.05882581 -0.04725385 0.03568665 0.007029016 0.08984316 0.037323434 0.05625092 0.018713035 0.092100754 -0.08525842 -0.026834598 -0.0078002196 0.019824835 -0.0081982855 0.012343664 -0.055945035 0.043663263 -0.009440361 -0.032801528 -0.070494205 -0.039765485 -0.024322215 -0.060414825 -0.062101003 -0.07291857 0.027773594 -0.04644945 0.069221675 0.031069513 0.029263299 -0.092611484 0.046690423 -0.03675564 0.056501824 0.016496785 0.040573314 -0.03630838 -0.06323173 0.04423745 0.003618981 -0.08956341 0.044296343 0.009584924 0.027505625 -0.047844995 0.03757147 0.011250847 0.043040965 0.047609624 -0.011914072 -0.05161354 -0.049893383 -0.041557148 0.024736488 0.038984694 0.035843987 0.0076581487 -0.058812983 0.042284984 0.026494574 -0.0089034485 0.026478544 -0.015566992 -0.0028222934 0.04510665 -0.0051899957 0.024734536 0.053998325 -0.030807773 0.009646175 -0.052497473 0.031218266 -0.07327633 0.019421123 0.070352815 -0.008489022 0.049982525 -0.029332977 -0.04413993 -0.06321757 0.050762516 0.067286566 0.010555321 -0.0011112127 0.060865898 -0.06356827 -0.020266496 -0.041004244 -0.02411509 0.06789167 -0.037657015 0.0007072542 0.06161839 0.04512984 0.06679459 -0.04688126 0.040274452 -0.04301091 -0.0016070917 0.040982127 0.026792206 -0.0116676325 -0.042906586 0.021164265 -0.029453304 -0.0220501 -0.051278155 -0.0057755364 0.009505181 0.06875003
656 -0.0052872617 0.03854256 0.053634565 -0.038076997 0.03868301 0.08142605 0.045303848 0.037133384 -0.056454167 -0.014736257 0.030007219 -0.0008017234 0.03178775 0.05339421 -0.028425593 0.03427883 0.026141398 0.0045109657 0.0004895602 0.053715643 -0.0023797967 -0.030305106 0.020429963 -0.031112012 -0.02452174 -0.070757344 -0.02287244 -0.056218594 -0.0028861582 0.012646615 0.026366178 0.04441174 -0.020926582 0.022184322 -0.00031960488 0.006004678 -0.03208366 0.00037060448 -0.018999066 0.048168737 0.025844654 -0.046336718 0.019029284 -0.024025451 -0.04621991 0.03587199 0.05594548 -0.06497885 0.068579 0.018329669 -0.043407965 0.010544508 0.028548537 -0.04864329 -0.042345844 -0.0021225584 -0.0045186277 -0.0151208015 -0.031012302 -0.034239795 0.022001337 -0.022711191 -0.010468777 0.052048232 0.0610876 0.102564804 0.018016987 0.045138896 0.05082203 -0.045029517 0.020233592 -0.0104597295 -0.008216647 -0.016057128 -0.06973257 -0.06353964 -0.012906539 -0.02832389 -0.033467654 0.01733302 0.06543624 0.044131573 0.040489454 -0.05989486 -0.054162357 0.022328336 0.0471658 -0.04667634 0.05839351 0.038162075 -0.017667187 0.01348421 -0.022620859 0.02514769 0.032229073 -0.019983402 0.010611442 0.065840654 0.044765834 -0.01717098 0.029812036 0.030375095 -0.048022825 -0.028659934 -0.026796531 -0.014635988 0.035012 0.023172587 -0.08461008 0.041296218 -0.021766812 -0.00047737898 0.046816427 0.034158718 -0.023940306 0.013277561 -0.011433236 -0.019086322 0.05745631 -0.014894386 -0.07828546 -0.046870295 0.015791148 0.0111428965 0.067347944 0.036579013 0.021340312 -0.056922585
1406 -0.013234126 0.022689752 -0.033015203 -0.08275727 0.066425085 0.01930978 0.024638884 0.06188105 -0.06731648 0.018215014 -0.007594866 0.026479144 0.007363984 -0.041254945 -0.05583175 0.044233914 -0.004980237 0.018263996 -0.009655334 0.036315154 0.001929656 -0.05330874 -0.0039412915 -0.0404279 -0.03561153 -0.041369922 -0.019586107 -0.027227756 -0.059377827 0.051445127 -0.016293716 0.064690255 -0.041523222 0.094361976 -0.01680287 -0.03896631 -0.04398794 -0.012331351 -0.02282306 0.078694366 0.047514908 -0.004702072 -0.030300247 0.041367304 -0.02375523 -0.01508367 -0.0025287282 -0.030089676 0.07448815 0.06862253 -0.009055728 -0.022309825 0.03767941 -0.044509064 -0.0064298343 0.00692594 -0.0010073831 0.009270289 -0.050518043 -0.073704466 0.06858917 -0.08999455 -0.08273069 0.09498554 -0.03723023 0.050013825 0.042651977 -0.054191343 0.021082738 -0.008457695 -0.0741964 0.005343355 -0.054958675 0.028902503 -0.06140155 -0.017144553 0.0015657754 0.03000688 -0.02769115 0.05678646 -0.019454699 -0.00036426506 0.06527933 0.015003057 -0.03107331 -0.055108365 -0.043058686 -0.02064232 0.06443731 0.026983162 0.019976394 0.039976187 0.008081661 -0.0041946806 0.017531918 -0.057456344 -0.043032803 0.03342539 0.002578952 -0.054328203 0.029210776 0.06125998 -0.029628372 -0.02153157 0.03763547 0.02853127 0.02477928 -0.020886503 -0.019074814 0.036534656 -0.019674642 -0.022269124 0.0032356014 0.004136035 -0.038629953 0.074524455 -0.037226506 0.011005639 -0.013442285 -0.058610033 0.030860027 -0.029186446 0.026164664 -0.060175616 0.014925627 -0.034327127 0.0052385335 0.04187639
216 0.0024048546 -0.030120717 0.041819654 -0.011892623 0.02704214 -0.020341974 0.01783827 0.035713766 -0.027439166 -0.028051654 0.04840877 0.0023258287 -0.022267397 -0.04966636 0.033656433 -0.010225586 0.023405079 0.045657266 0.0737295 0.0033689172 0.039180033 0.006055484 -0.01806886 0.02696892 -0.039454814 0.02751311 -0.033217188 0.02647729 -0.04233614 0.021131743 0.030443285 0.03024673 -0.060742762 0.024099413 -0.011867504 0.035933737 0.025609326 -0.006875555 -0.00044834928 -0.02944998 0.0012534508 -0.03291958 -0.022174612 -0.023745632 0.012903595 -0.003609359 0.05503155 -0.030703453 -0.02455027 0.037381474 0.008875211 0.010493021 0.031302933 0.001227151 0.059981313 -0.013944729 0.01660619 0.029664783 0.048970018 -0.011854656 -0.012424576 0.008450439 -0.012633526 -0.03188432 -0.032933395 0.0383721 0.025791215 0.040079694 0.021953592 -0.024682386 0.012794618 -0.030545423 -0.07805217 -0.0023069805 -0.01455737 0.055327766 -0.02986623 -0.021117251 -0.027257945 0.0064010383 -0.037656404 -0.02655183 0.02176864 -0.00015215564 -0.025882425 -0.0410588 -0.013284778 -0.03184188 -0.056493063 0.003206928 1.4572412e-05 -0.019829491 -0.008412827 -0.014921644 0.02522917 0.013987155 -0.031962473 0.054096095 0.071784295 -0.023287276 -0.031049522 -0.058006223 -0.022322917 0.039060853 -0.016104173 0.0349153 -0.002442699 0.025719957 0.018196613 0.017739879 0.038765773 0.031754352 -0.041149653 -0.009210683 -0.050694432 -0.0788682 -0.054586865 0.02582529 -0.07211049 -0.09625513 0.02546917 0.015990354 0.007732286 0.043684103 -0.082989864 -0.064494394 0.0751625 -0.040434327
59 -0.0038202356 -0.014397616 0.03854299 -0.00084364234 0.0029922726 -0.019801427 -0.03876275 -0.025272634 0.007050192 -0.0075279376 0.056446977 -0.00030836128 0.065584674 -0.057564378 0.045422524 0.07891696 0.04330645 0.027225787 0.04530987 0.06558453 0.015204744 -0.023839496 0.006797889 0.023418406 0.023340702 -0.005650973 -0.03753723 0.0041352264 0.007980921 0.001047301 -0.0035953806 0.017892111 -0.017948216 -0.011304923 -0.012763677 0.010307726 0.070333265 0.0055540036 0.04524694 -0.06659167 -0.07060986 0.011720156 0.04600967 0.01514676 -0.0071732854 0.045436613 -0.008194928 0.04051492 -0.06826133 0.020410065 -0.032716017 0.012284357 0.016263405 0.004236145 -0.035150167 -0.04767397 -0.020096026 0.023598233 0.02984341 0.003414516 -0.05695048 -0.025810907 -0.016782554 -0.07893173 0.011013322 0.0041539464 -0.022988409 0.037637535 -0.010673032 0.011085186 -0.02088752 -0.018541954 -0.032947607 -0.011818643 0.010439631 -0.059369948 -0.006680865 -0.02720141 -0.042214483 0.02932481 0.034951486 -0.034193978 0.05230244 0.061958786 -0.008880771 -0.08695852 0.016102748 0.024276972 -0.035674877 0.03660583 -0.009927047 0.013850798 0.0008068079 -0.015005495 0.07645449 -0.022177206 0.03430392 0.03666894 0.027828237 -0.054740485 0.018520778 -0.007927714 0.010861504 0.06337057 0.022478981 0.020438187 0.0038129261 0.011639507 -0.01832135 0.015788615 0.06251127 0.026836067 0.023721615 -0.0317166 -0.07579863 -0.06927511 -0.042584974 0.019414654 -0.041732974 -0.012141677 0.0039662938 -0.01856954 -0.030371347 -0.025319222 0.025292618 -0.07902213 -0.026044406 -0.042143483
1058 -0.043291952 -0.02717827 -0.019841168 -0.04029668 -0.064767525 -0.03236571 -0.042710952 -0.039326508 -0.016639253 0.061107058 -0.038466882 -0.051227774 0.008084634 -0.03630196 -0.016505772 -0.017112957 -0.028845005 0.011090581 0.010986915 -0.03377897 -0.02568856 0.027093796 0.023682222 -0.07284251 -0.010012387 0.007912508 0.0437758 -0.026262663 0.02299867 -0.034636073 -0.0021533084 -0.013660278 -0.07801303 0.06024422 0.028653134 -0.009329935 0.0029499189 0.0024479055 0.031276446 0.024809906 0.06533261 -0.047192484 -0.0064567323 0.0015472542 -0.019583428 -0.011964223 0.052680343 -0.051284894 0.018944798 0.00024543583 -0.024562513 -0.0021135972 -0.03530205 0.003634273 -0.0570376 -0.066239916 0.0075153885 0.035306413 -0.037740726 0.000837786 -0.004284385 0.031183304 -0.026576582 0.031935185 -0.040456258 -0.0024016807 -0.005877685 0.040882897 0.03457041 -0.004485286 0.04145369 -0.020424802 0.03380614 0.03444754 0.029868582 0.052971754 -0.04622014 0.002373995 0.032542665 0.022466242 0.07481457 0.025032973 0.009345135 -0.022028761 0.052497517 -0.037664358 -0.01686924 -0.09045939 0.051367633 -0.013611009 0.07946392 -0.0014880786 -0.05478573 0.03218746 -0.04564356 -0.05615342 -0.013187384 -0.012631357 0.051557057 -0.056306336 -0.04852926 0.070010066 -0.021909617 -0.030679174 0.038567502 -0.064010814 -0.027047485 0.005955959 -0.025510926 0.012423778 -0.011036727 -0.018768216 0.03955453 0.003511365 -0.017400581 -0.06910096 0.016059795 0.019133214 0.0045929914 0.012157295 -0.029942952 -0.028963592 0.007770481 -0.0014684978 0.021995392 0.07513121 0.02637791 0.051634904
83 -0.0056163743 0.006474681 -0.017701473 -0.01976998 -0.056926243 0.004023295 0.028347906 -0.0726754 0.010511956 0.013342755 -0.009175838 0.021579484 0.07381381 -0.04182823 -0.015016731 -0.029223368 0.0020871523 -0.008828867 0.023201207 -0.015553986 0.004953924 -0.046389222 0.045299623 -0.031898692 -0.10110939 0.039519615 -0.04875129 -0.0294552 0.032582406 -0.06403168 -0.04626576 -0.020033712 -0.012891119 0.0739411 -0.066235974 -0.03437173 0.01599183 -0.051639225 0.06059913 0.007351327 0.052866094 -0.026749222 0.041362736 -0.014225633 -0.08205831 0.015726022 -0.08406361 -0.037396174 -0.04579876 0.0073136943 0.036345977 0.020891141 -0.07844044 -0.0019142544 -0.0032665138 -0.040823802 0.039824095 0.03143845 0.06825962 0.035935834 -0.011574104 0.036441248 0.00018809468 -0.039233822 0.008999347 -0.04483963 -0.01587101 -0.00975639 0.016593426 -0.014724269 0.04094561 0.038436163 -0.045340918 -0.012577075 -0.008526712 -0.01903787 0.059524156 0.044944633 0.010395958 0.037778422 -0.0023513213 0.0071327235 0.050258704 0.01635626 0.027976861 -0.011932543 -0.007819438 -0.02069976 0.090346806 -0.007596078 0.06471228 0.017883016 -0.024139855 0.027607346 -0.0264236 0.00039075193 -0.018108591 -0.06637916 0.03430031 0.026175074 0.052748136 -0.0026403782 -0.027788684 0.043439124 0.052933898 -0.017431488 -0.05074047 0.003112016 -0.026814738 -0.06979836 0.0083086025 -0.02951449 0.044240557 -0.039066393 0.042535186 -0.055014763 0.06994741 0.032221876 -7.897755e-05 0.028537042 -0.064506374 -0.021776091 0.044097707 0.036774136 -0.013715308 0.06899195 -0.065208875 0.044857565
2191 0.0144347325 -0.00036715728 0.022277819 0.015453037 -0.07635811 0.02830867 -0.036723796 0.018975796 0.0362962 0.0009598688 0.016690593 -0.0057044206 0.040453274 0.025709769 0.0249166 0.03171822 -0.021211619 0.0012262292 0.018267378 0.017126484 0.016293297 -0.049238756 -0.0032131176 0.060812708 -0.028450664 0.0053673196 -0.08811682 0.016084611 -0.0323108 -0.04126026 0.005248911 0.003414413 -0.0045415433 0.0016240376 0.028313298 -0.073881604 0.023004027 0.002978497 -0.06745939 0.016703028 -0.026902894 0.028065547 -0.008738937 0.04851391 0.03308797 0.019028442 0.03546337 -0.0016261718 -0.012651633 -0.020073427 -0.0046074986 -0.047017794 0.017824603 0.022165708 -0.05128876 -0.010525543 0.05076062 0.017386092 -0.0042297267 -0.015999539 0.047787767 0.00535514 0.011222219 -0.010207733 0.035631657 0.038533956 -0.06784826 -0.0411427 0.058738086 -0.05018295 -0.002193052 -0.009239343 0.085104704 0.014761897 0.043874215 -0.050757885 -0.0051040696 -0.028505705 -0.04701971 0.04172232 0.089255355 -0.047872838 0.009842509 0.008020222 -0.031050747 0.02932842 -0.01772922 0.04720525 0.037994698 -0.043488726 0.014935607 -0.05623689 -0.07033528 -0.03320894 0.014541374 -0.07595033 -0.036601864 0.03740707 0.03652412 -0.02402195 0.017467124 0.008662654 -0.0126738725 0.00844896 0.014998114 0.03251411 -0.052916735 -0.00029624638 -0.0099195605 -0.060957253 0.0222457 0.029092459 0.045746937 -0.007583609 -0.020576831 -0.010039191 -0.04748052 0.022694262 0.023632012 0.033385396 0.0634244 -0.0039904984 -0.030253047 -0.040967416 0.08558272 0.007048429 0.07855371 -0.020162893
1902 -0.08173802 -0.052090347 -0.06409873 -0.018569993 -0.022965388 -0.04470134 -0.059746407 -0.062428582 -0.04882483 0.045288604 0.07673859 0.06505264 -0.035971716 0.02690343 0.030166127 -0.00022801748 0.008039611 -0.0017655728 0.027193492 -0.0029015103 0.03869616 0.015843632 -0.028277 0.0054457695 -0.056046482 0.03320683 0.012700133 -0.04403843 0.008901577 0.0042722034 0.026214937 0.010832904 0.058793742 0.033907715 -0.058709636 -0.049108084 -0.056072477 0.02796445 -0.021600766 0.0115314275 0.015490074 0.10214177 -0.0062524783 0.09882569 -0.0046427674 -0.067703456 -0.06276404 -0.0228786 0.008696128 -0.0317664 0.011904945 -0.033722907 0.045814052 -0.032020982 -0.04433131 -0.057930194 0.07046376 -0.02124241 0.044166632 -0.020945674 -0.04954159 -0.01950299 0.033161115 -0.01915865 -0.03563653 -0.042895503 -0.05763138 -0.04027651 0.07489695 -0.06212791 0.030726688 -0.0667136 -0.019841023 0.020652113 0.03441287 0.060776163 0.098815866 0.006378303 0.005451847 -0.05717548 0.01024272 -0.05885373 0.03147481 0.025085561 -0.06398986 0.00040393352 -0.05571139 -0.018198447 -0.0253732 -0.023796251 0.0105412 -0.04340061 0.057346452 0.018238861 -0.02351155 0.03177898 0.042130634 -0.016282503 0.05510517 0.045047373 -0.043880343 0.047952883 0.0017118 0.03783191 0.062133335 -0.020655096 -0.0393644 0.02728561 -0.0406021 0.014893139 -0.032625146 0.040475972 0.021706548 0.0022902698 -0.048617654 -0.054879833 -0.057829656 -0.00062466913 -0.02250916 0.015360722 -0.04194411 0.0064145583 -0.0020150784 -0.017862685 0.03996873 -0.017389785 0.034794167 0.020774446
1151 0.030157909 -0.050239857 0.043317135 -0.011955015 -0.031878706 0.097559236 -0.0031973522 -0.041577894 0.004022949 0.013070036 0.041838005 -0.001665802 0.0076644304 0.0010950341 -0.06284333 0.022672035 0.030281324 -0.041560546 -0.0033589625 0.052926295 -0.0020615628 -0.013854395 -0.0039504427 0.08230899 0.045804195 0.044048563 0.030702185 0.073993325 -0.03434575 -0.007913516 0.02225549 0.0055776155 0.011964684 -0.036677897 -0.025562393 0.02986648 -0.037753265 0.04048666 -0.07167897 0.009693274 -0.019702202 -0.041940328 -0.04898653 -0.0944633 -0.06144105 0.012518723 0.053421933 -0.017170658 -0.029861988 0.030184649 0.01620802 0.019834334 -0.038850024 -0.012845588 0.075021386 -0.09703304 -0.0486022 0.0004886904 -0.014772724 0.023164334 -0.013117043 0.020224705 -0.017803118 0.06286277 -0.004182529 -0.027746482 -0.055002805 0.008930564 0.0073353853 0.00083558436 -0.04963703 0.013301639 0.005996343 0.02423988 -0.025078379 -0.026602441 0.04295223 -0.038892288 -0.022038411 -0.004988106 0.020926135 0.05355982 0.03963729 0.02893325 -0.04907251 -0.057979763 0.06941748 0.0058462666 -0.025397988 -0.027941646 -0.027742347 0.029773023 0.00011204291 -0.07290344 0.03396637 -0.06234824 0.017973883 -0.010665825 0.010885177 -0.010093613 0.019494835 -0.034863137 -0.040764943 -0.0012517251 -0.052037843 0.038892705 -0.0012487578 0.010068689 0.023834204 -0.062245745 -0.044936642 0.009498833 -0.03906436 0.03815469 -0.020761603 0.053966984 0.032745145 0.046286885 -0.02366018 0.015641144 0.027505113 0.062084604 -0.021571806 -0.053222008 0.028904982 0.017203355 0.07635466 0.023178183
2127 0.048737053 0.029945944 -0.019794254 -0.0113541335 0.025898583 -0.022631176 -0.028019685 -0.034700386 -0.019346315 0.0024502685 0.07525664 0.055017848 -0.048016664 0.0051919697 -0.05576787 0.027790418 -0.005894972 0.014868433 -0.02694334 0.009088045 0.0040810658 -0.022077082 -0.009989803 -0.05391012 -0.050594557 -0.038017362 -0.038945936 0.063694686 -0.051572934 -0.013042506 -0.016032856 0.026618503 0.022253713 0.08112315 0.061363094 -0.043278266 0.083256036 -0.011602627 0.045851726 -0.01807236 0.017030774 -0.015330514 -0.017537665 0.026492162 -0.0035378085 0.030103264 0.035701603 0.024436628 -0.016581973 -0.034046415 0.03773796 0.024584427 0.022925073 -0.03332453 0.036807444 -0.027228218 -0.06437865 -0.023580097 -0.04941112 0.05639199 -0.035747398 0.0139835635 0.008422012 0.009168847 -0.022253588 0.04124557 -0.051511616 -0.02778966 0.07407275 0.04814417 0.03316332 -0.0019350308 -0.0063882256 0.0010159285 -0.029068159 0.020072559 0.004693647 -0.01598328 0.066385105 -0.00892926 0.0423408 -0.011360667 -0.068580106 -0.0112020625 -0.02281709 0.044414572 -0.035555758 -0.010700873 -0.006662575 -0.017717915 0.03913218 0.04284465 0.05320431 0.0030430309 -0.044714924 0.0019717773 0.0009760583 0.021268854 -0.026957491 0.028664036 -0.033355128 -0.03244563 0.058266614 0.025543166 0.061568666 -0.005096468 0.033522636 -0.0063970718 -0.06108309 0.008474851 -0.026955923 0.037649225 0.012021516 0.053833038 -0.00030021337 -0.051294178 0.028422883 0.02893403 0.04114089 0.016174408 -0.03034498 -0.0058955937 -0.013925816 -0.063884705 -0.00019943084 0.040606324 -0.02419774 0.08446539
1711 -0.049400136 0.027358234 -0.012100418 0.048311085 0.014272396 0.0460811 -0.028385501 -0.020889578 0.019383743 0.02461653 0.038746912 -0.05147624 0.0029418508 0.0008821791 0.009790154 -0.01325659 0.0025385655 -0.010940422 0.009667211 0.08428563 -0.07849831 0.040591057 0.08935455 -0.07871305 -0.011236875 0.01115172 -0.03641317 -0.0009952583 -0.030357573 -0.008671261 -0.0482286 0.029542958 0.014881823 0.03769484 0.078624606 -0.050936412 0.057479106 0.0028084607 -0.038790047 0.03546498 0.01413474 0.042832725 0.035152305 0.0021887335 -0.0694275 0.023338364 0.039678164 -0.07685437 0.038412042 0.021239202 -0.0070775016 0.07276752 -0.05070612 -0.0014732552 0.0017987905 -0.035184782 -0.030769914 0.055693876 -0.014716169 -0.046468094 -0.011300516 0.01918133 -0.04725238 -0.003694737 -0.029615263 0.012125631 -0.024847899 0.053624604 0.035572916 0.0044505456 -0.0620738 -0.016089618 -0.0068552345 -0.011645177 -0.04110405 -0.022780739 0.030632757 -0.006786495 0.044655588 0.015208359 0.041281432 -0.017727666 0.042401556 -0.03295579 0.05019313 -0.01738181 -0.071983114 -0.029291581 -0.02936217 -0.0070739216 0.06851968 0.011983184 0.005035546 0.029277295 -0.0022833657 -0.024842631 0.032737147 0.00088590663 -0.022290204 -0.0071266093 -0.055347547 0.060363982 -0.007835345 -0.051033754 -0.061313972 0.02019683 0.0045701303 -0.038158268 -0.019556498 0.013619301 0.04786146 0.015004831 -0.006331219 0.010137647 -0.001849604 -0.021419577 -0.003960687 0.06623739 0.031540707 0.011673009 -0.018563636 0.04091678 0.035732 -0.031984683 0.03727345 0.010469532 0.031180965 0.06112222
1470 0.03994743 -0.009281389 -0.021641586 -0.055580616 -0.019308042 -0.005189371 0.021339577 0.061096475 0.020101277 0.026511218 -0.019488541 -0.06909102 0.0027153613 -0.004448312 0.04373718 -0.006061719 0.03458533 -0.012333798 -0.027378708 0.0041559236 0.057372313 -0.0004244954 -0.025409624 0.031670783 -0.01306129 0.026915828 0.04267292 -0.026949203 0.010943145 -0.048077885 -0.04990826 0.011118937 -0.06400241 0.013739778 0.021489866 0.015958339 -0.056150854 -0.07478094 -0.0012712699 -0.02147759 -0.029706387 0.04105152 -0.0474707 0.010538853 0.019178148 0.003764492 -0.0015230539 -0.048125908 0.038103588 0.0044198846 0.017321121 0.021056235 -0.063149445 -0.037402153 -0.021883102 0.025728494 -0.038637344 -0.008221241 -0.00628393 -0.024633134 0.03949409 -0.08687514 0.0060777105 -0.034430634 -0.045387156 0.026255494 0.009625346 -0.05309306 -0.0088841375 -0.04135578 0.06919092 -0.028075416 -0.061901685 0.033851698 -0.008395616 0.020856842 0.06961747 -0.008348989 0.029954629 0.008039775 0.0036708675 0.0208392 -0.019443536 0.043910436 -0.032330677 0.0021456871 -0.049893316 0.04943895 -0.009497011 0.013149799 -0.04391468 0.02248518 -0.019966584 -0.018850606 -0.0051762396 0.0017368192 -0.018662555 0.012114009 -0.07543244 -0.05763829 -0.00018567008 0.031084502 -0.044791803 -0.015481303 0.043879066 0.025135938 0.04471107 0.040173426 0.024772745 -0.009674797 -0.00655748 -0.08038071 -0.038013924 -0.016756637 0.008690864 0.020809228 -0.026286202 -0.055497635 -0.057280708 0.012390624 0.0046361806 0.053648923 0.0041667745 -0.010932639 0.011377863 -0.0305952 -0.022020755 0.010024261
1846 0.08286137 -0.03901891 0.021392662 -0.038753398 -0.05562886 0.019470591 -0.02239308 0.062418625 -0.008246032 0.014493069 0.0375635 -0.042419054 0.05443226 -0.016043521 -0.011407755 0.02782711 0.0400612 0.009402063 -0.010462354 0.044395573 0.030134369 0.01918409 0.044894658 -0.04263645 -0.034734737 -0.000689423 0.07004784 -0.0263748 0.04411932 -0.06979269 0.032984097 -0.019947154 -0.044198506 -0.00105314 0.06896365 -0.040636707 0.04414897 0.012547469 0.05591295 -0.012749766 -0.06517357 0.029747263 -0.06284361 -0.020456787 0.04507043 0.015877122 -0.005349197 -0.042074278 0.047522284 -0.002076621 0.041050773 0.019246573 -0.05778522 -0.031038446 -0.0018683088 0.010559227 0.047546767 0.07322821 -0.0071882657 0.0064945524 -0.027618024 -0.0061685974 0.060606137 -0.053867098 0.019099545 -0.01682785 0.06033961 -0.005793843 -0.0009915341 -0.00522553 -0.0039520054 0.062715255 -0.019308206 0.07237868 -0.024585513 0.037955407 0.020401282 0.0029445235 0.057584994 0.003316 0.0649124 0.04738923 -0.0067796027 0.04496278 -0.020297103 -0.007599748 -0.03249937 0.019692576 -0.054405462 -0.021847192 -0.018451842 0.002001631 0.038542554 -0.016904613 -0.039001502 0.04222558 -0.08564346 -0.029167132 0.013084855 0.014635931 0.0143682705 -0.04102756 -0.022033509 0.0061316346 0.018181393 -0.0009792155 0.003105987 0.034393717 -0.03455088 -0.055122156 -0.020299941 0.053929638 0.078373015 -0.015757423 0.023775633 -0.020949239 -0.0017633426 0.036833063 -0.07921138 0.0016509363 -0.019111035 -0.00950301 -0.0048343283 0.011458588 0.008199788 0.01721942 -0.02735294 0.012045065
1097 0.021369034 -0.024116058 -0.021005891 0.010893433 0.05011093 0.019436143 -0.02351438 -0.0009473853 0.09243496 0.0020977973 0.044432733 -0.01524853 -0.0065131113 -0.044697285 -0.05840327 0.028711429 -0.023598542 0.026313331 0.0007576059 -0.04198345 -0.011317971 0.036633216 -0.0049966956 -0.03434995 0.026129495 0.08504847 -0.03887803 -0.009036723 0.032241438 0.02312063 -0.039608143 0.051817063 -0.035650685 0.036821373 0.0038936492 -0.01805193 0.0064236396 -0.052091572 -0.056700934 0.0011217427 0.060397588 0.019636584 -0.014266591 -0.010889348 0.04643412 -0.05322148 0.041397154 0.015241846 -0.001263944 -0.03105532 0.002044514 0.047093194 0.0044328454 -0.033797365 0.054666772 -0.012823643 -0.04344076 -0.030715711 -0.018506246 0.022416567 0.052567717 0.008683921 0.053915747 0.041033354 0.0111168 0.012887282 0.008955605 0.017859928 0.02370354 0.017880268 -0.0024238932 0.045423687 -0.010307969 -0.010104148 -0.018973274 0.016071701 0.033109978 0.027788017 -0.015003352 0.035179023 -0.028024849 -0.053087994 -0.01942074 0.0036171656 -0.013627717 0.014330996 -0.019541636 -0.038762957 -0.00800317 0.07101898 0.0033998375 -0.019093666 -0.0130264815 -0.0046873884 0.002570769 -0.018929267 0.08209969 -0.01764529 -0.00669525 0.014273583 -0.06992875 0.02040186 0.061384384 -0.07730531 -0.029764699 0.01402615 0.019431625 0.044589087 0.025700845 0.023518432 -0.016748965 -0.02225864 0.03978889 0.07131476 -0.0027829544 0.056307998 0.042989027 0.053921543 -0.06289427 0.041342422 -0.022012772 0.024057081 0.030754644 0.016819088 -0.0022914943 0.02291732 -0.028552799 0.05179282
345 0.056495223 0.07813748 -0.031404566 0.041897457 0.026481053 -0.046466205 -0.012385865 -0.014761419 0.0733231 -0.043304496 0.011464024 0.053880937 0.03022472 -0.025993362 -0.026018681 0.04541908 -0.010509004 0.030689493 -0.023811445 -0.059981734 -0.06362212 -0.014158954 -0.0848635 -0.0060210205 0.024563361 0.014082363 -0.04205462 -0.034385927 0.031934667 0.027336577 -0.07002112 0.013757457 0.014371131 0.014390955 -0.026907202 -0.001343669 0.039668813 -0.027583718 -0.011470365 -0.037672095 -0.04685937 -0.021241171 -0.049568325 0.041091923 0.055667277 -0.038842913 0.031045048 -0.011664344 0.052454636 -0.079438776 0.03973379 -0.02687493 -0.012232003 -0.024648553 0.027515654 -0.021579495 0.021226047 0.039735273 -0.025546625 0.055263016 0.038083512 0.030101908 0.0067825243 0.0061824988 -0.037470154 0.009135422 -0.015651759 0.013839964 -0.04106587 -0.017177165 -0.0028083073 0.036276758 -0.0015070891 0.002699018 0.019964354 0.012743886 -0.0045570284 -0.0319004 0.009293084 -0.055492684 0.00876929 -0.00741308 -0.025257729 -0.029677007 -0.05107131 0.04355954 -0.004203542 -0.06895966 -0.007253981 -0.018350322 0.03666796 -0.022448586 0.044260554 -0.006433925 -0.01306895 0.011208112 -0.04614354 0.06337563 0.040444627 -0.0153336935 0.060958926 0.0744777 0.021304617 -0.06967421 -0.01641533 -0.051946085 -0.0043972074 0.032571536 -0.081849515 -0.004661333 -0.0809652 -0.0035885498 -0.04175556 -0.030393189 0.06672461 -0.05680768 -0.04986742 -0.02388868 -0.03472808 0.054080985 0.06884472 -0.06053452 -0.008860887 -0.00645209 0.0755728 0.01975459 -0.07722892 -0.035569478
564 0.059123255 -0.020058092 0.05409324 -0.012039162 -0.048437092 0.037570618 0.020010658 0.008473517 -0.025837462 -0.04328262 -0.00620308 0.013042419 -0.007879412 -0.045799807 0.028676841 0.021865007 -0.0068149213 -0.04482681 -0.040138427 -0.04306308 -0.046230976 -0.067175165 -0.014368599 -0.045175396 -0.04981931 -0.02351718 0.0045540053 -0.048795123 -0.015991881 0.029160654 0.05184163 0.020046938 0.015278601 0.02832377 -0.019505985 0.006950672 -0.050017115 0.021943187 -0.037843965 0.00015798595 0.0640168 0.030896658 0.018544203 0.0321581 0.048828032 0.0027643007 0.014196669 -0.020248381 0.06620793 -0.009757021 -0.04795274 -0.064459845 0.08591073 -0.03303467 0.049448304 0.05616788 -0.054247268 -0.05607653 -0.002848541 0.014915922 0.06266223 0.007316552 -0.018119019 -0.0196352 -0.052575648 -0.04979181 0.023469262 0.031678252 -0.018724658 0.03662563 -0.053149007 0.030646687 -0.066680916 -0.05692497 0.013878335 0.053418078 -0.045261655 0.048395324 -0.027862849 -0.026210563 -0.042600658 0.020910388 0.0142648965 -0.016250065 0.017135967 0.010532615 0.05887534 -0.05076955 0.010247619 -0.06353635 0.062000487 0.0036333327 -0.032104146 0.024397956 -0.04228314 -0.017142596 -0.026272796 -0.058407202 0.054988444 0.020902252 -0.016065575 -0.031836126 -0.038802337 -0.033909064 -0.02225529 -0.019619474 -0.003818345 -0.014260333 -0.016085487 0.032256477 0.008473968 0.07572457 -0.020949408 0.026734548 0.006620722 -0.014006115 0.043800138 0.038677268 -0.0063711256 0.011713559 0.025873488 0.023759989 0.03434472 -0.062042493 0.039433416 0.0536461 -0.027531035 0.03732563
1240 -0.026823321 -0.010508001 -0.0672716 0.056393806 0.045482002 0.044250604 -0.005508539 0.009860291 -0.050783075 -0.02853058 -0.084903665 -0.03868076 -0.036990374 -0.04640812 0.047748376 -0.03182444 -0.046047427 0.047319174 -0.015843028 -0.07152475 -0.055790413 0.0018607621 -0.056806143 -0.0020400723 -0.003644181 -0.025672164 0.003903804 0.03549346 0.008656929 -0.060194533 -0.03487758 0.01431939 0.04279828 0.029716447 -0.0022475668 0.007059317 -0.031807378 -0.038934983 -0.002999218 -0.03711472 -0.046555404 -0.023340784 -0.00479236 -0.04395483 -0.0346337 -0.008236924 0.05829861 -0.019204218 0.05321954 0.060680404 -0.006345242 -0.07026057 0.025006497 0.024060193 -0.016551424 -0.05752642 -0.0022164064 0.016536448 0.020379778 0.051596135 0.08436869 0.0071599265 0.04975191 0.0076871356 0.04203066 0.0045421585 -0.053091396 -0.020173077 -0.02312372 -0.07755656 -0.025795063 0.008403799 -0.05801898 0.010660491 0.05036705 0.00082562916 0.04083851 -0.0070485515 0.018870842 0.0028760128 0.015991725 0.05355622 0.037528038 -0.03272682 0.022254296 -0.041529324 0.0402849 -0.017181134 -0.033845186 0.010684918 -0.061345387 -0.0031734926 -0.07172308 0.029986428 -0.07767545 -0.063267775 -0.06830741 0.008091221 -0.08185947 -0.056840446 -0.015225421 0.08322517 -0.054610316 -0.07883809 -0.0026058785 -0.00026893456 -0.00872856 -0.0016616104 -0.022643173 -0.004730748 -0.06995573 -0.00807707 0.0013838809 -0.037209388 0.038486157 -0.019724993 -0.02970393 -0.04600742 -0.03830416 -0.018017119 -0.067166075 -0.017484726 0.08361709 0.008690743 0.04858306 -0.020484844 -0.032772556 0.039275676
2225 -0.03590478 0.060814317 -0.0025921226 0.011729165 0.006772249 -0.00036798237 -0.023547288 -0.042579725 -0.03506428 0.005538502 -0.015029187 0.018290453 -0.08749569 -0.024310216 -0.032221567 0.024844142 0.031089734 -0.074659854 0.040662486 -0.002268915 0.009901468 0.01852004 0.033516213 -0.045725532 0.00047061383 0.019134864 0.040272277 -0.03802703 -0.009105462 -0.013355716 0.022416541 0.06459001 0.009724891 0.0069041234 -0.0017188315 0.020884845 -0.033882827 -0.0021084808 0.025886225 -0.018031543 0.054925084 0.01813937 -0.0112876175 -0.034589447 0.025463743 -0.037462194 -0.068129234 0.0032175693 -0.024200043 -0.060464356 0.00074492913 0.06514612 0.02310217 -0.034107827 0.003870267 -0.012529275 -0.018467916 -0.049364455 -0.015393392 -0.013083018 0.051693115 -0.0022100743 -0.06956468 0.027454654 -0.056270838 -0.07060713 0.01252 -0.004699625 -0.046003252 0.019506508 0.058548573 -0.05847191 -0.0050803535 -0.015085439 0.015937965 0.0046788207 -0.059194088 0.05431893 -0.053270224 -0.058262736 0.04242567 -0.04182725 0.006631355 0.027193129 -0.016424362 -0.010557302 0.005067805 0.028943563 0.020922985 0.027457047 0.0055513848 0.004178519 0.021701675 -0.056864955 0.0074306205 0.012426443 -0.0016584957 -0.061267667 -0.04702837 0.040057223 0.007079019 -0.051912393 -0.08305732 0.004370495 -0.03979887 -0.049682878 -0.04068359 0.056415867 -0.022591392 0.040480837 -0.0117351385 -0.057718325 -0.01937967 -0.025040042 -0.03515004 0.05592853 -0.04937186 0.05805522 -0.03541766 -0.037261896 -0.0008862907 0.048108682 -0.031967476 -0.077091224 0.06768943 0.027490608 -0.010929351 -0.016309561
324 0.05886992 -0.028267514 0.019133287 -0.023707088 0.06509814 -0.006665425 0.08467347 -0.072091356 -0.03809057 -0.0703791 -0.022855707 0.05592152 -0.08884016 -0.053920053 0.016343417 0.09816479 -0.026383493 0.01430484 -0.014139628 -0.012617587 -0.00573001 0.0640928 0.03526628 -0.027199227 -0.03490751 0.07389935 0.018763015 -0.023579048 0.02678615 -0.0700336 -0.004138653 -0.03231631 -0.011753614 -0.016930066 0.037880305 -0.028777545 0.00731161 -0.0025796008 -0.025287097 -0.04196767 0.014732684 -0.011392495 -0.014178911 -0.02194827 -0.024016643 -0.019633258 0.04844667 -0.06993678 0.04500419 -0.036695383 0.0034155662 0.0204339 -0.0024329643 -0.024922155 0.095616326 0.01858921 -0.017082164 0.015025528 0.017253727 0.03259361 -0.0053705988 0.0011293385 -0.035150204 0.050320763 -0.05905155 -0.03257151 0.0008062697 0.0066712275 0.025570966 -0.03641206 0.034057293 -0.053618886 -0.020088099 0.011992614 -0.0074698953 0.052749857 0.024195803 0.011710425 0.03879558 -0.070339814 0.02525816 -0.016938359 -0.046428185 -0.00743954 -0.04565951 0.03959588 -0.0065351846 0.07036618 -0.026163112 0.06821563 0.05919318 -0.02358312 -0.023367673 -0.065969564 -0.05139466 -0.0018047654 -0.049527183 -0.013256086 -0.040358845 0.026883528 -0.07592994 -0.02361816 -0.008510665 0.040942576 -0.021137767 -0.006199413 0.025763404 0.0150224175 0.0071395286 0.045281816 0.047255933 -0.03334858 0.01285037 0.018798772 -0.07200687 -0.056007046 -0.00039783755 -0.02358649 0.074376404 -0.030031148 0.05966699 -0.0024673862 -0.0005104046 -0.009437989 0.012523506 -0.0143567305 -0.008591364 0.055802368
1276 0.062292106 -0.021897336 -0.056450885 -0.04742363 0.037113633 -0.049780365 0.02373775 -0.045166455 -0.011500662 -0.026634755 0.022181666 -0.004524535 0.0024427879 -0.025765566 0.015013728 -0.01336241 -0.07259502 0.043478344 -0.01717994 -0.0338068 0.045481794 -0.009481381 -0.0742032 -0.08116838 -0.07797118 0.050114617 -0.037202004 0.0052938135 0.041464947 -0.031099197 -0.011703099 -0.05404438 0.021559643 -0.009139749 -0.04543681 0.025051013 0.045737557 -0.037194677 -0.004030903 -0.058528844 -0.030681117 -0.0632904 0.001993026 0.059383288 0.03452401 -0.03606201 -0.0746406 -0.036844805 -0.06568727 0.036776885 0.040135436 -0.019676901 -0.052025296 -0.010970619 -0.06489625 0.0053299842 0.069274016 0.04129721 0.014747303 0.00020944016 0.022162167 -0.032288734 -0.0539321 -0.0025027005 -0.01788574 0.019010056 0.012500391 -0.0025287166 -0.004594865 -0.03620877 0.0436856 0.012622531 0.029777175 0.010531345 -0.07100558 -0.037420668 0.024553042 0.024603229 0.037872966 -0.059896078 0.040588725 0.047282774 -0.06525428 -0.009107143 0.04065429 -0.0526407 -0.05348176 0.029593175 0.07853171 -0.0507029 -0.02464006 0.004125416 0.020033697 0.035576712 0.028556008 -0.036258385 -0.008635589 -0.0900492 -0.016164705 -0.05683983 0.07494175 -0.014266042 0.0077465572 0.06784595 -0.051550165 0.043572336 0.06111911 -0.07365625 0.011626097 0.024199218 0.025885671 0.010821911 -0.076494396 0.010680458 0.01509536 -0.007973904 -0.013202263 0.0149205495 -0.00949273 0.050109085 -0.01830636 0.080083735 -0.021877337 -0.038199622 0.043620385 0.02702846 0.035882622 -0.056064717
1309 0.02674142 0.026904268 0.038177706 -0.06790968 0.005874641 -0.022175878 0.06976453 0.013531622 0.021337774 0.011058342 -0.011143173 0.011440519 -0.06450437 0.0094135795 -0.013016591 -0.014547132 -0.0066838986 0.056709263 0.01793886 0.053892367 -0.00076266093 0.023628527 0.009571628 -0.007667961 0.03234689 0.039987255 0.025296265 0.013516364 0.03581733 -0.026303794 0.017309334 -0.012491243 0.019013528 0.014252862 -0.011209721 0.0489879 -0.04242436 0.000691795 -0.048072338 0.006776181 -0.0020891968 -0.0011302182 -0.025778191 -0.023140274 0.012243942 -0.021597136 0.021046065 -0.02122397 -0.051118813 0.059712738 0.02463813 -0.03454956 0.004733114 0.025626117 0.01953131 -0.069011204 0.06410851 0.004186991 0.02727134 0.050096784 0.01149565 0.011992354 -0.052952815 0.023988279 -0.0022490954 0.02046441 0.062164124 -0.023578249 -0.07690294 -0.07442395 -0.0077549545 -0.008844965 0.0043309648 -0.037384756 -0.050993957 0.011333706 0.022975931 -0.026418213 0.0035657212 -0.025586555 0.02035545 -0.0070848363 0.01527738 -0.030000823 0.0030755496 0.0024998612 0.00322772 0.024777155 -0.040708143 -0.03593063 -0.050961386 0.0075255134 0.034738757 0.0064449986 0.008020841 -0.043795597 0.04164709 -0.024693005 -0.017737787 -0.016617697 0.061457347 -0.06197058 0.0066616875 -0.005978632 0.010690866 0.05073151 0.024581023 -0.008665267 0.01907449 -0.03443048 0.010355367 0.011015937 -0.008429286 0.11144923 -0.03464445 0.00865335 -0.057108242 0.026114928 0.0074728825 0.07096147 -0.015498766 0.0007693182 0.033930253 0.018494666 0.018912973 0.042004846 -0.0014926369 -0.056648146
