1941 128
1520 0.018258149 -0.03561334 0.05578232 -0.018829633 0.019917443 -0.01846564 0.0510709 0.030156353 0.0023494859 0.08137344 0.047735583 -0.012784914 -0.015723329 0.0005608386 0.010932382 0.04654357 -0.02692738 -0.011419722 0.009038678 -0.01941206 0.012513236 -0.02198157 -0.04919262 0.045077894 0.010241383 -0.0029687728 0.03876058 0.015492979 -0.017234925 0.062083077 -0.029646827 0.043849453 0.019287806 0.013383307 0.014479087 0.072603725 0.018847868 0.027177962 0.033661816 0.03582312 -0.02528009 -0.0634107 -0.069995634 -0.026906168 0.009528294 0.03207234 0.016640276 -0.022301422 0.0061010947 0.019042112 -0.011108684 -0.0031164696 0.03130895 0.027316973 0.04699633 0.02901882 0.017829347 -0.037415788 0.027984014 0.015760714 0.012006105 -0.047809877 -0.01914655 0.039483793 0.018253895 0.008363042 -0.07643262 -0.05925548 -0.071099706 0.055401977 -0.057431728 0.019861408 -0.03982889 0.008312281 -0.008468386 -0.053072073 -0.012342749 0.02498394 0.0031130377 -0.014722913 0.028859004 0.0068963673 -0.049438868 -0.0013794242 -0.0034139503 -0.057061788 0.033498313 0.043107156 0.043821745 -0.07026174 -0.03366293 -0.003943855 0.021010553 -0.017400904 0.007937212 -0.059278566 0.027814679 0.041106246 -0.0001071922 -0.07456581 0.022800222 -0.027977806 -0.06573421 -0.0062891184 -0.01566202 -0.0018071132 -0.057286657 0.01547583 0.011908643 -0.068197526 -0.045207553 0.0032802557 0.051057152 0.010269843 0.047824312 -0.015893936 -0.00396626 0.03931229 -0.009581375 0.043171093 -0.013342883 0.027843619 -0.0046734493 0.057532474 -0.0074579404 -0.042728044 -0.034260243 -0.01881177
476 0.05699855 -0.03366134 0.018479215 -0.03942163 -0.07844848 -0.013272372 0.006117123 0.034565363 0.077563316 0.016962457 0.049659785 -0.045598175 -0.032275084 0.033922754 0.054801237 0.07527198 -0.042822298 0.018865103 0.029875202 -0.03392612 0.081932075 -0.02756792 0.061933476 -0.03814315 0.021788558 -0.039271478 0.008002826 0.03957153 -0.06590582 0.03724782 0.08727718 0.021085748 0.023789167 0.0454078 -0.004743445 0.0021120268 -0.078042164 0.017407559 0.014971363 -0.041649673 0.05260661 0.043039344 0.0831654 0.038111877 0.056926902 -0.033408765 -0.063479066 0.0021408272 -0.038828067 0.025749838 0.059170913 0.04331159 -0.05829529 -0.029529154 0.027930371 0.014398152 0.025261844 -0.06679291 0.010638561 0.027093763 0.037283547 0.02349365 -0.013777912 0.019710653 -0.01642073 0.04730967 -0.029431788 0.019063765 -0.044409487 0.04323543 -0.08327005 -0.0011938626 0.020504633 -0.008449991 -0.03652774 -0.020999478 0.016514167 0.031063482 -0.032419514 0.014123616 -0.04098988 -0.03393541 -0.04869781 -0.010732937 0.010695139 -0.04732706 -0.0025509044 0.032526672 -0.038917296 -0.037369523 -0.0012028401 0.030185265 0.079447396 -0.036690645 -0.041815616 0.0058779167 0.034315594 0.014692451 0.0084871845 -0.0730883 0.034618244 -0.03431888 0.07787221 0.006242799 0.019127524 -0.01928998 0.05211244 0.026213031 0.014148137 -0.013501078 0.016738283 0.023250075 -0.037353538 0.009978374 -0.08383605 0.059061646 -0.0158229 -0.02391424 -0.019615838 -0.05308507 -0.055043913 0.045304276 -0.048116647 0.020475054 -0.022730438 -0.04056635 -0.048492786 -0.00544241
756 -0.026876297 0.06593956 0.0025017913 -0.03930133 -0.0022270514 -0.012242525 0.015843965 -0.029364897 0.002848209 0.042280383 -0.022729913 0.0006459422 -0.04427446 -0.013216127 0.04072086 0.012057937 -0.018112946 -0.02692831 0.050724022 0.06879783 -0.046065006 0.024311852 0.013304398 0.005610023 -0.082451604 0.01763853 -0.061848387 -7.2672265e-06 -0.057370506 -0.067642815 -0.038048718 -0.020219564 -0.019674752 -0.06794026 0.019720936 0.025882822 0.017861294 -0.02826471 -0.05829552 -0.018194333 0.04407908 -0.006156531 0.07506558 -0.029404072 -0.03089419 -0.027084574 -0.0032732333 0.036258217 -0.010882015 0.012685776 0.026897425 0.0055780606 -0.049970664 -0.019509384 0.02928815 -0.062437836 0.029986383 -0.01720416 0.011882541 0.01423174 -0.032802206 -0.008955947 0.018724067 0.029073523 -0.025798067 0.0030258214 0.056658767 -0.052054673 0.008137419 -0.022431554 -0.0076211854 -0.013422486 -0.032590345 0.039157994 0.037694354 -0.04325149 0.03524771 0.0077537396 -0.037068628 0.016367732 0.052124478 -0.050742123 0.0041480726 0.0013082115 0.019312272 0.016813949 0.062546834 -0.033383124 -0.0697012 0.032280933 -0.06330048 -0.024836713 -0.0201472 0.08170148 -0.10418548 0.01284425 0.021910677 0.056192107 0.034449246 0.009314616 0.02121725 0.00874168 -0.034837026 0.0033826835 0.02026209 0.037897002 0.018738149 0.0071874494 0.0058426964 0.04697419 0.021541053 -0.027264494 -0.07742217 -0.009669908 -0.068015456 0.030615095 0.06974838 -0.018144626 0.016900433 0.046640918 -0.05589305 0.049552627 0.0003411608 0.040037416 0.05991575 -0.047039837 0.01751661 0.011985565
1044 0.0427191 0.019625312 -0.027017158 0.022448638 0.020187693 0.037993815 0.034938503 -0.016789809 -0.043571513 -0.033745088 0.044165593 -0.005459156 0.026584564 0.016520638 -0.08551147 0.073569894 -0.02576834 0.00028332684 0.036076736 0.0055834414 0.012111444 0.012159283 0.0473486 -0.07230573 -0.0678409 -0.04111503 0.023181697 0.011744628 0.00066354696 -0.058360938 -0.062592104 -0.01777436 0.0136941895 0.0112978835 -0.08175055 -0.019589882 0.016151054 -0.0620156 -0.0013063502 0.0015955862 0.0331787 -0.00062034576 0.0029850716 0.0035040188 -0.06195565 -0.048798323 0.007958777 0.009712184 0.013541825 0.037309244 0.0416173 0.03970561 -0.057735134 0.03081435 -0.04637818 -0.028044838 0.008403842 -0.068293184 0.0074294982 -0.026522977 -0.05558263 -0.009415858 -0.032404374 0.011391449 0.046461813 -0.022553101 0.051305283 -0.079682015 -0.025562724 -0.011284458 0.022915356 -0.010059689 -0.05638368 0.029061332 0.022386158 -0.009162635 0.054579414 -0.01369272 -0.05309424 -0.0030302801 0.0156382 -0.013368453 0.020558234 -0.0070876814 -0.031185381 0.060781267 -0.006087373 -0.07617133 -0.01760627 -0.023049844 -0.0055269734 -0.008455655 0.06671408 -0.013896521 -0.0036408978 -0.03900124 -0.0065910257 -0.06204259 0.020994063 -0.04429321 0.0016435146 -0.051589638 0.016193949 0.0061974046 0.019679302 -0.0349975 0.023187011 0.044931684 -0.069564596 -0.034252528 -0.034394063 -0.007512548 -0.0061116354 -0.01814917 -0.06747292 0.0428918 -0.021239521 0.005428839 0.0036589978 0.04131009 0.05100995 0.03349717 0.04307288 0.07535382 0.03181072 0.023974838 0.037832554 -0.0056925747
1385 0.07133758 -0.007886851 0.00707283 -0.04319473 -0.008889095 0.021813916 0.053794667 0.013881741 0.0026606505 -0.0117024 -0.04670156 -0.028303104 -0.0050949696 -0.04133531 0.043462925 -0.017974049 0.030877473 -0.030536843 0.017025435 0.011661194 -0.058315285 0.039431103 -0.024410127 -0.015716266 0.09791664 -0.019176245 0.026288284 -0.032742575 -0.058471333 9.65815e-05 0.02385731 -0.0059909653 -0.008442004 -0.0046647205 -0.018207924 0.0144092385 0.024849698 0.0030084604 -0.03435803 0.033317946 -0.025256414 -0.010272568 0.006938105 0.0298548 -0.05829973 -0.048500955 0.011886224 -0.053362794 0.016704855 0.026626179 0.0061121904 -0.06414865 -0.014429465 0.0033336224 -0.03345803 -0.07889163 0.01947704 -0.0019180969 -0.06871147 -0.065832734 -0.03481942 -0.0071479087 -0.016452188 -0.02736793 -0.013717061 -0.006245366 -0.025286691 0.027195824 -0.038316224 0.003527109 0.021875536 -0.082433246 0.039491218 0.014215239 -0.018371832 -0.07543748 -0.04356594 0.00965795 0.06674348 -0.0037046997 -0.007267781 -0.03144352 -0.027572531 -0.06549216 0.039573878 -0.019275209 0.0066878567 0.004680664 -0.0024141697 0.010023776 -0.057624526 0.011260891 -0.003398306 0.025797393 -0.05701083 -0.053015 0.01126669 -0.015483764 -0.01523343 -0.017723061 -0.056841597 0.006085835 0.009482431 0.036118798 -0.056723453 -6.162763e-05 -0.028640442 -0.009813753 0.0118390145 0.016794173 -0.003074376 0.041962955 0.057249423 0.08273739 -0.023025218 0.03542001 0.03446585 0.033901487 0.009336259 -0.045491036 0.060631055 0.030641766 0.0058691753 0.062245253 -0.036147002 0.0053744665 0.03207603 -0.05548505
389 -0.031655744 -0.06700218 -0.043684382 0.017284442 0.010095817 0.0724312 -0.045302432 -0.04196608 -0.016672174 -0.03368031 -0.07659909 -0.016226774 -0.0059347437 0.08285929 0.06850467 -0.025026543 0.012920643 -0.004031496 0.02016027 -0.036516845 0.053443704 0.07054174 0.056128807 0.02729857 0.04889924 -0.016523339 0.0169256 0.0351974 0.030688696 -0.018146852 -0.07449366 -0.009748984 -0.035345726 -0.030421654 0.0046242806 -0.013788583 -0.0003773619 -0.06557698 0.07064108 0.04439619 0.012072091 -0.039317317 0.039507754 0.015531788 -0.034317575 0.05333171 -0.04151635 0.0026900847 -0.050621573 -0.06817673 0.08108102 -0.08372256 -0.03864441 -0.045739755 -0.05428347 -0.026459733 -0.0003357635 0.08483491 -0.014548783 -0.0039413935 -0.0692161 0.023435209 -0.045259725 0.07578783 -0.0660796 -0.008151198 -0.024806974 0.031189203 -0.028625203 0.017406547 -0.020251207 0.025958238 -0.032382164 0.032630734 -0.05374909 -0.10039942 0.039079987 -5.051392e-06 0.036625843 0.07202063 0.0005016691 -0.042061128 0.060935795 -0.022890832 0.04200847 0.041847955 -0.02056201 -0.018184476 -0.016142312 -0.041574176 -0.03598358 -0.025035607 0.016410194 0.04609781 -0.0018257598 -0.0066013285 0.0037291814 -0.047209974 0.04836988 -0.019183572 -0.06118496 -0.066448756 0.0044312533 0.009171276 -0.04108378 0.0481622 -0.046953317 -0.04854923 -0.011095981 -0.0041872645 -0.0055333376 0.002650482 0.060645945 0.053003944 0.024458464 0.044752944 -0.047924645 0.04191393 -0.05107964 -0.00055538677 0.01973595 0.050935738 0.0036722026 -0.07910491 0.013462845 -0.028229225 -0.024506697 -0.06120069
1238 0.008260692 -0.057590943 -0.031698085 -0.040706743 0.03355518 0.019873051 -0.06629204 0.071280584 0.068968505 0.078677066 -0.08253291 -0.01896117 -0.04341714 0.02726065 0.047890384 -0.0014792831 -0.010290294 -0.051894046 -0.050390847 -0.021589955 0.029992633 0.001535812 0.020408034 -0.0027649088 0.05686205 0.06594834 -0.023225121 -0.022880217 -0.030890416 -0.029390763 0.06517937 -0.008520334 0.018503312 -0.0041282005 -0.006695395 0.046333253 0.00058689265 -0.008038812 -0.033531096 -0.0024297663 -0.046635784 0.021879619 -0.005279145 0.01908245 0.007910179 0.05510511 -0.042485394 -0.043800596 0.0013804953 0.080988996 0.03321311 -0.00082250946 -0.031629063 0.0054258625 0.0017883675 0.07620408 0.0068270895 -0.0074770534 0.0007534381 0.016872428 0.00040041722 0.00037179064 0.031854402 0.024245236 0.0153443115 0.0058213724 -0.0071832007 -0.005430787 -0.057277743 0.0022673055 0.07025717 -0.0802485 0.019660663 0.004555479 0.039665658 0.017134888 -0.0020639603 0.018724104 -0.016319195 -0.03320465 0.011557808 0.03383091 -0.027141558 0.012732634 0.032976523 0.030358884 0.010556094 -0.033191416 -0.05312986 0.016094273 0.0309909 -0.012413584 0.0199135 -0.0043612598 -0.03566924 0.048489496 -0.026112834 0.013623421 0.03695122 -0.011209103 -0.031727385 -0.01568093 -0.052954692 0.008557255 -0.0051640994 -0.044266954 -0.0021278423 -0.06621531 -0.009061323 0.044842497 -0.056061972 -0.024397666 -0.027634619 -0.0072652884 -0.06453774 -0.029435085 0.029384194 0.014252047 -0.044947404 -0.013233108 -0.025361346 0.031310886 0.009858468 -0.014096333 -0.007438406 0.026588263 -0.0047876565 -0.017476717
700 0.045626048 -0.07893605 -0.02203768 -0.04179761 0.017354647 0.05920796 -0.01782512 0.049342424 0.046978027 0.0531064 -0.03113605 0.029812256 0.048581224 0.03379621 0.017034758 -0.037987363 0.023611559 -0.008917856 -0.05756111 -0.05125457 0.0142502505 -0.025246387 0.06260247 -0.067810744 -0.027194785 0.0143113425 -0.033798564 0.029172482 -0.035749048 0.0413935 -0.0034790183 -0.019285614 0.024078192 -0.024891285 0.02201532 0.041137204 0.03457376 0.013276644 -0.004291672 -0.037156194 0.041695595 0.041265246 -0.021955136 0.021530388 0.08282962 0.0067968103 -0.034841992 -0.02745492 -0.028985929 0.049272634 -0.0042427527 -0.079423934 0.013122076 -0.01388691 0.013752822 0.076316215 0.046151895 0.020361997 0.009668429 -0.015864365 0.065063015 -0.047314145 0.065913394 0.005783363 -0.018033797 -0.004649759 -0.01240955 0.0078779785 0.03119843 0.054506894 0.030158378 -0.0015319737 0.052114844 0.024452638 0.012493626 -0.03804847 0.026799608 0.027856894 0.013996831 0.0012736663 -0.00048013323 -0.0073947925 -0.0455736 -0.018074524 0.0208675 0.041618705 0.023002425 -0.04462369 0.029917918 -0.05717779 0.013383114 0.0062957606 0.017872937 0.0454262 -0.024568623 0.009598846 -0.006106372 -0.006323052 -0.04378856 -0.050549977 -0.013188757 0.028156824 0.024234759 0.03505274 0.035282146 0.01863585 0.017089283 0.0154056735 0.0076501346 -0.04941906 -0.011225613 0.01886093 -0.035204254 0.037011042 0.042698603 -0.048744664 -0.017754145 0.013357991 0.04849486 -0.042779412 0.011446348 0.022024238 0.031100102 -0.012582477 0.005024474 0.0022261876 -0.03697592 -0.022927621
733 0.03209511 -0.021128578 -0.0107193645 0.059478946 -0.030053357 -0.07580449 -0.024547342 0.0064354986 -0.00069122494 -0.015142056 0.016935539 -0.019175846 0.021384746 -0.051312424 0.0450858 0.0022974536 -0.012044953 -0.037264656 -0.007466284 -0.038380735 0.069225684 -0.022640646 0.056568623 -0.052527897 0.054163966 -0.032560237 -0.01841905 0.0025435372 0.015896773 -0.010488538 -0.066660196 0.06986894 -0.033358894 0.047726195 -0.03954975 0.05505481 -0.027622301 0.073388934 -0.04584026 -0.013438792 0.010801455 0.07355056 -0.018243533 0.05096375 0.065315716 -0.022587478 -0.0150725 0.0036593424 -0.074835524 0.013595101 0.002282775 -0.00061146327 0.05639251 -0.03271986 -0.047720604 0.028458051 -0.042022843 0.0012300147 0.023268512 0.011365212 0.017244073 -0.02605577 0.008329062 0.043067034 -0.0273418 -0.010387981 0.008402281 -0.040356267 0.046046313 -0.00934663 -0.00018276044 -0.023103142 0.05467046 -0.06419734 -0.017206067 -0.016217092 -0.01639199 0.08099987 0.032027528 -0.016952794 0.015536543 0.06636688 0.008973184 0.036923654 0.013106269 0.017551571 -0.009571558 -0.04125424 -0.021862643 -0.07505631 -0.006835124 -0.038199548 0.01665283 -0.015095092 0.036798373 -0.0068107853 0.017778564 0.036604855 0.010073609 0.0034269881 0.0040911725 -0.005547799 -0.028080877 -0.045708947 0.036782596 -0.06546349 -0.01732541 -0.027960138 0.05082028 0.052046575 -0.0527344 0.044268332 0.011788043 -0.04578518 0.05432667 -0.04099031 -0.0135862185 -0.009384481 -0.050875977 0.038078927 -0.021237379 -0.010015193 0.042275578 0.041515302 -0.038659684 0.010260737 -0.046862252 -0.0036337278
1406 0.069056764 -0.06153213 -0.072409146 -0.029039457 -0.001554727 -0.02380813 -0.0328205 -0.03506303 0.036129527 -0.0068489085 0.061934162 -0.012604094 0.00933782 -0.031170841 0.049888946 -0.047970317 0.02270402 -0.09041653 0.004533412 -0.050908543 0.025536902 -0.085826896 0.057072695 -0.03903727 -0.021562193 -0.04783172 -0.05008773 -0.021044912 0.025550751 0.0051654764 0.0022803398 0.07530891 -0.024227386 0.042993724 -0.02348715 0.026225056 -0.038092073 0.058587812 -0.04189225 -0.02932605 0.0049928008 0.011127337 -0.023532137 0.003344753 0.009770221 -0.054966632 0.04181039 -0.037156567 -8.967906e-05 0.009558348 -0.043828588 0.0060582836 -0.03343316 -0.05815142 -0.067822106 -0.02879502 -0.03211565 0.05879212 0.026846267 0.0041040126 0.02463721 -0.05232064 -0.0006822936 0.008117579 -0.020991417 -0.030866532 0.054445658 0.040515848 0.06551336 -0.06019475 -0.03711403 0.00081461633 0.028564563 0.04090623 -0.017620102 -0.07023019 0.0009170804 0.024304468 -0.0062388713 -0.015692372 0.02016978 -0.026758088 0.0406953 0.03373114 0.0268171 0.02638422 0.04391983 -0.0021524276 -0.0324415 -0.019586094 0.0060950196 -0.059411984 -0.012444905 0.057139996 0.06670922 0.01193201 0.059284013 0.006219366 0.014777372 0.011888593 0.010165582 0.0016533772 -0.04412761 -0.038721364 0.04169977 0.0053802384 -0.04888887 -0.07104676 -0.043116257 0.017166166 0.025675898 0.035053242 -0.030281112 0.030635599 0.0072733248 -0.011259549 -0.03138634 0.058652986 -0.029966172 0.012343168 0.016410712 -0.006790543 0.012502247 0.020156365 0.017025866 0.034303457 -0.0012122091 0.06301494
1969 -0.026693461 0.042644788 -0.036713142 0.021090625 -0.011173665 -0.014649179 0.004382663 -0.047438588 0.024835832 0.022094669 0.00051582797 -0.04231502 -0.0023964797 0.058854263 0.058146115 0.017664246 0.02820372 -0.03633546 0.0038249404 -0.006603167 0.00041351366 0.053118903 0.06619182 0.007177784 -0.009007662 -0.029305913 0.024325484 0.0008257043 0.032595962 -0.034018945 0.031175712 0.05989298 0.025360446 -0.038249508 -0.05194951 -0.06421418 0.043558132 -0.004852831 -0.01381648 0.043490224 -0.064292364 0.0045859674 -0.016000118 0.02416576 0.016484596 -0.06261113 -0.019794323 0.0031379664 0.0058551626 -0.0031473304 -0.021913609 -0.00050269556 -0.012760394 0.048257336 -4.791381e-05 -0.07681895 0.017122611 0.007411912 0.010194379 0.014195959 0.027782947 -0.013268403 0.036579166 0.050037693 0.03941006 0.044148106 0.048906416 -0.034896664 0.04194208 -0.038181353 -0.060234763 0.027961407 0.024647703 -0.011525708 0.009958212 0.014525289 0.097371414 0.017503222 0.047992058 -0.06038526 -0.019343304 -0.0059508444 0.05126445 0.035815984 0.055967767 -0.028532762 0.022183664 0.029292861 0.050288297 -0.04673087 0.007869908 -0.055346183 -0.027081937 -0.020247018 -0.00037545036 -0.0044882772 0.017631138 -0.0178652 -0.005695704 -0.0060426863 -0.024656458 -0.0006994803 -0.020006899 -0.09520017 0.055636212 0.023113485 0.0131556215 0.046320498 0.034584768 0.0055099735 0.042734742 0.031700503 0.03033861 0.038134493 0.012075799 0.022177476 -0.007198732 0.03300362 -0.035821695 -0.041064654 -0.032007873 -0.009035852 0.011499571 0.023960456 0.038110975 -0.00077818154 0.03775031 0.047143232
477 0.028500514 -0.032907527 -0.016298125 0.06895048 0.006316774 0.015425685 0.00826575 -0.052269902 -0.0023870696 0.028913341 -0.011244026 -0.041065235 -0.008111438 0.010644984 0.009429778 -0.0015303915 0.012058909 -0.020863947 -0.01883307 -0.022349585 0.035476495 -0.00020597546 0.013782159 -0.02942265 0.022205777 -0.11002156 -0.010618232 -0.0034749464 -0.0030846826 0.019856872 -0.009750925 0.042918682 -0.0033734413 0.006743007 -0.029091652 -0.039847467 -0.028417232 -0.005905964 -0.024736695 -0.051353283 0.002047054 0.06315756 0.013744374 -0.012189811 0.016245704 -0.05209078 -0.06670715 -0.021307103 -0.006456846 -0.010407838 0.03853973 0.014390146 -0.0442317 -0.005490189 0.011805338 0.008014053 -0.06781106 -0.016635844 0.03459257 0.053690124 -0.0044040037 0.02314057 -0.007712075 -0.00092395284 0.034705903 0.033022657 -0.051457644 0.020416507 0.035470717 0.030956686 -0.0391687 -0.035795588 0.01848749 0.052803867 0.01503884 -0.007014956 -0.044106722 0.02333659 0.017966498 0.029117273 -0.0036896688 0.01887119 -0.023768408 0.023264091 -0.029168108 -0.019116266 0.021880556 -0.035696033 -0.045815405 -0.03672845 -0.016546452 0.04465823 -0.0352703 -0.045735102 0.019531965 0.011459382 0.031444713 0.0045720944 0.00066900084 -0.0053675137 -0.0022808053 -0.010810121 0.070100084 -0.041097816 -0.016966922 -0.017100124 0.047853664 0.050229337 0.01821876 -0.010866814 -0.022973059 0.006523856 0.023270022 0.013191365 0.0022808192 0.054960404 0.05084092 0.008956988 -0.05316503 -0.06315098 -0.018527275 0.021743862 -0.0047094035 -0.006188903 -0.07422656 0.034689024 -0.027290767 -0.041015647
645 -0.020679532 0.06304285 0.05954979 -0.046544816 -0.017522976 0.030722098 -0.016467106 -0.007347491 0.006962112 0.038190234 -0.021737583 -0.03658008 -0.076106645 -0.019331412 -0.043226324 -0.032527756 0.0393113 -0.08906032 -0.0124776 0.00043278193 0.0069318986 0.0046647163 -0.05772574 0.04110369 -0.044529054 -0.02819951 0.022123834 -0.047344226 0.030135365 -0.020409863 -0.045280106 0.06216641 -0.024383876 0.030908354 -0.030221615 -0.026404604 -0.024048729 0.028676962 0.005340747 -0.019248374 0.0014965158 0.013605292 -0.036084313 -0.017792657 -0.010153674 0.05549672 0.016525762 0.04445035 0.04057223 0.021632135 0.030282585 -0.048173565 0.03433564 0.049916774 0.0460018 0.026919983 0.05833054 -0.056340717 -0.0043672505 0.039429884 0.024069082 0.029182535 -0.0024635377 0.034650583 0.054546125 0.048604082 -0.0040357173 -0.028968913 0.041373383 -0.005031237 0.025035407 0.016431563 0.05470547 -0.048943967 -0.0016851372 0.012342921 0.057845306 -0.00768624 0.038807828 -0.013569555 -0.009730699 0.031405173 0.036740307 -0.010416472 0.021159805 -0.053857185 0.042955033 -0.03560047 0.018799054 0.0053713415 0.042243984 -0.081007436 -0.05689928 -0.038039092 -0.042981748 -0.030397799 -0.05273065 -0.040475648 0.010548044 0.02768093 0.0512862 -0.023409907 -0.00820804 -0.067625925 -0.0152452 -0.01378943 -0.039793916 0.036300786 0.032504983 0.07529637 -0.0032900749 -0.04129574 0.016311867 0.013457324 0.043020688 0.018999841 0.018434193 0.0049607903 -0.0017755323 -0.01383512 0.0040402925 0.015347628 -0.029455531 0.08425207 -0.049344175 0.069433644 0.00021790096 0.030647267
1893 0.02354576 0.022054495 0.03208252 -0.046814658 0.033943612 -0.0068593035 0.010967946 -0.014942739 0.073700026 0.023194324 -0.039576434 -0.005723118 -0.05786831 0.022168426 -0.008235217 -0.07427479 0.013922055 0.0125692 0.019581726 0.07748775 -0.055582616 0.0738042 -0.021487683 0.015894415 -0.029815601 -0.02136861 0.044812612 -0.048711326 0.012828959 0.002599707 -0.031166436 0.038401764 0.030307159 0.025067879 -0.0013140277 -0.03617306 -0.017535998 0.050187055 0.03895793 0.005089873 0.046339244 0.049433757 -0.041165218 0.034410648 -0.0634933 -0.0152692525 0.01098308 -0.067208044 -0.064904526 0.059243012 0.006214798 0.0041108537 -0.027309855 0.0077439835 0.021346185 0.044478018 0.00904827 0.0038878084 0.053208 0.021114798 0.013129439 0.03614229 -0.02701884 0.015037451 0.052868765 0.025698965 0.010939593 0.02684651 0.07010361 0.009015368 0.029887857 -0.0060530524 0.032622665 -0.021496126 0.010651339 0.007257425 0.034080368 0.032833602 0.0090936925 -0.004681758 -0.021475974 -0.0009725834 -0.0076321554 -0.0030277688 0.003291275 0.022712337 -0.012468582 -0.014278063 -0.051691283 0.0083041 0.019033685 0.023148948 -0.058083918 0.030726215 0.044148687 -0.050674934 0.011795984 0.046173174 0.020418515 0.017022224 -0.03481751 -0.022647126 0.06814083 0.053915337 -0.0021280635 0.027207842 0.02195071 0.046006702 0.01173278 -0.006801374 0.017271215 -0.06251447 0.014289415 -0.028022695 -0.016143091 0.047137283 -0.018759828 0.02840731 -0.027681382 -0.042183705 0.0011421547 0.025268467 0.0151559515 -0.021435175 0.028716968 0.041457675 0.03044532 -0.010023087
1635 -0.0031309144 -0.022029417 0.031733997 0.058973696 -0.006909896 -0.034549877 0.08510096 0.034917794 0.012304615 -0.008697677 -0.055391 0.06339754 0.0151406005 0.008242187 -0.01282478 -0.07293652 0.089027956 -0.037996847 0.001145465 0.046290282 -0.027265374 -0.015611328 0.025402179 0.004668912 0.0010104924 -0.03976372 -0.016726293 -0.033336293 0.02849336 0.0014419473 -0.031440515 -0.043493133 -0.07070704 -0.07451293 -0.07471471 0.03618121 -0.005416852 -0.0083495965 0.06085615 0.06360096 -0.04376012 -0.04366033 0.018313656 0.015451076 0.032014377 -0.022172272 0.02045178 0.0119881155 0.0054474254 0.0012833283 0.016271243 -0.0103466865 -0.056002274 -0.05356297 -0.023384623 -0.013401155 0.036380105 0.0016816747 -0.06204064 -0.009657512 0.09907631 -0.046019066 0.045136075 -0.04928734 0.029068258 0.00945421 0.03911727 0.031006716 0.0294138 -0.041470967 0.03276778 0.056053065 -0.06617521 -0.024420252 0.021760257 0.030502403 0.03101564 -0.07823164 -0.055125337 -0.024105156 -0.06095958 -0.0061865756 -0.018939415 0.08582683 0.057220265 -0.019365067 -0.061868235 0.018111767 0.0023623744 0.076908246 -0.010569445 0.02015899 -0.026638469 0.080855995 0.07466896 0.024426736 -0.033568807 0.07337156 0.06631296 0.004418121 -0.0784527 0.008896793 0.0127569195 0.030607603 0.005468966 0.0053740665 0.01056449 0.0356552 -0.041501142 -0.05566193 0.043179374 -0.055046104 -0.041258335 -0.023028702 -0.09210454 0.062315367 -0.032342084 0.038069103 0.033982396 0.009445662 -0.054366555 -0.02399323 0.05948979 -0.05326558 0.016347686 -0.007976152 0.004625759 -0.08740394
1827 0.013704957 -0.000276046 -0.0018002435 -0.00068125944 -0.055504255 -0.022434438 0.027559081 0.03578842 0.025259404 -0.062371645 -0.0021951962 0.007134993 0.043457624 0.037017 0.028551785 -0.026888423 0.070612356 -0.0055987043 -0.006886998 0.086726695 -0.02183419 0.01382189 0.08043763 -0.02348243 -0.017257316 -0.025223263 -0.0016517558 -0.006977404 -0.01097575 0.016320283 0.02935767 -0.011652829 -0.040790107 -0.047325533 -0.07487901 -0.044852275 0.039493896 -0.018378202 0.009824461 -0.02983553 -0.0021622067 -0.0034888769 0.075895794 0.03385657 -0.044032425 -0.046631236 0.012337338 0.022377672 0.023655407 0.023178948 -0.004384801 0.00646366 -0.076558985 0.039887797 -0.01438034 0.035282772 -0.0060741063 0.05604483 -0.042412106 0.012980695 0.022966804 -0.03642411 0.054519247 -0.06784031 0.012836457 0.0002126957 -0.015616171 -0.049422383 0.0029777852 -0.023148712 0.002722904 0.025502592 0.01805366 -0.024024611 -0.0027851576 0.020300366 -0.024947638 -0.02470623 0.012142206 0.023011645 -0.009984266 -0.01237591 -0.01640161 0.020514918 0.003380109 0.0048871622 -0.007556959 -0.053821184 -0.052467003 -0.010830727 -0.0055288714 0.029497424 -0.0098567605 0.06981177 -0.0070510777 0.060443815 0.008348067 -0.025562761 0.025035555 0.006407748 -0.0122575825 -0.045674253 0.019012123 0.0005567438 -0.01610443 -0.05138558 0.027782453 -0.019935105 -0.00768414 0.070522 0.003757051 -0.06815648 0.024434645 0.0053400802 -0.017995762 0.01886096 -0.0015656538 0.03810432 -0.0049824966 0.003126611 0.008866247 0.027851898 -0.00774991 -0.051298037 0.031084957 0.049508363 0.00078203744 0.021647247
502 0.04424495 0.008004533 -0.0146339 0.022283416 0.01636512 -0.009644289 0.0061790254 -0.032493602 0.00958572 0.02553913 0.05432264 -0.035434656 -0.03480474 0.033176277 -0.05641543 -0.012638947 0.039427865 -0.022279786 0.013129826 0.038217783 -0.061289676 -0.06338335 -0.06524456 -0.03813803 -0.019423762 0.061581876 0.0019878186 0.011678474 -0.0055661015 -0.009799693 -0.015660288 -0.005014287 -0.020508675 -0.038473662 -0.0005804501 0.046115544 0.0077207284 -0.009742753 0.05542056 -0.032945238 -0.045177277 0.030150466 -0.034231167 -0.04430657 0.031412464 0.049756955 -0.006604863 0.009216994 0.023309981 -0.03299572 0.03180268 -0.009244067 0.014476858 0.06043424 -0.012357134 0.03727464 -0.0016669299 -0.001063253 -0.0062994407 0.016283626 -0.04714737 -0.007302501 0.002514068 0.0051079015 -0.038482033 0.0049678897 0.027489584 -0.019065265 0.03156252 0.022951283 0.03528859 -0.02614153 -0.03199491 -0.03315754 0.038619045 -0.056115054 0.011007159 -0.0028910744 -0.059174307 -0.028472172 -0.018604556 0.037306353 0.044152625 -0.023730755 -0.04354323 -0.039541114 -0.07669099 0.030731546 0.014648697 -0.031013992 -0.013826675 0.062513866 -0.052792143 -0.0077654505 0.0008108814 0.0041259765 -0.05207342 0.0098333815 0.06898276 -0.025738737 0.0011871884 0.007206993 -0.00090356136 -0.0233651 0.038351018 -0.02525481 0.0357799 -0.020901235 0.014843585 0.054830924 -0.004975061 -0.0003965727 0.01618901 -0.022689203 0.006927013 -0.01401565 -0.027689131 0.013468963 0.023433724 -0.018243873 -0.023381189 -0.027962897 0.019221732 -0.0521842 -0.030939102 -0.039967228 -0.027810566 0.044915494
369 0.041306965 0.03840161 0.016060792 -0.0020855237 -0.022791745 0.0217993 0.024742518 0.0057949885 -0.039384708 0.014403922 -0.01793505 -0.009422077 -0.04958378 -0.05511425 -0.03871528 -0.0047561917 0.054316614 0.02532488 0.06547561 0.050440587 -0.012413742 0.0012121326 0.0680349 0.07088371 -0.019725265 0.05567253 -0.008818686 -0.025186079 -0.02312279 -0.03542887 -0.051334538 0.01219475 0.033653285 0.04051722 0.019508602 -0.045417245 -0.028586948 0.066134885 0.044662897 -0.0486246 0.058506187 0.080781266 -0.00039754715 -0.0049427235 -0.017196639 -0.0015030298 0.031168124 0.009306809 0.031423602 -0.012307149 -0.060636118 -0.05495902 -0.012408441 -0.009838322 -0.05704681 0.049128566 0.032810576 -0.056132145 -0.015075074 -0.015132361 0.08025101 0.016113011 0.024808513 -0.028585263 0.039408058 0.046251472 0.008433386 -0.056536313 0.01702231 -0.051703457 0.052069277 0.033245865 0.008965813 -0.07727923 -0.07216212 0.04353849 0.02425239 0.0038621493 -0.077158295 -0.074887455 0.012241893 0.0347155 0.020595253 -0.025234465 0.012819098 -0.040467404 -0.0057298024 0.006504903 0.0613886 -0.060321245 -0.04352695 -0.0024145476 -0.00018644973 -0.06382377 -0.04806548 -0.029913645 -0.0020460275 -0.048146375 0.016315462 0.029262759 0.060016856 -0.022606153 -0.01536257 -0.033509027 -0.026922159 -0.09647833 -0.056575596 0.012366366 0.04579293 0.0018390224 -0.02507983 0.03136744 0.008139113 -0.018516438 0.054198794 0.0037867657 -0.038769383 -0.0044207494 0.0015199438 -0.024919271 0.07397275 -0.021196367 0.0170188 -0.023298355 -0.014421137 -0.093781814 -0.07098572 -0.0524016
694 0.0034725633 0.02583443 0.042744372 0.013706491 -0.021045107 -0.035246074 -0.02552905 0.007890972 -0.06587121 0.01642544 -0.021104857 0.024057437 0.05358102 0.0131106 0.019758614 0.03201774 0.018010475 0.014897382 0.013443423 0.042535767 0.06848846 0.020029387 -0.008148562 -0.016078552 0.011150643 -0.088130295 0.04443521 0.0072131213 0.00049721205 0.0019545055 -0.0015162994 0.05409537 0.021718526 -0.009415929 0.01275791 0.032683313 0.0641981 -0.06207417 -0.025057511 0.027939783 -0.014565412 0.013589738 -0.038628742 -0.015293562 0.006518382 0.021509884 -0.015873544 -0.051390234 -0.026091298 -0.029287852 -0.028901434 0.014994582 0.041682802 -0.026612142 0.010684983 0.010957239 -0.013668738 -0.019894425 -0.0068644504 0.039363984 0.033066068 0.014063151 -0.0040175323 0.039826017 0.060430165 -0.0028194464 -0.05727199 -0.015593079 -0.007421036 0.06174828 0.021688076 0.046658345 -0.002335784 -0.027611334 -0.05274515 0.0060137124 0.03410227 0.042765647 -0.010417058 0.07633636 0.008834773 -0.033213533 -0.016319487 0.011103135 -0.0059424774 -0.043260973 -0.04065489 0.021008315 -0.0012746067 0.02705764 -0.018316267 -0.02696486 -0.082304835 -0.013379323 0.087885536 0.040773228 0.017336657 -0.04816399 0.0028586055 -0.04590138 -0.007318911 0.028468698 0.008920827 0.036920086 -0.013071422 0.039544303 -0.06283302 0.02886593 0.008559203 0.04372884 0.028904628 0.016722277 0.04360824 -0.057079874 0.033921145 0.058450736 0.010982585 0.06307846 0.027193341 -0.02062519 -0.019232087 -0.054792076 0.07583315 0.023281163 0.034196574 -0.054131262 0.043573894 -0.0010594121
693 0.021689326 -0.07839492 -0.0062016 0.037787437 0.02351091 -0.006263661 0.04133304 -0.0062794127 -0.0062361285 0.011685289 0.00078900513 0.055609234 0.053142242 -0.013589451 0.008560059 -0.0116623 -0.009327984 0.04876855 -0.002927746 -0.0075304685 0.03645306 0.0027484214 -0.019239819 -0.07213165 0.032995157 -0.03267438 0.038971893 -0.018748773 0.05741017 0.04547891 0.027344039 -0.013543415 0.020873217 -0.057438366 -0.04067918 0.009078464 0.038685665 -0.03505584 0.015918477 0.024285397 0.000500153 0.036633432 -0.017475743 0.003763418 0.023598557 0.0027601896 0.008352844 -0.055801883 0.0237247 0.0059034373 -0.03298251 0.06739658 0.08932628 -0.062125415 -0.054835714 0.036707792 -0.07785861 -0.00659171 -0.0015385995 -0.011785962 0.03994711 0.032824885 0.04958314 0.07359939 -0.009281133 -0.008790451 0.019937146 -0.09101641 -0.022698948 0.026401967 0.028118525 -0.036675926 0.05383558 -0.009310332 0.029094229 -0.0067223394 -0.029711692 0.03128613 0.0030266652 0.081898056 -0.012328599 -0.0022140979 0.034160953 -0.036940794 -0.05918301 0.020517852 -0.05177961 0.05659503 0.03308254 -0.00011541718 0.030703587 0.02626269 0.004355197 0.016094333 0.014590552 0.038853884 0.035085812 -0.0037746367 0.021688523 0.006304346 -0.01489575 0.069898665 0.01681707 0.016983898 0.055794273 0.01113236 0.015353202 -0.042623807 -0.011300595 -0.03789916 -0.027243754 0.039790493 -0.022035498 0.027581371 0.017065376 0.01041349 -0.023561915 -0.0030193394 0.039329886 -0.04920208 -0.020473331 0.017966174 0.024039058 -0.058166556 -0.0022596242 -0.029187933 0.024831356 -0.040578038
83 -0.02158448 0.014505403 -0.021737972 0.01431326 0.01171318 -0.063685015 -0.010139727 0.004353825 -0.037949856 -0.055278376 0.023235098 0.060074817 0.0624876 -0.013600965 -0.021827387 0.07069551 0.07770363 -0.026882758 -0.036169548 0.08750765 -0.013430081 0.017775638 -0.089385495 -0.017334249 0.024375245 -0.02537679 -0.07413542 -0.020907257 -0.0518389 0.051899515 -0.0046641934 -0.00074266037 0.02295456 -0.026142167 0.07712748 0.06534195 0.032765836 -0.07824749 -0.08399254 -0.019110048 -0.0098188445 -0.0029996147 -0.052872196 -0.0040331692 -0.03512292 -0.06672258 -0.01203143 0.027400142 -0.0740821 -0.0984765 0.025616048 0.043339778 0.014678457 -0.013164045 0.008335358 0.050959066 0.003145053 0.057883102 0.06560997 0.023232508 0.021538887 0.04612356 0.02641841 -0.00022517436 0.01283839 0.053577155 0.018366259 0.07529826 -0.0054078894 0.08471773 0.048583787 0.04907478 0.0027792798 0.0049014343 0.026878132 0.06801228 0.05226571 -0.004574783 0.050054368 -0.016525162 0.006158932 0.010647515 0.014484724 -0.039852936 0.018413447 0.049012948 -0.05575438 0.042823646 -0.011372746 0.037552394 0.057821777 -0.06214972 0.04123431 -0.051840093 -0.013443918 0.01471919 0.0073985835 -0.0050221127 -0.0062257377 0.015416725 0.028682662 0.087127514 -0.0075342506 0.004794939 -0.0053042816 -0.0573246 0.035104375 0.05400184 0.013523908 0.03897311 0.046745047 0.034135826 0.08119215 -0.05638218 0.0531061 0.031680286 0.025856076 0.007252165 -0.0019230739 0.082336485 -0.025074944 -0.013125928 -0.008107076 -0.02893502 -0.013718844 0.031929344 -0.01948668 -0.049974844
1246 -0.007643557 0.005285679 0.011884738 -0.013294413 0.07465024 -0.044888295 -0.06927585 0.007754578 0.011053067 -0.023967734 0.038012456 0.054845013 -0.012646628 -0.080474585 0.07053721 -0.023322474 -0.006787397 0.02394143 -0.07108486 -0.014850444 0.031113476 0.041260336 -0.0459978 0.047507413 -0.02577615 -0.005802077 -0.016508669 -0.04484649 0.024081506 0.0338919 0.024497515 -0.080243774 0.028326403 -0.053237833 0.0003486761 0.025304526 0.033725105 0.026417159 0.030786827 -0.0035455036 0.011574426 -0.023871962 -0.012299463 0.0243592 -0.024458986 0.035237934 0.0006062918 0.07382046 0.03596365 -0.017857242 -0.041180458 -0.044008553 -0.02266403 -0.02543512 0.04439013 0.058009412 0.06984265 -0.03583363 0.013529539 0.0003286777 0.056135274 0.015837561 -0.010927902 0.016884824 0.03412573 -0.03037833 0.02022202 0.06258556 -0.00234486 -0.017645836 0.07754162 0.00836583 0.040106803 -0.0035011563 0.03443969 0.0036528213 0.027043175 0.065278366 -0.033602107 -0.04773382 -0.0035167336 0.08157954 0.028467515 -0.045315042 0.024412073 -0.0134401135 0.027800037 -0.010984526 -0.014886723 -0.065427095 0.02803701 0.0433551 -0.031489417 -0.017535621 -0.054516234 0.073243424 0.022123279 -0.019555947 0.0100152735 -0.041833043 0.011153015 -0.047859564 0.037836365 0.046821885 -0.030867482 0.03111155 -0.055692032 0.05775749 0.032480903 0.014959667 0.042361107 0.02759191 0.03337864 0.062141337 -0.038146053 -0.01097701 -0.046824962 0.025552383 0.0006289347 -0.06886407 -0.03189528 -0.030113488 -0.05046668 0.020545026 0.022202766 0.0008290829 -0.015018503 -0.035203606
1162 0.0205316 0.049133733 0.016976982 0.006269726 0.06255852 -0.038895126 0.026133077 0.006511894 0.023893114 -0.0017770177 -0.041403696 0.016254274 -0.031928375 -0.053129565 0.00863422 -0.023781776 0.03301692 -0.05144184 -0.00459657 -0.01984945 -0.033749398 -0.05798237 -0.047518115 -0.015342514 -0.037708756 -0.007809906 0.049435876 0.031768817 -0.037051763 -0.053703528 0.025279768 0.009513038 -0.0489766 -0.041762773 -0.0077346284 -0.0029968466 -0.024710527 -0.036710907 -0.027715024 -0.067108296 0.033871837 0.0064482046 -0.03166599 -0.019950725 -0.02040064 0.0070331595 0.029609289 0.04264618 0.06966995 0.018319288 0.024932845 -0.05475121 -0.008488734 0.01847473 0.020922378 0.028508803 -0.034293264 -0.041467045 0.05123811 -0.027319595 -0.020383885 -0.015176815 -0.029141644 -0.04118682 0.012784258 0.0020839535 -0.03614287 -0.00056513486 -0.02782925 -0.05192199 -0.020549785 0.00028359445 -0.049531553 0.016007055 0.0056097475 0.032517564 0.04087742 -0.009215147 -0.00047278835 0.019041564 0.019607887 -0.023302501 -0.068356015 -0.018214377 0.0034625442 0.03202029 0.014542292 -0.0020143443 0.027512984 -0.021394832 -0.03240403 0.026343679 -0.032392494 0.0044143004 0.043674998 -0.023608094 -0.024975585 -0.04766199 0.0073361183 0.056833003 -0.0016807885 -0.016117325 -0.031173896 -0.020406175 -0.0027069142 -0.0044189985 -0.03532118 0.039864786 -0.079459146 0.0113143865 -0.033567216 0.06060027 -0.0028431767 -0.023604628 0.00943868 -0.0063880715 -0.056587763 -0.016209682 -0.0010143052 0.067643635 0.023065517 0.036970448 0.06394142 0.023226826 0.0013535443 -0.041532196 -0.010956916 0.022885947
115 -0.03266397 -0.028167473 0.034758974 -0.01750367 0.0033268004 -0.043079082 0.015303604 0.0016650101 -0.0124030225 -0.02852877 -0.03572986 0.055157106 0.0003244741 -0.013643657 -0.0011097861 0.0108826505 0.044929363 0.030742273 0.029175192 0.012031469 -0.021195333 0.015685128 -0.035570152 0.009337378 -0.05369289 -0.028527252 -0.02385971 0.0061207097 -0.020113058 -0.0068803215 0.08279093 -0.022773677 0.03351131 0.051382717 -0.03718324 -0.038205493 0.024959717 -0.060871683 0.034450028 -0.0008527789 0.016733188 -0.008194731 0.008152167 0.070373744 0.01830835 0.030991998 0.037771083 0.017473184 0.027978683 0.0010361684 -0.036784165 -0.04962532 -0.059973925 0.018039215 -0.0048741805 0.025133954 0.048956875 -0.020494403 0.012590387 -0.024665711 0.010136853 -0.00024775084 0.020900598 -0.030635811 0.03353099 0.02744231 0.006826033 0.00057060877 -0.016974825 -0.06327997 0.030250864 0.011551379 -0.011476347 0.027662612 0.03459294 0.014372599 0.05200771 -0.0026134409 0.0021592355 -0.042280924 0.021658128 0.02064038 -0.03787565 -0.020395685 0.0058314926 -0.0058826916 -0.008831435 0.023652922 0.036978178 -0.024848334 -0.028115794 -0.0073102503 -0.020041663 -0.010162912 0.012307013 -0.018026695 -0.03427127 -0.0050665215 0.019401833 -0.048841726 0.050579853 -0.032597493 -0.016867863 0.051879205 0.016395062 0.014427928 -0.03487883 -0.013822635 -0.067706235 -0.05667072 -0.016533805 0.028583582 0.016181557 0.016324617 0.039170634 -0.07327097 -0.006887723 0.04892715 -0.08026482 -0.011656066 -0.010957207 -0.013406721 -0.035567485 -0.0025686729 0.059871323 0.0032689539 0.053635355 0.057529777
1221 -0.005697536 0.04107627 -0.024357133 0.0022832293 -0.03061676 0.008599786 -0.026043419 0.012503016 0.03702424 0.029535787 -0.02670896 -0.025238309 -0.005791349 0.0018659665 -0.005158459 -0.005847181 0.025173416 -0.0004118812 0.02960123 0.05998383 0.039456453 0.016427727 0.023173882 0.047051 0.012996647 0.033323936 -0.0054422566 0.011203841 -0.0029664957 0.05068357 -0.005111436 0.03451739 0.019885346 0.039226763 0.00093169924 0.043001797 -0.030228227 -0.053113736 0.047116835 0.015013054 0.046053004 0.030956494 0.014794891 -0.011950057 -0.027013583 -0.0047610877 0.020934585 0.03936593 -0.0040872814 0.038025904 0.015516491 0.010586341 -0.016914202 -0.019065425 -0.01378894 -0.021895947 0.013353733 0.010356295 -0.0444709 0.028611487 0.011216327 -0.044217657 -0.005497956 0.021050647 0.021028997 -0.057748824 -0.02282037 -0.032232787 -0.0070835724 0.041499626 -0.013479709 -0.01757862 0.044903323 0.050374206 0.027881099 0.004407939 0.011336743 0.024584915 -0.038394433 0.022804135 0.027327126 -0.03126054 0.010159362 0.009820657 0.045519445 -0.07320832 0.04261902 0.0010804153 0.0035884012 0.04278017 -0.017574076 -0.011017562 -0.0075273854 -0.03416346 -0.028308922 -0.04242644 -0.05582247 -0.04693973 0.005105964 0.044423558 0.018336978 -0.018683244 0.044316825 -0.0150149865 -0.02454989 -0.024108002 -0.010976112 -0.014146942 0.0023866228 -0.009468485 0.040272105 -0.002843641 -0.02508128 -0.0016186646 -0.029507065 0.01650409 -0.06308188 -0.020715602 -0.048157938 -0.02866193 0.0117975455 -0.015213511 0.016611982 0.032081015 -0.06482244 -0.0062039127 -0.0405575 0.025016882
250 0.0025764764 -0.021518297 0.041434664 -0.04970948 -0.029346567 0.026975328 -0.037952643 0.0503219 -0.018755967 0.046230584 -0.052066118 0.016878648 0.020488787 0.050559785 -0.059063803 0.02384128 -0.018652093 0.05064588 -0.042071022 -0.025699565 0.01947573 -0.092323326 0.044808943 0.026073724 0.0070135235 0.0024386416 -0.044383522 0.044486303 0.026021887 0.03020678 0.03855867 -0.0035626893 -0.052478846 0.034611955 0.045977093 0.0026586095 -0.0352467 0.027531076 -0.025782745 -0.061103996 -0.003982323 0.020923771 -0.06818765 -0.07432003 -0.042146206 -0.046414122 -0.028444095 0.008276314 0.02488758 -0.027302299 0.07419497 -0.06312387 0.028047604 0.044381086 -0.009133106 0.06577523 -0.050537705 -0.07081623 -0.037345376 -0.032570098 -0.045280814 0.00319857 -0.052330885 0.040686034 -0.039273072 -0.010707669 0.0012414756 0.022422958 -0.01542909 0.023241336 -0.06994546 -0.030736538 0.05416808 0.0039644986 -0.024370443 0.057965383 -0.045520708 -0.03284091 -0.06447911 0.0041599954 0.018157946 0.00722333 -0.018619068 0.084513485 0.022473289 0.003300204 -0.030275328 -0.03332258 -0.045611054 -0.019496813 0.0483196 -0.08752538 0.032847308 -0.05523449 -0.050960828 0.06350104 -0.00796116 0.037038095 -0.04208804 -0.07045069 -0.0019343626 -0.05227064 0.05172894 -0.04552682 0.081131935 -0.048024487 0.002234521 -0.03167255 0.024238357 -0.046773937 -0.016650137 0.006035399 -0.018843567 -0.092594765 -0.038129747 -0.029324962 -0.038735855 0.074932836 0.072598115 0.019748872 0.04045856 0.03731961 0.02468359 0.03606277 -0.018526532 -0.01244075 -0.011873921 0.046625912
412 -0.045055103 -0.01782547 -0.02796461 -0.0046606385 -0.03257865 0.04735982 0.00073235034 0.07148077 -0.06455209 0.03484425 0.029096114 -0.049854983 -0.011510135 0.011045413 0.026970478 -0.030878384 -0.0043677595 -0.026688095 -0.0013993708 -0.039369315 0.03662178 0.06124558 0.023552004 -0.02040291 0.033268973 -0.048177283 -0.009126362 0.06188752 0.014496035 -0.0033173794 -0.013985225 0.048458565 -0.06322634 -0.010843525 -0.014233554 -0.04005915 0.037268054 0.049390752 0.01954514 -0.029874614 -0.013331669 0.031119285 0.045197822 0.0057085385 -0.01020304 -0.046531968 -0.010632732 0.013994746 -0.05036104 -0.040811617 -0.012497663 -0.019118903 0.05236969 -0.013413531 0.07570067 0.0026116616 0.04332819 -0.031603463 -0.005084086 -0.02472987 0.015729481 -0.028694345 -0.03571172 0.0066856304 -0.004434158 -0.050088502 0.020816227 -0.00069346494 -0.059346978 0.024541391 -0.026951961 -0.0001703239 0.022015208 -0.009669472 0.066594146 0.009619362 -0.008579509 0.010187416 -0.03460693 -0.04414645 -0.010639342 -0.024226476 -0.05947474 0.03999438 -0.0122963125 -0.05274178 0.025399227 0.04585226 -0.055833377 -0.019554121 0.03944159 -0.03071886 -0.07544169 0.038982667 -0.019352099 -0.036437772 0.023402566 -0.036914755 -0.012827167 0.011190182 -0.0008498054 0.01752474 0.06862179 0.018748706 -0.039653808 -0.015002363 0.029727526 -0.0073376293 -0.0072494326 -0.049706038 -0.01849467 -0.023973634 0.008411981 -0.07031259 0.006195274 0.012400584 0.059396774 0.044402406 0.03946662 0.037769515 -0.018768298 0.034552764 -0.0242091 -0.05927681 0.0233483 0.049969845 -0.0054490524 0.02570183
532 0.03482467 -0.009448326 -0.052446287 0.03285893 0.048274435 0.045764767 -0.028332157 -0.055870734 0.014232598 -0.02639409 0.054815937 -0.02055492 0.022107314 -0.02819433 -0.004857981 -0.013184581 -0.0011717991 -0.049118023 -0.0064740153 -0.0076669897 -0.032554194 0.016753439 -0.032188814 -0.018912463 0.048758715 -0.030111017 0.045113977 0.02461849 -0.0050447825 0.014928382 -0.012633714 0.049832262 -0.033537664 -0.03360296 0.053216085 0.047850728 -0.021963233 -0.027879795 -0.024568232 -0.030275904 0.056482863 -0.014475307 -0.028802173 0.0077413567 -0.06578077 0.0011705229 -0.025089713 0.012860015 -0.017584158 0.007323537 -0.066519 -0.035883576 -0.015617677 0.031148743 -0.014706695 -0.01629494 -0.022539157 0.00014772832 -0.028428786 0.011178306 -0.03582915 0.022569928 -0.034194853 -0.012425861 0.023403859 -0.028295055 -0.03409892 -0.012184871 0.030147612 0.02290067 -0.0128566455 -0.0056058215 -0.012662518 -0.0095863715 -0.010482029 -0.037652805 0.00078380364 -0.038941633 -0.03073562 -0.04244427 0.047736198 -0.06571433 -0.04805484 0.053330433 0.039608117 -0.02177989 0.053148214 0.015364742 -0.02066884 0.021857267 -0.0715818 0.0015675332 -0.03332506 -0.00083179015 -0.051034607 0.00020703826 -0.033729088 0.007233677 -0.022174045 -0.0072324937 0.031885542 0.020812381 -0.0057043494 -0.058023922 0.027215233 -0.018320529 -0.018981969 -0.010917871 -0.013864107 -0.03111071 -0.03749449 0.037708595 0.034107536 0.06328556 -0.08704871 0.04683938 0.01557611 -0.015322764 -0.0112901945 -0.044818986 -0.024263052 0.014302909 -0.040173598 0.02907291 -0.0087318495 0.0097565055 0.008536693 0.07599546
1633 0.03860268 0.038681515 -0.035085175 0.06971276 0.028964048 -0.026944112 0.038248375 -0.043115567 0.0013331246 -0.008148407 0.014498499 -0.06292184 0.00076986826 -0.08378256 -0.01838046 0.041786473 0.0028849319 -0.062995814 0.070257254 0.044354152 -0.00249106 -0.048435222 -0.019415297 -0.08837686 0.064639114 -0.006373707 0.014454802 -0.06658282 0.020055044 0.05681056 0.08484431 0.037718035 -0.011830327 -0.015507957 0.024653303 0.04872263 0.02486191 -0.0059891664 -0.029005464 0.04207583 -0.022853965 0.070935935 -0.045600727 -0.0029340237 0.015427874 -0.035662133 0.037668247 0.02760394 0.05180084 0.03214616 -0.07676198 -0.01584723 -0.016108317 0.014007093 -0.079594694 -0.059235413 -0.06661845 0.056301832 -0.027708417 -0.04374948 -0.012105295 0.009723133 -0.008804094 -0.051842157 -0.004433549 -0.03678042 -0.05492123 0.044672534 -0.020779038 0.00562919 -0.07145707 -0.024843024 0.06408206 0.009819764 -0.030664524 -0.050365515 -0.023885489 -0.061429705 -0.0055291425 -0.029842408 -0.0067391964 -0.016073044 -0.0013262897 0.03078839 0.03206125 -0.024339525 -0.009606527 0.013316474 -0.0016763068 0.046240497 -0.003341333 0.03619071 0.0013148442 -0.030324785 0.06882881 0.037054043 0.06647581 0.002205812 0.0032947452 0.019944647 -0.047184676 0.047233783 -0.076960936 0.0034296429 0.00053422456 0.030125124 0.03819099 -0.026588462 -0.032914653 -0.017557895 -0.016470954 -0.0072643314 0.04706639 0.018762685 -0.017154189 -0.030903837 -0.021594709 0.037178162 0.016798079 -0.016809981 0.060794644 -0.011537673 -0.035411607 0.07372243 0.029053686 0.045033466 -0.046813074 -0.011487462
1464 0.048371945 -0.05567762 -0.073712245 -0.035226494 -0.081801556 -0.024695555 -0.02944834 0.020635901 0.030993609 -0.024607003 0.0024083876 0.062326133 0.06965295 0.008457238 0.047028016 -0.037950687 -0.00064820086 -0.06464368 0.05263715 -0.031526286 0.07562045 -0.039135527 -0.060473323 -0.061010472 -0.055845693 -0.060048204 -0.01925836 -0.05649018 -0.030832712 0.013557077 0.027103944 0.017511189 0.054347944 -0.05170998 -0.035243038 0.0461174 0.05527518 0.009572089 0.017597364 -0.03385589 -0.03412643 -0.023422213 -0.07819169 0.055007484 0.00043938897 0.041483615 -0.04757881 -0.064524464 -0.0054106186 -0.0031895991 0.014078211 0.0030740341 -0.00026449386 -0.0014047974 -0.04518736 0.052317478 -0.024987428 -0.03814743 0.057553016 0.06188645 -0.018036913 -0.008414251 0.012438148 -0.025808562 0.014947958 -0.028046422 -0.05281892 -0.07089145 -0.0034321758 0.03148726 0.064386986 0.019909967 -0.033298228 -0.0064421264 0.054143336 -0.010441558 -0.041366164 0.029525034 -0.013656077 0.038703408 -0.042556856 0.05947663 -0.026109919 -0.062075883 0.05845305 0.02499607 0.0811416 0.0099169165 -0.07453877 0.04521253 -0.038409855 -0.009123761 -0.021359699 0.028137026 -0.035771668 -0.060522884 -0.02132078 0.019925486 0.012452181 0.017957969 -0.00410415 -0.012553615 0.02325443 -0.014492014 -0.02761939 0.0038349153 0.048785333 0.06453331 0.022171354 -0.012742977 -0.03293741 0.074124545 -0.011813836 0.0069401213 0.06462795 0.066636816 0.02086216 0.044468865 -0.03083203 0.060167637 -0.02178395 -0.01801429 -0.034412205 0.046302494 -0.0057251067 0.032167997 -0.057766154 -0.006853527
2274 -0.008693912 -0.06123992 0.01929168 -0.020903895 0.034748435 -0.057417233 0.01096764 -0.008844352 -0.0044431104 -0.0133295925 0.054176588 -0.005911601 -0.056020238 -0.01493332 -0.0016716061 0.017071102 -0.021198312 -0.00096681603 -0.001533647 -0.0035922811 0.036652416 -0.019639675 0.02744321 0.02155681 -0.008372051 -0.019840818 -0.06873366 0.0073473547 -0.053018324 0.0356112 -0.035485663 0.03259822 -0.042024873 -0.00297979 -0.0151903825 -0.016877424 0.022165474 -0.012899205 0.011778109 -0.0014309706 0.0041222954 -0.049011346 -0.0034257618 -0.0077191023 0.01573877 0.06505507 -0.022612186 0.008426387 -0.038051248 -0.032322038 0.02583539 0.037476037 0.021547113 0.02713622 0.009236908 0.008662771 0.028324416 0.043107416 -0.07154955 0.00035117505 0.028373139 -0.07428566 0.0047101155 0.06295817 0.10516261 -0.0009470219 -0.010647143 -0.0051994883 -0.033295717 -0.07281412 0.026895551 -0.016728794 0.0015686277 -0.047551274 -0.0051461873 -0.045657568 -0.010701689 -0.063304745 0.06505855 -0.019289702 0.00783129 -0.024256798 -0.023935089 -0.03563399 0.057014327 -0.0218942 0.03279494 -0.016084488 0.045279216 -0.02471034 -0.032604713 0.044946536 0.047574643 0.075130716 0.045439746 0.04361753 -0.07285513 0.050636787 0.0028713676 0.044113275 0.035912365 0.0060901497 -0.010029451 -0.043778922 0.013671068 -0.009375893 -0.00025132438 0.056558713 0.023888718 -0.039491117 0.011190871 0.015834767 -0.005022778 -0.058022983 -0.02502406 -0.066665046 0.048232928 -0.047013573 -0.008216514 -0.03574631 -0.05570272 0.015744947 0.0128967855 0.02095891 0.03319179 0.0034051505 0.046405118 -0.022045722
1573 -0.030620134 -0.056203134 -0.011224827 0.03046978 0.08747541 -0.030834794 0.012207313 -0.06703277 -0.012059156 0.022094226 0.020360256 -0.041181628 -0.036984906 -0.030034095 -0.0005482728 0.024928998 -0.023381641 -0.023869619 0.013377634 -0.018024854 0.014072803 -0.08641208 -0.03633976 -0.07419853 0.028851874 0.011275086 -0.03952894 -0.0029155845 -0.082988165 0.00897184 -0.078411356 0.049878497 -0.022764828 -0.023877105 -0.0128766345 -0.04286924 0.0011550473 0.051217847 -0.03140948 -0.03346611 0.0032494394 -0.08124845 -0.014670903 -0.00080617366 0.008266462 0.03401604 -0.03743643 -0.035585698 0.042940773 0.014191136 -0.0079129655 -0.05701537 0.02950315 -0.0011717109 -0.018426053 -0.035133198 0.063039325 0.047284458 -0.020402096 -0.0036042274 0.0032143518 -0.03353637 -0.006466675 0.04591781 0.026315603 -0.008847722 -0.05231764 -0.014239826 -0.0393998 -0.023457162 0.020870378 0.067268744 0.041034672 -0.056914605 0.023053082 0.042327765 0.06965558 0.01638044 0.015912775 0.027550422 0.016345467 0.018645886 -0.0015459259 0.043794 0.01287667 -0.03509297 0.029781122 0.00945104 0.003328274 -0.050123513 0.02002139 0.030544642 0.040272947 0.039711587 -0.053601954 -0.036943555 -0.007740159 -0.022332132 -0.014236096 0.015422766 0.04059123 -0.013886994 0.025712352 -0.008014396 -0.035666168 0.068715155 0.008318432 0.039134458 -0.06955842 0.048472077 0.03871754 0.001882796 -0.0018755376 0.023779688 -0.035207458 -0.021819483 -0.04042401 -0.014253357 -0.040860824 0.042957187 0.011295167 -0.05449453 -0.008795586 -0.012569137 -0.026770227 -0.01236212 0.012299813 0.05236488
75 -0.059768394 -0.008837683 0.005261659 0.033679128 -0.026646974 -0.05246013 -0.03983715 0.046113912 0.0580388 0.06454861 0.014519113 0.0026575904 0.051785942 0.027308352 0.03317214 0.017666353 -0.03976448 0.066078536 -0.026206648 -0.052764118 -0.050030585 0.008827926 -0.0061884085 -0.04210955 0.041030813 -0.01497322 -0.03026485 -0.021918358 0.00588177 -0.049894977 0.042205628 0.008993087 -0.023462413 0.053764835 0.025319904 0.013348146 -0.020391645 0.01893219 0.05867953 0.07505249 0.04709699 0.0031538485 0.04583947 -0.04946059 -0.025720922 0.04592517 0.051381048 -0.018869327 -0.005367837 0.020690551 -0.054858517 -0.002525553 0.003361289 0.061640292 0.02933094 -0.009763211 -0.03286608 0.04513719 -0.002711124 -0.0062164655 0.019844452 -0.0048129205 -0.039405525 -0.016369207 0.04466115 -0.023733359 -0.025810553 -0.012261608 -0.04602091 -0.02005006 0.083023 -0.014507341 -0.041181445 -0.019335957 -0.03378083 0.043864984 -0.04679637 -0.03801569 0.0026081682 -0.0032374472 0.028084377 0.011604525 -0.010496483 -0.008654663 0.020017724 0.07362946 -0.078944236 -0.014058282 -0.024848683 0.015191339 -0.017534887 0.015043136 0.0147720035 0.034076013 -0.036758754 0.07459578 -0.02437576 -0.03130374 -0.02074282 -0.02869967 -0.03290246 0.0061026057 0.025519863 0.016822396 -0.01693001 0.014072193 -0.028136933 0.033075053 0.01827048 0.033901736 -0.0027512563 0.0114863785 -0.0008747431 0.056857433 0.04058778 -0.020452674 -0.042722583 -0.0075024245 0.0117116375 0.021496482 0.005902906 0.010855742 -0.01190203 0.008116619 0.037877217 0.029339306 -0.0014897392 -0.016421424
212 0.030010164 -0.06588 0.019687403 -0.0077959932 -0.01449162 0.03238298 0.028679071 0.009263563 -0.004162596 -0.07840241 -0.031450134 -0.032655887 -0.015643101 -0.07412073 0.016065335 0.025039606 -0.026961578 0.026603442 0.03745367 -0.029751224 0.02404339 0.0061520752 -0.0016818434 0.037044745 0.006540219 0.040989876 0.05831534 -0.03449209 0.008325783 -0.019795261 -0.014285545 -0.006128777 0.019457784 -0.037962154 -0.01857585 -0.03202981 0.069528565 0.026378693 0.053748578 0.020902518 0.036608767 0.017862521 0.020723626 0.011287335 -0.000115035466 0.0039823554 0.07381324 -0.034747347 -0.058764424 -0.009608276 0.008511299 -0.0136461705 -0.051068503 0.012241025 -0.037496064 0.043999538 -0.0074196295 0.046264496 0.033061158 -0.021701615 -0.0673097 -0.04052627 0.034753878 0.033759154 0.015308244 -0.05466942 -0.0022043558 -0.05616787 0.007965534 -0.07542195 0.043478392 0.017653096 -0.07368236 -0.0069788834 0.021480132 0.035505995 -0.04991589 0.0195157 0.084404975 0.012208283 0.035120588 0.08100164 -0.0029874414 -0.0060509513 0.050184235 0.0497308 -0.01440471 -0.031121016 -0.047297638 -0.045655508 -0.0022441244 -0.025854444 -0.0362462 0.0670917 -0.058266196 0.06525653 0.0022169657 -0.03250073 -0.077151306 0.04555162 0.044483934 0.01557028 -0.009256743 0.013757317 -0.0030964469 0.013000948 -0.032987256 0.014600174 0.07504773 0.011965984 0.0020065727 -0.011116465 -0.0042392374 0.046329852 0.010493803 -0.024485828 -0.021215323 -0.028368125 -0.032624036 0.013020101 0.016884768 0.045438938 -0.07087605 -0.020035876 -0.019048706 0.002657325 -0.009102637 0.031687003
439 0.04879683 0.025888296 0.0788785 0.045612674 0.017258447 -0.01585355 0.08722886 0.042358533 0.06350825 0.020498019 0.027350686 0.030011686 0.046646744 0.022229807 0.015222336 -0.038980164 -0.024047758 0.021510925 -0.0118337255 0.010983414 -0.016831918 0.066660166 0.054028377 0.013995416 -0.010549326 -0.035777595 -0.03148862 -0.034151886 -0.006456314 -0.029735416 -0.0832966 -0.054591015 -0.016692467 -0.018920574 -0.0063576023 -0.03357645 -0.026206724 -0.08036908 -0.029650329 0.03962624 -0.025228266 -0.0016688751 0.002072126 0.0011651925 0.070153214 -0.056159303 -0.023422943 0.021484543 0.063772276 -0.0072091077 -0.025841352 0.024574915 0.00470289 -0.027823484 -0.07640672 -0.030386629 0.028014699 -0.019205505 0.077377334 0.0073618367 0.030685857 0.0037796001 0.061649606 -0.012272108 -0.030321164 -0.028152818 0.0013374013 0.030610543 -0.014925694 0.008354905 -0.025631009 -0.047726363 -0.0010633249 -0.057548024 0.028056858 0.010497929 0.02338528 0.034961462 -0.020198176 -0.023151627 0.041801456 0.0043867 0.029369915 -0.00095450034 0.053786717 -0.029922884 0.03198503 -0.035452094 0.012392433 0.044974845 0.027017022 0.043078844 -0.05191631 -0.020633116 0.060195036 -0.02756729 0.0118554 -0.052892018 0.06554233 0.052226264 0.0067722145 -0.01593432 0.020328434 0.022426864 -0.026672814 0.055457883 -0.053852927 -0.027261937 0.011575456 0.028948145 -0.011996942 -0.043191466 -0.015211151 0.030741636 -0.028731203 -0.0627859 -0.04732605 -0.028893186 0.03109826 0.011643623 -0.026467716 0.049410015 -0.032162365 -0.07160978 0.007181052 0.040464837 0.047202807 -0.042460896
513 0.08253768 0.013508485 0.0638688 -0.072493866 -0.0443881 -0.085632086 0.07458928 -0.009313882 0.027605072 -0.08257818 0.005289907 -0.06962264 -0.079275444 -0.047138173 -0.060886502 -0.073556244 -0.057819676 0.003702268 0.0043280623 -0.06615669 0.003952054 0.0068336413 0.01749246 0.0010908844 -0.09663662 -0.051751178 -0.078278504 0.050891735 0.02586467 -0.033793535 -0.058577124 0.06109728 -0.09032115 0.07968951 0.018785888 0.07311609 0.021879654 0.005783136 0.04331782 -0.024582895 -0.0075823064 -0.054321688 -0.008551738 0.05550021 0.014268668 -0.0021605548 0.037903294 0.002902083 0.0680591 0.010286604 -0.08868235 0.059337012 0.040941447 0.0061769346 -0.01884302 -0.029078908 0.065480754 -0.021204574 0.09325529 -0.012456548 -0.010534153 -0.0055465535 -0.002613682 0.06860965 -0.016496385 0.04812309 -0.03548924 0.031386245 -0.045716792 0.022370353 0.010096624 0.030462096 0.007538816 -0.023350902 0.06817514 -0.03434193 -0.016751159 0.08339862 -0.03157273 0.012557129 0.016569775 -0.015896223 0.03268834 -0.038381573 0.021690786 0.06623133 0.014640102 -0.0755184 0.070292406 0.092530504 -0.018615313 0.019284751 0.046596456 -0.034646664 0.074953064 -0.04398706 -0.016659344 -0.00523195 -0.015382486 -0.0032798473 0.052983206 -0.02915216 -0.012063876 0.0074901828 -0.059580196 -0.058928076 -0.06542009 -0.045295984 0.04215217 0.012290416 0.037920598 0.008345253 0.026640534 0.011953341 0.07943658 -0.050736338 -0.020654064 0.032582913 0.061171908 -0.03436403 -0.038580075 0.0061533405 -0.024218902 -0.09119168 -0.04108492 0.01719521 0.058464874 -0.029911067
1550 -0.014269641 0.029027713 -0.019894069 -0.032773275 0.031469215 -0.0018389282 0.036564436 0.014437703 -0.0330667 -0.022218088 0.037647735 0.06812999 -0.021876523 -0.020528179 0.051251255 0.04860558 0.04331841 -0.026754322 -0.01412212 -0.0027952539 -0.0010786979 0.00886777 -0.001373583 0.022426687 -0.0015892825 0.03478608 -0.046901062 -0.016558753 0.009564483 -0.049775552 0.030614348 0.0046692654 0.047617324 -0.00450276 -0.035646245 -0.036776256 -0.026145559 -0.021377012 -0.003601765 0.024479195 0.046075664 0.021511428 0.05123234 -0.024896916 0.044495832 0.0037068345 0.08012536 0.030507602 -0.017778255 -0.013703256 -0.023877779 -0.040988278 0.033024333 -0.013176136 -0.029425036 -0.008091653 -0.027115595 -0.007743104 -0.053340826 0.015886463 0.0093757305 0.0035591014 0.04821889 0.040382434 0.034692768 0.011465985 0.013504339 -0.007783123 0.0023202673 -0.0149979135 0.0010346088 0.011397723 -0.0042224247 0.068852134 0.01100462 0.06626643 0.04759745 -0.030766549 -0.044559147 -0.012103295 0.064357996 0.051240277 0.019976025 -0.0271976 0.035302892 0.057829943 -0.006612089 0.034029547 0.037341695 0.013778846 0.002247989 -0.009490849 -0.007728546 0.0058315094 0.021263372 -0.027247038 0.0682665 -0.009901492 0.09612261 -0.067730926 -0.047548898 0.005639015 0.033349153 -0.058043957 -0.029045893 0.038839404 -0.011791798 0.028114831 0.0011777474 0.041974537 -0.014995995 0.007955385 -0.05609201 -0.012943599 -0.013714508 -0.027785571 0.034452744 -0.06448851 0.05261503 0.021917151 0.037313107 -0.016456855 0.03221912 0.009939652 -0.041839108 -0.011879041 -0.017657252 -0.015859408
707 0.011898986 0.007408192 0.022263188 -0.006974332 -0.056855753 0.029558597 0.017093994 0.043992106 0.031117097 -0.07110356 0.014499212 0.013488926 -0.0069978344 0.03835402 0.0059600174 0.05583641 0.04746649 0.04404371 -0.031971417 0.031340953 -0.028775623 0.038106736 -0.039805535 0.06403553 0.05723769 0.0018790613 0.052653715 -0.0061712805 0.013394181 -0.05450033 -0.007940253 0.06537291 0.045547083 -0.029710513 -0.043633897 -0.0025553722 0.03554593 0.062484384 0.007832978 -0.0045677247 0.03611807 0.042439338 0.03441843 -0.023603946 0.042042084 0.022556406 0.026120024 -0.025077311 0.033286825 -0.044063456 0.06869575 -0.027095973 0.0036418848 -0.021403925 -0.011405597 0.03918681 -0.016107868 0.039010953 0.008198126 -0.05602946 -0.055580456 0.02267394 0.048431393 0.027351448 0.06443229 0.035983056 -0.023668576 -0.012606603 0.019902296 -0.03809915 0.007111246 0.041555066 -0.03619928 0.009963599 0.01786197 -0.0149726635 0.00083100674 -0.003387345 0.0029365204 0.046630714 0.061977826 0.025932873 -0.009983661 0.03405589 0.0272786 0.015067291 -0.0061449376 -0.024125537 -0.0059139244 0.00032025244 -0.049529318 -0.008225585 0.0066546085 -0.0010170187 -0.012795526 -0.029885463 0.02061266 -0.0034834153 0.034556016 -0.02269857 -0.033513326 0.0119523965 0.030680742 -0.048480723 -0.036338672 0.052783564 0.003103432 -0.035069287 0.0034360767 -0.023499092 -0.025125882 -0.025607174 0.0011210517 0.054541107 -0.065030076 0.018218074 0.056771062 0.032395266 -0.056438807 -0.021401098 0.002058284 -0.0737486 0.0050336015 0.045382477 0.020120239 -0.03323553 -0.05209673 -0.014655448
1786 -0.002575518 0.013123726 -0.020501513 0.021660917 0.05938877 -0.0058447705 0.026828118 -0.030414203 -0.039419897 -0.040865086 0.0045598294 0.051930077 0.007446242 -0.05473641 -0.077709496 0.00986026 0.08793437 0.013952878 -0.03512042 -0.014539305 0.0019416537 0.026388075 -0.007825976 -0.0450942 0.004383161 0.03661944 0.023775708 -0.028114948 0.013881303 -0.0030745398 -0.031458177 0.025769217 0.013837485 0.0482395 0.04488883 0.04035567 -0.05236978 0.008569219 0.00402846 0.048144605 0.06581356 0.00087845733 0.018750243 0.049843222 -0.02310186 -0.03926396 0.05468786 0.019920653 -0.031615138 0.0151284505 0.06436969 -0.06094527 -0.028364697 -0.013210216 0.04347415 -0.030169828 -0.01569137 -0.01215018 0.0009475517 0.04200276 -0.040785264 -0.015448317 -0.040307138 0.03473655 -0.012982177 -0.03041212 -0.006126138 0.0064423657 0.016817274 0.043506857 0.062289704 -0.08792207 -0.03706502 0.009453134 0.012889078 0.011163697 0.019707799 0.009125906 -0.052478682 0.015141917 -0.0074305027 0.0016830575 -0.008645739 0.010221612 -0.01377052 0.025886698 -0.05683664 -0.036221564 0.052288484 -0.04303033 -0.017426163 0.031820122 -0.018856287 -0.010930579 -0.055016745 -0.00095175253 0.027745686 -0.022028029 0.058447298 0.043060746 -0.02615843 0.008061398 -0.031462844 0.0856029 0.015763326 0.030823665 -0.02425719 0.011166352 -0.018660713 0.04509803 0.006597982 1.0589334e-05 0.015019621 0.061382968 -0.009919995 -0.02929384 0.03984012 0.019160079 -0.017365923 0.04961671 0.016610451 0.010681093 -0.02078447 0.032885317 -0.047813743 -0.039537076 0.057095807 -0.029078655
161 0.01294111 -0.080000386 0.026792265 -0.042228773 0.074839 0.012629808 0.05706559 -0.019975336 0.02308674 -0.07305548 0.068249084 0.013872708 0.023838181 -0.06527339 -0.07879682 0.031249631 0.006432217 -0.030597646 -0.023822412 -0.014126895 -0.031072382 0.031935055 -0.054925285 -0.058639314 -0.04392271 -0.015424508 0.011370139 -0.01043101 0.020433377 -0.042943846 -0.025147997 -0.0063117337 0.061142515 0.0001701435 0.06974035 -0.00759668 -0.0336837 0.0057694656 0.06955017 0.025270011 0.093750104 -0.03721316 0.025793765 0.03861813 0.034344133 0.008962327 -0.03975444 0.0513302 -0.041397404 -0.03471404 0.06600414 -0.089373626 -0.0342843 -0.03862228 -0.010272095 -0.009324645 -0.010073947 -0.048679072 0.038352307 0.06401819 0.00024120629 -0.008171834 -0.04428527 0.021417739 0.021841422 -0.046196908 0.03072815 -0.0457196 0.045095906 0.038558334 0.012189586 0.0026648263 -0.042443596 0.0019066726 0.021245081 -0.022620082 0.0062201708 0.034200944 -0.01655198 0.0022447717 0.014110801 -0.003523726 0.06590005 0.0038749222 -0.01608175 -0.021415919 -0.022464894 0.01452712 0.017241819 0.00090308633 -0.020417128 -0.010206647 0.017581882 0.012257132 -0.016687984 -0.004368772 0.04512919 -0.00336652 0.01468012 0.041338436 0.057476778 0.014013736 0.014054258 -0.0021032821 0.02175669 0.038663685 0.008052035 0.009993934 0.00060762966 -0.013490189 0.015874354 -0.0035470373 -0.052966624 0.019869842 0.0062360438 0.0064194687 0.016953805 0.025098434 -0.01798326 0.041273236 -0.004292529 -0.0110526215 -0.0121672535 0.02602155 -0.0065368046 0.047829222 -0.010441676 -0.037710607
1850 -0.0045080073 -0.06200458 -0.025534514 0.029597042 -0.05026265 0.027070574 -0.03612279 -0.009252948 0.07866856 -0.007824158 -0.020394137 0.051292475 0.091596976 0.009122688 0.046327773 0.035870805 0.0478985 0.062193837 0.019091874 -0.047978546 0.02695851 -0.029851815 0.09198865 0.05629082 0.013715696 -0.029779585 0.013083867 -0.047128256 0.030051172 -0.06582686 -0.05874616 -0.007441644 -0.038224116 -0.03269098 0.032760933 0.009525956 0.03981669 -0.035280142 0.09351254 0.04283957 0.026962133 0.04943647 0.04055166 0.018823396 0.00054094684 0.003503364 0.018028956 -0.0057642017 -0.024145415 -0.009076558 0.03168431 0.011227157 -0.0028178138 -0.012931972 0.051973574 0.0003160442 -0.017378949 0.04486155 -0.030947566 -0.030944379 -0.05026393 -0.05452701 0.04330715 0.013928569 0.033536404 0.011840685 0.03764291 -0.0568738 0.0038979244 -0.02361443 0.02482925 -0.058391687 -0.014381662 0.08395556 -0.077947274 0.004987024 0.04535177 -0.0030213245 0.027169146 0.07996558 -0.061695978 0.030942969 0.028019506 0.023203403 0.032210574 -0.051379196 0.009061785 0.014970338 0.040967535 -0.019292576 -0.012062616 -0.0012485769 0.015186883 -0.012353979 0.03147496 -0.035359304 -0.0012363936 0.01982243 0.025845774 0.016337203 0.04827973 -0.0044148397 0.016363773 -0.020045089 -0.010745633 -0.032216683 -0.007218935 -0.043821666 -0.030554991 0.01251822 -0.06704842 -0.01855783 0.035369977 -0.0054300996 -0.03104426 -0.010857708 -0.019541763 -0.021023313 -0.027459372 -0.05381174 -0.03664892 0.07117253 0.0056167888 0.029749272 0.03462911 0.054388728 0.017018665 0.018013688
465 -0.01258573 0.0038883039 0.067882985 0.05400608 0.0029274013 0.002326307 -0.0038251807 -0.030426262 -0.05392928 0.03160817 0.06317233 0.0497294 0.04297046 0.024285894 -0.011385966 0.07974766 0.027170781 0.028842514 0.04256985 -0.042290747 0.04907062 0.023706013 0.07692607 0.014016099 0.050135978 0.004576873 0.06294199 -0.060510222 -0.021379177 -0.024153138 0.02455756 0.01805932 0.006089141 -0.045680776 0.03965712 -0.049754076 0.006244031 -0.047723327 0.011289012 -0.022183988 -0.0614232 -0.06141286 -0.06775545 0.016008245 -0.035842903 0.019287495 0.033872075 0.016096644 -0.065086044 0.012705664 -0.024032297 0.049902607 0.05378847 0.05766321 -0.009527462 -0.039997216 0.035677556 -0.008462059 -0.08982191 0.015963603 0.009633691 0.018077381 -0.022640033 0.06942055 0.021254646 0.030275812 0.031443845 0.0032048833 -0.032294538 -0.006893757 -0.054989405 0.016422974 0.037970845 0.04984278 0.02515305 -0.042430982 0.013410534 0.0149076 -0.009772753 0.025987282 -0.04453318 0.0035624756 0.051829293 0.02900833 0.002871448 0.048228078 -0.038554568 -0.0107304 -0.059924174 0.016943086 -0.04089078 -0.022930896 0.0671665 0.005365543 0.013087659 -0.0061346604 -0.04895093 -0.034653965 0.06219404 0.039293896 0.0062445123 -0.015957184 0.073088035 -0.082406834 -0.0029075292 -0.023420159 0.022466596 0.0513451 -0.024182465 -0.009074209 0.030694569 0.019210458 0.05486222 -0.061765622 0.016775036 -0.031482812 -0.009497461 0.046391822 0.01649307 -0.029195618 -0.033736978 0.02117602 -0.011365602 -0.0077846185 -0.04620197 -0.024938123 0.022776438 0.050177116
2126 0.009840625 0.023847124 0.053222287 -0.045970123 0.037577327 0.06303933 0.04308374 0.047944363 -0.049057428 -0.03323999 0.037969157 -0.011399119 0.025097298 0.034093976 -0.02119806 0.009814832 -0.009898961 -0.009492006 0.004412704 0.06713525 0.0023711182 -0.016453184 0.019060917 -0.043887384 -0.048242904 -0.0632545 -0.036409095 -0.068201534 -0.008054809 -0.0035932588 0.029914994 0.024834724 -0.011644298 -0.008195984 -0.0032106666 0.0033624729 -0.036967378 -0.020101111 -0.041828305 0.04347539 0.04447813 -0.03137525 0.015762841 -0.037508946 -0.025412297 -0.009084562 0.04112413 -0.037385233 0.0792129 0.021943772 -0.03318301 3.4710945e-05 0.03829911 -0.030741913 -0.060967337 0.025229221 0.013701389 -0.009345557 -0.035706993 -0.030292 0.0478707 -0.014034333 -0.018317593 0.047552224 0.0614827 0.10557787 0.009139557 0.047073618 0.02693893 -0.026776755 -0.009012521 0.0021547086 -0.0013437545 -0.01452005 -0.06187986 -0.08500269 -0.0060038134 -0.0414598 -0.038838338 0.02397719 0.06787071 0.058834683 0.04959947 -0.05038458 -0.049936112 0.030194823 0.07128002 -0.04213446 0.044587012 0.056203857 -0.036390144 0.021572398 -0.0074891625 0.01155772 0.032655906 0.009508888 0.04731167 0.055038188 0.053236745 -0.018681327 0.04332369 0.03552488 -0.030600369 -0.03353592 -0.0143588595 0.0102908285 0.008485542 0.02326859 -0.055334702 0.03767225 -0.03691356 0.009147621 0.0680079 0.03724813 0.008547913 0.02426868 -0.022670383 -0.01286113 0.07334736 -0.012421435 -0.07597667 -0.058629703 0.024975594 0.0061098957 0.032574575 0.02304717 -0.008480192 -0.058767613
1632 -0.012492955 0.025461016 -0.0469024 -0.09866658 0.055108815 0.018068526 0.016597215 0.0688732 -0.063114725 0.036392126 -0.04420103 0.0060952553 0.0023892527 -0.050165214 -0.023285331 0.0056903237 -0.02162663 -0.010319156 -0.01430938 0.030564489 -0.03193633 -0.05497202 -0.017773343 -0.01255577 0.0022056014 -0.07074004 0.010519842 -0.02640557 -0.09615906 0.02186456 -0.041000515 0.04884527 -0.020469338 0.0894854 -0.018651588 -0.05396149 -0.012865112 0.03328917 -0.014072017 0.056082617 0.03395344 -0.009336168 -0.08086227 0.056957886 -0.021489704 -0.05746521 -0.008812512 -0.034109958 0.06888507 0.05832214 -0.037655044 -0.060438838 0.0029326365 -0.045112483 0.017331583 -0.025058111 0.015242703 0.039641246 -0.031015256 -0.07900026 0.043108776 -0.09505356 -0.053499814 0.071933225 -0.041636053 0.04988913 0.025025781 -0.041793685 -0.010507217 0.0026862833 -0.07987875 -0.014320317 -0.03471855 0.034038164 -0.07304003 -0.017892452 0.0096144155 0.020765003 -0.015160261 0.060177095 -0.021773394 0.0075836135 0.07037695 0.01924553 -0.04053466 -0.084845535 -0.056903914 -0.0068895654 0.08507662 0.040038414 0.018288221 0.023581 0.0047579007 -0.019857561 0.030690687 -0.071427606 -0.023248335 0.027503535 -0.002926239 -0.061135937 0.026538596 0.07276805 -0.04709964 0.0027467099 0.011307526 0.048607435 0.01964113 -0.015534314 -0.022908818 0.03736529 -0.009981962 -0.016917665 0.017145997 0.0088933855 -0.036739774 0.06512139 -0.053564467 0.023550011 -0.031120999 -0.069750905 0.049749237 -0.036614817 0.035191108 -0.07268034 0.0057412083 -0.041679267 0.023212241 0.0373758
2103 -0.021072924 -0.045306288 0.014731559 -0.01888336 0.029992197 -0.013151368 0.00891441 0.015466323 -0.023258898 -0.014397599 0.03424026 0.0146294655 -0.024280766 -0.04240389 0.021011475 0.0023423648 0.025152242 0.055383477 0.05360676 0.012852284 0.035661608 -0.013297836 -0.020124223 0.03406483 -0.03938355 0.03150233 -0.03240389 -0.00051272626 -0.047808778 0.012308886 0.01822126 0.035946663 -0.03832104 0.035241738 -0.021479603 0.029105403 0.01926313 -0.028958017 -0.00024923816 -0.030881528 0.0074711232 -0.030113194 -0.024012357 -0.01466478 -0.005797279 0.022767998 0.042394876 -0.0035384716 -0.014659702 0.020172175 0.01771792 0.002040681 0.03003929 -0.0042575304 0.065107696 -0.0005557558 0.0018151996 0.00961459 0.025803722 -0.0092777535 -0.0023709326 0.0037910575 -0.0012133447 -0.04114084 -0.02834399 0.045797486 0.055875592 0.05656229 0.022045257 -0.018330669 0.014739443 -0.024786402 -0.060169633 0.011963253 0.004259233 0.03647867 -0.0224381 -0.045170683 -0.045360133 0.006349968 -0.043032695 -0.022585278 0.047010195 -0.008579929 -0.036547188 -0.026950993 -0.009540384 -0.017388163 -0.02149021 0.022331377 -0.0182884 -0.011438124 -0.0142184915 0.00013775562 0.03889709 -0.0060870433 -0.011174671 0.016629098 0.065809205 -0.010366203 -0.03944789 -0.050422255 -0.03634715 0.031765833 -0.011848952 0.026193436 -0.012627466 0.03736451 0.026054569 0.029830685 0.028958656 0.020519786 -0.030993517 0.0096256975 -0.04744033 -0.07046251 -0.04333583 0.032867156 -0.0822159 -0.088073164 0.020516478 0.013842985 -0.0067456733 0.03549943 -0.06337659 -0.045392722 0.05143395 -0.0057439175
367 0.010507528 -0.015750984 0.026215004 0.0006816339 -0.0024092507 -0.056770723 -0.023551062 -0.012836054 0.005334029 -0.03240396 0.0714626 -0.0031983317 0.065737024 -0.08110355 0.0328474 0.073358424 0.058400854 0.0031590553 0.062418573 0.039327282 0.0141368285 -0.034813914 -0.02038219 0.02938085 0.024453154 -0.014376984 -0.054058705 -0.044621155 -0.018459372 0.046134405 -0.0005115008 0.05380015 -0.0084163 0.0153599605 0.026415745 0.010981357 0.060071446 0.038105242 0.03772141 -0.09182929 -0.071720265 0.010679463 0.037134606 0.023508824 -0.011070337 0.017907843 0.009307143 0.03639932 -0.07912289 0.059804898 -0.04185192 0.04567165 -0.019319858 -0.015527554 -0.022461662 -0.047502216 -0.050628603 0.074044466 -0.0049282135 -0.032382604 -0.09107392 -0.035538785 -0.010412357 -0.060734116 0.0040978566 0.010139263 -0.048852555 0.041723534 -0.022478813 0.03544461 -0.010753279 -0.015242147 -0.011899229 -0.028348187 -0.013189805 -0.032666072 -0.0026384655 -0.046170074 -0.016896455 0.041242022 0.010962272 -0.05004989 0.052734766 0.05376383 0.004752976 -0.08483071 -0.022026708 0.00984025 0.006146556 0.047108106 -0.031423524 -0.0079229 0.0024691874 -0.0037452746 0.0673036 -0.046800148 0.016579654 0.015143564 -0.003799577 -0.06425857 -0.0026900375 0.03542175 0.000996511 0.09092752 0.04446831 -0.009162006 -0.014967279 0.0020911628 -0.031575162 0.012638714 0.07493384 0.025224192 0.04115813 -0.015627667 -0.064004004 -0.08715825 -0.025568277 0.023479551 -0.023728805 -0.010872727 0.0010633603 -0.0008986149 -0.045813546 -0.00874158 -0.0016224005 -0.067518376 -0.010496251 -0.047219183
646 -0.06778646 -0.04728508 0.0030811247 -0.013908635 -0.053865407 -0.029743461 -0.01634515 -0.032940555 -0.0016820506 0.063566 -0.02564671 -0.04315755 0.013187698 -0.027560145 -0.02717917 0.017146993 -0.032630768 0.015736803 -0.0023520654 -0.04548563 -0.040060654 0.048537273 0.01299143 -0.083061 0.00916359 0.0005590841 0.05489818 -0.011433255 0.02590883 -0.041604232 -0.017274383 -0.016737718 -0.07585106 0.05734713 0.013762437 0.007688603 0.004845834 0.007811855 0.026466891 0.013460371 0.061738558 -0.036088295 -0.017140875 -0.009888234 -0.008586014 0.00037741108 0.06764952 -0.06361795 0.018933 0.014319809 -0.05505705 -0.025828313 -0.048918813 -0.0066737505 -0.052181836 -0.06413862 0.015536226 0.034725346 -0.02732571 0.0031021691 -0.010137402 0.01930008 -0.020588653 0.025843458 -0.035797447 0.033158727 -0.005274752 0.010846417 0.016554136 -0.023877488 0.040001236 -0.0066388524 0.065485805 -0.0022693933 0.012584931 0.04976973 -0.08060393 -0.002202061 0.043112256 0.017343597 0.061069485 0.024116479 0.026785765 -0.050434917 0.029069364 -0.020643476 -0.039693806 -0.04774462 0.040443525 -0.0079761185 0.060915075 -0.010331678 -0.019017657 0.0071611917 -0.025013786 -0.05632869 -0.012654199 -0.0061590066 0.0373244 -0.087353304 -0.074753545 0.063999064 -0.031072354 -0.054373376 0.007559818 -0.053435612 -0.027203405 0.031244084 -0.01832127 0.014574011 -0.015865326 0.019511078 0.053336266 0.0147371935 0.0035867158 -0.033715837 0.03403261 -0.005287146 -0.006426257 0.018116385 -0.002767422 -0.010377078 0.009903384 -0.015232921 0.025599267 0.056380607 0.041994076 0.048479304
272 -0.0027480368 0.035307426 0.012505068 -0.032146208 -0.024892526 0.0014472397 0.018279286 -0.062185805 0.028819382 -0.004305738 0.006430676 0.02629124 0.053964045 -0.030935217 -0.013478775 -0.0093531255 0.0026808318 -0.015437513 -0.0069345846 0.0005436561 0.023802493 -0.06003481 0.0032991257 -0.018661002 -0.07503831 0.028989546 -0.062465694 0.00034582126 0.034899414 -0.04104745 -0.018079845 -0.018584834 0.025424115 0.044717655 -0.04613127 -0.048647534 0.00020798243 -0.05027689 0.0382853 0.00048416547 0.04764958 -0.0029648177 0.04263841 -0.016182508 -0.047680732 0.02250014 -0.08129971 -0.036486834 -0.023202166 -0.045163013 0.046275176 0.0045402795 -0.06576123 0.01615246 0.009981661 -0.010834222 0.029692827 0.027450029 0.063020654 0.045564346 0.009304412 0.04245353 0.006715384 -0.0012853326 0.010429665 -0.008779087 -0.04211595 -0.032159466 -0.0032112554 -0.027098052 0.029511454 0.04000928 -0.070592895 -0.013098561 0.02080484 0.0129592 0.033255517 0.017702432 0.016366785 0.062565684 0.015513125 0.02549156 0.04672983 -0.01125768 0.02328968 0.00476947 0.007702795 -0.026494794 0.068043575 0.021253996 0.05819493 -0.0033945593 -0.010482038 0.0057857037 -0.02203382 -0.00542348 -0.027879706 -0.030256813 0.056346834 0.016956445 0.021746265 0.012203752 -0.026998129 0.060494862 0.048040893 0.0015238862 -0.059913117 -0.011806858 -0.014604931 -0.078218535 0.0015860804 -0.019129893 0.05933322 -0.050360076 0.04421765 -0.058590192 0.0792216 0.047309674 -0.01576516 0.035000674 -0.033735227 -0.028285516 0.024446452 0.014044854 -0.008485867 0.014773069 -0.05524428 0.039344516
643 0.05170508 0.022976253 0.042901814 0.025741939 -0.07534354 0.047270704 -0.0035283465 -0.0083011035 0.036447257 -0.00659164 0.043964125 -0.019848943 0.056117445 -0.0056149457 0.016287697 0.036982268 -0.019409277 0.008381358 0.021462485 -0.018429555 0.018888064 -0.05126429 0.026745899 0.06794659 -0.027194014 0.006583727 -0.064811155 0.039980415 -0.010466954 -0.049737472 -0.024566127 -0.032328278 -0.006477162 0.022344012 0.029722918 -0.060553864 0.06805607 0.0063668014 -0.035872623 0.018812183 -0.028068041 0.029127141 0.015847303 0.050786078 0.02535244 0.020006623 0.026177332 -0.014905695 -0.03110821 -0.025913278 -0.028387208 -0.033915896 -0.020661023 -0.015832812 -0.049510043 -0.027008798 0.05154306 0.044236783 -0.006071039 -0.016371522 0.0017740944 -0.008109286 0.010374309 -0.016282512 0.009756943 0.05826352 -0.053756464 -0.033818908 0.036880102 -0.033758614 -0.013460649 -0.01708452 0.06041339 -0.018986693 0.05612133 -0.059311163 -0.020297516 -0.025861384 -0.046764284 0.06578751 0.08939642 -0.034589883 0.015303377 0.008970909 -0.03894252 0.00018143524 0.0111638075 0.06061787 0.059066165 -0.0034872536 0.0069410345 -0.037414204 -0.083277576 -0.02492998 0.00613333 -0.069755785 -0.064335965 0.03187438 0.047478855 -0.035430633 0.016452445 0.021044627 -0.02867911 0.0020322104 0.018254485 0.025120733 -0.0605773 -0.022784326 -0.011006629 -0.02928491 0.05629926 -0.0057095564 0.036142502 -0.042281788 0.0017149986 -0.023583956 -0.012724778 0.039130192 0.020724088 0.05037633 0.05792892 -0.054904845 -0.014173383 -0.03586754 0.07080899 0.035822414 0.07383774 -0.0361814
2119 -0.05247464 -0.06412813 -0.042838506 -0.018704178 -0.040016945 -0.021785742 -0.05024622 -0.07541519 -0.042837568 0.043844983 0.052797787 0.055394128 -0.049482547 0.026998961 0.0052830074 -0.04862057 0.0018729073 -0.019349368 0.00229196 9.897296e-06 0.0035250145 0.029175373 -0.024630351 0.022790015 -0.025186053 0.040712975 -0.009642826 -0.030860707 0.013824547 -0.00460045 0.025389478 0.027507747 0.028064387 0.025988383 -0.061462916 -0.030896401 -0.04782963 0.044755634 -0.010042656 0.017146695 0.0004963431 0.064973556 -0.00026151602 0.06586902 0.0048381328 -0.04235036 -0.084611304 -0.016354198 0.013082785 -0.029839046 0.024194648 -0.01594775 0.03399138 -0.04530607 -0.052605297 -0.044721067 0.04483946 -0.021519754 0.052904215 -0.013633661 -0.046853494 0.0036101069 0.01018553 0.005144749 -0.028742583 -0.028454809 -0.07388271 -0.04025663 0.08820744 -0.052158955 0.01214468 -0.025471944 -0.0222756 0.022710461 0.045854844 0.021582054 0.03916862 0.016719323 0.0013295041 -0.07157049 -0.018910982 -0.046530623 0.04551205 0.047598384 -0.044971075 -0.008044417 -0.048002467 0.006861527 -0.021267556 -0.046611454 0.0035468456 -0.0028992412 0.054342162 -0.008797562 0.01867901 0.015063948 0.06346555 -0.027988112 0.021974977 0.02212228 -0.025578307 0.03293949 0.008321028 0.014736749 0.039576575 -0.018623998 -0.03205415 0.028469192 -0.04864922 -0.022323122 -0.051343862 0.0566701 0.022247609 -0.0046795355 -0.039965823 -0.021916417 -0.06780575 0.04139016 -0.017964238 -0.018862462 -0.06331593 0.042460825 0.023588708 -0.053083 0.028009959 0.038701285 0.08525333 0.0073419358
304 -0.021951385 -0.041711397 0.037248496 -0.025966236 -0.041371178 0.058635846 -0.034053396 -0.03864828 -0.00861621 0.01799023 0.034279764 0.040967274 0.011617245 0.006288981 -0.052015334 -0.011838672 0.008809989 -0.044874046 -0.01576638 0.038923793 -0.0057552597 -0.01325223 0.0080984915 0.06973748 0.026056534 0.055657268 0.024066523 0.0606703 -0.033623543 0.0069136615 0.04223806 0.014416734 -0.016764728 -0.020265814 -0.04696664 0.042331327 -0.017593363 0.055321258 -0.06917649 0.015466553 -0.007793146 0.0016460023 -0.051828444 -0.04900699 -0.0013896541 0.0033367442 -0.0029650286 0.0079945065 -0.04773639 -0.0032640076 0.026936773 0.025455281 -0.030012494 -0.006923172 0.018667025 -0.07373771 0.009072077 0.0019643502 -0.002537888 0.0165995 0.021039903 -0.016423615 -0.03089284 0.06259482 -0.003712917 0.0018111429 -0.03547279 -0.009947005 0.0041644163 -0.0066673695 -0.041666202 0.00013020834 -0.0054559507 0.013955098 -0.04309159 -0.04062919 0.017877089 -0.003837081 -0.009629697 0.006131966 -0.0030760826 0.037659932 0.054424472 0.058829375 -0.010448495 -0.030008977 0.07716919 0.0188931 -0.016975211 -0.012460097 -0.048696708 0.055539466 0.029161228 -0.048607435 0.033723783 -0.041284736 0.02030968 -0.01110498 -0.01675833 -0.005605106 0.003170577 -0.043822512 -0.024885276 0.0067344303 -0.051646393 0.022992704 -0.0012165634 -0.010029397 0.028143246 -0.04313733 -0.056285243 0.030496247 -0.05346048 0.009856256 -0.01181193 0.044739682 0.011663984 0.06867174 -0.036611576 0.024380445 0.009851536 0.047061313 0.017364701 -0.04584233 0.048617054 0.014637467 0.09852554 0.056348804
561 0.04522581 0.027027238 -0.007848604 -0.042789374 0.018571144 -0.041466516 -0.020840492 -0.056725197 -0.046430565 -0.007140894 0.06804762 0.046613995 -0.029206421 0.010921865 -0.045774817 0.031278726 -0.0019909479 0.027177682 -0.055584766 -0.005651815 0.022770867 -0.0218716 -0.03380269 -0.057782747 -0.050686307 -0.015967876 -0.06619896 0.06156601 -0.042188257 0.01808853 -0.017381212 0.015872091 0.031963527 0.08851848 0.041825842 -0.052536383 0.06317394 -0.011613487 0.054475363 -0.023846181 0.024232196 -0.0059733926 -0.02840485 0.00015821506 -0.008346212 0.040822737 0.022466319 0.012570802 -0.02337717 -0.0067661083 0.03188744 0.053140633 0.048558675 -0.003903493 0.045558937 -0.0050874436 -0.048298217 0.0152344145 -0.00968648 0.040592346 -0.021482676 -0.0067133987 0.04668947 0.027280148 -0.020676289 0.030359587 -0.052751373 -0.037059303 0.08220375 0.031101277 0.032824405 -0.001635971 -0.008887151 -0.008005636 -0.024235403 0.019641653 0.0046573794 -0.0058677383 0.04849616 -0.01859731 0.028794626 0.0199633 -0.058460437 0.039386794 -0.038679224 0.045118116 -0.009458161 -0.011188268 -0.022890449 -0.02151819 0.021561598 0.03336804 0.046058927 0.01596237 -0.036305323 0.008433143 -0.019342275 0.0108572235 -0.042024456 0.036574267 -0.0057706204 -0.029780412 0.060461212 0.03966357 0.052810375 -0.026312191 0.04638238 -0.01907597 -0.0271034 0.016075203 -0.015318782 0.026837798 -0.00085942657 0.040229935 -0.011180833 -0.041136578 0.009484162 0.02376346 0.03667252 -0.007706935 -0.03697625 -0.015809398 0.003907338 -0.07843624 0.015359753 0.0585862 -0.003243503 0.08970887
1474 -0.06535026 0.01654706 0.023969827 0.04577063 -0.002832388 0.036566705 -0.03512751 -0.0027310925 0.045437388 -0.0060640066 0.034925323 -0.070200995 -0.013768556 -0.026154606 0.022599015 0.0036204348 0.0075676097 0.02528337 -0.0029790075 0.070263565 -0.043721844 0.05694517 0.07178548 -0.07891586 -0.00013720983 0.0086613195 -0.016230538 -0.016051117 -0.025223019 0.010568332 -0.02297286 0.03056699 0.010478166 0.010244729 0.08539415 -0.065489195 0.04042238 0.010853504 -0.040011384 0.033880677 0.0044325213 0.040696576 0.01736078 0.005256355 -0.055199157 0.020079106 0.045085743 -0.09233686 0.07682516 0.022358293 0.023251109 0.054467086 -0.019268362 0.011694079 -0.0068934257 -0.01907265 -0.014236985 0.06879918 -0.026459549 -0.031755585 -0.018857058 0.020167666 -0.020739216 0.03219796 0.011099438 -0.016816242 -0.039938744 0.059420064 0.07242257 -0.0012390341 -0.03257495 -0.013110299 -0.0030542116 -0.0011804333 -0.03208783 -0.010588001 0.031982955 -0.035227325 0.05201151 0.012302488 0.015651504 0.025243115 -0.0013033316 -0.010314856 0.020318262 0.0014136813 -0.08202619 -0.048060037 -0.03130946 0.00038417082 0.034456704 0.030970871 -0.0058050025 0.0071127764 0.0003474619 -0.02022404 0.020522244 0.0051910793 -0.04482799 -0.007128041 -0.062409386 0.037098754 -0.0075267837 -0.025872828 -0.08170039 -0.001969289 -0.010224019 -0.045157433 0.0021842888 0.030484159 0.04877834 0.01445279 0.015170702 -0.016636727 0.011887698 -0.0023855842 -0.012719718 0.042665023 0.036633488 -0.00016703678 0.0034677358 0.05251908 -0.014639532 0.0030854966 0.0017846103 0.011417504 0.04583551 0.050272662
755 0.03820249 -0.0064472444 -0.0070059565 -0.05581704 -0.008133048 0.02089242 -0.01459199 0.032266807 0.013846691 0.054958526 -0.01591949 -0.07462384 0.0041433675 -0.019311223 0.025526278 -0.008203827 0.047158044 -0.015521401 -0.024086168 0.018299576 0.0588488 -0.00063765375 -0.041522328 0.042923175 -0.0054630362 -0.004913261 0.07171842 -0.023974279 0.018487487 -0.05408439 -0.06059634 0.017258275 -0.09088903 0.007126318 0.03606296 0.014018114 -0.07972677 -0.06404629 0.01153901 -0.03517422 -0.032687586 0.024396183 -0.028043669 0.0062032123 0.0088972105 0.0010481445 0.01509074 -0.06355855 0.05566837 0.009781877 -0.002824456 0.009655397 -0.0501759 -0.045665916 -0.03330158 0.022646882 -0.010868095 -0.04867036 -0.01375267 -0.015874133 0.05594687 -0.08849076 0.0077721444 -0.03149099 -0.031751875 0.006644383 0.02251587 -0.045664743 -0.00034040253 -0.036489766 0.06589218 -0.016857043 -0.014116369 0.033337943 0.015887406 0.0239091 0.03997645 0.017036187 0.022465209 -0.046541225 -0.015732909 0.008631038 -0.007654269 0.03507275 -0.02077916 -0.0009197993 -0.07037307 0.07987907 -0.025880283 0.00018268812 -0.07177669 0.054341123 -0.024101868 -0.022751786 -0.01621541 -0.019180493 -0.0337961 0.017025193 -0.059918363 -0.06113933 0.0016696281 0.032625176 -0.04770605 -0.027047995 0.051549304 0.03192821 0.03084731 0.009453269 0.024339719 0.0025672312 -0.029531356 -0.06797705 -0.018959157 -0.012798264 -0.017962348 0.012972027 -0.029372673 -0.056828283 -0.07036391 -0.0009145563 0.00018775335 0.041360274 0.0021436992 0.0014390268 0.03648653 -0.04200776 -0.0070162774 0.041353818
1164 0.049194656 -0.02731152 0.022308243 -0.039936475 -0.061053958 0.023670534 -0.008813113 0.05578286 0.0027520927 0.010574233 0.022080818 -0.022509035 0.059408348 -0.036023226 0.00052251504 -0.0073762885 0.03366292 0.021844188 -0.0052764425 0.06744378 0.029222485 -0.0028726647 0.016443351 -0.0029881299 -0.018877473 -0.026764015 0.078231364 -0.020823268 0.041741323 -0.061731722 0.030450108 -0.041380726 -0.057987854 -0.026390653 0.08802665 -0.023389604 0.03573578 0.00357859 0.051485274 -0.020070286 -0.045634087 0.025488641 -0.033731643 0.017067535 0.065897144 0.026731057 0.011055967 -0.04401381 0.02536425 0.016730536 0.018949876 0.007973578 -0.03712135 -0.008611031 0.0076550096 0.004162728 0.056741707 0.05326697 -0.007428016 0.0051837927 -0.030841365 -0.024924025 0.0433969 -0.053062722 -0.012829272 -0.0016697504 0.057132002 0.016632214 0.01528273 0.004933759 -0.03794009 0.06475254 -0.0033880114 0.06527195 -0.03531961 0.0352503 0.029422872 -0.0027088795 0.035683885 -0.00926832 0.04236173 0.041077096 -0.004662964 0.01152333 0.007638118 -0.019764833 -0.03380398 0.0008272145 -0.054544855 -0.030187499 -0.031148134 -0.02106157 0.04973991 -0.0024992633 -0.03211848 0.058537792 -0.07251921 -0.013719251 0.032359388 0.0033231804 0.008564049 -0.045500632 -0.00962393 0.00028536603 0.0011469196 0.0018193283 0.004913715 0.0036720058 -0.056255493 -0.06376292 -0.02207269 0.060654406 0.043132637 -0.04313653 0.021411158 0.015411703 -0.016380839 0.029147329 -0.06078741 0.007591581 -0.035510115 0.026731862 -0.018878026 0.017343547 0.027729688 0.019705387 -0.058235023 0.0054435176
1214 0.01639548 -0.027752193 -0.0033137938 0.0036631888 0.056909304 0.016458705 0.003794155 -0.02657605 0.06449838 -0.010662101 0.04270693 -0.021812035 -0.023116384 -0.04888895 -0.060186826 0.03528607 -0.010734072 0.019524498 0.00559906 -0.04437384 -0.002614488 0.022495242 -0.009452242 -0.043239795 -0.012713181 0.07691977 -0.03938928 0.009101219 0.03830481 0.024170727 -0.059826456 0.044013035 -0.041730344 -0.0016747746 -0.02569357 -0.023113875 0.0040710624 -0.06600295 -0.024831317 0.035588287 0.0565158 0.018179357 -0.0013657431 -0.011714238 0.040155508 -0.0327207 0.04896097 0.014100902 -0.017147522 -0.012559032 -0.00093475496 0.054716144 0.018851485 -0.025733856 0.053125776 -0.009591194 -0.030896656 -0.03663345 0.0033372813 0.024336029 0.05622375 0.005336303 0.048463494 0.04557404 -0.036157332 0.0048342473 -0.021046238 0.002794979 0.015227421 -0.024555458 -0.015372646 0.02387839 0.0025854583 -0.040059365 -0.006500251 0.035626035 0.016591506 0.009829059 -0.030660454 0.03992878 -0.047988083 -0.03223999 0.012223216 0.016944347 0.002661312 0.023174042 -0.0017446495 -0.055813324 -0.015720524 0.07050192 0.0038296864 -0.00948661 0.0068186824 0.014999933 -0.008183227 -0.02548906 0.049157657 -0.01997486 -0.017968211 0.045713965 -0.06805762 0.023311278 0.06302636 -0.08454535 -0.018623255 0.023076043 0.008565402 0.022869298 0.026800081 -0.01616108 -0.02312069 -0.016736059 0.0075345105 0.061846312 -0.027440475 0.0800657 0.0015180984 0.05460843 -0.05767391 0.05330082 -0.014601852 0.047117647 0.053939022 0.014363612 0.008608882 0.029215258 -0.05837064 0.03286646
1370 0.029171787 0.05726239 -0.011583287 0.04685842 0.009193602 -0.053059317 0.009926465 -0.02832633 0.08066721 -0.035386756 -0.007631713 0.034670196 0.008158688 -0.036866486 0.0089787515 0.04357637 0.018529313 0.005106166 -0.012752402 -0.03770359 -0.049506895 -0.023709282 -0.08086301 -0.021535076 0.011623929 0.013326507 -0.050718382 -0.019895367 0.005350333 0.031833626 -0.049834922 0.005350665 -0.013182295 -0.0087186145 -0.013055946 -0.0067957016 0.0092086615 -0.042297885 0.01426713 -0.015932018 -0.054297067 -0.015020662 -0.057049472 0.030233959 0.04747106 -0.058333874 0.029539807 -0.008566329 0.022738425 -0.075290725 0.025873221 -0.0074221874 -0.009139227 -0.026782492 0.0127203 -0.021560285 0.028220285 0.022272691 -0.035250463 0.03922326 0.008045293 0.020815236 0.003500769 0.009061023 -0.040011194 0.023294808 -0.01573879 -0.011788588 -0.05018385 -0.011831542 -0.0018626594 0.026759496 0.010494327 -0.010790572 0.005891325 -0.0052054273 -0.0129024545 -0.023090959 0.023258738 -0.04547062 0.012378713 -0.003275157 -0.025145825 -0.038135137 -0.05004339 0.033876106 -0.0060287872 -0.054816525 -0.007714859 -0.022674782 0.012327393 -0.0063091745 0.057238888 0.01427088 -0.002388687 -0.0068920995 -0.039491214 0.055984844 0.044216808 -0.021924108 0.062294118 0.06807175 0.011145454 -0.0504645 -0.0066269385 -0.052288976 -0.010371274 0.012720799 -0.067090474 -0.00095102994 -0.08945659 -0.027323391 -0.03461655 -0.009780209 0.04455412 -0.048698388 -0.035957597 -0.02360177 0.008184338 0.040311053 0.08211004 -0.023181036 0.0013024714 -0.003950693 0.053383 -0.016217237 -0.033507958 -0.039418023
857 0.047802567 -0.040484488 0.033414863 -0.04021361 -0.05159861 0.042959016 0.03224323 0.024758719 -0.008870893 -0.019188996 0.0016201208 0.03646699 -0.046289235 -0.038799416 -0.0062732864 0.027813744 0.013101956 -0.018706463 -0.029912364 -0.027880881 -0.06502713 -0.05993244 -0.014371683 -0.023035211 -0.020052362 -0.029121624 -0.006909477 -0.047579724 -0.029394604 0.028770804 0.066351414 0.008260188 -0.003613944 0.037552994 -0.0024469318 -0.014465719 -0.03893389 0.019000309 -0.041161213 -0.03754951 0.039441857 0.04101655 0.0533983 0.017641619 0.035716195 -0.0019378085 0.00013062407 -0.03873283 0.051889192 0.016732242 -0.06400183 -0.044067923 0.08207908 -0.012044475 0.092564955 0.01702981 -0.07328029 -0.06296026 -0.017347878 0.024958298 0.0644594 0.04093067 -0.02122368 -0.022311741 -0.078175865 -0.06159742 0.01540514 0.03116326 -0.005677321 0.04798718 -0.03919255 0.04618668 -0.046839163 -0.046912502 0.015286531 0.072788544 -0.065277115 0.026711587 -0.017767308 -0.028047247 -0.03078003 0.027015511 0.016588999 -0.02228847 0.0074544223 0.007829242 0.049370416 -0.05058914 0.032745447 -0.06811044 0.06523349 0.006605742 -0.05254349 0.010200795 -0.047741357 -0.0076189972 -0.027839983 -0.056475557 0.011429728 0.024337457 -0.036498472 0.004878673 -0.032269444 -0.016408956 -0.025438128 -0.019337194 -0.0010157395 -0.024955908 -0.044564493 0.014997462 0.01907552 0.047715157 -0.03667709 0.014377053 -0.019234322 -0.0073655965 0.038855433 0.0123470025 -0.019746562 0.029067835 0.0063999454 0.023245173 0.017208299 -0.056203313 0.027171066 0.04045932 -0.044630677 0.030081749
1130 -0.0002991836 0.0067045335 -0.051716562 0.03488325 0.0431956 0.04630831 0.013363944 0.016226985 -0.026568478 -0.026819497 -0.08175951 -0.003548579 -0.033807807 -0.025937617 0.014241059 -0.037111416 -0.03909762 0.021083038 -0.003988612 -0.023147384 -0.027067374 -0.001840215 -0.02355985 -0.0025292742 -0.012107888 -0.01626826 0.000117102594 -0.0017990211 -0.004169819 -0.053205572 -0.018916555 0.007572586 0.021049235 0.024936672 0.03149569 0.0075717513 -0.057022985 -0.037353665 -0.02040423 -0.048312526 -0.0100700725 -0.017257232 -0.0022981777 -0.043269027 -0.022612337 -0.030960111 0.040979415 -0.018733919 0.042654455 0.030062312 -0.0066154357 -0.028654091 0.03502854 -0.0011548379 0.01226842 -0.06355408 -0.0046344437 -0.022855157 0.009621081 0.07450206 0.09634022 -0.016888821 0.05007374 0.042161796 0.024683626 0.025931973 -0.06120002 -0.02098103 -0.036699496 -0.08680016 -0.016633337 0.027650118 -0.008113062 0.002811431 0.009488884 -0.00013252346 0.015793461 0.00024056624 0.009999149 0.033000346 0.03517299 0.052568734 0.015795963 -0.025575811 0.0017431114 -0.028283799 0.05014508 0.0040506916 -0.05029007 0.025143245 -0.046293177 -0.026681254 -0.061927516 0.017275749 -0.04709579 -0.03012921 -0.04650866 0.017868366 -0.06968464 -0.0340528 -0.043623116 0.047221422 -0.04418628 -0.033107214 -0.024104051 -0.0015680016 -0.01016502 0.01489117 -0.04697287 -0.007333192 -0.048008066 -0.013006804 0.017068638 -0.023237644 0.05493372 -0.00395224 -0.03582456 -0.032345206 -0.004590395 -0.015779113 -0.03524575 -0.010356665 0.09291957 0.0008633749 0.034788243 -0.032189213 -0.031890143 0.04096586
138 -0.026556041 0.038669027 -0.00043295472 0.009784126 0.02193467 -0.0076988847 -0.01728112 -0.04156261 -0.031536095 -0.0077621373 -0.0060442705 0.010012263 -0.058402017 -0.0071971165 0.003626332 0.024380926 0.0015247276 -0.044088688 0.018623237 0.0010444561 -0.0004167754 0.021615881 0.022214618 -0.03814525 -0.030532239 0.01880554 0.022988103 -0.02000664 -0.022660678 -0.036568403 0.021608835 0.06520222 0.004975283 0.021953769 -0.0062122643 -0.0032991995 -0.037569012 -0.044976883 0.00037980487 0.008014008 0.044880815 0.02224216 0.01909683 -0.041458573 0.059698522 -0.0266709 -0.039608102 0.01844055 -0.014142236 -0.058125127 0.032877184 0.05696384 0.0052362136 -0.030406099 0.004208555 -0.018080756 -0.032104954 -0.04911631 -0.011241792 0.020201946 0.058930714 0.011425447 -0.07249052 -0.01352808 -0.050871324 -0.052550744 0.015666453 -0.0069279717 -0.026848262 0.024006303 0.015285351 -0.057013307 -0.021893917 -0.020346364 0.034475718 -0.02472169 -0.048043355 0.05903497 -0.06414844 -0.044906665 0.021880014 -0.058819246 -0.0033180455 0.0041332636 -0.014630474 -0.043127075 0.01785932 0.03243474 0.006522631 0.02227799 -0.00980641 0.036109407 0.031675473 -0.064118885 -0.012073034 -0.0005695211 -0.004695171 -0.03406761 -0.053300794 0.031681925 0.026132619 -0.04724964 -0.040280607 0.0034928983 -0.053536337 -0.0347995 -0.022576774 0.06266694 0.021767143 0.024824953 -0.017458128 -0.042311016 0.0036487342 -0.017389216 -0.04985608 0.055773 -0.026179323 0.044238117 -0.04216449 -0.049934663 -0.025546215 0.063408345 -0.059114173 -0.06749334 0.06181272 0.04994895 -0.019695966 -0.0076924097
658 0.06633353 -0.02534813 0.028253466 -0.020978022 0.0689053 0.0346445 0.054646157 -0.04622797 -0.032250293 -0.039208405 0.009518703 0.06182219 -0.09333797 -0.0334065 0.04529711 0.066055 -0.033915564 0.021435048 0.0026508907 -0.01254443 0.010874326 0.06119598 0.0361066 -0.034543656 -0.0379716 0.03206149 -0.004243596 0.0084707625 -0.014669675 -0.042764306 -0.0011848143 -0.02288234 -0.0027367307 -0.008041663 0.06633639 -0.022375206 -0.006484452 -0.048745118 -0.025843913 -0.004578741 0.01547982 0.009883503 0.0013315744 -0.021920001 0.0072348784 0.007756376 0.042893603 -0.046020508 0.011666945 -0.032311805 0.006043752 0.01883926 -0.00029897326 -0.03316676 0.07258346 -0.024526464 -0.013085791 0.028510254 0.043068014 0.035188507 0.019902432 -0.007844763 -0.03403091 0.050405696 -0.04663007 -0.038500648 -0.0012506752 0.0037080587 0.008423338 -0.032737013 0.034341373 -0.06591044 -0.04279756 0.003347042 -0.010666538 0.029579306 0.006348331 0.023366049 0.046492234 -0.058710508 0.047472 -0.031567194 -0.0443631 -0.0018218567 -0.03915825 0.052626975 -0.012602167 0.050059393 -0.013511839 0.08148217 0.044352252 -0.036485527 -0.0349948 -0.066974275 -0.03658892 -0.015242973 -0.026752384 -0.03445643 -0.040854998 0.034882564 -0.081516095 -0.019824443 -0.012482662 0.015307322 -0.014393659 -0.022819525 0.014524079 0.0059326002 0.00012139107 0.027451944 0.042280093 -0.0120284315 0.033061113 0.031404935 -0.04188361 -0.05943252 0.012718619 -0.039535996 0.07176927 -0.01782694 0.049262505 -0.013122359 0.017016366 -0.015261941 0.029360723 -0.00923138 0.008400114 0.0591983
1091 0.043416526 0.004783695 -0.045016777 -0.042171873 0.026758777 -0.03374977 0.018275773 -0.024892244 -0.014644892 -0.027668945 0.0037448728 0.0010897381 -0.0048118555 -0.042273734 -0.0018701606 -0.018730948 -0.03429008 0.058863644 -0.019036861 -0.010886178 0.03736837 0.0003649316 -0.06259898 -0.045581482 -0.0403807 0.04961875 -0.030209174 0.023895921 0.025705535 -0.023271764 0.015789434 -0.026883475 0.001727563 -0.023105785 -0.01598217 -0.0075363256 0.03248545 -0.007875755 0.0051468723 -0.06110444 -0.02011471 -0.030590758 -0.0038268778 0.054080907 0.019920712 -0.0011203021 -0.052878045 -0.03444029 -0.05079506 0.026531002 0.024077378 -0.018091047 -0.04528387 0.0047131316 -0.04818281 -0.0102133 0.04681564 0.023641123 0.021981355 0.0104701435 0.037670486 -0.030541128 -0.03275897 -0.003951939 -0.029704256 0.02016569 0.025761306 0.0022679784 -0.012684584 -0.014062872 0.028344363 0.011357378 0.02453211 -0.014176873 -0.06234198 -0.021173911 0.022103224 0.0074288277 0.025007926 -0.034296677 0.049903788 0.02183017 -0.030034667 -0.014618446 0.01651852 -0.007457175 -0.023762926 0.0010183001 0.06234422 -0.056430396 -0.029207177 -0.033844873 0.010072155 0.053602837 0.02892971 -0.04354624 0.009017469 -0.0735588 -0.013441968 -0.05741919 0.05365893 -0.007137442 0.016173368 0.04418253 -0.041049607 0.06637883 0.02733637 -0.03774271 0.013117369 0.014955911 0.014890533 -0.017583502 -0.066268325 0.014810668 0.008325071 -0.015462253 -0.019446729 0.01138912 -0.0013610196 0.048936628 -0.0039918385 0.06756824 -0.020653248 -0.02265642 0.022434575 0.020040387 0.043476537 -0.0560067
1322 0.024757186 0.03584233 0.04684235 -0.056433026 0.0111285215 -0.015326748 0.06285051 -0.014393299 0.03856889 0.030042525 -0.0061519314 0.017548691 -0.03805399 -0.024213476 0.003407986 -0.026117317 -0.0079941675 0.052388515 0.0011376573 0.032761242 0.013560447 0.0044806483 -0.0018894433 -0.02014583 0.028441519 0.027915195 0.016859451 0.025990276 0.026982095 -0.0254127 -0.005903926 -0.012944912 0.029058574 0.032497026 -0.0029319895 0.016479068 -0.013575865 -0.009741918 -0.054580513 0.0025593496 -0.022532072 -0.015241941 -0.029879915 0.017062059 0.026907643 -0.01831422 0.017609652 -0.031601693 -0.04060353 0.06787698 0.016105594 -0.03630287 0.0009961781 0.021004071 0.034910284 -0.06415036 0.07133483 0.035791595 0.0031079806 0.019469608 0.017230993 0.008314976 -0.030980302 0.036367245 0.011883065 0.040932313 0.03568699 -0.01825294 -0.02668407 -0.038605727 -0.016965108 -0.027530573 -0.010835958 -0.062098406 -0.05053591 0.04112144 0.023449687 -0.007590841 -0.00028824524 -0.03859906 0.0066036214 -0.0058287405 0.021496704 -0.0033433617 -0.013831421 -0.016735448 0.015361004 0.0079730125 -0.031768028 -0.058384746 -0.019704182 0.024231058 -0.0013165763 0.015663294 0.004348337 -0.0014393125 -0.0067719864 -0.0055484283 -0.0035127914 -0.022080932 0.058613762 -0.06924499 0.031692676 0.007158187 0.018258266 0.029130109 0.023780549 -0.011116668 0.010927633 -0.06593061 0.010343698 0.0028287023 -0.03250544 0.041228402 -0.0028158936 0.024593143 -0.017978402 0.019075662 -0.028122477 0.0625753 -0.014815697 -0.020738538 0.01013058 0.03492816 0.009421784 0.020536225 -0.026830783 -0.024219008
